66 300
</s> 1.0757 -2.3466 -0.18381 -9.8013 -0.19524 -3.5655 1.3505 -0.31643 4.1213 -1.4556 -0.42167 3.4746 -2.0655 0.14912 2.3567 -0.88658 -4.8255 -1.8979 -4.2245 0.17226 0.38179 -2.3657 -2.5342 -0.62033 1.6763 -3.0166 1.5654 0.80666 4.0448 -4.537 -0.4236 -1.0404 -4.1953 -8.051 -5.2399 -1.6779 -2.8006 -8.32 5.13 -4.7461 0.54487 2.8462 0.73743 -3.1406 -2.7765 -2.1702 1.848 2.7373 0.56816 1.3657 -4.7664 2.9662 -1.6764 5.1972 2.2246 0.24021 -0.97539 2.6553 -3.3302 1.6375 0.23587 0.73233 -1.831 2.1168 -2.9063 -0.0099197 4.0148 2.946 8.4962 -3.6277 2.6742 3.6441 -5.8582 4.623 -4.6465 1.1092 0.33563 2.105 -2.3932 3.9346 -2.1573 4.1619 2.4224 13.814 -0.20584 0.14409 2.1983 3.4265 -2.9185 -3.6947 0.7654 -2.3975 -2.4144 2.9636 -1.4283 -0.75416 -2.4898 -0.1257 9.5633 -4.5716 2.7553 -2.4168 1.581 3.3082 -1.996 -5.181 -3.22 3.6136 -1.4867 -3.1089 -1.9575 -7.8487 -4.9329 4.0248 -4.2393 2.3446 4.9575 5.615 -7.5229 3.3754 -1.8922 2.1162 -3.0701 6.3375 -3.5027 -9.1376 11.277 -2.3554 -9.0767 10.3 -6.9858 -4.3846 -2.0548 8.6706 -2.0079 -3.0183 3.451 -3.1601 -4.2908 -4.5447 -2.8733 2.6199 -41.867 -1.1959 4.8579 -2.1154 2.5161 9.1752 -3.0524 7.112 -3.1861 -3.2635 2.8861 -2.8027 -2.4483 4.6299 -3.0016 -10.214 5.145 -4.2107 1.2408 -3.762 -1.0185 -1.0677 1.2082 -7.7891 -9.9102 4.0297 -8.9319 0.94888 8.1781 4.1096 9.4768 3.2614 3.5204 -0.13135 -0.4059 7.2985 8.664 4.4513 -0.21746 0.64966 2.74 -2.1406 2.3281 1.2597 5.1155 1.1393 -6.0531 6.9331 -4.5093 3.2187 -2.2087 -2.3793 -4.8798 2.0061 0.25367 3.1685 -4.8375 3.8621 -2.7543 4.6656 2.8764 3.0137 7.7476 -3.1929 -4.9796 -0.53065 7.1936 -0.97066 4.9807 -2.2038 2.4069 2.6748 3.3417 -7.7238 1.4066 1.0345 0.63262 2.1126 -1.7051 0.89082 -0.037338 7.4306 -3.751 -2.4296 3.8512 -3.8729 -3.5314 -2.6521 1.5012 -7.4781 -1.0129 -2.1984 -1.0346 2.3566 1.4119 0.32368 4.1831 5.1731 2.4604 8.8223 -1.718 -8.8774 9.7136 2.1438 -0.60685 -0.14932 0.052127 -0.1338 -3.0169 -2.8105 11.744 7.6 -1.3779 -1.143 -0.58815 -0.59845 2.0008 -0.60299 4.1048 -3.1557 -6.34 -1.427 -3.4746 2.005 5.843 -0.5782 -0.43561 -0.083634 -2.8744 -0.88561 -8.8349 0.21861 -0.74135 -4.62 5.3368 -4.3036 2.2563 -8.344 -0.44981 3.809 -2.5075 2.393 4.3178 1.0086 1.0308 -4.765 1.3595 -1.7825 -3.9521 4.1457 -6.1081 2.1812 -3.8156 1.4509 0.25068 2.8614 5.9771 -5.3925
の 2.4798 -2.337 -2.44 -12.14 -0.83719 -1.9392 2.8368 1.6653 5.0867 -4.002 0.39087 4.1181 -2.5103 -3.3195 3.3858 -1.0409 -7.0832 -3.5734 -4.211 3.2943 2.3502 -4.3066 -2.6962 -1.1227 2.2315 -6.9947 4.2679 2.0828 2.7985 -6.0795 -0.29572 -1.8515 -6.9696 -8.5109 -5.2566 -4.0461 -4.1703 -8.5942 7.4083 -4.8971 2.7055 4.1092 2.914 -4.2971 -4.3403 -2.2493 1.8756 3.3291 2.8136 1.9454 -4.9651 3.3335 -1.0476 7.1598 2.1137 -1.3449 -1.3332 4.1351 -4.1717 3.1894 0.52548 2.5963 -0.22067 4.1619 -3.5947 -1.2783 4.8074 4.7244 9.8638 -6.912 3.7264 4.243 -6.3267 5.9991 -6.2397 0.46303 0.88712 3.3392 -4.6438 5.2737 -2.8144 7.4055 2.6909 17.413 0.78988 0.75868 3.0321 5.3304 -2.9807 -4.7925 0.44892 -3.3092 -4.1348 5.1126 -0.16643 -1.5478 -3.0501 -0.10737 9.9327 -6.787 2.8207 -4.1672 3.2565 6.7697 -5.3988 -8.7719 -4.0702 5.6868 -2.7328 -5.7615 -3.1591 -7.5387 -1.4012 5.741 -6.2347 2.2381 5.9316 6.8797 -7.7287 5.8519 -5.7724 3.6016 -5.0874 7.1608 -8.1811 -8.574 10.909 -3.3959 -6.7855 10.955 -2.4498 -5.2929 -2.9744 6.1836 0.57153 -6.5941 7.0503 -4.0651 -1.6749 -9.1136 -5.9581 5.5966 -50.858 -3.6519 3.2274 -3.3388 6.342 7.8329 -6.5594 5.8438 -7.0104 -2.9248 6.0566 -4.7762 -6.8161 6.1359 -7.2591 -9.2028 8.514 -10.191 3.9022 1.4132 0.7938 -2.4695 2.7389 -10.196 -9.7725 7.4565 -10.215 5.404 8.0868 6.9555 9.5377 5.3498 4.9628 3.9312 -3.43 7.8533 8.968 8.3253 1.6232 2.6457 2.2547 -2.8759 6.4335 1.2827 7.1165 3.4014 -1.8832 2.2925 -1.4739 5.3649 1.1461 -4.1006 -6.127 1.2821 -0.89096 5.7495 -4.7428 5.8396 -3.1784 7.8819 5.0443 6.2563 4.8269 -3.1502 -7.0203 2.5675 12.503 -1.143 6.3212 -2.9999 5.2476 4.3605 3.5131 -4.3229 8.4033 3.6018 3.7932 4.3136 -3.3407 5.563 -2.263 5.0709 -5.6226 2.3923 2.9559 -4.7608 -7.8055 -2.9792 1.7724 -5.7414 -3.0009 -5.1294 0.20388 2.7439 -0.96229 -1.0971 -1.1543 -0.1281 4.5788 9.9977 -7.2769 -5.8985 14.119 4.102 -2.1854 -3.2494 -4.7984 -3.1014 -3.2718 -6.2089 8.9082 7.9931 -3.0637 -6.1545 -1.3015 -6.5094 5.4826 3.1022 5.2635 0.91769 -5.0558 -9.4974 -5.5063 6.2528 7.9032 0.69374 0.88353 -6.0235 -6.3171 -1.5675 -6.1044 2.6574 -1.2566 -6.2789 6.7874 -10.956 2.7981 -9.5532 -1.3953 8.2022 -3.5905 6.4814 10.871 2.6243 9.6176 -3.7546 2.3035 -1.8948 -6.3985 12.517 -8.4429 1.1672 1.6942 4.2217 -4.8169 5.7137 4.8274 -4.9848
。 2.4372 -2.2453 -2.4799 -12.374 -0.99864 -1.9651 2.7601 1.6074 5.01 -4.1887 0.37493 4.1384 -2.4197 -3.361 3.3833 -1.1262 -7.1936 -3.6049 -4.3517 3.3559 2.3083 -4.502 -2.8368 -1.0994 2.3417 -7.2257 4.3438 2.0794 2.9424 -6.0921 -0.22795 -1.7681 -7.096 -8.6095 -5.2755 -4.1218 -4.3083 -8.613 7.5024 -5.0402 2.6885 4.1683 3.004 -4.3283 -4.4615 -2.1301 1.9553 3.3786 2.8798 1.9968 -5.158 3.4339 -1.0926 7.3019 2.1038 -1.3799 -1.4002 4.0519 -4.3679 3.3913 0.33346 2.5716 -0.033534 4.3455 -3.6677 -1.4946 4.822 4.9261 10.099 -7.1623 3.6977 4.3048 -6.5732 6.0768 -6.3759 0.47115 0.93878 3.4247 -4.9666 5.413 -2.8892 7.5912 2.6775 17.616 0.72943 0.64159 3.0364 5.2987 -2.9543 -4.7975 0.51736 -3.4136 -4.0685 4.97 -0.23775 -1.491 -2.9732 -0.1266 10.071 -6.8081 2.8624 -4.1249 3.3043 6.8387 -5.4138 -9.0006 -4.1837 5.6584 -2.842 -5.7534 -3.2515 -7.5794 -1.4153 5.8987 -6.4589 2.1254 5.9547 6.9474 -7.8862 5.8842 -5.8061 3.6698 -5.0568 7.2133 -8.354 -8.7203 11.194 -3.4193 -6.8145 10.973 -2.4442 -5.1591 -2.9273 6.4414 0.60985 -6.5015 7.1769 -3.9997 -1.6528 -9.1968 -6.0953 5.7237 -51.762 -3.6039 3.1326 -3.367 6.4897 7.9327 -6.5574 5.7862 -7.0895 -2.9827 6.1313 -4.9915 -6.8957 6.2499 -7.5244 -9.395 8.4641 -10.349 3.8256 1.3502 0.91995 -2.352 2.9757 -10.403 -9.9007 7.6013 -10.459 5.5003 8.2712 7.08 9.7153 5.3423 5.0776 3.9546 -3.6852 8.0168 9.1538 8.3246 1.5738 2.7444 2.2154 -2.8196 6.5528 1.5283 7.1857 3.3806 -1.9287 2.268 -1.6431 5.4081 1.0457 -4.2912 -6.1784 1.0571 -0.74588 5.9671 -4.721 6.0946 -3.3966 8.0062 5.1403 6.2246 4.8514 -3.0542 -7.0753 2.9156 12.768 -1.2578 6.3269 -2.9835 5.168 4.4117 3.3672 -4.2328 8.7261 3.635 3.9467 4.3352 -3.2867 5.6515 -2.1966 5.1274 -5.6967 2.3043 2.9712 -4.7534 -7.92 -3.0117 2.0049 -5.6796 -3.036 -5.2936 0.44691 2.7382 -1.1257 -0.97008 -1.1286 -0.10163 4.6785 10.046 -7.2934 -6.1546 14.434 4.1627 -2.3427 -3.2903 -4.8983 -3.1253 -3.1717 -6.1138 9.1247 8.0598 -3.0269 -6.1375 -1.3302 -6.5796 5.4938 3.2682 5.494 0.70954 -5.1013 -9.592 -5.7772 6.3782 7.822 0.64928 0.97208 -5.9935 -6.5696 -1.3941 -6.063 2.792 -1.1884 -6.2554 6.9028 -11.276 2.7804 -9.5961 -1.3228 8.3915 -3.5731 6.9276 11.084 2.619 9.6472 -4.0597 2.2723 -1.8473 -6.2524 12.645 -8.4123 0.83972 1.7632 4.2556 -4.9411 5.7351 4.8191 -5.1895
を 2.4871 -2.1188 -2.4942 -12.349 -0.94855 -1.8429 2.6916 1.6696 4.8939 -3.9194 0.29274 4.0746 -2.5593 -3.4823 3.3249 -1.1822 -7.1699 -3.5518 -4.3672 3.5 2.3125 -4.5569 -2.7928 -1.1177 2.2911 -7.2656 4.2088 2.0435 2.7532 -6.1979 -0.19736 -1.63 -7.1171 -8.6188 -5.2527 -4.1098 -4.3636 -8.5799 7.4962 -5.0677 2.6426 4.1933 3.0898 -4.5997 -4.4728 -2.1513 2.1004 3.4655 3.1589 1.9007 -5.2255 3.5528 -1.0786 7.3647 2.2038 -1.639 -1.3741 3.8704 -4.4033 3.2426 0.27579 2.6613 -0.13526 4.3795 -3.6446 -1.3945 4.7995 4.9591 10.156 -7.205 3.7845 4.2348 -6.5526 5.9287 -6.3016 0.45801 0.71862 3.4594 -4.8237 5.3238 -2.8224 7.4783 2.635 17.683 0.68358 0.66085 3.0721 5.4825 -2.9779 -4.9174 0.58757 -3.343 -4.1218 5.0733 -0.1414 -1.4316 -3.0061 -0.014752 10.125 -6.718 2.8465 -4.1481 3.1105 6.8844 -5.3889 -8.927 -4.3172 5.7415 -2.7222 -5.7624 -3.3071 -7.4304 -1.2419 5.9718 -6.4901 2.2776 5.8941 6.9727 -7.9619 5.9352 -5.8321 3.6101 -5.0781 7.2812 -8.3353 -8.757 11.206 -3.5655 -6.8922 11.174 -2.4171 -5.2318 -3.0694 6.3926 0.64991 -6.6516 7.0504 -4.0797 -1.8365 -9.1968 -6.0581 5.8056 -52.084 -3.7197 3.0847 -3.3118 6.4087 8.2077 -6.5194 5.8103 -7.0379 -3.0966 6.2794 -4.8258 -6.9804 6.4249 -7.5466 -9.2962 8.4083 -10.39 3.8921 1.43 0.87448 -2.3742 2.7775 -10.199 -9.8992 7.6544 -10.493 5.5524 8.2139 7.1944 9.8088 5.4213 5.2563 3.9345 -3.5173 7.7414 9.0695 8.2986 1.6535 2.4856 2.2936 -2.6171 6.4252 1.4634 7.2039 3.6331 -2.0039 2.3381 -1.4846 5.409 1.269 -4.1243 -6.2606 1.0251 -0.67528 5.862 -4.6119 5.7618 -3.3368 8.0909 4.9211 6.4644 4.7443 -3.1358 -7.3288 2.6923 12.799 -1.0398 6.4658 -3.041 5.1629 4.4979 3.3596 -4.4958 8.471 3.5598 3.9301 4.3263 -3.2836 5.6825 -2.3171 5.4117 -5.6426 2.3882 3.0126 -4.8162 -8.0421 -2.8588 1.7644 -5.6552 -3.1759 -5.0801 0.45832 2.6523 -1.0748 -0.87659 -1.1118 0.024606 4.7563 10.062 -7.4054 -6.1027 14.25 4.079 -2.4033 -3.102 -4.9816 -3.1991 -3.1793 -6.1991 9.1671 8.0689 -3.2355 -6.3622 -1.2539 -6.583 5.5792 3.1306 5.3949 0.84842 -5.0293 -9.7631 -5.6655 6.2577 7.8783 0.80035 0.92843 -6.2055 -6.4026 -1.3647 -6.0537 2.8155 -1.2288 -6.3601 6.7371 -11.276 2.7749 -9.7727 -1.252 8.5064 -3.7667 6.6183 11.394 2.7917 9.692 -4.1227 2.3615 -1.8881 -6.5831 12.725 -8.4251 0.98421 1.5143 4.4859 -5.0748 5.843 4.8443 -5.0779
は 2.3885 -2.3128 -2.3544 -12.274 -0.82944 -1.872 2.8367 1.6703 5.108 -4.0634 0.3896 4.2178 -2.3988 -3.2812 3.4446 -1.16 -7.2208 -3.71 -4.2488 3.3103 2.3711 -4.3973 -2.7268 -1.2055 2.2796 -7.0778 4.3473 2.1457 2.8166 -6.1602 -0.14447 -1.7547 -7.0495 -8.6005 -5.2585 -4.0685 -4.2528 -8.6596 7.4675 -5.008 2.732 4.2683 2.9789 -4.3235 -4.3288 -2.247 1.9392 3.3204 2.8969 2.0172 -5.0712 3.4019 -1.0537 7.212 2.1063 -1.3111 -1.3636 4.2115 -4.3203 3.3027 0.53898 2.5459 -0.12998 4.3052 -3.6811 -1.4278 4.8261 4.7192 10.058 -7.0463 3.6522 4.3081 -6.4268 6.1202 -6.3005 0.43266 0.84245 3.391 -4.7655 5.3562 -2.878 7.4595 2.6312 17.582 0.75085 0.78831 2.9824 5.2902 -2.9054 -4.8415 0.41507 -3.355 -4.2024 5.1663 -0.14253 -1.4786 -3.0186 -0.15845 9.9956 -6.7845 2.9321 -4.1676 3.324 6.7803 -5.4412 -8.8457 -4.19 5.7275 -2.7418 -5.828 -3.2609 -7.6023 -1.3845 5.9 -6.2926 2.1781 5.9708 6.9454 -7.8628 5.7996 -5.8778 3.6716 -5.165 7.1347 -8.198 -8.7224 11.001 -3.4349 -6.8025 10.965 -2.4599 -5.2821 -3.0429 6.2096 0.51443 -6.5707 7.2213 -4.0287 -1.6527 -9.2009 -6.0791 5.6566 -51.45 -3.6515 3.1078 -3.4008 6.351 7.8864 -6.6085 5.8347 -7.0934 -3.0505 6.1247 -4.9377 -6.782 6.1829 -7.3578 -9.4142 8.4152 -10.255 3.7891 1.2876 0.79433 -2.4874 2.8295 -10.369 -9.72 7.479 -10.226 5.4863 8.1496 6.9542 9.5763 5.4391 4.9606 3.9653 -3.5336 8.0107 9.1082 8.3092 1.6615 2.727 2.251 -2.8925 6.4646 1.3154 7.1844 3.3629 -1.9156 2.2748 -1.5996 5.3458 1.0459 -4.115 -6.0542 1.2049 -0.93004 5.9001 -4.7047 5.9564 -3.2021 8.0156 5.1225 6.201 4.9804 -3.1665 -7.0361 2.7611 12.669 -1.2553 6.3315 -3.021 5.1633 4.3048 3.465 -4.2378 8.677 3.4984 3.8305 4.2302 -3.2988 5.6179 -2.2706 5.2159 -5.6261 2.3291 2.9798 -4.6764 -7.8017 -3.0538 2.0607 -5.7058 -3.0594 -5.3046 0.32194 2.701 -1.0462 -1.0632 -1.1277 -0.32894 4.6883 10.081 -7.1906 -5.8649 14.363 4.0874 -2.2767 -3.3788 -4.7899 -3.0443 -3.3127 -6.2597 9.0493 7.9529 -3.0066 -6.2794 -1.3375 -6.5475 5.5123 3.1287 5.4564 0.91047 -5.0931 -9.452 -5.3562 6.425 7.9657 0.77879 0.81361 -6.1577 -6.4061 -1.5098 -6.2448 2.7993 -1.2215 -6.46 6.7509 -11.092 2.7901 -9.6271 -1.4717 8.146 -3.5977 6.6746 10.941 2.5626 9.6664 -3.8622 2.2234 -1.6997 -6.1403 12.539 -8.5281 1.1103 1.8532 4.2436 -4.7973 5.7923 4.8826 -5.1986
が 2.4197 -2.3281 -2.2865 -12.321 -0.93103 -2.0834 2.7601 1.6899 5.0001 -4.0918 0.33139 4.2369 -2.4034 -3.3391 3.4565 -1.1373 -7.2806 -3.6786 -4.3122 3.3929 2.458 -4.4912 -2.8958 -1.1377 2.2325 -7.2752 4.4284 2.1379 2.7433 -6.1638 -0.2369 -1.6687 -7.0662 -8.6959 -5.3442 -4.1006 -4.3667 -8.5538 7.533 -5.0021 2.6364 4.3198 3.0962 -4.3713 -4.4302 -2.0454 2.0895 3.3401 2.9212 1.9461 -5.0798 3.356 -1.2217 7.3953 2.1426 -1.3261 -1.3699 4.0746 -4.3189 3.3171 0.54782 2.5945 -0.18329 4.5129 -3.704 -1.5063 4.8398 4.8517 10.164 -6.9699 3.6965 4.3437 -6.3798 6.1195 -6.3769 0.43277 0.97838 3.4254 -4.8771 5.3859 -2.9139 7.5369 2.6317 17.702 0.70417 0.79008 2.9605 5.4116 -2.9984 -4.8524 0.47384 -3.3935 -4.2392 5.1402 -0.15417 -1.4465 -2.9142 -0.077267 10.12 -6.8569 2.841 -4.1263 3.2236 6.7758 -5.5399 -8.9474 -4.2592 5.6902 -2.744 -5.9164 -3.2736 -7.4888 -1.349 5.8783 -6.5291 2.1782 5.9416 6.9251 -7.7815 5.8254 -5.8623 3.7277 -5.114 7.1707 -8.3518 -8.9283 11.14 -3.4935 -6.972 11.125 -2.4042 -5.2777 -3.0012 6.3314 0.70923 -6.6994 7.2223 -4.0226 -1.771 -9.2889 -5.9558 5.769 -51.963 -3.5983 3.1528 -3.265 6.4754 7.8875 -6.5522 5.6829 -7.083 -3.1057 6.1006 -5.0246 -6.9427 6.3234 -7.4069 -9.474 8.4101 -10.343 4.0482 1.3608 0.77896 -2.4537 2.754 -10.352 -9.9539 7.5143 -10.379 5.6082 8.2478 6.9937 9.6336 5.4288 5.003 4.049 -3.5798 8.0758 9.1102 8.2687 1.6035 2.6685 2.3174 -2.753 6.6459 1.4796 7.1861 3.3134 -2.0165 2.2845 -1.455 5.3525 1.1411 -4.1245 -6.1017 1.0963 -0.86428 5.872 -4.5383 5.9175 -3.2734 8.1733 5.1843 6.4449 4.9807 -3.1438 -7.1546 2.7383 12.815 -1.2814 6.3599 -3.078 5.2324 4.2934 3.3672 -4.2557 8.7802 3.4626 3.8233 4.332 -3.2086 5.6407 -2.2925 5.2576 -5.8125 2.4531 2.9602 -4.7874 -7.87 -2.9727 2.0137 -5.6686 -3.1182 -5.1681 0.37943 2.8049 -1.1309 -1.0583 -1.148 -0.17521 4.6839 10.177 -7.3845 -6.0842 14.439 4.163 -2.3149 -3.3334 -4.9282 -3.0466 -3.379 -6.2673 9.1648 8.0491 -3.0273 -6.363 -1.1771 -6.5391 5.525 3.2043 5.4311 0.95721 -5.2174 -9.5983 -5.5653 6.3274 7.9313 0.85296 0.96603 -6.0416 -6.4476 -1.5412 -6.0107 2.7741 -1.2352 -6.3528 6.8994 -11.154 2.7774 -9.7274 -1.2189 8.2295 -3.5803 6.784 11.156 2.5915 9.556 -3.9909 2.4025 -1.7561 -6.3357 12.692 -8.4596 1.1872 1.6995 4.4639 -4.884 5.7681 4.8847 -5.1409
で 2.3096 -2.2784 -2.4345 -12.379 -0.83208 -2.0226 2.811 1.6512 5.0938 -4.0094 0.34592 4.2298 -2.4746 -3.3905 3.5302 -1.1765 -7.231 -3.6046 -4.2353 3.4654 2.2837 -4.4655 -2.8631 -1.1959 2.355 -7.2385 4.3088 2.119 2.832 -6.1209 -0.33859 -1.68 -7.1008 -8.7369 -5.277 -4.1084 -4.3335 -8.5106 7.4873 -4.9918 2.7175 4.1434 2.9616 -4.3535 -4.357 -2.2022 1.9629 3.3631 2.8821 1.9749 -4.9801 3.423 -1.1628 7.2885 2.0786 -1.3668 -1.3957 4.0001 -4.1125 3.2243 0.46701 2.6451 -0.17433 4.2898 -3.6559 -1.3457 4.8422 4.8155 9.9253 -7.0642 3.7537 4.1384 -6.4324 6.117 -6.3048 0.37779 0.99913 3.3471 -4.9532 5.4455 -2.8775 7.5153 2.6951 17.659 0.68509 0.74495 3.0173 5.2995 -2.9321 -4.7388 0.50958 -3.3837 -4.2023 5.2295 -0.14341 -1.5241 -2.9419 -0.079374 10.02 -6.8421 2.8466 -4.1739 3.3294 6.7861 -5.5522 -8.9873 -4.2779 5.7152 -2.7711 -5.7115 -3.2403 -7.5882 -1.4246 5.9159 -6.3911 2.2071 6.0263 6.9653 -7.9171 5.8633 -5.8868 3.6196 -5.0821 7.1293 -8.325 -8.7416 11.108 -3.3623 -6.8425 11.107 -2.4754 -5.2897 -2.9063 6.3663 0.64266 -6.6199 7.2005 -3.9534 -1.7068 -9.1688 -6.1602 5.6157 -51.806 -3.7185 3.2164 -3.3529 6.3847 7.9754 -6.5704 5.8886 -7.0576 -3.053 6.2325 -4.8876 -6.9523 6.3706 -7.3205 -9.3493 8.6238 -10.331 3.8523 1.3972 0.90138 -2.5629 2.8618 -10.446 -9.8216 7.5477 -10.46 5.4384 8.2212 7.05 9.6875 5.4496 4.981 3.8879 -3.4602 7.9858 9.1436 8.5198 1.6216 2.5648 2.2132 -2.9697 6.5651 1.4019 7.1709 3.4345 -2.0182 2.3311 -1.5518 5.3931 1.1193 -4.2548 -6.0886 1.1235 -0.87356 5.8472 -4.7767 5.9093 -3.2412 7.9972 5.1354 6.3337 5.0194 -3.178 -7.1542 2.6856 12.763 -1.2572 6.4796 -3.0062 5.2898 4.5651 3.4196 -4.2491 8.6686 3.3719 3.985 4.287 -3.2862 5.6948 -2.3172 5.0337 -5.6487 2.4039 3.0057 -4.7819 -7.9085 -3.0186 1.895 -5.6162 -3.0555 -5.2952 0.25855 2.7394 -1.0028 -0.98067 -1.266 -0.13522 4.7685 10.137 -7.3612 -6.0411 14.332 4.2453 -2.2597 -3.3397 -4.88 -3.0813 -3.2349 -6.175 9.0509 8.075 -3.183 -6.3275 -1.2284 -6.5348 5.5619 3.0306 5.4666 1.0022 -5.1854 -9.6285 -5.552 6.2291 7.9027 0.68431 0.99514 -6.0568 -6.4441 -1.486 -6.1183 2.6088 -1.1135 -6.3161 6.8524 -11.288 2.9082 -9.6734 -1.339 8.1021 -3.5602 6.6636 11.006 2.5719 9.8115 -3.9596 2.3479 -1.7142 -6.2898 12.487 -8.4419 1.0884 1.7759 4.3073 -4.7816 5.6964 4.8531 -5.0934
た 2.4875 -2.3676 -2.2078 -12.48 -0.82934 -2.0656 2.775 1.7423 4.9649 -4.0437 0.35119 4.2589 -2.5527 -3.3345 3.3504 -1.2146 -7.3589 -3.5515 -4.3044 3.5993 2.4514 -4.5842 -3.0304 -1.0328 2.4511 -7.1506 4.3226 2.2244 2.8335 -6.1501 -0.30105 -1.6095 -7.1785 -8.5914 -5.3538 -4.0443 -4.3885 -8.6465 7.4336 -4.9882 2.7498 4.2328 2.8829 -4.5057 -4.4076 -2.238 2.0349 3.2974 2.975 2.0235 -5.0431 3.4467 -1.0781 7.2512 2.1382 -1.3772 -1.3359 4.0806 -4.2622 3.242 0.46145 2.6561 -0.076538 4.3337 -3.5843 -1.5023 4.8688 4.5824 10.025 -6.9949 3.7646 4.2906 -6.4536 6.199 -6.3131 0.40068 0.97342 3.3883 -4.9189 5.4298 -2.8464 7.5433 2.6784 17.736 0.82818 0.6912 3.047 5.4187 -3.0596 -4.9769 0.30715 -3.4686 -4.0849 5.2241 -0.22229 -1.4412 -3.1664 0.0039591 10.192 -6.841 2.8943 -4.0285 3.1208 6.9157 -5.4611 -8.8993 -4.0943 5.6459 -2.7306 -6.219 -3.2862 -7.5643 -1.2353 5.7868 -6.4149 2.2579 5.8381 7.0138 -7.7187 5.9215 -5.8518 3.6432 -4.9432 7.2303 -8.4869 -8.8083 11.027 -3.5604 -6.9655 11.098 -2.3813 -5.2034 -3.0063 6.2548 0.55844 -6.7279 7.254 -4.1966 -1.7134 -9.1264 -6.1519 5.6817 -52.16 -3.6727 3.0618 -3.4436 6.4329 8.0518 -6.5468 5.6803 -7.2025 -3.0144 6.2195 -5.0363 -6.9783 6.334 -7.4681 -9.4188 8.4522 -10.401 4.1098 1.4089 0.8633 -2.4624 2.7827 -10.28 -9.8906 7.464 -10.488 5.496 8.2306 7.1361 9.7435 5.4724 5.041 3.9463 -3.5566 7.7996 9.1877 8.407 1.6483 2.7456 2.3693 -2.8101 6.5233 1.5089 7.2065 3.4172 -2.04 2.3502 -1.4482 5.2594 1.1782 -4.1632 -6.0681 0.95803 -1.0237 6.1114 -4.5648 5.8241 -3.3061 8.1616 5.1342 6.5065 5.0417 -3.35 -7.1359 2.5758 12.672 -1.2524 6.4866 -3.0392 5.3109 4.379 3.462 -4.3874 8.6722 3.4395 3.8514 4.4144 -3.0605 5.7342 -2.515 5.1537 -5.6242 2.2802 3.2084 -4.6964 -7.926 -3.0565 2.0207 -5.6521 -3.1388 -5.1095 0.34055 2.5429 -1.2912 -0.99288 -1.0976 -0.19514 4.782 10.238 -7.1993 -6.0187 14.372 4.2125 -2.3993 -3.2192 -4.922 -3.0699 -3.4865 -6.2564 9.1484 8.0219 -3.3174 -6.2955 -1.1529 -6.5796 5.5364 3.2013 5.1983 1.0245 -5.1327 -9.5549 -5.5994 6.1424 7.9657 0.95216 0.78803 -6.0307 -6.315 -1.4446 -5.9283 2.7603 -1.2892 -6.2604 6.7979 -11.21 2.6188 -9.7428 -1.3094 8.3108 -3.6097 6.7564 11.183 2.5754 9.7977 -4.1442 2.3587 -1.6605 -6.6038 12.632 -8.5029 0.97176 1.7854 4.219 -4.8367 5.7803 4.8954 -5.1025
日 2.5767 -2.5675 -2.5962 -12.797 -1.2394 -2.0618 2.6962 1.6145 4.9357 -4.1693 0.32574 4.3982 -2.5743 -3.0492 3.5127 -1.1193 -7.4566 -3.6251 -4.6003 3.3675 2.117 -4.3511 -2.8013 -1.1609 2.4669 -7.3058 4.4089 2.186 2.9959 -6.1941 -0.30096 -1.7977 -7.4542 -8.7284 -5.2303 -3.9291 -4.1452 -9.0357 7.4053 -5.243 2.7929 4.3103 2.8664 -4.449 -4.3431 -2.072 1.8632 3.3134 2.8219 1.9911 -4.9537 3.393 -1.062 7.5228 2.107 -1.3686 -1.0818 4.0965 -4.479 3.295 0.43854 2.9516 0.32048 4.333 -3.4546 -1.4173 4.9862 4.8572 10.188 -6.8136 3.9373 4.4745 -6.5221 6.0281 -6.3167 0.28652 0.89326 3.287 -4.8917 5.6586 -2.7298 7.6657 2.7034 17.94 0.79791 0.53943 3.0848 4.9965 -3.0122 -4.9343 0.43957 -3.8458 -4.1235 5.1221 -0.29682 -1.5235 -3.1053 -0.095984 10.067 -7.0911 2.9712 -4.1007 3.3021 7.2639 -5.3658 -9.2726 -4.2084 5.8629 -2.8582 -5.8891 -3.1099 -7.9572 -1.7114 6.0053 -6.6519 2.3876 5.9917 6.9669 -7.7821 5.7753 -5.8078 3.8564 -5.3729 7.3915 -8.5185 -8.4147 11.277 -3.5289 -6.8364 10.865 -2.6184 -5.3269 -2.9791 6.4769 0.44092 -6.596 7.1175 -3.7662 -1.9676 -8.9578 -6.0492 5.846 -52.167 -3.7734 3.2801 -3.4191 6.6082 7.9834 -6.75 6.2361 -7.5108 -2.8401 6.1957 -4.9419 -6.8045 6.041 -7.5445 -9.4118 8.4236 -10.488 3.7136 1.2725 1.0198 -2.146 2.8747 -10.591 -10.216 7.3363 -10.38 5.6802 8.3588 7.0185 9.6783 5.5963 5.1454 3.9187 -3.7367 7.6185 9.234 8.441 1.4778 3.229 2.0262 -2.9775 6.3799 1.4735 7.2186 3.2505 -2.0056 2.4132 -1.6173 5.5081 0.9954 -4.1253 -6.3471 1.3744 -0.80529 6.1614 -4.7835 5.7585 -3.4455 8.2135 5.2233 6.1747 4.8419 -3.2747 -7.0475 2.8744 13.057 -1.4941 6.522 -2.9076 5.2413 4.4295 3.3982 -4.0872 8.7475 3.7548 3.7936 4.4056 -3.209 5.4015 -1.8776 5.0742 -5.6965 2.6311 2.7177 -4.6399 -7.7418 -2.9865 1.8832 -5.8387 -3.2507 -5.4635 0.41411 2.6098 -1.2472 -0.95762 -1.047 0.1586 4.7374 10.335 -7.1209 -5.8208 14.736 4.1763 -2.2484 -3.478 -4.8763 -2.9608 -3.5432 -6.2389 9.2755 8.081 -2.9999 -6.3036 -1.6955 -6.5644 5.5032 3.4766 5.2938 0.99116 -4.8691 -9.863 -6.3513 6.1705 7.894 0.57857 0.91246 -6.2366 -6.8621 -1.5329 -6.3756 2.8742 -1.334 -6.519 7.0779 -10.915 2.7628 -9.7173 -1.2959 8.412 -3.4778 7.5276 11.077 2.3212 9.683 -4.1688 2.0081 -1.7022 -6.3398 12.927 -8.4933 1.0935 2.1929 4.1225 -4.8926 5.849 4.5893 -5.199
て 2.5157 -2.2017 -2.3424 -12.572 -0.90301 -2.0975 2.8023 1.808 4.9668 -4.0994 0.27604 4.1776 -2.5675 -3.2817 3.3993 -1.2758 -7.2894 -3.5464 -4.2785 3.5224 2.3683 -4.4981 -2.8574 -1.1724 2.2864 -7.1949 4.2593 2.2583 2.8104 -6.1236 -0.27349 -1.6056 -7.1214 -8.5876 -5.3501 -4.0225 -4.4907 -8.5493 7.4504 -5.183 2.66 4.392 3.1208 -4.5449 -4.5267 -1.9854 2.1063 3.5369 3.0486 1.9154 -5.2553 3.5012 -0.99783 7.4135 2.0614 -1.2739 -1.3056 4.0736 -4.5315 3.3261 0.47478 2.6638 -0.084926 4.3677 -3.7309 -1.34 5.1052 4.7478 10.053 -7.0955 3.7046 4.3283 -6.4646 6.0608 -6.3593 0.44224 0.99066 3.4929 -4.9725 5.3016 -2.9776 7.6852 2.7226 17.874 0.79894 0.92389 3.1513 5.4298 -2.935 -4.7874 0.42401 -3.4403 -4.1449 5.0198 -0.36727 -1.3615 -2.9643 -0.040695 10.274 -6.7849 2.7899 -4.1956 3.2535 6.9935 -5.6495 -8.988 -4.2217 5.6884 -2.6623 -5.8966 -3.3083 -7.5621 -1.1769 5.9284 -6.673 2.2087 5.7762 7.1558 -8.0118 6.0066 -5.7405 3.6443 -5.0905 7.2306 -8.5003 -8.9855 11.12 -3.4898 -7.0902 11.197 -2.3276 -5.3212 -3.0822 6.2434 0.67822 -6.6495 7.311 -4.0515 -1.7832 -9.1924 -6.0816 5.7268 -52.594 -3.6229 3.1375 -3.3456 6.47 7.9829 -6.5171 5.7754 -7.2083 -3.1887 6.1995 -5.0613 -6.9579 6.5421 -7.4146 -9.334 8.5302 -10.391 3.7847 1.38 0.97311 -2.5622 2.7918 -10.428 -10.138 7.552 -10.326 5.4032 8.4594 7.1648 9.8114 5.3251 5.0077 3.842 -3.7326 7.7696 9.1193 8.4103 1.5865 2.6886 2.2853 -2.7175 6.4574 1.6676 7.4565 3.4574 -1.9604 2.4169 -1.4917 5.3815 1.1642 -4.2308 -6.234 0.90137 -0.7821 5.9918 -4.5543 5.7767 -3.3741 8.2425 4.9806 6.3207 4.8842 -3.252 -7.1815 2.834 12.783 -1.0535 6.4705 -3.0068 5.2795 4.4251 3.331 -4.3475 8.7295 3.5177 3.8906 4.3894 -3.1704 5.8071 -2.3829 5.0462 -5.7163 2.4406 3.027 -4.6464 -8.0067 -3.013 1.978 -5.6468 -3.1602 -5.1768 0.35395 2.6706 -1.2507 -1.014 -1.2465 -0.14392 4.7418 10.178 -7.2879 -6.014 14.397 4.2152 -2.5027 -3.0971 -5.078 -3.1345 -3.294 -6.1975 9.2835 8.1276 -3.1329 -6.3987 -1.095 -6.5635 5.4096 3.4095 5.354 0.87273 -5.1566 -9.6311 -5.6269 6.3219 7.8678 0.77563 0.88791 -6.0082 -6.3993 -1.4153 -5.9747 2.7813 -1.063 -6.4372 6.8431 -11.286 2.5517 -9.7957 -1.2312 8.4675 -3.6856 6.7188 11.313 2.657 9.6646 -4.12 2.3404 -1.8566 -6.466 12.907 -8.4836 0.8571 1.5739 4.4301 -5.0946 5.7499 4.9075 -5.0671
し 2.5227 -2.3822 -2.487 -12.472 -0.93485 -1.8327 2.7709 1.7202 5.0686 -4.0406 0.30108 4.1244 -2.5487 -3.2526 3.4277 -1.2005 -7.2207 -3.6684 -4.2165 3.3009 2.364 -4.373 -2.8105 -1.0815 2.2253 -7.3609 4.4308 2.0961 2.7349 -6.1436 -0.2574 -1.5539 -7.0364 -8.5119 -5.2495 -3.9842 -4.2525 -8.6447 7.6808 -5.0789 2.582 4.4252 3.0092 -4.4669 -4.4262 -2.062 2.1568 3.4471 2.9179 1.9148 -5.4259 3.5306 -1.0729 7.2695 2.0378 -1.2406 -1.3571 4.158 -4.4913 3.3437 0.44384 2.7334 -0.15822 4.5334 -3.8417 -1.4167 5.1088 4.8782 9.9968 -7.2189 3.6663 4.3126 -6.4159 5.8672 -6.3336 0.35025 0.95459 3.3961 -5.0464 5.1931 -2.8622 7.7312 2.6426 17.746 0.79019 0.82138 3.066 5.3544 -2.972 -4.831 0.46379 -3.4195 -4.2223 4.9793 -0.29268 -1.3683 -2.9259 -0.11698 10.242 -6.8448 2.8236 -4.3855 3.2823 6.8687 -5.6574 -8.9659 -4.304 5.839 -2.6975 -5.8203 -3.3514 -7.6978 -1.2326 5.857 -6.6936 2.0465 5.9459 7.0417 -7.9746 5.9486 -5.9191 3.7447 -5.3615 7.4153 -8.4789 -9.0669 11.096 -3.3926 -6.9939 11.242 -2.2596 -5.3587 -3.1996 6.1372 0.55916 -6.6497 7.2253 -3.781 -1.7899 -9.2322 -6.0589 5.8302 -52.227 -3.7155 3.2222 -3.2379 6.6194 8.0038 -6.7003 5.7554 -7.1126 -3.0582 6.2677 -4.8514 -6.8918 6.4519 -7.3523 -9.4836 8.3845 -10.35 3.7662 1.437 1.0725 -2.5773 2.9638 -10.396 -10.21 7.4836 -10.501 5.5327 8.2194 6.9892 9.7924 5.4482 4.9831 3.8982 -3.582 7.8177 9.0451 8.339 1.5659 2.6525 2.2582 -2.7087 6.4133 1.5574 7.4912 3.4367 -1.8937 2.1904 -1.4773 5.3943 1.0485 -3.8923 -6.1414 1.054 -0.73564 6.0049 -4.47 5.8178 -3.4363 8.148 5.1275 6.2756 4.773 -3.2107 -7.174 2.8231 12.749 -1.0801 6.4656 -2.9969 5.163 4.3757 3.4448 -4.2613 8.7955 3.6505 3.8819 4.3144 -3.2249 5.7628 -2.1547 5.2435 -5.7199 2.3523 2.9252 -4.5539 -8.0332 -3.0023 2.0473 -5.7095 -3.1407 -5.2578 0.47701 2.695 -1.2175 -1.1633 -1.1533 -0.074184 4.8047 10.209 -7.118 -6.0188 14.478 4.0918 -2.5065 -3.2817 -4.9887 -3.0531 -3.3611 -6.3499 9.0791 8.0635 -2.9872 -6.4206 -1.2591 -6.5358 5.4248 3.2276 5.516 0.95192 -5.1469 -9.7235 -5.6112 6.2596 7.8264 0.70147 0.83513 -6.0119 -6.5733 -1.3906 -6.1061 2.7191 -1.022 -6.2522 6.7207 -11.368 2.8003 -9.8362 -1.2107 8.6391 -3.599 6.7448 11.187 2.6249 9.4715 -4.1945 2.411 -1.8779 -6.6163 12.76 -8.4709 0.94107 1.5529 4.4348 -4.9615 5.9671 4.9646 -5.1737
な 2.3802 -2.4883 -2.5423 -12.378 -0.71645 -2.0675 2.6723 1.6458 5.2827 -3.8666 0.15756 4.3125 -2.4131 -3.4227 3.4088 -1.2902 -7.3658 -3.6891 -4.5201 3.4707 2.4189 -4.6377 -3.0478 -0.83698 2.1081 -7.6594 4.2966 2.0303 2.733 -6.1062 -0.18032 -1.5677 -7.2315 -8.8621 -5.2645 -3.9218 -4.6283 -8.5174 7.6882 -4.9902 2.7443 4.1808 2.9524 -4.4041 -4.3609 -2.1815 2.0651 3.3159 3.07 2.0067 -5.0821 3.4169 -1.0637 7.2782 1.9044 -1.176 -1.4367 4.036 -4.1747 3.2448 0.52079 2.5557 0.14086 4.4923 -3.7938 -1.3467 4.8475 4.6995 10 -7.0663 3.7126 4.1128 -6.5717 5.9994 -6.3228 0.33582 1.0221 3.3085 -5.0625 5.2475 -2.7756 7.5712 2.866 17.841 0.74885 0.70047 2.9376 5.2424 -3.0486 -4.7176 0.42271 -3.5408 -4.3018 5.1251 -0.35277 -1.6504 -2.9489 -0.071745 10.217 -6.9535 2.8658 -4.0482 3.4403 7.0015 -5.4859 -9.0176 -3.991 5.6344 -2.8979 -5.8904 -3.1262 -7.6249 -1.1128 5.9851 -6.3143 2.1503 5.9519 6.857 -7.9202 5.8092 -5.96 3.6188 -5.106 7.0246 -8.3158 -9.1375 11.125 -3.489 -7.0299 11.28 -2.2326 -5.4282 -2.7065 6.4673 0.54918 -6.5963 7.2072 -4.0598 -1.8148 -9.2192 -6.0329 5.7047 -52.559 -3.8803 3.0701 -3.1509 6.4523 8.1153 -6.5992 5.8263 -7.2496 -3.0611 6.1774 -4.8672 -6.8589 6.4205 -7.3859 -9.4902 8.5125 -10.434 3.8717 1.0187 0.81423 -2.4487 2.6727 -10.359 -9.9026 7.6504 -10.591 5.5663 8.2875 7.262 9.6854 5.7825 4.9696 3.9934 -3.5454 8.0882 9.1067 8.474 1.5605 2.5668 2.3239 -2.7443 6.6613 1.5298 7.0907 3.4954 -1.9334 2.2833 -1.5293 5.6301 1.1865 -4.1638 -6.2762 1.0639 -0.81784 5.9973 -4.6138 5.9542 -3.3273 8.265 4.9267 6.4152 4.8799 -3.2891 -6.9754 2.8541 12.656 -1.086 6.5347 -3.0672 5.2963 4.2561 3.625 -4.5016 8.566 3.5474 3.7522 4.1594 -3.1103 5.7677 -2.4369 5.0809 -5.9796 2.649 2.9602 -4.8307 -8.0364 -3.0851 1.8577 -5.8723 -3.0163 -5.2136 0.33397 2.7648 -0.94311 -1.0404 -1.348 -0.36227 4.5258 10.251 -7.5258 -6.0804 14.311 4.465 -2.3748 -3.273 -4.9422 -3.2888 -3.4813 -6.3833 8.9036 8.0852 -3.2 -6.4836 -1.3789 -6.8952 5.4653 2.9682 5.3479 0.97276 -5.393 -9.7066 -5.5313 6.4098 7.8252 0.924 0.84407 -6.1905 -6.435 -1.5609 -6.1799 2.7194 -1.3712 -6.3713 6.7082 -11.192 2.8639 -9.7833 -1.1619 8.0343 -3.892 6.687 11.174 2.5535 9.7707 -3.7835 2.3632 -1.8773 -6.4668 12.725 -8.5859 1.3694 1.7926 4.3189 -4.9086 5.6475 5.0197 -5.2145
から 1.5109 -1.3738 -1.5377 -7.9128 -0.43998 -1.1513 1.8385 1.1601 3.2674 -2.6842 0.24752 2.7152 -1.4697 -2.1386 2.1207 -0.71043 -4.6795 -2.3203 -2.7883 2.1979 1.6236 -2.8249 -1.9068 -0.82237 1.5391 -4.6563 2.781 1.4077 1.9476 -4.051 -0.1702 -1.1682 -4.6581 -5.4394 -3.6374 -2.6377 -2.7883 -5.5048 4.8817 -3.1031 1.8752 2.7798 1.9271 -2.8445 -2.6974 -1.4601 1.4488 2.1131 1.8451 1.3087 -3.271 2.1403 -0.70834 4.7112 1.3605 -0.96583 -0.69671 2.6317 -2.7107 2.0236 0.22827 1.796 -0.13701 2.7622 -2.4046 -0.90745 2.9822 3.0672 6.3435 -4.4469 2.4925 2.809 -3.91 3.981 -3.9977 0.35315 0.50627 2.2337 -3.2086 3.4958 -1.8298 4.8384 1.7272 11.172 0.38862 0.47697 1.9462 3.3504 -1.8162 -3.0978 0.25941 -2.1027 -2.6361 3.2669 -0.075273 -0.83728 -1.8976 0.0041572 6.4007 -4.5053 1.909 -2.714 2.0941 4.3755 -3.5597 -5.76 -2.7935 3.5049 -1.7882 -3.7378 -2.2249 -4.7783 -0.83714 3.8393 -4.1313 1.3508 3.7795 4.5311 -5.058 3.7589 -3.7262 2.4681 -3.2338 4.5922 -5.1795 -5.5132 6.9327 -2.3648 -4.2674 7.0303 -1.6667 -3.3883 -2.0045 4.0914 0.46284 -4.2276 4.5971 -2.6899 -1.1141 -5.9093 -3.9016 3.4849 -33.206 -2.5751 1.9206 -2.2035 4.0281 4.9554 -4.3344 3.6413 -4.4219 -2.1064 4.0555 -3.1471 -4.3989 4.1034 -4.8108 -5.9125 5.5701 -6.6736 2.4542 1.0857 0.56007 -1.5816 1.7183 -6.7183 -6.3769 4.8759 -6.6113 3.4941 5.3008 4.3879 6.2191 3.4559 3.4598 2.4954 -2.4613 5.1367 5.8683 5.4088 1.1479 1.6831 1.3737 -1.7865 4.1652 0.83275 4.618 1.9083 -1.1319 1.5552 -0.90525 3.5697 0.83614 -2.4925 -4.1455 0.71701 -0.4084 3.8545 -2.9737 3.5972 -2.1961 5.0554 3.3468 4.1735 3.1522 -2.0847 -4.4802 1.7544 8.3004 -0.88035 4.1465 -1.891 3.3635 2.8304 2.1754 -2.6578 5.6123 2.3223 2.5502 2.8274 -2.2905 3.5624 -1.5675 3.273 -3.5853 1.5772 1.9674 -3.0402 -5.0528 -2.0172 1.3445 -3.5484 -2.0438 -3.2478 0.17642 1.8693 -0.81934 -0.72012 -0.64789 -0.25928 2.9925 6.5558 -4.7615 -3.6521 9.1229 2.5156 -1.5158 -2.1339 -3.1328 -2.0317 -2.1039 -4.0254 5.7956 5.2257 -1.9492 -4.2187 -0.721 -4.1546 3.5759 2.0644 3.3555 0.34736 -3.4438 -6.0951 -3.5558 4.0174 5.1437 0.58892 0.52045 -3.7764 -4.0488 -0.9998 -4.0273 1.6458 -0.90743 -4.1614 4.4395 -7.1531 1.8503 -6.044 -0.93866 5.3745 -2.2285 4.4646 7.1997 1.4913 6.2878 -2.5064 1.4301 -1.1442 -4.1708 8.1326 -5.4728 0.5013 0.95694 2.635 -3.0701 3.9203 3.1563 -3.1712
い 2.3315 -2.319 -2.3156 -12.477 -0.91685 -1.9128 2.6892 1.542 5.0222 -3.9783 0.27346 4.2513 -2.622 -3.3666 3.2182 -1.196 -7.4252 -3.7291 -4.3718 3.2989 2.6068 -4.5435 -2.9775 -1.2306 2.3083 -7.271 4.2418 2.2485 2.7337 -6.1135 -0.33236 -1.6997 -7.1669 -8.7464 -5.1459 -4.0739 -4.2613 -8.8258 7.3529 -5.0153 2.6762 4.3455 2.9368 -4.2954 -4.6514 -2.3547 2.0812 3.4625 3.0289 1.9268 -5.2261 3.5381 -1.1682 7.118 2.1467 -1.1136 -1.3881 4.086 -4.2815 3.2705 0.57993 2.7944 -0.06475 4.4653 -3.8619 -1.6976 5.1303 4.6428 10.197 -7.0967 3.715 4.1704 -6.3629 6.0394 -6.6515 0.39457 0.62697 3.1214 -5.0329 5.4416 -2.8734 7.5132 2.8576 17.807 0.67275 0.84448 2.9861 5.3136 -3.107 -4.693 0.3907 -3.3882 -4.2303 5.1132 -0.11728 -1.3924 -3.0305 -0.017449 10.147 -6.7571 3.0026 -4.0234 3.063 7.1064 -5.4974 -8.8005 -4.2267 5.9565 -2.748 -6.1548 -3.2575 -7.7241 -0.99766 5.9122 -6.3486 2.3812 5.9033 7.0351 -7.9472 6.0128 -5.7141 3.6154 -5.2705 7.0679 -8.2921 -8.7573 11.179 -3.323 -6.8045 11.211 -2.4318 -5.4583 -3.206 6.3389 0.56486 -6.8403 7.2924 -4.0946 -1.5735 -9.0901 -5.9855 5.9567 -52.568 -3.6469 3.0168 -3.4458 6.4037 7.881 -6.5458 5.6337 -7.4927 -2.9917 6.0364 -4.8788 -6.9859 6.3752 -7.5368 -9.5818 8.4985 -10.356 3.8609 1.3106 0.95935 -2.3994 2.7516 -10.281 -10.086 7.3914 -10.566 5.3103 8.291 7.0572 9.7534 5.7276 5.0689 3.9677 -3.6712 7.8286 8.9513 8.1714 1.705 2.7707 2.2096 -2.5956 6.6951 1.3794 7.3258 3.4493 -2.0294 2.2397 -1.2772 5.2035 0.84787 -4.0646 -5.9875 1.098 -1.1975 6.0307 -4.4276 5.868 -3.3536 8.2491 5.0945 6.5423 4.739 -3.1228 -7.1815 2.5233 12.372 -1.3241 6.4826 -3.0549 5.4679 4.2901 3.5752 -4.4107 8.8137 3.5368 3.6628 4.5708 -3.1954 5.7089 -2.3612 5.3714 -5.8607 2.4258 2.9509 -4.5746 -7.8504 -3.1263 2.0006 -5.6727 -2.8803 -5.1277 0.40318 2.6135 -1.0774 -0.77488 -1.0199 -0.40369 4.7364 10.24 -7.2535 -5.8689 14.307 4.1597 -2.4654 -3.2554 -4.7759 -3.1662 -3.4959 -6.2061 9.2392 7.8546 -3.0766 -6.5006 -1.2235 -6.4744 5.4935 3.1161 5.1549 0.96331 -5.295 -9.5773 -5.6539 6.3627 7.7453 1.0441 0.77731 -6.277 -6.4057 -1.4618 -6.2094 2.6341 -1.2728 -6.5989 6.7806 -11.221 2.6951 -9.8037 -1.0973 8.5744 -3.7555 6.9892 11.213 2.5956 9.8069 -4.1903 2.4493 -1.918 -6.4477 12.746 -8.4692 0.84167 1.7853 4.3558 -4.919 5.7065 4.9394 -5.2
人 2.8422 -2.3373 -2.5578 -12.628 -0.83028 -2.0187 2.893 1.5529 5.2654 -4.1766 0.13543 4.0384 -2.4883 -3.0796 3.4995 -1.2218 -7.4592 -3.6765 -4.2005 3.6071 2.3837 -4.3329 -2.5662 -1.2078 2.0757 -7.2904 4.3161 1.7757 2.7282 -6.3476 -0.5724 -1.7133 -7.1973 -8.8716 -5.296 -4.1068 -4.2397 -8.5837 7.5572 -5.0461 2.3955 4.0703 2.8534 -4.597 -4.3126 -2.1695 1.9323 3.5272 3.172 1.9505 -5.2692 3.3664 -0.92723 7.2595 2.2895 -1.286 -1.229 4.2189 -4.0845 3.3051 0.64197 2.7135 0.087943 4.4075 -3.8006 -1.6846 5.2292 4.7255 9.9843 -7.0395 3.7933 4.4744 -6.472 6.0891 -6.3859 0.47355 0.82656 3.4714 -5.0719 5.3831 -3.2333 7.5038 2.5945 17.742 0.89482 0.68817 3.1959 5.3122 -3.0791 -4.9436 0.54426 -3.5934 -3.8718 5.4294 -0.18793 -1.6269 -3.2233 -0.029381 10.118 -6.8222 2.8176 -4.1879 3.382 6.8598 -5.7589 -9.4081 -4.0745 5.9581 -2.6544 -5.963 -3.1792 -7.597 -1.3675 5.9485 -6.3793 2.2075 6.3195 7.0154 -7.8472 5.8878 -5.5218 3.6504 -5.2271 7.1886 -8.3556 -8.918 11.205 -3.5333 -7.0564 10.873 -2.3195 -5.3756 -3.0064 6.1858 0.63458 -7.0985 7.4224 -4.0266 -1.5984 -9.2183 -6.1719 5.8496 -52.793 -3.9287 3.4343 -3.4605 6.4415 8.0684 -6.3828 5.7691 -7.3354 -3.0095 6.438 -5.0805 -6.9712 6.3513 -7.5661 -9.365 8.5872 -10.443 3.9418 1.3551 0.76271 -2.2901 2.6419 -10.444 -9.9506 7.5466 -10.482 5.6089 8.2682 7.4572 9.5649 5.2086 5.1642 3.9224 -3.7562 8.193 9.1477 8.72 1.5507 2.8917 2.2892 -2.6309 6.5718 1.4124 7.2597 3.2662 -2.0008 2.5039 -1.6696 5.4977 1.4424 -3.9272 -5.9916 1.308 -1.1093 5.8319 -4.5544 6.1605 -3.4252 8.2153 5.2048 6.2847 4.8509 -3.3077 -7.1397 2.9564 12.68 -1.2438 6.1846 -2.4302 5.1165 4.6555 3.7721 -4.3424 8.4484 3.4508 4.04 4.6126 -3.4283 5.6033 -2.155 5.2716 -5.6028 2.5504 2.7209 -4.6791 -8.093 -2.7822 1.8813 -6.0647 -3.1142 -5.4057 -0.031734 3.1016 -1.3 -0.62371 -1.2619 -0.17993 4.8173 10.094 -7.3028 -6.2049 14.638 4.086 -2.2101 -3.5187 -4.6239 -3.2918 -3.3723 -6.1345 9.228 8.1186 -2.9976 -6.3241 -1.0178 -6.4935 5.5774 2.9665 5.2485 1.1369 -4.9677 -9.8572 -5.4743 6.4182 7.987 0.59725 0.94778 -5.8764 -6.4581 -1.3451 -6.4045 2.486 -1.5432 -6.2836 7.2453 -11.176 2.7024 -9.8933 -1.434 8.2143 -3.7134 7.0951 10.927 2.4302 10.102 -3.9402 2.4006 -2.024 -6.3144 13.099 -8.5618 1.0872 1.7088 4.6844 -4.366 5.575 5.2453 -5.6221
っ 2.5751 -2.3434 -2.3823 -12.455 -0.76881 -1.9402 2.6708 1.5762 5.1973 -4.0821 0.31948 4.2635 -2.476 -3.3596 3.4998 -1.2257 -7.2994 -3.5099 -4.4132 3.3962 2.5201 -4.6904 -3.2259 -0.93129 2.4617 -7.6005 4.3276 2.1572 2.7836 -6.1273 -0.29573 -1.5471 -7.3307 -8.8496 -5.3731 -3.9571 -4.4313 -8.8951 7.7931 -4.7355 2.7005 4.3553 2.943 -4.463 -4.3984 -2.4894 2.0233 3.2843 3.0224 2.1139 -5.0984 3.5609 -1.2261 7.2875 2.225 -1.3685 -1.3906 4.1331 -4.1984 3.2006 0.62878 2.8028 -0.11059 4.5351 -3.7071 -1.6119 5.0254 4.4887 10.234 -7.0346 3.6 4.1633 -6.5685 5.9876 -6.5133 0.31943 0.94787 3.4412 -4.9624 5.6347 -2.6678 7.652 2.7046 17.981 0.92644 0.72511 3.0107 5.3602 -3.1287 -4.9957 0.22741 -3.5096 -4.3546 5.2906 -0.084917 -1.4441 -3.1465 -0.14734 10.296 -6.9088 2.9942 -4.1432 3.2156 6.9131 -5.7248 -9.0396 -4.1967 5.9326 -2.6764 -6.4311 -3.394 -7.5893 -1.0292 5.9847 -6.5934 2.2766 6.0274 6.9889 -7.9274 5.8552 -6.07 3.8701 -5.137 7.3368 -8.3969 -8.9779 11.113 -3.4968 -7.06 11.233 -2.4436 -5.3343 -3.0915 6.3819 0.62953 -6.9114 7.3113 -4.078 -1.8395 -9.2863 -5.9413 5.8974 -53.25 -3.8802 3.0071 -3.3798 6.4366 8.1167 -6.661 5.7699 -7.3972 -3.1062 6.2252 -4.9943 -7.0417 6.2218 -7.5829 -9.7382 8.3926 -10.524 4.0498 1.3932 0.66981 -2.5253 2.8449 -10.448 -10.146 7.5302 -10.695 5.7067 8.4021 7.0493 9.7476 5.7175 5.094 4.1098 -3.464 8.0638 9.2473 8.6035 1.6838 2.8074 2.5922 -2.6311 6.8127 1.3205 7.312 3.4926 -1.834 2.1677 -1.5523 5.547 1.3181 -4.0799 -6.0049 1.0738 -1.0687 6.2837 -4.6258 5.9849 -3.2757 8.2229 5.1633 6.6024 5.2103 -3.3436 -7.2908 2.6279 12.681 -1.2927 6.5748 -3.0835 5.3948 4.3548 3.6368 -4.3352 8.8535 3.3369 3.7359 4.4426 -3.0235 5.8474 -2.4309 5.4036 -5.8491 2.4783 3.1024 -4.6843 -7.881 -3.0863 2.1682 -5.7309 -3.0908 -5.1844 0.26213 2.5917 -1.2133 -0.96731 -1.0516 -0.33791 4.8451 10.456 -7.4247 -6.0973 14.529 4.2958 -2.3207 -3.5024 -4.8077 -2.9962 -3.5162 -6.3514 9.2763 8.0475 -3.3564 -6.5889 -1.3081 -6.6825 5.7635 3.096 5.3259 1.3926 -5.2347 -9.7328 -5.6455 6.2735 8.0121 1.0076 0.85348 -6.3417 -6.3319 -1.4499 -6.2329 2.645 -1.4292 -6.4137 6.6194 -11.315 2.7278 -9.9043 -1.2241 8.2975 -3.7178 6.7931 11.093 2.6646 9.8875 -4.0746 2.4692 -1.684 -6.7714 12.597 -8.4937 1.0815 1.6975 4.2725 -4.7677 5.6909 5.0841 -5.2969
か 2.4645 -2.2576 -2.3193 -12.534 -0.96682 -1.8675 2.8141 1.7355 5.2544 -4.0001 0.19894 4.0464 -2.5406 -3.2428 3.4138 -1.2657 -7.2861 -3.6146 -4.3439 3.2817 2.4651 -4.5698 -2.9626 -1.1111 2.2156 -7.3614 4.4065 2.0427 2.7359 -6.3601 -0.33469 -1.6346 -7.1134 -8.7186 -5.3174 -4.0632 -4.7307 -8.871 7.5945 -5.0975 2.5602 4.3964 2.953 -4.3487 -4.5109 -2.0368 2.258 3.3027 2.7669 1.8593 -5.1209 3.4052 -1.2398 7.3256 1.9554 -1.3627 -1.4488 4.1161 -4.4502 3.2695 0.58075 2.6459 0.034973 4.5379 -3.6479 -1.451 4.9801 4.7749 10.174 -6.8999 3.9327 4.1645 -6.5213 6.0203 -6.529 0.4591 0.89076 3.1304 -5.064 5.5833 -3.0344 7.4079 2.7246 17.964 0.81349 0.81191 2.806 5.2614 -2.914 -4.8391 0.32926 -3.4134 -4.2703 5.1383 -0.097674 -1.428 -2.8845 -0.40931 10.008 -6.8651 2.9538 -4.1961 3.02 7.1423 -5.5435 -8.9606 -4.1194 5.8816 -2.7603 -6.0986 -3.2881 -7.6264 -1.0295 5.6602 -6.5147 2.4031 6.0209 6.932 -7.9794 5.816 -5.749 3.6526 -5.1773 7.3954 -8.6344 -8.944 11.184 -3.5246 -6.7714 11.312 -2.4547 -5.3029 -3.2473 6.4018 0.66992 -6.7261 7.4977 -3.7928 -1.7612 -9.0312 -6.0627 5.8318 -53.063 -3.7561 2.717 -3.2575 6.6258 7.7434 -6.637 5.7166 -7.3885 -3.1887 5.9979 -4.7934 -6.7118 6.2103 -7.5748 -9.5057 8.5681 -10.179 3.9224 1.1667 0.82014 -2.4304 2.5357 -10.404 -10.1 7.4642 -10.547 5.6729 8.498 7.3549 9.9957 5.4929 5.1613 4.0808 -3.7924 8.1123 9.5523 8.4407 1.9681 2.7038 2.2341 -2.6637 6.5206 1.2708 7.147 3.5037 -1.9968 2.0498 -1.4739 5.2862 1.1388 -4.1095 -6.0175 1.213 -1.1311 6.0457 -4.5489 5.7056 -3.2319 8.5153 5.2261 6.1773 4.998 -3.3523 -7.2952 2.6813 12.736 -1.2552 6.4344 -2.8187 5.4529 4.1422 3.549 -4.3927 8.8387 3.5799 3.6073 4.5998 -3.1775 5.6507 -2.3252 5.1767 -6.0058 2.4838 2.7973 -4.6244 -7.9725 -3.2065 2.141 -5.8413 -3.0742 -5.1569 0.33524 2.7089 -1.1332 -0.8994 -1.1912 -0.32507 4.8478 10.352 -7.2941 -6.1073 14.408 4.3871 -2.4084 -3.5615 -4.8806 -3.2416 -3.621 -6.2272 9.2843 8.277 -3.0683 -6.6997 -1.2321 -6.5114 5.4812 3.2074 5.5098 1.1407 -5.4255 -9.7926 -5.6788 6.6362 7.9033 0.8004 0.80056 -6.4493 -6.3553 -1.6969 -6.1838 2.6662 -1.307 -6.8174 6.8649 -11.196 2.6792 -9.6026 -1.086 8.2741 -3.7767 6.8693 11.201 2.5338 9.9697 -4.0276 2.2231 -2.0082 -6.4197 12.743 -8.4338 1.1095 1.7252 4.4837 -4.8229 5.6036 5.0326 -5.1878
ま 2.9577 -2.299 -2.4017 -13.045 -0.86787 -2.0737 2.9317 1.6938 5.2717 -3.9669 0.082646 3.9186 -2.4763 -3.0846 3.275 -1.1508 -7.4283 -3.4564 -4.2516 3.6286 2.5909 -4.4146 -3.0348 -1.0297 1.9837 -7.2299 4.5109 2.0336 2.928 -6.5639 -0.34556 -1.616 -7.1331 -8.882 -5.6559 -4.2476 -4.6979 -8.691 7.6345 -5.3142 2.7047 4.2866 3.0415 -4.3558 -4.5032 -2.1118 2.0712 3.1663 2.8693 2.0192 -5.3065 3.3126 -0.9509 7.1602 2.1588 -1.5391 -1.516 4.0073 -4.6278 3.4917 0.74683 2.5776 0.086487 4.634 -3.6344 -1.6963 4.996 4.614 10.335 -6.9758 3.9576 4.7597 -6.5113 6.1094 -6.5386 0.36673 1.047 3.2269 -5.1654 5.4217 -2.9089 7.5679 2.7049 17.867 0.77359 0.98392 2.9383 5.333 -2.5799 -4.8896 0.61149 -3.4509 -4.1962 5.3524 -0.0069144 -1.4365 -2.9526 0.045353 10.068 -7.0488 3.2705 -4.2683 3.0415 7.3039 -5.5531 -9.0762 -4.1526 5.8319 -2.5733 -6.2207 -3.2764 -7.5918 -1.1985 6.0011 -6.6559 2.1206 5.6776 6.9193 -8.0284 5.9328 -5.8935 3.6641 -5.0756 7.2748 -8.4062 -8.932 11.346 -3.8608 -6.8516 10.964 -2.4077 -5.447 -2.994 6.3308 0.58392 -6.6649 7.3279 -4.1399 -1.6728 -9.1787 -6.0684 5.6398 -53.199 -3.5684 2.9394 -3.2865 6.7023 8.0482 -6.797 5.8494 -7.223 -3.2329 6.2663 -4.9308 -6.665 6.4095 -7.5687 -9.3967 8.4961 -10.412 4.021 1.0817 0.82155 -2.4737 2.5236 -10.2 -10.145 7.7028 -10.607 5.4267 8.4413 7.2555 10.146 5.6996 5.1698 4.1098 -3.6699 8.1115 9.6847 8.3288 1.8955 2.8338 2.3586 -2.8781 6.7346 1.6238 7.4774 3.3096 -1.9456 2.181 -1.4125 5.5 1.0536 -4.2148 -5.976 1.1192 -0.73742 6.314 -4.8136 5.8892 -3.2129 8.3919 5.0754 6.1275 5.1575 -3.3295 -7.1615 2.7456 12.694 -1.3449 6.4844 -2.9938 4.9365 4.1474 3.7038 -4.3535 8.6608 3.8484 3.6674 4.3785 -3.0192 5.6978 -2.084 5.1871 -6.0417 2.4298 2.7467 -4.631 -7.9004 -3.2889 2.0326 -5.519 -3.0889 -5.6279 0.18351 2.669 -1.2607 -0.82503 -1.2121 -0.15445 4.7226 10.081 -7.4346 -5.9243 14.486 4.5747 -2.4916 -3.6907 -4.6559 -3.3497 -3.718 -6.3589 9.3725 8.3217 -3.2448 -6.7942 -1.5387 -6.7009 5.4883 3.425 5.647 1.1085 -5.1371 -9.9265 -5.5428 6.4613 7.404 0.74872 0.47462 -6.5886 -6.3745 -1.9997 -5.9683 2.6418 -1.0303 -6.8248 6.838 -11.281 2.4206 -9.9058 -0.94356 8.1757 -3.8294 7.2042 11.12 2.511 9.9215 -3.7515 2.2449 -2.0155 -6.6788 12.99 -8.5851 1.3393 1.7258 4.3953 -5.1929 5.4295 5.109 -5.2316
き 2.7321 -2.2054 -2.3789 -12.788 -0.96995 -1.8771 2.8503 1.7498 5.0806 -4.0451 0.089519 4.1138 -2.534 -3.2629 3.3448 -1.2273 -7.5418 -3.5336 -4.3165 3.4735 2.5737 -4.349 -2.9547 -0.93527 2.1702 -7.4034 4.4352 2.3633 2.7184 -6.472 -0.47531 -1.7812 -7.3843 -8.7037 -5.3106 -4.0101 -4.454 -8.7229 7.54 -5.0747 2.5003 4.382 3.0227 -4.0433 -4.5777 -2.1343 2.1601 3.5779 2.8673 1.921 -5.2614 3.3672 -1.1193 7.2122 2.2046 -1.2788 -1.2061 4.2586 -4.357 3.3595 0.58675 2.6324 -0.11177 4.4987 -3.7313 -1.3016 5.1254 4.7755 10.049 -6.8638 3.8808 4.1659 -6.6581 6.0987 -6.6352 0.2942 0.81519 3.1436 -5.0704 5.2041 -2.9423 7.6643 2.8387 18.067 0.8295 0.73099 2.9392 5.3311 -2.6862 -5.0804 0.30777 -3.4022 -4.322 5.338 -0.13763 -1.5451 -3.0235 -0.24394 10.094 -7.0482 3.0538 -4.1433 3.085 7.3112 -5.4563 -8.9379 -4.168 5.9358 -2.9202 -6.0625 -3.0189 -7.7304 -1.1255 5.9102 -6.6237 2.5392 5.986 7.1129 -8.0767 5.858 -5.9553 3.5417 -5.3039 7.2264 -8.5677 -8.7039 11.121 -3.8191 -6.7257 10.944 -2.5197 -5.4852 -3.3939 6.5755 0.5379 -7.2083 7.2453 -3.9013 -1.7917 -8.9779 -5.7663 5.9914 -53.331 -3.6091 2.8471 -3.5338 6.6258 7.8154 -6.7651 5.8449 -7.2156 -3.053 5.9804 -4.8481 -6.6441 6.1725 -7.5169 -9.3272 8.4939 -10.267 3.768 1.0737 0.83092 -2.4342 2.5092 -10.56 -10.027 7.7122 -10.733 5.9245 8.5498 7.3214 10.024 5.5194 5.011 4.1047 -3.5839 7.8678 9.0542 8.5586 1.715 2.7104 2.3436 -2.8001 6.858 1.4275 7.2996 3.39 -2.0418 2.0723 -1.4199 5.3578 1.0577 -4.123 -5.8416 1.1572 -1.2076 6.0573 -4.6735 5.6032 -3.3129 8.3322 4.8631 6.2868 4.9621 -3.3909 -7.4125 2.8943 12.405 -0.98439 6.5328 -2.978 5.3527 4.4694 3.5862 -4.4228 8.8042 3.575 3.5793 4.4233 -3.4315 5.5921 -2.1165 5.6845 -5.8288 2.5848 2.9045 -4.8542 -7.9644 -3.3324 2.2598 -5.9048 -3.0416 -4.967 0.53009 2.4869 -0.94132 -0.85999 -0.85437 -0.32099 4.3936 10.211 -7.1573 -6.0433 14.826 4.1906 -2.5228 -3.3467 -4.9534 -3.4814 -3.5261 -6.45 9.2611 8.3502 -3.1034 -6.8098 -1.1974 -6.5128 5.5779 3.0914 5.5492 0.94087 -5.436 -10.125 -5.896 6.5512 7.9548 0.7814 0.6421 -6.5384 -6.2457 -1.703 -6.1944 2.793 -1.0863 -6.8173 6.7413 -11.325 2.7219 -9.8048 -1.3497 8.4474 -3.8313 6.7992 11.692 2.6272 9.8911 -4.0401 2.3136 -2.1446 -6.5013 12.593 -8.7423 0.93067 1.8006 4.421 -5.0756 5.6987 5.0616 -5.2868
分 2.3721 -1.9616 -2.0972 -12.55 -0.93257 -1.8628 2.6641 1.7176 5.0747 -3.8931 0.47632 4.3542 -2.4661 -3.0623 3.4035 -1.1769 -7.2163 -3.5213 -4.2323 3.5023 2.2491 -4.5884 -2.8572 -0.90886 2.4666 -7.2804 4.3447 2.2623 2.8616 -6.0106 -0.10216 -1.8662 -6.9112 -8.5324 -5.7717 -4.1525 -4.6911 -8.6548 7.7707 -5.2767 2.7876 4.3416 2.9538 -4.4918 -4.2346 -2.0148 2.024 3.4883 2.8258 2.1528 -5.0574 3.4164 -1.0071 7.5901 2.0839 -1.4688 -1.1907 4.1236 -4.4299 3.2248 0.38642 3.0541 0.072623 4.6551 -3.699 -1.6326 5.1472 4.8879 10.167 -7.2602 4.1108 4.4014 -6.4764 6.1385 -6.6635 0.12646 1.0193 3.3946 -4.9064 5.6061 -2.7706 7.5816 2.5679 18.055 1.0397 0.87074 3.0284 5.1931 -2.9021 -4.7364 0.70302 -3.3452 -4.1158 5.4751 0.14524 -1.2364 -2.9223 -0.07263 10.411 -6.9607 3.1443 -4.2701 3.0808 6.9658 -5.7189 -9.3579 -4.3081 6.0523 -2.563 -6.1039 -3.2135 -7.6182 -1.4518 6.0864 -6.7339 2.0154 6.13 6.7488 -8.1581 6.1939 -5.6655 3.8691 -5.5603 7.3916 -8.2591 -8.763 11.2 -3.0875 -6.6859 11.108 -2.5137 -5.7395 -3.1982 6.2638 0.77293 -6.7755 7.3278 -3.88 -1.8825 -9.0951 -6.1366 6.0562 -53.465 -4.0425 2.8634 -3.3178 6.7771 7.9109 -6.763 5.9479 -7.3585 -3.2182 6.2065 -4.9266 -7.0112 6.0648 -7.47 -9.4742 8.7 -10.564 3.9064 1.6737 1.133 -2.3605 2.4803 -10.922 -9.8849 7.5854 -10.666 5.5596 8.3182 7.0705 9.7815 5.5088 5.188 4.0041 -3.6137 8.0247 9.7751 8.3671 1.65 2.863 1.9397 -2.8589 6.3704 1.3707 7.4835 3.2537 -2.2917 2.1503 -1.566 5.5528 1.0021 -4.1865 -6.2954 1.6431 -0.65092 6.0861 -4.8783 5.8064 -3.4942 8.5125 5.3226 6.4874 4.9273 -3.1753 -7.3231 2.9726 13.466 -1.29 6.457 -2.7398 5.1861 4.4462 3.2696 -4.2908 9.0552 3.2883 4.1363 4.4918 -3.3389 5.8645 -2.4822 5.1349 -5.5838 2.8055 2.8181 -4.6554 -8.0758 -3.5979 1.8845 -5.2355 -3.0578 -5.3005 0.05042 2.9899 -1.2111 -1.2257 -1.0963 0.15193 4.607 10.55 -7.0685 -6.0055 14.437 4.3832 -1.9325 -3.5139 -4.9785 -3.2366 -3.3648 -5.8518 9.5633 8.3522 -3.0204 -6.1578 -1.0399 -6.8205 5.1354 2.7087 5.2402 0.61297 -5.6395 -10.228 -5.5411 6.0774 8.2956 0.30925 0.71079 -6.1888 -6.0731 -1.7867 -6.4345 2.9066 -1.3518 -6.6879 6.4587 -11.155 3.0813 -9.6852 -1.1676 7.9972 -3.8006 6.9674 11.333 2.3038 10.085 -4.3085 2.4835 -1.8342 -6.4705 13.058 -8.4914 1.0034 1.9127 4.4702 -4.9077 6.016 4.6353 -5.1831
これ 1.6261 -1.4282 -1.555 -7.7514 -0.49031 -1.1939 1.6816 1.1474 3.1804 -2.6402 0.21497 2.6263 -1.6265 -2.2452 2.1999 -0.73495 -4.6737 -2.4552 -2.777 2.2393 1.5837 -2.9917 -1.9126 -0.79987 1.5891 -4.6746 2.7817 1.3182 1.5242 -3.8637 -0.19423 -0.94646 -4.5895 -5.2837 -3.3411 -2.6345 -2.7256 -5.3735 4.7688 -3.1458 1.7097 2.8051 2.0975 -2.7662 -2.9238 -1.2824 1.4585 2.1021 1.9316 1.0991 -3.3932 2.1886 -0.59696 4.559 1.2282 -0.86409 -0.84703 2.5085 -2.8299 2.1072 0.29254 1.7003 -0.07266 2.8795 -2.3883 -1.016 3.2456 3.1322 6.3299 -4.5693 2.4377 2.8358 -4.2978 3.8554 -4.0291 0.20538 0.67522 2.2284 -3.0846 3.4673 -1.7281 4.8296 1.6663 11.357 0.55707 0.51351 2.0105 3.3944 -1.9269 -3.0136 0.30968 -2.1246 -2.7063 3.149 -0.094233 -0.88123 -1.9168 -0.12499 6.4413 -4.1692 1.8657 -2.6192 1.9692 4.3917 -3.5858 -5.8096 -2.6997 3.6499 -1.7993 -3.8808 -2.1365 -4.7177 -0.75724 3.7662 -4.1586 1.4306 3.7923 4.3004 -4.9965 3.7385 -3.6091 2.3397 -3.3122 4.5521 -5.2014 -5.6511 7.1868 -2.2336 -4.2625 6.9492 -1.483 -3.3172 -1.9879 4.0049 0.48026 -4.1484 4.641 -2.6214 -0.94667 -5.9292 -3.8246 3.5926 -33.371 -2.3912 1.9531 -2.0783 3.9723 4.9749 -4.2281 3.7273 -4.6397 -2.0383 3.9981 -3.2853 -4.498 4.0616 -4.8467 -6.0111 5.4005 -6.4707 2.6103 1.0627 0.50174 -1.5085 1.8112 -6.6657 -6.1926 4.841 -6.62 3.5935 5.2137 4.5481 6.2146 3.5382 3.1592 2.5049 -2.1832 5.0168 5.7158 5.0663 1.1237 1.67 1.4825 -1.8644 4.1748 0.95326 4.4928 2.2882 -1.2829 1.5774 -0.98686 3.3441 0.8488 -2.6875 -3.8371 0.65773 -0.40142 3.8262 -2.8715 3.8667 -2.0655 4.9843 3.4427 4.0946 3.1249 -2.0548 -4.625 1.9669 8.26 -0.87586 4.0577 -2.0974 3.4106 2.7949 2.0429 -2.8536 5.4985 2.1617 2.5157 2.8264 -2.1575 3.6069 -1.5266 3.4483 -3.5032 1.528 2.0023 -3.0362 -5.082 -2.0161 1.2921 -3.5806 -1.9697 -3.4463 0.31241 1.63 -0.68329 -0.57381 -0.75424 -0.21739 3.0575 6.409 -4.7526 -3.8007 9.0182 2.8478 -1.6901 -2.0622 -3.1557 -1.8937 -2.0866 -4.0506 5.7404 5.1259 -1.965 -4.028 -0.80724 -4.0988 3.4876 2.0452 3.4615 0.51965 -3.0867 -6.2082 -3.4549 3.9381 4.9778 0.70632 0.56468 -3.8764 -4.0804 -1.047 -3.8794 1.7241 -0.79654 -4.1313 4.3739 -7.1836 1.7812 -6.3165 -0.95785 5.2232 -2.3173 4.2873 7.1973 1.6581 6.1787 -2.534 1.6481 -1.1467 -3.9608 8.1938 -5.5805 0.7794 1.1263 2.7995 -3.1585 3.814 3.049 -3.2734
お 2.5559 -2.4875 -2.6135 -12.932 -0.81028 -1.6705 2.7587 2.0171 5.0216 -3.9301 0.12368 4.0508 -2.7607 -3.5026 3.548 -1.1866 -7.6663 -3.5185 -4.4785 3.3707 2.6383 -4.467 -3.0129 -0.9511 2.2679 -7.0506 4.2383 1.8406 2.6979 -6.556 -0.34391 -1.721 -7.0771 -9.2486 -5.762 -4.2566 -4.4612 -8.8756 7.8189 -5.3434 2.7726 4.3011 2.5722 -4.4913 -4.4284 -2.0289 2.0485 3.2942 2.6877 2.0115 -5.0854 3.4596 -1.1274 7.3034 2.2541 -1.7807 -1.4098 4.0994 -4.5806 3.3829 0.69813 2.2663 0.23808 4.2143 -3.407 -1.3484 5.0473 4.6826 10.332 -6.7575 3.9279 4.0643 -6.554 6.0536 -6.6366 0.28278 1.043 3.3563 -4.877 5.7194 -3.0111 8.0054 2.7477 18.149 0.95884 0.69053 3.1891 5.0143 -2.913 -5.0041 0.39488 -3.3401 -4.5013 5.1782 -0.15702 -1.4359 -3.1108 0.065255 10.138 -7.0494 3.0071 -4.2012 3.7162 7.5296 -5.8548 -9.0413 -4.4826 6.2182 -2.8453 -6.0845 -3.0693 -7.5311 -1.2361 5.9827 -6.6382 2.2346 6.1094 7.0654 -8.1892 5.696 -5.6991 3.5483 -5.3397 7.45 -8.7676 -9.0073 11.258 -3.7317 -6.8839 10.985 -2.6574 -5.6071 -2.9786 6.5212 0.31549 -6.5318 7.0243 -3.8097 -1.843 -9.4136 -6.1566 5.7351 -53.618 -3.8842 2.9959 -3.224 6.1829 7.7863 -6.8054 5.6105 -7.3739 -3.1793 6.5197 -5.1142 -6.8668 6.0072 -7.4562 -8.968 8.4681 -10.57 3.9746 1.0801 1.131 -2.4103 2.6888 -10.653 -9.9285 7.6669 -10.63 5.5878 8.9243 7.4102 9.9816 5.5064 5.2052 3.9189 -3.9173 8.0786 9.5101 8.3046 1.79 2.6399 2.6278 -2.7547 6.6435 1.5938 7.6339 3.5596 -2.0514 1.978 -1.2283 5.479 1.0587 -4.1002 -6.1081 1.1733 -1.1272 5.7475 -4.735 5.805 -3.7299 8.4838 5.2437 6.3208 5.0547 -3.1028 -7.4617 2.653 12.544 -1.2671 6.5529 -2.9991 5.0385 4.3226 3.6392 -4.3488 8.5644 3.7194 3.6265 4.5377 -3.347 5.647 -2.1098 5.3815 -5.9348 2.732 2.4571 -4.5652 -7.9625 -3.1702 1.8363 -5.8395 -3.1306 -5.4554 0.48631 2.8309 -1.2098 -1.1867 -1.0657 -0.40318 4.8996 10.792 -7.6311 -5.9728 14.74 4.5351 -2.5463 -3.5735 -4.7163 -3.0431 -3.8194 -6.3787 9.5251 8.285 -3.1861 -6.5978 -1.6109 -6.5902 5.2904 3.5916 5.3994 1.095 -5.4344 -10.016 -5.6222 6.4879 7.535 0.74708 0.61325 -6.3278 -6.3488 -1.7398 -6.2872 2.6544 -1.4624 -6.6393 6.8584 -11.312 2.3582 -9.8149 -0.86827 8.4473 -3.915 7.1178 10.97 2.8654 10.238 -4.1588 2.1181 -1.8857 -6.7093 12.966 -8.7719 1.4997 1.8588 4.6558 -5.1293 5.6672 5.006 -5.2731
時間 1.7997 -0.98447 -1.3685 -8.2467 -0.36063 -1.3833 1.8205 1.0633 3.4609 -2.6031 0.21453 3.0279 -1.8852 -1.9521 1.9888 -0.77285 -4.5816 -2.5253 -2.8422 2.5349 1.4668 -3.1475 -1.8945 -0.60084 1.5136 -4.8911 2.7799 1.2541 1.5693 -3.6021 -0.25513 -1.0449 -4.5266 -5.5484 -3.589 -2.8106 -2.8547 -5.1993 4.7396 -3.4305 1.655 2.8045 1.8772 -2.6734 -3.0077 -1.1949 1.4239 2.4122 1.7404 1.5698 -3.1265 1.951 -0.57703 4.6804 1.2142 -1.142 -0.93241 2.5289 -2.9576 1.8772 0.31009 1.8746 0.29123 2.7174 -2.3539 -0.94677 3.1848 2.977 6.3056 -4.6675 2.6182 2.7973 -4.1995 3.9825 -4.0489 -0.020164 0.6228 2.2839 -3.105 3.7946 -1.9306 4.87 2.0206 11.545 0.82607 1.0754 1.9043 3.3439 -2.0028 -2.8497 0.51353 -1.9927 -2.7375 3.3205 -0.023865 -0.85126 -1.8781 -0.31492 6.5569 -4.3709 1.8584 -2.765 2.079 4.5925 -3.7751 -5.623 -2.8168 3.6666 -1.3243 -3.6864 -2.0383 -4.8159 -0.89534 3.8711 -4.0435 1.2353 3.668 4.4454 -4.9454 3.6933 -3.7429 2.1564 -3.6498 4.5135 -5.318 -5.5457 7.0251 -2.0651 -4.1976 7.0801 -1.3721 -3.7548 -1.9859 4.2011 0.53596 -4.1546 4.5452 -2.612 -1.4518 -5.7663 -4.0448 3.9828 -33.375 -2.6247 1.984 -2.1681 4.3197 5.3226 -4.4296 3.6931 -4.5781 -2.2143 4.0749 -3.117 -4.4614 3.6904 -4.5117 -6.0503 5.5836 -6.878 2.4196 0.96727 0.66021 -1.3985 1.503 -6.9348 -6.002 5.0522 -6.577 3.4567 5.2459 4.4874 6.0292 3.2892 3.1649 2.7394 -2.0106 4.9178 6.1008 5.2411 1.0719 1.9336 1.2597 -1.6462 4.071 1.0716 4.6367 2.0589 -1.4413 1.1183 -1.1152 3.3974 0.45021 -2.4221 -3.9962 0.96792 -0.56171 3.9623 -2.7995 3.3664 -2.0252 5.3118 3.2229 4.0208 2.5033 -2.063 -4.8584 2.1802 8.7154 -0.59788 4.4571 -1.8471 3.3809 3.0979 2.2374 -2.9032 5.5477 1.9713 2.6067 2.8773 -2.0596 3.7032 -1.3718 2.9924 -3.6913 1.8624 1.7003 -2.9651 -5.5339 -2.2042 1.203 -2.9001 -2.1874 -3.3647 -0.15406 1.9642 -0.78846 -0.74397 -0.93256 -0.093783 2.9084 6.3369 -4.6125 -3.778 9.3549 2.8238 -1.2873 -2.2084 -2.9793 -2.1688 -2.1368 -3.8459 5.7264 5.3963 -2.1229 -3.8852 -0.77712 -4.0976 3.2607 1.8266 3.3343 0.26675 -3.2633 -6.7382 -3.4893 3.6928 5.3215 0.046753 0.43815 -3.9342 -3.7967 -1.4245 -4.4203 1.8796 -1.0018 -4.5901 4.213 -6.7633 2.0055 -6.2599 -1.102 5.2947 -2.5474 4.7974 6.8886 1.3963 6.4883 -3.0494 1.9309 -0.89192 -4.0786 8.3466 -5.4242 0.90784 1.1467 2.8463 -3.0314 3.7294 3.1044 -3.2892
それ 1.6829 -1.4422 -1.4513 -7.8095 -0.46238 -1.1482 1.6099 1.1814 3.4363 -2.692 -0.035393 2.6436 -1.6032 -2.3816 2.1811 -0.83825 -4.6969 -2.4927 -2.9759 2.2096 1.5613 -2.9803 -1.926 -0.71787 1.4906 -4.6452 2.7856 1.2145 1.6083 -3.8949 -0.22056 -0.90364 -4.5797 -5.2933 -3.475 -2.678 -2.8443 -5.3877 4.7901 -3.2775 1.6896 2.7945 1.9714 -2.9649 -2.9497 -1.2529 1.4403 2.0832 2.014 1.1553 -3.3853 2.0993 -0.58002 4.6046 1.2306 -0.95796 -0.86953 2.6128 -2.9531 1.8872 0.38408 1.8487 -0.071761 2.7795 -2.3458 -1.0486 3.25 2.926 6.4038 -4.6109 2.5628 2.8244 -4.2478 3.8953 -4.0703 0.12206 0.65309 2.3762 -3.1956 3.4519 -1.7681 4.845 1.6364 11.223 0.53538 0.4136 1.801 3.3715 -2.0331 -3.0778 0.24266 -1.9671 -2.706 3.2413 0.038458 -0.92029 -2.0128 -0.14096 6.4732 -4.1969 1.95 -2.7291 2.1774 4.5165 -3.5134 -5.7883 -2.8587 3.751 -1.7279 -3.9171 -2.2427 -4.7374 -0.76313 3.7565 -4.1247 1.5499 3.841 4.2918 -4.8705 3.7966 -3.5852 2.3489 -3.1381 4.6324 -5.2583 -5.6554 7.2757 -2.2828 -4.2606 7.0661 -1.5122 -3.4838 -1.8834 3.8335 0.4832 -4.181 4.6198 -2.5807 -0.97803 -5.8891 -3.8122 3.6772 -33.734 -2.4725 1.9784 -2.1645 3.865 5.0025 -4.2496 3.7867 -4.5885 -2.0888 4.1751 -3.1603 -4.4097 4.0779 -4.7227 -6.0046 5.4164 -6.5422 2.5374 0.898 0.41923 -1.5773 1.6479 -6.5735 -6.2677 4.8642 -6.7896 3.5263 5.3667 4.6749 6.2984 3.5887 3.2237 2.5821 -2.4065 4.9696 5.8857 5.0407 1.2127 1.5742 1.5568 -1.7024 4.1665 0.90769 4.5221 2.3036 -1.2671 1.3661 -0.77443 3.4426 0.8788 -2.6101 -3.7184 0.74346 -0.39338 3.6637 -2.7764 3.7064 -2.0376 5.1022 3.3788 4.1454 3.0775 -2.0826 -4.6576 1.9517 8.0825 -0.91183 4.1113 -2.1115 3.3479 2.765 1.9812 -2.8152 5.5627 2.2124 2.4768 2.9599 -2.3315 3.7622 -1.6198 3.3085 -3.6557 1.7108 1.8887 -3.0207 -5.0714 -2.1106 1.2333 -3.7142 -1.8982 -3.2831 0.32502 1.7229 -0.66331 -0.67408 -0.92049 -0.25263 2.942 6.3576 -4.8547 -3.7783 9.171 2.9938 -1.6834 -2.0571 -3.0987 -2.1055 -2.1942 -4.181 5.9243 5.2235 -2.0488 -4.1993 -0.80729 -4.1575 3.4914 2.0782 3.3544 0.45149 -3.257 -6.321 -3.4708 4.053 4.9894 0.75827 0.45792 -3.72 -4.2239 -1.0639 -3.9608 1.7005 -0.79559 -4.0991 4.4143 -7.3369 1.7165 -6.2524 -0.96445 5.126 -2.3277 4.4456 7.2552 1.6549 6.4388 -2.5626 1.5699 -1.1094 -4.2036 8.0924 -5.3495 0.84273 0.98691 2.8488 -3.2657 3.7466 3.139 -3.2135
存在 1.8772 -1.4315 -1.4894 -7.7809 -0.54902 -1.2743 1.8941 1.1215 3.3511 -2.6577 0.23964 2.6754 -1.4528 -2.197 2.142 -0.80803 -4.7487 -2.72 -2.6905 2.4533 1.6448 -2.8684 -1.9133 -0.52174 1.3836 -4.6026 2.8813 1.2832 1.6353 -4.0474 -0.15372 -0.94681 -4.5355 -5.3187 -3.516 -2.5483 -2.8309 -5.4187 4.8918 -3.3503 1.7307 2.953 1.9468 -2.6832 -2.752 -1.4178 1.6028 2.055 1.994 1.0701 -3.358 2.3426 -0.76231 4.623 1.2601 -0.84848 -0.83127 2.5674 -2.7563 2.1483 0.38598 1.6842 0.091619 2.7548 -2.2715 -1.0434 3.1333 3.1262 6.6686 -4.5868 2.4288 2.7887 -4.0998 3.7876 -3.9065 0.3505 0.39482 2.2167 -3.3559 3.3794 -1.921 4.9612 1.8192 11.332 0.55378 0.48226 1.6457 3.476 -1.6821 -3.2746 0.23022 -2.0957 -2.9814 3.2995 0.18114 -0.7507 -1.9594 -0.022585 6.341 -4.2898 2.021 -2.7467 1.9965 4.247 -3.417 -5.5695 -2.7284 3.8957 -1.9252 -3.7867 -2.2299 -4.843 -0.89433 3.8675 -4.0378 1.5034 3.736 4.5307 -5.1883 3.9084 -3.8574 2.5479 -3.1193 4.6152 -5.3679 -5.5114 7.1505 -2.3879 -4.5553 7.1934 -1.5395 -3.5112 -1.9078 3.9462 0.34389 -4.2939 4.8402 -2.6078 -1.1075 -6.1326 -3.7221 3.7748 -33.837 -2.5567 1.877 -2.0713 4.1043 5.0048 -4.193 3.6577 -4.6323 -1.9643 3.9154 -2.9698 -4.3653 4.2017 -4.9632 -6.019 5.3023 -6.7741 2.6913 0.88788 0.50583 -1.736 1.7704 -6.8374 -6.2606 4.6546 -6.5856 3.4408 5.4334 4.6286 6.1286 3.5224 3.2432 2.553 -2.2075 5.3258 6.0551 5.1183 1.0632 1.6488 1.448 -1.8516 4.0351 0.91738 4.6466 2.2709 -1.1423 1.3259 -0.93264 3.54 0.78728 -2.7001 -3.9547 0.68588 -0.66578 3.4822 -2.9661 4.2291 -1.8953 5.0151 3.3095 3.9718 3.3013 -2.0647 -4.4745 1.8149 8.2597 -0.70076 4.094 -2.0042 3.663 3.0646 2.3283 -2.7161 5.5896 2.362 2.2891 2.598 -2.2372 3.96 -1.3624 3.1415 -3.8414 1.6957 1.9448 -3.307 -5.1046 -2.1991 1.1196 -3.8577 -1.9678 -3.4147 0.061288 1.6877 -0.75324 -0.69689 -0.92998 -0.36058 2.9471 6.3742 -4.6093 -3.8231 9.0751 2.7574 -1.4999 -2.1676 -3.0271 -2.4074 -2.1255 -4.099 5.831 5.1782 -2.092 -4.3858 -0.69372 -4.1292 3.6136 1.9281 3.1519 0.51392 -3.6056 -6.292 -3.7263 4.3495 5.4313 0.36838 0.73048 -4.1088 -4.2562 -0.93262 -3.8334 1.7821 -0.733 -4.1994 4.4484 -7.3221 1.5206 -6.2113 -0.74792 5.0955 -2.3972 4.1579 7.1632 1.4245 6.1696 -2.1923 1.7345 -0.79094 -4.0136 8.0654 -5.6218 0.58904 1.2101 2.8299 -3.2291 3.5689 3.2628 -3.4467
たち 1.6858 -1.4435 -1.6156 -7.7772 -0.8462 -1.3451 2.0913 1.0106 3.5685 -2.3676 0.17357 2.6156 -1.5264 -2.1432 2.2834 -0.66071 -4.6653 -2.2577 -2.6778 2.1451 1.746 -2.683 -1.8776 -0.80398 1.4582 -4.6601 2.6938 1.1507 1.9475 -4.0736 -0.29381 -1.1896 -4.5971 -5.4875 -3.3959 -2.6819 -2.7612 -5.5807 4.7474 -3.0992 1.5554 2.6924 1.8009 -2.824 -2.922 -1.3814 1.3277 2.1868 1.8004 1.1938 -3.3115 2.2294 -0.49016 4.3665 1.2873 -0.95116 -1.086 2.7971 -2.7537 2.1609 0.35748 1.6553 -0.046187 2.7984 -2.3107 -0.83578 3.2585 2.9441 6.2577 -4.583 2.4564 2.8152 -4.268 3.9354 -4.1014 -0.0028797 0.66806 2.2927 -3.2996 3.33 -1.8275 4.6454 1.6254 11.072 0.4661 0.50163 2.0209 3.2052 -1.9808 -3.1827 0.32231 -2.1309 -2.664 3.3379 -0.31127 -0.80144 -1.9854 -0.3219 6.4425 -4.577 1.9276 -2.7863 2.1288 4.6511 -3.729 -5.7266 -2.5737 3.6278 -1.4279 -3.9802 -1.9506 -4.6845 -0.79276 3.7733 -3.9082 1.4386 3.7379 4.3254 -4.9419 3.8743 -3.8428 2.4388 -3.1855 4.9553 -5.4965 -5.6222 6.9276 -2.3683 -4.5248 6.9459 -1.575 -3.3382 -1.7328 3.9844 0.4752 -4.3869 4.658 -2.7653 -0.81495 -5.7205 -3.7648 3.8101 -33.502 -2.4897 2.1594 -2.2769 4.1158 5.3434 -4.045 3.6666 -4.8712 -2.035 4.1609 -3.2765 -4.4322 4.0948 -4.8884 -6.032 5.5485 -6.3969 2.6073 0.79117 0.39678 -1.2864 1.6044 -6.5208 -6.3942 4.8258 -6.5629 3.6341 5.4009 4.7817 6.0439 3.4335 3.3161 2.5294 -2.2711 4.8909 5.5483 5.3429 1.0642 1.8518 1.6124 -1.4597 4.2549 0.814 4.8207 1.8751 -1.0632 1.2112 -0.85392 3.5358 0.98957 -2.4907 -3.9131 0.77799 -0.7624 3.7457 -2.8198 3.9485 -1.9873 5.1542 3.1493 4.1063 3.1331 -2.278 -4.7699 1.7449 8.3635 -0.78388 4.0975 -1.75 3.3549 2.705 2.4029 -2.7015 5.3164 2.3129 2.3688 2.9143 -1.9802 3.6261 -1.4773 3.3321 -3.6306 1.7597 1.9124 -3.4075 -4.9793 -1.9443 1.1511 -4.0041 -2.1625 -3.293 -0.096195 1.6033 -0.80771 -0.62521 -0.70877 -0.21336 2.8681 6.6407 -4.6115 -3.9227 9.2062 2.7027 -1.73 -2.0812 -3.2624 -2.3999 -2.3761 -4.1861 5.5449 5.2774 -2.07 -4.2318 -0.7165 -4.0535 3.3359 1.7534 2.9608 0.89673 -2.9831 -6.378 -3.3797 4.0129 5.0284 0.34694 0.47464 -3.7284 -3.8057 -1.0284 -4.1245 1.6611 -1.1367 -3.8862 4.7825 -6.9964 1.7618 -6.1681 -0.69841 5.3284 -2.5038 4.6535 6.8311 1.697 6.5444 -2.5371 1.4751 -1.4044 -4.389 8.2601 -5.5683 0.85203 0.86549 2.9343 -3.1809 3.4912 3.2974 -3.5752
でき 1.6054 -1.3111 -1.345 -7.6203 -0.35581 -1.2198 1.8513 0.99683 3.5156 -2.6133 0.10567 2.4198 -1.4742 -2.0992 2.0542 -0.8905 -4.5953 -2.3905 -2.8561 2.347 1.6724 -2.8978 -1.9888 -0.67493 1.5803 -5.0919 2.9026 1.0577 1.5654 -4.0389 -0.37488 -1.1954 -4.5353 -5.3602 -3.434 -2.6 -2.9534 -5.1397 5.1462 -3.1008 1.7327 2.8773 2.0325 -2.7917 -2.9593 -1.3059 1.4591 1.8241 1.7552 0.97986 -3.4566 2.1584 -0.77336 4.3583 1.2051 -0.73647 -0.95963 2.458 -2.9791 2.0913 0.3311 1.7692 0.023149 2.866 -2.302 -0.99772 3.1088 3.3125 6.5988 -4.8419 2.5249 2.7898 -4.4032 3.599 -4.0295 0.24168 0.63508 2.1839 -3.1878 3.3008 -1.6689 4.7878 1.6305 11.14 0.3273 0.63515 1.9401 3.409 -2.0298 -3.1325 0.19684 -1.9819 -2.8125 3.2657 -0.040844 -0.69602 -1.7649 -0.22567 6.3439 -4.1365 1.862 -2.9446 1.876 4.3092 -3.5479 -5.6863 -2.7583 3.7252 -1.5531 -3.8973 -2.0673 -4.7795 -0.65252 3.8261 -4.1704 1.3561 3.7949 4.2727 -5.1642 3.9021 -3.808 2.3027 -3.5165 4.6202 -5.421 -5.7573 7.1982 -2.3024 -4.3577 7.1229 -1.3939 -3.4875 -2.0639 3.9883 0.42939 -4.2611 4.6933 -2.354 -1.0833 -5.8732 -3.7962 3.7098 -33.33 -2.5026 1.8467 -1.9669 4.3204 5.1731 -4.3142 3.386 -4.6996 -1.8954 4.0192 -3.1759 -4.3769 4.1402 -4.7336 -6.0209 5.5513 -6.8538 2.7574 1.0822 0.46862 -1.7441 1.6625 -6.4876 -6.4418 4.8575 -6.645 3.4525 5.1541 4.6408 6.1543 3.5673 3.2099 2.5165 -2.3667 5.0372 5.8621 5.1237 1.2805 1.5606 1.248 -1.5793 4.27 0.9459 4.2913 2.2627 -1.3294 1.345 -1.1284 3.7741 0.6974 -2.3788 -4.0107 0.49063 -0.55106 3.8254 -2.8893 3.7478 -1.9886 4.92 3.4219 3.9495 2.9529 -2.008 -4.5236 2.0187 8.2174 -0.75542 3.9712 -1.7982 3.1946 2.8066 2.0986 -2.6963 5.4919 2.1725 2.4138 2.6727 -2.2727 3.598 -1.5024 3.2212 -3.7469 1.6699 1.6574 -2.9697 -5.2221 -1.8021 1.2239 -3.5147 -2.0254 -3.2791 0.28044 1.7141 -0.5864 -0.71011 -0.81152 0.033658 2.8838 6.1937 -4.6728 -3.795 9.3114 2.6506 -1.529 -2.0782 -3.1741 -2.2882 -2.2885 -4.0396 5.6196 5.3455 -2.0321 -4.326 -0.92085 -4.2139 3.6921 2.0255 3.5973 0.89724 -3.3184 -6.3082 -3.6583 3.7738 5.0142 0.44355 0.68809 -3.9346 -4.4712 -1.0455 -3.9472 1.6519 -0.76915 -4.1647 4.4085 -7.1722 1.6201 -6.1894 -0.8588 5.1372 -2.2073 4.0703 6.9876 1.6616 6.2611 -2.7351 1.3163 -1.1052 -4.1671 8.0421 -5.2429 0.69698 1.0279 2.9069 -3.1195 3.6974 3.378 -3.187
決定 1.6919 -1.0271 -1.8671 -7.8706 -0.56062 -1.1483 1.6589 1.2376 3.4183 -2.5289 0.098799 2.4291 -1.5775 -2.0997 2.4036 -0.43246 -4.8321 -2.5984 -2.6256 2.2988 1.2544 -2.936 -2.0269 -0.93878 1.442 -5.0013 2.8899 1.4063 1.6293 -3.9743 -0.20651 -0.82638 -4.6813 -5.7467 -3.5347 -2.7376 -2.6966 -5.1703 5.0147 -3.2768 1.799 3.0392 2.0427 -2.6061 -2.7315 -1.549 1.1716 2.0198 2.0311 1.068 -3.3917 2.3318 -0.97589 4.9891 0.9279 -0.38237 -1.1628 2.3825 -2.8471 2.0518 0.40519 1.8527 0.18643 2.9963 -2.5751 -0.92715 2.8504 3.0367 6.3487 -4.8356 2.5954 2.7853 -4.301 3.7282 -4.4435 -0.047435 0.58301 1.9901 -3.2647 3.707 -1.7294 5.0703 1.6399 11.509 0.60787 0.36638 2.3096 3.9618 -1.8135 -2.9102 0.39999 -2.4784 -2.8229 3.2103 0.010465 -1.3059 -1.8744 -0.054825 6.3133 -4.129 1.6414 -2.7113 1.8512 4.5543 -3.5272 -6.1897 -2.6333 3.928 -1.6925 -3.6409 -1.9356 -4.6535 -0.71109 3.7859 -4.1986 1.334 3.8527 4.3667 -4.9545 4.316 -3.8118 2.2636 -3.3358 4.5787 -5.0529 -5.3982 7.2919 -2.5965 -3.9668 7.1518 -1.3463 -3.3519 -1.8348 4.1758 0.30238 -4.7137 4.479 -2.5714 -1.0959 -5.6379 -4.0495 3.9211 -34.022 -2.4646 1.6816 -2.0172 4.1074 5.3377 -4.3497 4.1669 -4.5365 -2.3146 4.1927 -3.363 -4.4109 3.8716 -5.004 -5.7747 5.2918 -7.0654 2.3985 1.0599 0.36447 -1.2913 1.7763 -7.1438 -6.7346 4.8769 -6.8769 3.5782 5.4383 4.571 6.2439 3.3213 2.9626 2.4295 -2.1441 5.1533 6.1639 5.3498 1.0816 2.2935 1.5386 -2.0402 3.8355 0.3603 4.4824 2.3396 -0.74569 1.508 -0.86983 3.3411 0.78905 -2.5749 -4.22 0.88872 -0.58299 3.8836 -2.8025 4.0477 -2.2333 5.1613 3.3109 4.2081 2.8625 -2.2943 -4.7599 2.2378 8.4701 -1.4605 3.9197 -1.6884 3.188 2.801 2.2383 -3.1424 5.9312 2.7183 2.7488 2.8532 -2.0479 3.3705 -1.7514 3.8232 -4.0465 1.6271 2.3161 -3.0542 -4.8994 -1.7601 0.95937 -3.4261 -1.8349 -3.4781 0.28308 1.4076 -0.66784 -0.91042 -0.52547 0.0065474 3.2676 6.5536 -4.9778 -4.2442 9.0588 3.1698 -1.4676 -1.9198 -3.2462 -2.3221 -2.2737 -4.2002 5.9242 5.5704 -2.0396 -3.543 -0.84115 -4.1822 3.3688 2.067 3.0883 0.92408 -3.3898 -6.6158 -4.0868 3.9108 5.2823 0.31986 0.32404 -4.0278 -4.5251 -1.1142 -3.8451 1.8924 -0.54998 -3.8182 3.9837 -6.9885 1.5573 -6.486 -0.59009 5.5401 -2.4241 4.4247 7.1334 1.6631 6.0795 -2.3867 1.5656 -0.85895 -4.1347 8.2174 -5.4538 0.49487 1.532 2.6161 -3.1643 3.6177 2.8796 -3.2199
彼 2.528 -2.3612 -2.3352 -12.543 -0.95615 -2.0617 2.9059 1.809 5.3614 -4.1124 0.24816 4.2835 -2.6055 -3.5225 3.4254 -1.0688 -7.2535 -3.9455 -4.5541 3.6739 2.4854 -4.5572 -3.0124 -1.2613 2.3871 -7.1391 4.2841 2.0166 2.9426 -6.3362 -0.22468 -1.6886 -7.3781 -8.8359 -5.1059 -4.2136 -4.2162 -8.7697 7.4298 -5.105 2.7348 4.4236 2.9912 -4.5141 -4.5229 -2.3283 2.1657 3.4804 3.2044 1.9373 -5.3522 3.5264 -1.1213 7.5163 1.9233 -1.4831 -1.4247 4.0139 -4.5381 3.243 0.54044 2.8357 0.064392 4.5339 -3.6642 -1.5878 5.0694 4.8637 10.032 -7.2468 3.9651 4.2692 -6.7324 6.2786 -6.496 0.20103 0.9971 3.524 -5.319 5.5555 -2.9327 7.6979 2.5698 17.921 0.79715 0.64586 3.1562 5.4213 -3.1353 -5.0136 0.37791 -3.4368 -4.166 5.2696 -0.09559 -1.3769 -3.0247 -0.21172 10.172 -6.8401 2.8961 -4.3802 3.5632 7 -5.7445 -9.1605 -4.2585 5.7983 -2.8261 -6.1802 -3.3827 -7.8469 -1.061 5.9699 -6.3933 2.281 5.9978 7.1404 -7.9186 5.9016 -5.9353 3.5417 -5.2742 7.465 -8.4254 -9.0937 11.344 -3.6829 -6.9358 11.294 -2.3313 -5.3247 -3.0158 6.4915 0.76332 -6.79 7.3647 -4.1737 -1.7633 -9.2644 -6.1953 5.6682 -53.896 -3.8667 3.255 -3.4889 6.5079 8.2602 -6.4654 5.9774 -7.1293 -3.0313 6.3307 -5.0001 -7.113 6.4148 -7.5473 -9.6702 8.6395 -10.266 3.9535 1.2059 0.78836 -2.6343 2.8144 -10.276 -10.051 7.7212 -10.748 5.8319 8.4448 7.556 9.7158 5.5584 5.1075 3.9919 -3.647 7.8876 9.3193 8.4168 1.9413 2.583 2.1687 -2.5974 6.6988 1.3856 7.3352 3.4914 -2.0703 2.4293 -1.8183 5.4946 1.2791 -4.3149 -6.1344 1.0917 -1.0346 5.7529 -4.4976 6.0457 -3.2515 7.9518 5.0275 6.414 4.9968 -3.2457 -7.1441 2.9299 12.971 -1.2956 6.3584 -3.0615 5.4992 4.476 3.6939 -4.159 8.6685 3.5541 3.9799 4.5047 -3.3736 5.6971 -2.318 5.386 -5.5491 2.5114 3.3432 -4.7253 -8.0678 -3.1167 2.0093 -5.9445 -3.262 -5.3499 0.39153 2.4792 -1.191 -0.84631 -1.1538 -0.11473 4.8785 10.468 -7.3287 -6.303 14.6 4.233 -2.5036 -3.1682 -5.0435 -3.464 -3.242 -6.2622 9.1763 7.9753 -3.2933 -6.4565 -1.2452 -6.8889 5.6358 3.0952 5.1311 0.96519 -5.1346 -9.7124 -5.4004 6.4863 8.095 0.87388 0.7117 -5.9538 -6.4088 -1.5561 -6.2826 2.652 -1.4712 -6.0444 7.0904 -11.523 2.6465 -9.8402 -1.3398 8.3637 -3.7618 6.9512 11.181 2.8293 10.263 -4.0661 2.4386 -1.7165 -6.7721 12.811 -8.3843 0.99619 1.4166 4.3684 -4.9492 5.5783 5.244 -5.3996
一 2.8526 -2.3459 -2.1759 -12.96 -1.0554 -1.7956 2.6982 1.6288 5.1212 -4.0441 0.25825 4.1919 -2.4879 -2.8619 3.1501 -0.98997 -7.1855 -3.6119 -4.3472 3.504 2.2152 -4.3628 -2.8996 -0.9005 2.2225 -7.0074 4.3889 1.8777 2.7183 -6.4128 -0.14937 -1.4962 -7.1888 -8.7802 -5.2489 -4.1433 -4.1985 -8.7989 7.6936 -5.0729 2.9075 4.437 3.1746 -4.2563 -4.2991 -2.3653 1.764 3.4622 3.08 2.1256 -4.9406 3.5901 -1.2542 7.2564 1.9991 -1.3004 -1.1975 4.4428 -4.6099 3.521 0.52661 2.7007 -0.13351 4.1591 -3.6169 -1.4114 5.3034 5.157 9.8601 -6.9084 3.9794 4.506 -6.4017 6.1219 -6.55 0.44999 0.8736 3.3 -5.0576 5.6614 -3.0533 7.8664 2.6594 17.878 0.77379 0.69866 2.9518 5.4409 -3.267 -4.7983 0.25117 -3.5451 -4.2579 5.3461 0.069519 -1.6031 -2.9399 -0.11884 10.108 -6.8927 2.7341 -3.9461 3.341 7.0883 -5.5812 -9.2762 -4.4964 5.8061 -2.7449 -5.8785 -3.3513 -7.5489 -1.27 6.1735 -6.1706 2.0765 5.7927 7.1973 -7.9026 5.8831 -6.1159 3.8939 -5.0523 7.1366 -8.241 -8.8438 10.923 -3.6526 -6.7552 11.144 -2.2386 -5.1849 -3.1221 6.6287 0.2199 -6.9757 7.0273 -4.1582 -1.7185 -9.341 -6.2145 5.9502 -52.881 -4.1774 3.1418 -3.3685 6.6744 7.916 -6.649 5.959 -7.2523 -3.2064 5.9192 -4.8564 -6.9495 6.3466 -7.7981 -9.2712 8.5545 -10.411 3.8715 1.4087 0.77259 -2.578 2.6155 -10.666 -10.148 7.2734 -10.772 5.3766 8.5815 7.1604 10.321 5.1616 5.1774 3.7462 -3.5126 8.2489 9.3737 8.2377 1.6725 2.4989 2.4659 -3.0402 6.4306 1.578 7.5449 3.2969 -1.7442 1.9664 -1.3824 5.3656 1.3757 -4.2284 -6.2802 0.95951 -0.67126 5.9608 -4.7092 6.2035 -3.3978 8.1376 4.8087 6.2974 5.2005 -3.0697 -7.6266 2.6516 13.038 -1.1929 6.5845 -2.8747 5.5124 4.5156 3.7358 -4.3687 8.8034 3.5764 3.8567 4.8039 -3.2284 5.5483 -2.6451 5.4612 -5.7143 2.4564 3.0594 -4.7128 -7.9892 -3.0067 1.8439 -5.9384 -2.9446 -5.657 0.3471 3.1448 -0.72987 -0.69591 -1.3659 0.0092076 4.7359 10.547 -7.2146 -6.2577 14.641 4.2473 -1.7783 -3.8266 -4.9125 -3.1122 -3.4044 -6.0318 9.6184 8.0158 -3.0351 -6.5268 -1.1705 -6.6419 5.2717 3.1902 5.3111 1.0566 -5.4706 -10.16 -5.7646 6.4761 8.0163 0.54026 0.80205 -6.5078 -6.4165 -1.6508 -6.4807 2.6339 -0.9841 -6.484 7.0068 -11.515 2.688 -9.9505 -1.2655 8.4616 -3.9922 7.058 11.689 2.7148 10.515 -4.0545 2.3878 -1.6368 -6.7387 12.973 -8.8867 1.5287 1.7667 4.4611 -4.5243 5.8738 4.9415 -5.5387
べ 2.64 -2.2798 -2.5019 -12.865 -0.80935 -2.0439 2.7155 1.7082 5.3104 -3.8129 0.034903 3.893 -2.6227 -3.341 3.6758 -1.234 -7.3776 -3.6569 -4.5091 3.5394 2.595 -4.7556 -2.9133 -1.0793 1.98 -7.6516 4.241 2.251 2.6602 -6.5696 -0.22084 -1.5507 -7.3104 -8.6838 -5.2915 -4.0491 -4.6366 -8.8822 7.685 -5.1542 2.5967 4.5763 3.0364 -4.3735 -4.4579 -2.1369 2.1356 3.5593 3.0525 1.7949 -5.2835 3.5301 -1.1298 7.0398 2.0614 -1.5099 -1.5773 4.0554 -4.4064 3.181 0.65809 2.7716 -0.19029 4.7175 -3.8022 -1.342 5.0612 4.8292 10.202 -6.9202 3.978 4.1901 -6.9267 6.1591 -6.7775 0.020673 0.88693 3.4518 -4.9507 5.4479 -2.8814 7.7804 2.5005 18.318 0.7573 0.74717 3.0568 5.4564 -2.7214 -4.9612 0.29112 -3.5446 -4.3667 4.9192 -0.21025 -1.531 -3.1287 -0.25859 10.035 -6.7132 3.1736 -4.315 2.9843 7.3168 -5.6099 -9.1682 -4.2689 6.0154 -2.8499 -6.0196 -3.2032 -7.9645 -0.89689 6.1307 -6.7119 2.2904 5.9317 6.8691 -8.3034 6.0045 -6.0094 3.7372 -5.3648 7.4013 -8.5796 -8.8985 11.17 -3.7819 -6.8687 11.112 -2.5324 -5.3407 -3.1155 6.5574 0.79183 -6.9684 7.3903 -3.8406 -1.8641 -9.1944 -5.9061 6.0235 -54.364 -3.7128 3.0718 -3.5516 6.6709 7.9678 -6.6638 5.9663 -7.1199 -3.0902 5.9867 -5.0813 -6.4604 6.3484 -7.5538 -9.4167 8.5915 -10.559 3.9085 1.2696 0.7526 -2.355 2.6122 -10.637 -10.169 7.8051 -10.658 6.0129 8.8298 7.5228 10.339 5.3875 5.2358 4.1603 -3.4572 8.1124 9.4507 8.4228 2.033 2.6961 2.041 -2.4598 6.66 1.4421 7.1769 3.381 -1.7825 1.9894 -1.7518 5.5289 1.2418 -4.1928 -5.9049 1.0958 -0.84214 6.2732 -4.7282 5.7665 -3.3625 8.3429 5.0918 6.1069 4.8478 -3.1623 -7.3317 2.974 12.776 -1.333 6.3593 -3.0879 5.1852 4.6864 3.5278 -4.3051 8.7131 3.5614 3.6774 4.4403 -3.0522 5.5735 -2.3299 5.4444 -6.1171 2.5388 2.7788 -5.0583 -7.8866 -3.0339 1.974 -5.947 -3.0629 -5.2985 0.48628 2.682 -0.94219 -0.92209 -0.99261 -0.14891 4.6199 10.381 -7.3781 -6.376 14.791 4.2589 -2.635 -3.345 -4.9134 -3.4249 -3.3025 -6.2894 9.3926 8.2192 -2.9256 -6.8012 -1.6024 -6.5012 5.7626 3.0999 5.5962 1.2763 -5.2518 -10.408 -5.666 6.7259 7.8533 0.57145 0.82095 -6.3034 -6.2894 -1.7073 -6.2203 2.9026 -1.2181 -6.556 6.9425 -11.159 2.6863 -10.136 -1.2734 8.3193 -3.8792 7.0016 11.502 2.656 10.138 -4.2268 2.2877 -1.9195 -6.4071 12.917 -8.8076 1.2048 1.4778 4.7133 -5.1106 5.8153 5.0799 -5.4794
あ 2.6604 -2.6274 -2.3672 -12.742 -0.88346 -2.0097 2.5485 1.6575 5.0655 -3.9087 0.12948 3.7418 -2.7726 -3.4089 3.4544 -0.95559 -7.2716 -3.7832 -4.6043 3.721 2.6085 -4.6205 -3.0696 -1.3688 2.4367 -7.57 4.2838 2.3893 2.674 -6.6658 -0.23235 -1.8701 -7.059 -8.8068 -5.2703 -4.3016 -4.6649 -8.8901 7.7263 -4.8841 2.8828 4.2189 2.7515 -4.4578 -4.3725 -2.1419 2.0174 3.4916 3.1423 1.9188 -5.0584 3.5667 -1.3742 7.3222 1.9474 -1.363 -1.3757 4.288 -4.1728 3.386 0.92127 2.7541 0.14129 4.7228 -3.2097 -1.3118 4.9535 4.6929 10.175 -6.746 3.7392 4.3074 -6.4697 6.2038 -6.7114 0.58602 0.9824 3.6196 -5.0356 5.5826 -2.9572 7.4594 2.8241 18.149 0.83466 0.96873 3.3071 5.5344 -2.9727 -4.9759 0.47306 -3.54 -4.3026 5.0536 -0.4917 -1.4184 -3.0371 0.067987 10.315 -7.0625 2.9874 -4.0794 3.3229 7.3091 -6.1095 -9.2615 -4.3097 6.1941 -3.0814 -5.9474 -3.1652 -7.7324 -1.2609 5.7865 -6.5688 2.4288 5.862 7.1102 -8.1678 6.0216 -5.4268 3.7091 -5.5133 7.346 -8.591 -9.0571 11.009 -3.5047 -6.5967 11.012 -2.6471 -5.4451 -3.0631 6.3796 0.5242 -6.3805 7.5132 -3.5055 -1.9715 -9.3207 -6.368 5.8406 -53.765 -3.8025 2.8885 -3.2624 6.4829 7.8954 -6.605 5.9568 -7.4257 -3.0161 6.0281 -4.7104 -6.6058 6.2436 -7.5139 -9.235 8.6442 -10.452 3.7603 1.1097 1.0112 -2.6866 2.5764 -10.649 -10.257 7.7256 -10.543 5.7281 8.3327 7.43 10.163 5.7711 5.3124 3.9999 -3.4948 8.2583 9.5069 8.2877 1.7248 2.9723 2.2396 -2.4896 7.0698 1.4012 7.2549 3.4719 -2.0128 1.9564 -1.3643 5.3261 1.1632 -4.1147 -6.2641 1.1536 -0.84872 5.9717 -4.6167 5.8098 -3.5882 8.1042 4.9017 6.2891 4.7709 -3.3574 -7.3842 2.6778 12.68 -1.435 6.5312 -3.375 5.1733 4.1353 3.5184 -4.2915 8.6819 3.3742 3.8477 4.2546 -2.9556 5.4931 -1.996 5.4438 -5.9032 2.886 2.8003 -4.7162 -7.8093 -3.1387 2.2209 -5.8246 -3.155 -5.7547 0.22132 2.7071 -1.0579 -0.9656 -1.1705 -0.033064 4.7002 10.63 -7.1975 -6.0633 14.711 4.2347 -2.5856 -3.5535 -5.1022 -2.8894 -3.3716 -6.43 9.2891 8.1729 -3.2716 -6.5013 -1.6415 -6.5078 5.388 3.1493 5.445 1.1429 -5.3526 -9.8404 -5.7871 6.3922 7.7367 1.089 0.6524 -6.3385 -6.0807 -1.7747 -6.2266 2.6282 -0.8952 -6.4593 6.763 -11.302 2.5515 -9.8717 -1.0164 8.3227 -3.943 6.964 11.056 2.7384 10.132 -4.1598 2.4865 -2.124 -6.5349 12.915 -8.9051 1.6158 1.666 4.4745 -4.9424 5.4626 5.1096 -5.45
私 2.8057 -2.383 -2.4214 -12.951 -1.1885 -1.9567 2.9054 1.8135 5.2732 -3.8943 0.25371 4.1241 -2.5795 -3.343 3.5879 -0.84779 -7.2756 -3.7237 -4.4031 3.4666 2.6545 -4.4702 -2.7916 -0.98255 2.4282 -7.3309 4.5079 1.9095 3.0574 -6.4424 -0.16214 -1.6198 -7.2656 -8.8497 -5.2736 -4.0876 -4.4648 -8.9067 7.4594 -5.1243 2.7505 4.4521 2.9825 -4.3733 -4.7181 -2.1893 2.0186 3.3243 3.0703 1.8069 -5.252 3.4437 -1.1727 6.9946 2.0582 -1.2521 -1.603 3.9147 -4.7002 3.0204 0.5186 2.8205 0.2115 4.5701 -3.7515 -1.3388 5.1638 4.8865 10.155 -7.3048 4.0187 4.352 -6.9884 6.2555 -6.539 0.34421 0.93032 3.4576 -5.4248 5.5289 -3.0126 7.7059 2.7125 17.911 0.7895 0.78989 3.2374 5.3968 -2.9859 -5.0267 0.35491 -3.6494 -4.2716 5.4259 -0.13037 -1.2788 -3.3436 0.047507 10.205 -6.8396 2.986 -4.3226 3.3476 7.2269 -5.8832 -9.3549 -4.0867 6.0962 -2.5502 -6.252 -3.4682 -7.5685 -1.0828 5.9534 -6.3794 2.268 5.703 6.9413 -8.2101 5.9088 -6.0633 3.5401 -5.2113 7.4873 -8.5337 -9.0749 11.475 -3.6481 -6.9636 11.145 -2.4064 -5.6243 -2.8856 6.2229 0.71035 -6.9523 7.4483 -4.1912 -1.5643 -9.3129 -6.0303 5.4974 -54.382 -3.7583 3.1507 -3.4554 6.6751 8.2074 -6.6486 6.1025 -7.4867 -3.0342 6.3386 -5.2457 -6.9991 6.1625 -7.7513 -9.6402 8.3942 -10.463 3.9918 1.014 0.65071 -2.6241 2.482 -10.531 -10.251 7.6463 -10.755 5.7765 8.7619 7.3603 9.9456 5.8599 4.9452 4.1782 -3.7619 8.1206 9.5564 8.1021 1.8903 2.822 2.202 -2.6178 6.9034 1.3797 7.4326 3.2748 -2.0773 2.4068 -1.761 5.5173 0.96715 -4.1457 -5.9714 1.1141 -1.1183 6.1262 -4.7416 5.7238 -3.2001 8.0701 5.2147 6.1159 4.9134 -3.3664 -7.4837 3.2708 12.907 -1.117 6.4038 -2.9722 5.3507 4.2888 3.6606 -4.5395 8.8257 3.4966 3.7933 4.4603 -3.6605 5.8323 -2.3007 4.9776 -5.9466 2.5943 2.8985 -4.7774 -7.9967 -3.2505 1.8955 -6.0594 -3.1718 -5.2384 0.34942 2.7074 -1.2488 -0.84505 -1.0512 -0.14373 4.6979 10.605 -7.501 -5.967 14.481 4.5391 -2.2356 -3.4308 -5.0627 -3.3591 -3.4205 -6.4066 9.5638 8.2599 -3.1931 -6.6686 -1.4884 -6.8627 5.4305 3.5443 5.4192 1.1637 -4.9866 -10.026 -5.5819 6.4909 7.8421 0.95154 0.71174 -6.3443 -6.551 -1.9053 -6.2756 2.5196 -1.567 -6.5695 7.0925 -11.152 2.6425 -9.7724 -0.96632 8.0473 -3.7907 7.027 11.107 2.5759 10.24 -3.8476 2.4396 -1.9743 -6.7668 13.142 -8.5525 1.4002 1.4016 4.6459 -5.2053 5.6093 5.0127 -5.2298
す 2.5895 -2.4905 -2.4053 -13.085 -0.80879 -1.571 2.6398 1.7816 5.1488 -3.8956 0.2203 3.8553 -2.6 -3.0883 3.4722 -1.2845 -7.3573 -3.4651 -4.6716 3.6079 2.437 -4.2737 -3.1421 -1.2372 2.3982 -7.4576 4.489 2.0876 2.4883 -6.1881 -0.35115 -1.5806 -7.162 -9.0812 -5.3607 -4.2436 -4.8589 -8.7294 7.7433 -5.2211 2.5608 4.444 2.8764 -4.3521 -4.4635 -2.0745 2.0608 3.2181 2.8888 2.0332 -4.9896 3.2542 -1.144 7.3498 2.2281 -1.1966 -1.159 4.2328 -4.4238 3.3733 0.57585 2.6824 -0.23043 4.6874 -3.8546 -1.3853 5.2063 4.7097 10.128 -7.1595 3.6481 4.2922 -6.7544 6.3163 -6.8103 0.45771 1.1039 3.4713 -5.2178 5.5289 -3.0817 8.0697 2.9549 18.101 0.80294 1.0374 2.9886 5.3054 -2.9107 -4.9731 0.54998 -3.462 -4.3303 5.2949 -0.014553 -1.3308 -2.9934 -0.17376 10.291 -6.9728 2.9462 -4.0929 3.5441 7.2193 -5.7272 -9.3123 -4.2979 5.7262 -3.1411 -6.0868 -3.1465 -7.8586 -1.1743 6.0811 -6.6888 2.3256 6.0828 6.8957 -8.4888 5.9442 -5.9376 3.4186 -5.6618 7.1835 -8.7419 -9.1314 11.301 -3.6363 -6.8797 11.364 -2.6996 -5.5315 -2.9495 6.3326 0.3311 -6.585 7.6364 -3.7206 -1.8643 -9.2193 -6.1163 6.0888 -53.767 -4.0146 3.2119 -3.2738 6.7596 7.8657 -6.8537 5.7985 -7.5145 -3.0319 6.2611 -4.9058 -6.644 6.3513 -7.3885 -9.1741 8.7045 -10.225 4.0261 1.3859 0.84433 -2.4239 2.3063 -10.806 -10.323 7.5034 -10.773 5.6936 8.7937 7.1923 10.039 5.2922 5.3292 4.292 -3.5606 7.9293 9.4518 8.4422 1.8005 2.8169 2.6163 -2.8177 6.6613 1.6435 7.3943 3.478 -1.8419 1.9893 -1.6105 5.4422 1.0802 -4.1972 -5.9923 0.94943 -0.88194 6.2362 -4.4758 6.0484 -3.4503 8.3295 5.2282 6.3325 4.9988 -3.4381 -7.465 2.6675 12.827 -1.2329 6.4387 -2.9673 5.2527 4.197 3.5925 -4.1804 8.9566 3.6505 3.7111 4.1541 -3.1675 5.5866 -1.9583 5.2704 -5.8808 2.5814 2.7363 -4.5619 -7.6175 -3.2391 1.9077 -5.9355 -3.1297 -5.3662 0.41057 2.8886 -1.2817 -1.0718 -1.303 -0.30894 4.9289 10.55 -7.1886 -6.2544 14.83 4.366 -2.5806 -3.579 -5.1832 -3.1701 -3.5437 -6.4112 9.0835 8.2223 -3.2101 -6.7271 -1.662 -6.4201 5.341 3.5315 5.5999 1.2987 -5.4708 -10.158 -5.5932 6.4123 7.8366 0.74329 0.78662 -6.2233 -6.3834 -1.3742 -6.4687 2.7845 -0.99583 -6.7504 6.7142 -11.145 2.5725 -10.013 -1.291 8.2582 -3.9787 7.0067 11.202 2.7474 9.8944 -4.3112 2.0456 -2.1585 -6.343 13.156 -8.7192 1.2027 1.479 4.5266 -5.0763 5.8139 4.983 -5.274
る 2.7593 -2.2799 -2.3811 -12.936 -1.0532 -1.8661 2.4837 1.7491 4.9935 -3.9256 0.17617 4.085 -2.6922 -3.0525 3.5863 -1.1609 -7.3238 -3.5152 -4.6734 3.8391 2.5076 -4.5919 -3.2848 -1.2689 2.3459 -7.3728 4.3345 2.2452 2.973 -6.4608 -0.049804 -1.679 -7.0319 -9.0023 -5.2583 -3.8838 -4.5656 -8.8823 7.5066 -5.1311 2.6517 4.2421 2.8393 -4.3847 -4.5104 -2.1249 2.2834 3.2666 2.9366 2.1413 -5.2569 3.7136 -1.3662 7.4578 1.931 -1.2618 -1.4624 4.4135 -4.292 3.3388 0.79134 2.5999 0.0022496 4.7918 -3.9793 -1.5396 4.9842 4.5413 10.292 -6.846 3.4298 4.1972 -6.7382 6.0646 -6.6482 0.54794 0.77432 3.4963 -4.9256 5.5437 -2.8348 8.0144 2.8601 17.962 0.80002 0.76583 3.0957 5.3522 -3.2028 -4.8381 0.52167 -3.5297 -4.5196 5.0855 -0.2247 -1.5913 -3.3242 -0.17411 10.298 -6.7139 3.2058 -3.7969 3.2913 7.5757 -5.9408 -9.1785 -4.204 5.7909 -3.0199 -6.0762 -2.8404 -7.7191 -1.0394 5.9251 -6.5766 2.4808 6.0183 6.9076 -8.13 5.9086 -5.5077 3.6281 -5.3079 7.0089 -8.4415 -8.8343 11.388 -3.6564 -7.2815 11.241 -2.6511 -5.4475 -3.1556 6.0106 0.59672 -6.7189 7.4687 -4.0462 -1.6815 -9.0219 -5.9508 5.9417 -53.319 -3.8315 2.6304 -3.3579 6.5523 8.125 -6.3315 6.1459 -7.3845 -2.905 6.1516 -4.8835 -6.5949 6.2494 -7.556 -9.2458 8.368 -10.13 3.9124 1.3305 0.90967 -2.5808 2.428 -10.588 -10.282 7.4883 -10.381 5.5638 8.6224 7.067 9.871 5.4475 5.39 4.2194 -3.4159 8.0733 9.4295 8.3046 1.7003 2.9415 2.4191 -2.8423 6.8606 1.6339 7.3316 3.5948 -1.9217 1.8467 -1.5091 5.514 1.0005 -4.1659 -6.1697 1.1326 -1.0919 5.9579 -4.8843 5.981 -3.4813 8.2411 5.0713 6.1395 5.2139 -3.409 -7.1797 2.8293 12.605 -1.1796 6.4198 -2.7743 5.4332 4.3585 3.7891 -4.2455 8.7177 3.3946 4.1362 4.388 -2.9311 5.4004 -2.4369 5.1841 -5.9134 2.8446 2.7996 -4.8659 -7.7634 -3.1278 2.0355 -5.7226 -3.2534 -5.4349 0.45746 2.6733 -1.1911 -0.98626 -1.3361 -0.24013 4.7948 10.505 -7.3012 -5.9871 14.352 4.3492 -2.41 -3.4671 -4.9028 -3.1409 -3.6362 -6.239 9.1171 7.9627 -3.2776 -6.7252 -1.4166 -6.7751 5.6154 3.1647 5.472 0.94707 -5.4086 -9.6374 -5.7476 6.424 7.6206 0.93906 0.61748 -6.2633 -6.5065 -1.4567 -6.3838 2.6355 -1.5899 -6.6985 6.5371 -11.188 2.7152 -9.7748 -1.2093 8.3358 -3.9975 7.0829 11.03 2.536 10.234 -3.9305 2.3887 -2.0136 -6.5248 13.15 -8.7331 1.3994 1.3326 4.4354 -5.0724 5.4674 5.0335 -5.4178
何 2.6988 -2.2864 -2.3124 -12.859 -1.1973 -2.0854 2.7712 1.7877 5.5472 -4.1874 0.21346 4.0473 -2.4625 -3.4244 3.5588 -1.0794 -7.3136 -3.6752 -4.4411 3.5805 2.462 -4.6406 -3.0431 -1.2021 2.2354 -7.3761 4.5495 2.0897 2.9317 -6.2149 -0.3591 -1.6559 -7.3206 -8.7507 -5.4528 -4.2654 -4.6331 -8.9988 7.5794 -5.1327 2.65 4.5791 3.2109 -4.7852 -4.5247 -1.9663 2.0335 3.4771 3.2053 2.0018 -5.1786 3.3927 -1.1892 7.3968 1.9254 -1.2838 -1.4704 4.099 -4.4568 3.1925 0.57024 2.7979 0.012085 4.5511 -3.7271 -1.5458 5.2375 4.796 10.165 -7.337 3.8974 4.1179 -6.8142 6.0834 -6.6433 0.33892 0.87854 3.5129 -5.1888 5.4689 -2.9503 7.7102 2.5642 18.239 0.84016 0.65118 3.0798 5.3033 -2.8972 -4.9162 0.48504 -3.4665 -4.3992 5.2663 -0.018162 -1.3316 -3.1293 -0.39838 10.421 -6.6393 2.9445 -4.3841 3.2235 7.1171 -5.8896 -9.2584 -4.3042 5.7767 -2.7718 -6.2661 -3.3819 -7.6233 -1.1853 6.0033 -6.5633 2.2334 5.9739 6.9785 -7.8706 5.959 -5.7023 3.6677 -5.1843 7.4826 -8.5551 -9.1331 11.486 -3.5838 -7.1691 11.333 -2.3534 -5.4574 -3.1916 6.4519 0.67594 -6.9537 7.4162 -4.051 -1.8843 -9.0372 -6.2251 5.7538 -54.439 -3.9815 2.8496 -3.3742 6.7352 8.0362 -6.5952 5.9458 -7.3333 -3.3701 6.2193 -5.1263 -6.9176 6.2808 -7.5549 -9.6776 8.4087 -10.473 4.1781 1.3582 0.83774 -2.6269 2.4798 -10.375 -10.368 7.5335 -10.909 5.7828 9.001 7.2371 9.9787 5.666 5.0137 4.0324 -3.7701 8.0782 9.6052 8.4458 2.0275 2.7552 2.4216 -2.6567 6.6333 1.4291 7.411 3.5837 -2.058 2.3064 -1.6586 5.3859 1.248 -4.054 -6.2625 1.1904 -1.0943 6.1596 -4.6153 5.6577 -3.1754 8.0597 5.0791 6.2536 4.8376 -3.0855 -7.4968 3.1674 13.162 -1.1982 6.2836 -2.9441 5.5089 4.2336 3.6572 -4.5149 8.9365 3.659 3.811 4.6133 -3.4106 5.646 -2.6179 5.1095 -5.817 2.5446 2.9101 -4.8016 -8.2039 -3.1878 2.1325 -5.9211 -3.036 -5.2438 0.37039 2.8726 -1.0854 -0.89962 -1.1076 -0.21854 4.7439 10.428 -7.4853 -6.172 14.412 4.4866 -2.3114 -3.3617 -4.9489 -3.3592 -3.4198 -6.1448 9.521 8.35 -3.0683 -6.7296 -1.136 -6.9291 5.4336 3.2875 5.5099 1.0456 -5.288 -9.8064 -5.5402 6.2832 7.9639 0.96313 0.96215 -6.2654 -6.3359 -1.7211 -6.2952 2.5244 -1.3594 -6.6894 7.2013 -11.242 2.6268 -9.8501 -1.0687 7.9414 -3.6875 6.7759 11.56 2.6714 10.225 -3.852 2.3693 -1.979 -6.5685 12.859 -8.5506 1.2283 1.5707 4.6095 -4.978 5.4595 4.8553 -5.2363
例 2.8614 -2.3909 -2.3301 -12.483 -0.90345 -2.0564 3.0001 1.6709 5.1608 -3.921 0.068534 4.0428 -2.5857 -3.2447 3.4803 -1.1408 -7.4749 -3.8024 -4.3498 3.6451 2.6108 -4.5275 -2.7965 -1.1156 2.2156 -7.4375 4.1866 2.0976 2.7382 -6.2297 -0.054104 -1.6266 -7.2516 -8.6565 -5.3097 -4.2432 -4.3457 -8.772 7.6904 -5.2382 2.4937 4.4244 3.2688 -4.1673 -4.6541 -2.2318 2.2871 3.1403 3.0976 1.9557 -4.9283 3.4071 -1.1888 7.5212 2.0547 -1.2398 -1.343 4.0004 -4.5793 3.2071 0.53408 2.701 0.25285 4.6129 -3.6756 -1.2585 5.0741 4.9982 10.247 -6.8831 3.9534 4.2176 -6.7038 6.2217 -6.4868 0.37145 1.0226 3.3371 -4.9481 5.5441 -3.1585 7.9432 2.8273 18.223 0.73344 0.71734 3.0982 5.4885 -3.0936 -4.8379 0.62557 -3.6908 -4.3904 5.0681 -0.093916 -1.5172 -2.9107 -0.054016 10.241 -6.8418 2.6785 -4.0615 3.2874 7.1758 -5.6374 -9.1985 -4.1909 5.8717 -3.032 -6.1357 -3.3043 -7.9212 -1.4538 6.0095 -6.6786 2.3242 5.8795 6.9283 -8.2729 5.8031 -5.7675 3.5687 -5.3142 7.0952 -8.5096 -9.288 11.53 -3.3673 -7.131 11.498 -2.461 -5.418 -2.8513 6.7066 0.49056 -6.7547 7.3901 -3.9785 -1.7889 -9.4626 -6.2492 5.7809 -54.304 -3.827 3.2579 -3.3695 6.4293 7.8618 -6.5117 5.9681 -7.4175 -2.7785 6.0638 -4.9628 -7.055 6.557 -7.6597 -9.5346 8.3557 -10.597 3.9779 1.3793 0.85882 -2.5422 2.7625 -10.911 -10.093 7.4832 -10.825 5.6909 8.5829 7.0411 10.039 5.6866 5.1494 3.9221 -3.7207 8.0991 9.5442 8.2327 1.5558 2.8246 2.0795 -3.081 6.7918 1.506 7.3142 3.4707 -2.1957 2.5144 -1.8753 5.4393 1.4694 -4.2788 -6.1063 1.2341 -0.76767 6.1887 -4.6943 6.2437 -3.4205 7.9916 5.1315 6.4719 5.0754 -3.2392 -7.1891 2.9612 13.19 -1.0409 6.382 -3.1304 5.2897 4.2163 3.4286 -4.6029 8.6221 3.5192 3.912 4.4253 -3.5979 5.3956 -2.4793 5.0643 -5.5755 2.6367 2.7742 -4.8759 -8.1068 -3.378 2.1328 -5.9021 -3.1796 -5.4698 0.43913 2.7917 -1.3779 -0.87485 -1.2502 -0.37204 4.7849 10.307 -7.6235 -6.219 14.384 4.3318 -2.2727 -3.5042 -5.0049 -3.1387 -3.4716 -6.3533 9.1913 8.1109 -3.1779 -6.5896 -1.0925 -6.5218 5.5182 3.1611 5.5112 1.2552 -5.113 -9.7811 -5.7773 6.2922 7.9369 0.63519 1.0038 -6.4442 -6.3948 -1.5794 -6.484 2.8627 -1.0005 -6.8059 6.9826 -11.365 2.5194 -10.065 -1.161 8.0251 -4.1397 6.8626 11.377 2.4211 10.171 -3.8285 2.689 -1.716 -6.2808 13.002 -8.4829 1.1892 1.7433 4.5668 -5.1053 5.7233 4.9113 -5.3641
予定 1.6499 -1.5089 -1.5214 -8.107 -0.82296 -1.2281 1.737 1.0698 3.185 -2.9677 0.2718 2.655 -1.5811 -1.9322 2.1511 -0.69557 -4.7041 -2.3378 -2.88 2.2859 1.4357 -2.9822 -2.0898 -0.52674 1.6057 -4.6162 2.7916 1.5666 1.6862 -3.8531 -0.39631 -1.0705 -4.5869 -5.4429 -3.658 -2.7769 -2.9198 -5.4239 5.1683 -3.2592 2.0361 3.0376 1.9035 -2.8609 -3.0079 -1.4094 1.4429 2.1195 1.7999 1.0847 -3.183 2.1146 -0.92822 4.7914 1.3753 -0.8938 -1.0682 2.417 -2.8819 2.0094 0.31435 1.6716 0.039484 2.9218 -2.4733 -1.0061 3.0498 3.1839 6.606 -4.5701 2.4462 2.4374 -4.2232 4.0871 -4.0998 0.022084 0.80049 2.1085 -3.3974 3.6376 -1.7981 5.0053 1.7366 11.883 0.453 0.13611 1.9893 3.4496 -2.108 -2.9825 0.32973 -2.3679 -2.6394 3.3174 -0.14084 -0.91337 -1.8487 0.06591 6.4977 -4.5598 1.6231 -2.6224 1.6085 4.2788 -3.502 -5.9629 -2.8333 3.8098 -1.7158 -3.805 -2.0586 -5.1025 -0.8744 4.0696 -4.241 1.4117 3.639 4.48 -4.8963 3.6849 -4.0189 2.3192 -3.3121 4.7542 -5.6281 -5.4835 7.1101 -2.2606 -4.1125 6.9392 -1.4341 -3.2679 -1.8962 4.3358 0.28644 -4.4927 4.5192 -2.2006 -1.2409 -5.7448 -3.9132 3.8043 -34.146 -2.4976 1.7432 -2.1236 4.0762 4.9914 -4.2215 3.7917 -4.5311 -2.1757 3.9311 -3.2379 -4.4992 3.9799 -5.3264 -6.1506 5.8522 -7.0517 2.5727 1.1223 0.39883 -1.8169 1.7253 -6.9727 -6.5347 4.8264 -6.7552 3.7765 5.3884 4.1918 6.3222 3.5592 3.4059 2.6645 -2.3317 5.0821 5.8175 5.4382 1.1314 2.1658 1.0858 -2.0267 4.1969 1.012 4.3672 1.9387 -1.2195 1.6674 -1.1055 3.4742 0.59219 -2.4344 -4.0468 0.6428 -0.43958 4.0068 -2.9346 3.7064 -2.2205 5.2609 3.3952 3.9267 2.9297 -2.1312 -4.7221 2.2152 8.5131 -0.97771 4.0666 -1.6728 3.3484 3.1928 2.1816 -2.4921 5.5041 2.1739 2.5897 3.0078 -1.8817 3.3553 -1.5934 3.2384 -3.644 1.809 2.274 -3.0616 -4.8856 -1.724 1.1755 -3.2563 -1.8874 -3.5604 0.1636 1.7372 -0.47342 -0.58724 -0.58599 -0.12578 3.1073 6.6333 -4.4804 -4.0245 9.1778 2.8791 -1.5337 -1.958 -3.1571 -2.0411 -2.206 -4.2377 5.7505 5.2413 -1.73 -3.8327 -0.80695 -4.1697 3.2248 2.3611 3.6274 0.76202 -3.328 -6.4799 -3.7053 3.8207 5.1479 0.52455 0.54658 -3.4688 -4.018 -1.1655 -3.5731 1.9136 -0.71109 -4.1424 4.3782 -7.1328 1.6995 -6.2165 -0.91311 5.3271 -2.3558 4.622 7.0569 1.6218 6.2642 -2.7378 1.4747 -0.87316 -4.2489 8.2839 -5.345 0.8225 1.1826 3.0302 -3.2148 4.1167 2.9964 -3.1095
ち 2.8415 -2.3675 -2.5591 -12.668 -1.0819 -1.8693 2.2997 1.8678 5.2957 -3.8641 0.17918 4.4325 -2.479 -3.3391 3.7705 -1.5177 -7.4216 -3.5178 -4.7768 3.6192 2.3865 -4.5434 -3.0652 -0.80551 2.3478 -7.3562 4.2271 2.1919 2.5078 -6.3209 -0.57747 -1.542 -7.2958 -9.0688 -5.1129 -4.1141 -4.7141 -9.0227 7.8058 -4.6608 2.4048 4.2693 2.8778 -4.481 -4.4689 -2.1582 1.8536 3.3891 2.8098 2.048 -5.189 3.4964 -0.98059 7.3809 2.2418 -1.4961 -0.95613 4.3921 -4.5879 3.4654 0.57504 2.6557 -0.1999 4.6763 -3.5287 -1.4354 5.034 4.6748 10.369 -6.9499 3.7889 4.4473 -6.7986 6.1797 -6.4202 0.33187 0.75133 3.3314 -4.8553 5.5467 -2.6896 7.7801 2.7906 18.385 0.6063 0.85963 3.1707 5.2742 -3.0142 -4.8735 0.37002 -3.5796 -4.2642 5.2195 -0.24188 -1.0589 -2.9731 -0.20188 10.121 -7.1811 3.1479 -3.9723 3.4333 7.34 -5.8689 -9.2283 -4.5427 5.8983 -2.8312 -5.8812 -3.4518 -7.5252 -1.0997 6.1979 -6.4054 2.478 6.079 7.1378 -8.0111 5.9529 -5.7786 3.4237 -5.3744 7.4704 -8.28 -8.6362 11.162 -3.6384 -7.0851 11.135 -2.4133 -5.3264 -3.0382 6.3624 0.74248 -6.768 7.303 -4.1196 -2.2028 -9.1513 -5.8894 6.1174 -53.996 -4.0419 2.8852 -3.3376 6.6797 7.9629 -6.8623 5.8828 -7.4698 -3.3647 6.2786 -4.755 -6.8188 6.2242 -7.7346 -9.5479 8.5116 -10.306 3.9012 1.5447 0.75251 -2.5884 2.8863 -10.664 -10.297 7.7876 -10.436 5.9775 8.5277 7.1736 10.026 5.5928 4.9029 3.6583 -3.6929 8.0972 9.1524 8.5132 1.8147 2.8759 2.327 -2.6643 6.4099 1.6407 7.7026 3.6443 -1.858 1.9881 -1.5245 5.3923 1.0758 -4.1382 -6.0549 1.0589 -1.186 6.0691 -4.4476 5.8972 -3.6673 8.2489 5.3336 6.4073 5.2879 -3.1587 -7.083 2.3596 12.707 -1.3711 6.7996 -3.0101 4.9396 4.315 4.0506 -4.4315 8.8261 3.4091 3.8217 4.3035 -3.0206 5.8476 -2.0259 5.5851 -5.6275 2.8781 2.8177 -4.8573 -7.8069 -3.4351 2.0229 -5.7088 -3.3499 -5.3869 0.22361 2.5775 -1.3045 -1.1274 -1.0269 -0.35495 4.4619 10.641 -7.1884 -6.2009 14.735 4.2749 -2.491 -3.1952 -4.8516 -2.9829 -3.443 -6.4058 9.2491 8.0375 -3.5653 -6.6724 -1.5103 -6.568 5.305 3.4913 5.3363 1.4776 -5.5912 -9.7715 -5.539 6.691 7.5837 0.74432 0.86789 -6.7456 -6.1547 -1.3731 -6.3405 2.8829 -0.9655 -6.5091 6.9555 -11.394 2.7353 -10.092 -1.1751 8.2427 -4.1072 6.8823 11.028 2.8431 9.8793 -3.9625 2.557 -1.9063 -6.7708 12.807 -8.8416 1.0791 1.4467 3.9106 -5.2631 5.8033 4.8965 -5.6001
判断 1.8576 -1.1126 -1.51 -7.9582 -0.75723 -1.3324 1.6989 0.93038 3.3307 -2.5685 0.10757 2.2751 -1.2834 -2.0968 2.237 -0.7738 -4.6787 -2.5508 -2.5524 2.165 1.7042 -3.1495 -2.3854 -0.81126 1.3893 -4.8752 3.0302 1.3148 1.3532 -3.9481 -0.35797 -0.83552 -4.6915 -5.3279 -3.5542 -2.8196 -3.0875 -5.1439 4.9607 -3.345 1.6867 3.0769 1.8718 -2.7197 -3.0531 -0.98065 1.3452 1.999 2.1043 1.5167 -3.6167 2.2102 -1.0212 4.5034 1.1083 -0.82714 -1.1855 2.3618 -2.9532 2.1392 0.3071 1.7052 0.18063 2.8283 -2.393 -1.1205 3.3094 3.1884 6.2704 -4.5643 2.7536 2.7186 -4.2731 4.1485 -4.3228 -0.01547 0.35912 2.2981 -3.3369 3.4215 -2.0491 5.0433 1.7894 11.121 0.44713 0.26814 1.9505 3.5219 -1.9545 -2.8343 0.11243 -2.5291 -2.8191 3.0976 -0.18768 -1.0639 -1.9777 -0.048506 6.58 -3.8451 1.8044 -2.6201 2.1385 4.6525 -3.642 -5.9843 -2.7196 3.8232 -1.6001 -3.9743 -2.2906 -4.7928 -0.50469 3.5807 -4.3445 1.3539 3.6285 4.2839 -4.9051 3.7739 -3.9233 2.2761 -3.3447 4.7105 -5.4514 -5.6227 7.0177 -2.4938 -4.3697 7.1492 -1.5504 -3.4996 -1.8655 3.9074 0.5237 -4.3662 5.1458 -2.5916 -1.1728 -6.1163 -3.7213 3.4825 -34.771 -2.5101 1.6924 -2.3438 4.2907 5.0774 -4.3015 3.8545 -4.5921 -2.1177 4.2363 -3.4082 -4.3727 3.9632 -4.7031 -6.1378 5.3026 -6.5607 2.5251 0.74018 0.30421 -1.6271 1.719 -6.4906 -6.5279 4.8621 -6.9091 3.6325 5.4284 5.0439 6.4477 3.57 3.1013 2.7085 -2.4201 4.9723 6.0747 5.4209 1.3792 1.5732 1.2164 -1.5969 4.2994 1.0054 4.4434 2.1948 -1.2912 1.3936 -1.1477 3.5404 0.78249 -2.7807 -3.8511 0.75347 -0.67962 4.1091 -3.0032 3.6355 -2.0572 5.2764 3.4058 4.2068 3.1313 -1.9928 -4.6951 1.8446 8.2256 -0.80014 4.1421 -1.6788 3.3941 2.5289 1.9694 -2.8702 5.8406 2.2882 2.4964 2.8741 -2.2765 3.6353 -1.5112 3.3531 -3.935 1.4899 1.9102 -3.0077 -5.0106 -1.7619 1.1345 -3.7692 -1.8785 -3.3695 0.15231 1.4409 -0.51093 -0.94789 -0.62063 -0.29716 3.0364 6.4085 -4.9618 -3.9856 9.5673 3.0309 -1.5141 -2.393 -3.3772 -2.008 -2.3668 -4.1878 5.9545 5.3786 -1.91 -4.3553 -0.8638 -4.6072 3.3522 2.1219 3.8544 0.88985 -3.4473 -6.5541 -4.3847 4.2243 4.8985 0.18125 0.49712 -4.0964 -4.5181 -1.0845 -3.9457 1.7384 -0.6709 -3.9185 4.1793 -6.9469 1.4233 -6.1304 -0.71987 5.1948 -2.5848 4.5171 7.1295 1.3713 6.3863 -2.4224 1.3375 -0.97128 -4.2655 8.4183 -5.1914 0.80316 1.461 2.7663 -3.1313 3.7261 3.4489 -3.4391
主要 1.7337 -1.4527 -1.9112 -7.8201 -0.60781 -1.4217 1.8776 1.0264 3.5099 -2.4867 0.26598 2.5829 -1.4812 -2.1281 2.5495 -0.7734 -4.586 -2.491 -3.0843 2.4606 1.6047 -2.7393 -1.638 -0.53102 1.4964 -4.8452 2.8601 1.2262 1.7285 -3.9122 0.017998 -0.76068 -4.7459 -5.0499 -3.7888 -3.1211 -2.9667 -5.4827 5.0142 -2.9715 2.259 2.6507 2.2748 -2.8254 -2.6992 -1.6927 1.4612 2.1934 1.8344 1.0065 -3.2872 1.9895 -0.62352 5.1061 1.3005 -0.84119 -0.97776 2.5839 -2.5481 2.1395 0.17964 1.645 0.074868 2.8383 -2.2781 -1.0614 2.9407 3.1779 6.2692 -4.3564 2.3091 2.5952 -4.1592 4.2769 -4.0896 0.27023 0.53817 2.133 -3.4293 3.6526 -2.0294 4.8293 1.7124 11.569 0.31406 0.37428 2.0825 3.5236 -1.7121 -2.8686 0.30583 -2.2509 -2.6301 3.4884 -0.070307 -1.0972 -1.8282 0.040943 6.6105 -4.5683 1.7988 -2.6193 2.0778 4.4975 -3.478 -5.9276 -2.6271 3.8072 -1.7202 -3.8716 -2.0305 -5.3596 -0.90781 3.8378 -4.1539 1.4847 3.981 4.4238 -5.2013 3.7231 -3.8066 2.5918 -3.1481 4.6466 -5.4892 -5.4845 7.3817 -2.3658 -4.339 7.2137 -1.5786 -3.4124 -1.8081 3.7088 0.20096 -4.2877 4.5414 -2.6393 -1.2071 -5.9756 -4.0358 3.734 -33.81 -2.2897 2.0978 -2.3536 4.1183 5.1595 -4.43 3.8931 -4.4324 -2.0235 3.8033 -3.0174 -4.4693 4.0905 -4.8741 -5.883 5.627 -7.0162 2.4098 0.96915 0.53588 -1.7822 1.8648 -7.0082 -6.2844 4.7129 -6.8353 3.5715 5.3569 4.5107 6.3375 3.5608 3.3097 2.2136 -2.1836 5.4794 5.7916 5.3597 0.92287 1.8361 1.378 -1.791 4.2518 0.89142 4.7645 2.3857 -1.277 1.3068 -0.99626 3.1111 0.91613 -2.5268 -4.124 0.51693 -0.52827 3.9621 -2.6688 3.6971 -2.2462 5.2357 3.3189 4.3499 3.0812 -1.7658 -4.5548 1.8241 8.1257 -0.8596 4.1842 -1.8321 3.6694 3.171 2.2501 -2.8223 5.0782 2.1763 2.4641 2.6945 -2.3063 3.5251 -1.4291 3.3049 -3.6566 1.9268 2.1379 -3.3939 -5.0672 -1.9644 1.0743 -3.7742 -2.0201 -3.6831 -0.23282 1.6879 -0.7064 -0.68165 -0.91751 -0.35244 2.9066 6.5368 -4.5929 -3.7206 9.2935 2.7096 -1.4747 -2.2694 -3.1052 -2.072 -2.1678 -4.1822 6.0046 5.0331 -1.8663 -4.1672 -0.86431 -4.4457 3.4741 1.7098 3.1371 0.65011 -3.5405 -6.0468 -3.7509 4.2364 5.2638 0.3469 0.80369 -4.0717 -3.6255 -0.96058 -3.7841 1.6556 -0.68638 -4.2588 4.4658 -7.4704 1.88 -6.5694 -0.7863 5.2277 -2.5617 4.2164 7.2227 1.6195 5.9349 -2.0758 1.5491 -0.91943 -4.0575 8.4572 -5.3647 1.2048 1.1212 3.0484 -3.7099 3.9469 3.2233 -3.4278
頭 2.838 -2.0836 -2.2584 -12.599 -0.74207 -2.0154 3.0347 1.5864 4.9577 -4.0961 0.40009 3.8435 -2.3598 -3.0569 3.1214 -1.2852 -7.1543 -3.9962 -4.3895 3.4684 2.6239 -4.7387 -2.6353 -1.2104 2.3464 -7.2841 3.9444 1.9115 2.7022 -6.3342 -0.20668 -1.7396 -7.4884 -9.1569 -5.2426 -4.1557 -4.3899 -8.9103 7.6151 -5.1299 2.3517 4.4651 2.9134 -4.6593 -4.4683 -2.3642 2.2869 3.636 3.1491 1.9156 -5.0757 3.4828 -1.0562 7.6538 2.3956 -1.2667 -1.0958 4.3628 -4.4332 3.4708 0.50571 2.5533 -0.059535 4.4354 -3.7898 -1.674 5.0156 4.911 10.091 -7.2861 3.5278 3.9353 -6.6381 6.0593 -6.7743 0.39413 1.3344 3.8643 -5.1243 5.589 -2.9575 7.7329 2.6931 17.795 0.82042 0.64242 3.255 5.5219 -3.4151 -5.0729 0.6718 -3.6918 -4.4318 5.1261 -0.35915 -1.718 -3.1232 -0.013065 10.034 -7.0888 2.909 -4.5092 3.3409 7.1934 -5.5427 -9.2937 -4.3041 5.9999 -2.6636 -5.8068 -3.1739 -7.776 -1.5016 6.1262 -6.9032 2.4561 5.9735 7.1885 -8.0183 5.6221 -5.9617 3.6304 -5.3698 7.2731 -8.6746 -8.9689 11.375 -3.5278 -7.0131 11.339 -2.2107 -5.6185 -2.7489 6.5317 0.32535 -7.0072 7.4911 -4.1851 -1.9411 -9.1334 -6.022 5.7223 -54.458 -4.0117 3.3111 -3.4637 6.6672 7.9808 -6.6656 5.9499 -7.0652 -3.3153 6.2357 -4.7725 -7.1266 6.2253 -7.6287 -9.5781 8.4475 -10.507 3.962 1.7425 0.7621 -2.2868 2.6372 -10.609 -10.354 7.4855 -10.585 5.8659 8.5507 7.0849 10.192 5.5524 4.81 4.25 -3.5207 8.0391 9.706 8.3535 1.5763 2.7141 2.3998 -2.5499 6.8946 1.4124 7.4055 3.2239 -1.7045 2.3497 -1.4521 5.684 1.3582 -4.4574 -6.0063 0.93715 -0.80467 6.0775 -4.787 5.8242 -3.4538 8.354 5.5281 6.6872 5.388 -3.2761 -7.3315 2.5975 13.159 -1.0654 5.8548 -2.8654 5.3545 4.284 3.7346 -4.277 8.7775 3.4476 4.032 4.3572 -3.2534 5.6832 -2.2313 5.4025 -5.608 2.1682 2.816 -4.7323 -8.2089 -3.3948 2.0287 -5.9724 -2.8205 -5.3462 0.22202 2.9276 -1.3782 -0.59755 -1.3268 -0.20548 4.8342 10.549 -7.584 -6.3206 14.451 4.398 -2.2475 -3.4561 -4.9995 -3.1969 -3.3121 -6.166 9.3827 8.4292 -3.236 -6.5416 -1.2453 -6.8103 5.3069 2.9757 5.3201 0.81705 -5.4057 -9.8111 -5.3345 6.362 7.868 0.90996 0.84239 -6.5615 -6.4134 -0.94787 -6.1802 2.4348 -0.99186 -6.7819 7.1785 -11.432 2.9149 -9.8684 -1.2869 8.1072 -4.0332 7.1164 11.385 2.8197 10.322 -4.1887 1.9156 -2.0336 -6.5339 12.927 -8.4871 1.2684 1.8823 4.618 -5.2348 5.8592 4.9756 -5.6119
件 2.8331 -2.4717 -2.4366 -13.068 -1.1913 -2.1219 2.7949 1.9266 4.9738 -4.1535 0.47468 3.9831 -2.556 -3.1073 3.3693 -0.85232 -7.2931 -3.9726 -4.7597 3.394 2.4075 -4.4891 -3.1476 -1.1008 2.3799 -7.6314 4.5769 2.1465 2.539 -6.1516 -0.133 -1.4653 -7.2519 -8.8195 -5.1038 -4.1834 -4.1801 -8.6775 7.6502 -5.2625 2.6338 4.104 3.2015 -4.478 -4.6848 -2.2972 2.1562 3.3755 2.9449 2.0679 -4.9373 3.6572 -0.65912 7.5078 1.898 -1.1375 -1.7717 3.7136 -4.3856 2.9033 0.45121 2.8312 0.11505 4.4542 -3.6555 -1.3565 5.399 4.8783 9.9987 -6.9046 3.8178 4.6258 -6.6432 6.3773 -6.3245 0.21119 0.51884 3.5912 -5.4857 5.5486 -3.2453 7.9253 2.6961 17.867 0.84087 0.42283 2.8591 5.58 -2.7812 -4.8302 0.30619 -3.5297 -4.4906 5.1514 -0.0055019 -1.6351 -2.9941 -0.004276 10.308 -6.7783 2.9843 -4.1019 3.0935 6.9 -5.2935 -9.4055 -4.2307 6.2341 -2.7509 -6.1596 -3.1114 -7.6946 -1.259 6.2164 -6.7333 2.4146 6.0813 7.094 -8.2034 5.6613 -5.4547 3.7883 -5.5777 7.2028 -8.1297 -9.0298 11.538 -3.526 -7.0439 11.265 -2.2679 -5.5459 -3.0784 6.0417 0.41897 -6.9946 7.5771 -4.0796 -1.7726 -9.3842 -6.1848 5.894 -54.333 -3.8553 3.4263 -3.5668 6.7394 7.8822 -6.6304 5.9335 -7.1691 -3.1147 6.1433 -5.1972 -6.9991 6.3821 -7.532 -9.5664 8.8108 -10.416 4.2675 1.3492 0.8597 -2.5465 2.5089 -10.622 -10.361 7.4428 -10.474 5.7985 8.5813 7.074 10.195 6.0406 4.8696 3.9864 -3.645 8.2494 9.6533 8.7411 1.6456 2.9854 2.302 -3.4025 6.7187 1.5756 6.9865 3.5125 -2.0826 2.7787 -1.7628 5.4917 1.033 -4.2759 -5.9671 1.0798 -0.87894 6.0305 -4.7266 5.5814 -3.5638 8.1269 4.9443 6.1452 4.5963 -3.2265 -7.5078 3.1567 13.158 -1.4418 6.228 -3.0673 5.3334 4.3217 3.7994 -4.3451 8.7114 3.6655 3.8371 4.8742 -3.5776 5.7332 -2.2578 5.2749 -5.82 2.7516 3.1666 -4.598 -8.4644 -3.2541 2.0541 -6.0991 -3.115 -5.2074 0.62301 2.5652 -1.6021 -0.61026 -1.3334 0.16192 4.736 10.198 -7.4474 -6.2195 14.419 4.5183 -2.3356 -3.7969 -4.7938 -2.9125 -3.6524 -6.0918 9.7636 8.2495 -2.9519 -6.4781 -1.4151 -6.9219 5.4117 3.5591 5.2838 1.1419 -5.0232 -9.7114 -5.9412 6.6087 7.7411 0.74672 0.99153 -6.7089 -6.422 -1.3164 -6.1674 2.443 -1.2551 -6.1767 6.6731 -11.012 2.5526 -10.121 -0.97366 8.27 -3.968 6.8937 10.88 2.261 10.029 -3.5058 2.4804 -1.8184 -6.5706 13.197 -8.4801 1.025 1.7707 4.79 -4.5624 5.8586 5.0831 -5.461
君 2.7227 -2.3032 -2.0968 -12.921 -1.2142 -1.3091 2.9351 1.6302 5.2118 -3.8133 0.32998 3.948 -2.6247 -3.3323 3.6866 -0.86614 -7.5848 -3.8393 -4.5485 3.703 2.3458 -4.3551 -2.8262 -1.1751 2.5107 -7.4966 4.2537 2.0961 3.0111 -6.5038 -0.31665 -1.7196 -7.4248 -9.0755 -5.5186 -4.198 -4.4056 -9.1314 7.4084 -5.4141 2.6822 4.7283 2.8382 -4.5312 -4.2981 -2.3272 2.1217 3.5031 3.1155 1.8621 -5.1541 3.7861 -1.1271 7.4458 2.1218 -1.2137 -1.3944 3.9 -4.2739 3.574 0.37128 2.5794 -0.18462 4.3375 -3.6249 -1.2997 5.2284 4.7934 10.509 -6.91 3.4852 4.4977 -6.7228 6.0679 -6.6254 0.37634 1.0408 3.2681 -5.2911 5.6808 -2.8186 7.5561 2.6403 18.161 0.80069 0.66864 3.2654 5.6135 -2.966 -5.1667 0.53261 -3.596 -4.1887 5.781 -0.2949 -1.4266 -3.076 -0.087708 10.48 -7.1087 3.1413 -4.4688 3.6063 7.2997 -6.0712 -9.3968 -4.3707 6.004 -2.7668 -6.0965 -3.0539 -7.5492 -1.055 6.1274 -6.4361 2.2715 5.7929 6.7501 -8.1008 5.9065 -5.7005 3.6863 -5.3164 7.5065 -8.7831 -8.9379 11.48 -3.6352 -7.0872 11.13 -2.9327 -5.6092 -2.8387 6.4962 0.48316 -6.7796 7.0589 -3.9602 -1.9982 -9.4171 -6.165 5.9999 -54.552 -4.083 3.2852 -3.4057 6.675 8.0512 -6.654 5.9855 -7.7646 -3.2091 6.2144 -5.1502 -6.7215 5.949 -7.8308 -9.4441 8.3857 -10.752 4.1349 1.5237 0.66994 -2.8884 2.5445 -10.953 -10.372 7.7219 -10.563 5.9734 8.5062 7.1796 9.8067 5.8106 4.8965 3.8348 -3.5739 8.0803 9.2854 7.8646 1.8477 3.0274 2.2689 -2.407 6.9094 1.3248 7.4728 3.0758 -1.8553 2.5926 -1.8391 5.6864 0.78183 -4.4952 -6.0126 0.93912 -0.95415 5.6303 -4.7388 6.0087 -3.3931 8.1304 5.0744 6.5026 5.0126 -3.2166 -7.4075 3.3378 12.998 -1.4146 6.4486 -3.0399 5.3959 4.329 3.5495 -4.3809 8.9253 3.7595 3.7969 4.2878 -3.2263 5.6788 -2.1992 5.3754 -5.6177 2.4674 3.1829 -4.713 -8.0169 -3.3328 1.9821 -6.1216 -3.0355 -4.9801 0.31365 2.673 -1.3 -0.95122 -0.98872 0.062605 4.9027 10.459 -7.5011 -6.3578 14.466 4.0495 -2.3635 -3.7626 -5.264 -3.3542 -3.4601 -6.355 9.6179 8.2791 -3.1483 -6.7405 -1.1462 -6.9752 5.5528 3.5459 5.2725 0.93998 -5.1524 -9.8653 -5.8335 6.5704 7.8979 0.77632 0.61349 -5.9259 -6.3573 -1.7554 -6.3964 2.8242 -1.9093 -6.5683 7.0856 -11.469 2.6232 -9.6485 -1.2518 8.0717 -4.0417 6.9602 11.321 2.7436 10.299 -3.9928 1.8244 -2.055 -6.5509 13.328 -8.8384 1.2877 1.039 4.3936 -4.9566 5.2316 4.612 -5.4866
