#Parameter# /MlpAttender.dd4040ad/_0 {32,32} 16385 ZERO_GRAD
+9.02775601e-02 +5.59725463e-01 +5.19780934e-01 -2.01867059e-01 +2.83112619e-02 +4.38569963e-01 -6.57464713e-02 -5.22297263e-01 +3.03213615e-02 +3.82113129e-01 +3.89603749e-02 +9.15129110e-02 -6.71358928e-02 -4.40108657e-01 +1.56615704e-01 -4.67941940e-01 +4.07875240e-01 -7.94166978e-03 -4.02907610e-01 -1.82204053e-01 +4.97795969e-01 -2.75639832e-01 -4.90012079e-01 -9.01824683e-02 +2.20700398e-01 +3.79108280e-01 -2.96463937e-01 +7.16562718e-02 +5.19212008e-01 -1.93217155e-02 -8.51493627e-02 +4.14062917e-01 -1.14016064e-01 +1.89621657e-01 -4.61170869e-03 +2.05140740e-01 +4.66947220e-02 +2.49753550e-01 -1.25680482e-02 -1.26752824e-01 -2.28831276e-01 -2.47308314e-01 -1.98294625e-01 +2.14544646e-02 -9.71903503e-02 +3.67914326e-02 +1.55074477e-01 -4.76056598e-02 +7.52146542e-02 -4.19884659e-02 -1.86837509e-01 -1.20505519e-01 +3.00084442e-01 +1.58685938e-01 -3.38817984e-01 +1.15421087e-01 +2.54931092e-01 -1.38403922e-01 -3.84701490e-01 -1.33643597e-01 -3.01152498e-01 +2.38538831e-01 +1.42642379e-01 -6.25285804e-02 +1.84338734e-01 -1.69418871e-01 -2.15133309e-01 +3.40031207e-01 +1.23436861e-01 +1.31264016e-01 +1.52070984e-01 +1.14863798e-01 +6.02516308e-02 -1.11119539e-01 -1.09972619e-01 -2.11706180e-02 -2.94275850e-01 -1.27691322e-03 -2.36069672e-02 -2.71514446e-01 -7.68169835e-02 +2.50655621e-01 +6.84352592e-02 -2.51717150e-01 -2.86372881e-02 -1.56335652e-01 -4.03470546e-02 +1.82083830e-01 -1.40142545e-01 +1.49422795e-01 -2.08911762e-01 +1.78097650e-01 +8.65236446e-02 +1.89884901e-02 -2.53069699e-01 +1.67635888e-01 +3.19173813e-01 -5.76969944e-02 -9.96805355e-02 -8.23670626e-02 -6.51622340e-02 +1.10492788e-01 +2.80415654e-01 +2.11644158e-01 +3.43878418e-01 +1.06772803e-01 -1.18692786e-01 -1.09726936e-02 -6.83021545e-02 -9.50773135e-02 +1.10224836e-01 +8.42478499e-02 -1.29933834e-01 +5.49174435e-02 +1.20885938e-01 +1.01107180e-01 +8.20119977e-02 +3.33386511e-02 -1.35919452e-01 -5.51494844e-02 -1.12835392e-01 +4.13183838e-01 +1.82623327e-01 +2.45262399e-01 -1.66131973e-01 -2.89956033e-01 +1.44539610e-01 -2.99463302e-01 +2.15935692e-01 +3.22026342e-01 -1.57604352e-01 -1.94784984e-01 -4.58008163e-02 -2.59805501e-01 +3.20321284e-02 +1.71359822e-01 +3.93776953e-01 -3.39373082e-01 -1.18995413e-01 +1.95187554e-01 -9.13607329e-02 -6.55757561e-02 -3.12478900e-01 +3.61115605e-01 +1.46249682e-01 +1.00621305e-01 +3.91214229e-02 +4.08130437e-01 -2.01007187e-01 -8.46332759e-02 +1.68830231e-01 -1.06739379e-01 -3.05268645e-01 +2.78048933e-01 +8.72731730e-02 +2.29498431e-01 +1.21750273e-01 +1.13614812e-01 -2.84457266e-01 +1.93887144e-01 -1.72716781e-01 +2.19368711e-01 +2.49481350e-01 +6.76133558e-02 +3.96981947e-02 +2.94948250e-01 +2.40757406e-01 +1.31677046e-01 -7.75898546e-02 +3.22584987e-01 -4.02498007e-01 -1.84338912e-01 +1.41903818e-01 -2.59028703e-01 +4.71018925e-02 -9.90902856e-02 -4.81969379e-02 -2.60172784e-01 -3.72452974e-01 -3.72407287e-01 +3.27849567e-01 -3.07373017e-01 -1.96232542e-01 -2.30841085e-01 +6.68758480e-03 +2.10919887e-01 -1.64318308e-01 +3.87784481e-01 +5.36977351e-02 +5.23977652e-02 +1.05686933e-01 +3.54249358e-01 -9.13739949e-02 +6.86158091e-02 +1.59578070e-01 +2.49781102e-01 -1.72712617e-02 -1.81754097e-01 -2.29134127e-01 -2.50132382e-01 -1.96442127e-01 +1.80953190e-01 -2.77361989e-01 -2.58649647e-01 -1.92625791e-01 -3.65499973e-01 +3.06219101e-01 -1.29542768e-01 -1.86085314e-01 +2.86084443e-01 +1.24105826e-01 -2.20912606e-01 +3.17407548e-01 +3.06485802e-01 -2.21092045e-01 -1.39686048e-01 -2.18005881e-01 +2.61221989e-03 +9.21616554e-02 +3.36974293e-01 +4.09701437e-01 +3.18819582e-01 -1.50195941e-01 -1.57998890e-01 +7.11799115e-02 +8.92021731e-02 +3.36689740e-01 -2.71255285e-01 -1.15943216e-01 +5.50226010e-02 +3.97656053e-01 -8.21298510e-02 -3.77430320e-01 -2.18482330e-01 -2.17782021e-01 +3.29616755e-01 +2.80338287e-01 -9.14358124e-02 -4.44842987e-02 +1.97870567e-01 -2.10215822e-01 -2.90604532e-01 -1.04713291e-01 +4.01977710e-02 -2.33874321e-01 +5.89394234e-02 -3.25818092e-01 +1.73981756e-01 +4.24923033e-01 -3.57892424e-01 -4.03976977e-01 -2.28748173e-01 +1.58857033e-01 +3.70533131e-02 +1.74815163e-01 +3.02506685e-01 +8.24447125e-02 +1.72481939e-01 -2.23881900e-02 +1.70089588e-01 +2.33473241e-01 +2.31579676e-01 +2.73521334e-01 -3.18821007e-03 -1.68109566e-01 +3.10094297e-01 +2.15378776e-02 -7.10404813e-02 +2.28992060e-01 +2.89790750e-01 -1.43864796e-01 -3.53970975e-01 +3.94060582e-01 -1.78121567e-01 +1.35544851e-01 -3.28336775e-01 -2.86452025e-01 +3.54328915e-03 +1.01789914e-01 -8.75609964e-02 -1.84969246e-01 +3.62203658e-01 -1.71347246e-01 -3.06660794e-02 -9.15619731e-02 +1.00611486e-01 -3.72859299e-01 -2.40002647e-01 -2.01532394e-01 +1.32691085e-01 -2.21214503e-01 -1.19710296e-01 +2.99078047e-01 -8.91099200e-02 -1.44988939e-01 +4.43249308e-02 +9.10774916e-02 -1.55878603e-01 +1.52853921e-01 +2.80441213e-02 +1.79388970e-01 -7.77472183e-02 +3.86974126e-01 +2.69748867e-01 -1.46275043e-01 -1.99774116e-01 -3.02184790e-01 -2.21799806e-01 -1.65151983e-01 +1.61550328e-01 -4.22996767e-02 -4.13131833e-01 -3.85019667e-02 +5.38881049e-02 +2.75573552e-01 -2.80781705e-02 +8.50804299e-02 -1.98105931e-01 -1.25607789e-01 -9.25587416e-02 +4.02655415e-02 +8.81922245e-02 -2.76150763e-01 +3.76342535e-02 -8.14399049e-02 -1.62432104e-01 -5.68355359e-02 -1.59839720e-01 -2.11936727e-01 -1.73482355e-02 +1.67439550e-01 -2.71942258e-01 -5.98364212e-02 -3.12315319e-02 -1.39992565e-01 -1.45685777e-01 -6.38127550e-02 +1.46328062e-01 -3.00631404e-01 +1.50792271e-01 -1.24101162e-01 +3.36427122e-01 +2.39773348e-01 -9.11992714e-02 -1.88941345e-01 -2.01466560e-01 +1.07736520e-01 +1.85228288e-01 +9.80597138e-02 +8.59257206e-02 +1.48888484e-01 -3.19121450e-01 -3.57065439e-01 -6.52664155e-02 -6.97079822e-02 -8.91272351e-02 +6.05039708e-02 -1.63773447e-01 +5.09560257e-02 -2.24062223e-02 +4.19802545e-03 +2.22821802e-01 -1.59107238e-01 -2.10043818e-01 -6.15393706e-02 -2.61632562e-01 +2.09874555e-01 -8.77026692e-02 +1.76143616e-01 -1.40535787e-01 -3.50396007e-01 -2.90697545e-01 +3.21028650e-01 -2.39821851e-01 +2.03930829e-02 +2.53367603e-01 -1.90384403e-01 -2.43222892e-01 -1.81463864e-02 -4.22470272e-02 +2.51005679e-01 +2.81892627e-01 -1.95128620e-01 -2.02803999e-01 +6.52760640e-02 +6.27219751e-02 +2.41640404e-01 -1.40808359e-01 +3.06267649e-01 +4.95007455e-01 +4.05778617e-01 -1.11377515e-01 -1.61949545e-01 -1.82546414e-02 -1.86794221e-01 +1.21945478e-01 -1.10843331e-01 -2.22208321e-01 -3.46907139e-01 +2.00326089e-03 +7.34724523e-03 -3.64421248e-01 +6.64099082e-02 +5.37299775e-02 +1.92455158e-01 -6.35324568e-02 -2.71494418e-01 +7.02410415e-02 +4.38967735e-01 +2.72176445e-01 -5.33640087e-01 +1.02551833e-01 -1.60207167e-01 +3.21073651e-01 +3.26625735e-01 +3.96950662e-01 +3.32934439e-01 -3.36938918e-01 -5.46463244e-02 -2.86026776e-01 +1.27641797e-01 -1.11637428e-01 +1.11877225e-01 +2.62397707e-01 -3.18170965e-01 -1.16272613e-01 -2.87412465e-01 +4.44900960e-01 +1.64705053e-01 +2.00177178e-01 -1.05657451e-01 -2.77216762e-01 -3.41360927e-01 +1.72202721e-01 +3.28087002e-01 +1.27472565e-01 -1.79318219e-01 +1.20893195e-01 +2.62307860e-02 +3.24339509e-01 +3.20619076e-01 +4.28821951e-01 -3.54169548e-01 +2.39086077e-01 -2.95364968e-02 -1.33334517e-01 -7.72936121e-02 -2.23112866e-01 +2.85044819e-01 -2.68539637e-01 -2.48420060e-01 -2.56190519e-03 -8.12341720e-02 -1.16372444e-02 +1.98603541e-01 +2.91908085e-01 -1.18416376e-01 -2.57617366e-02 +2.12728932e-01 +2.41849363e-01 +2.30220243e-01 -8.24248940e-02 -2.58310586e-01 +1.21031115e-02 +2.78982706e-02 +2.46998668e-01 +2.74985373e-01 +1.97675794e-01 -1.85165316e-01 -1.18699752e-01 +2.86928594e-01 +2.58620501e-01 +6.11084849e-02 -4.13216427e-02 -5.92119135e-02 +1.49787441e-01 -3.53400201e-01 -1.59866363e-01 +7.17790052e-02 -2.55520403e-01 +6.71574622e-02 +2.49311194e-01 +1.19062709e-02 -1.27271742e-01 -1.65564232e-02 -1.61455631e-01 -2.80741066e-01 +9.69887674e-02 -1.60368279e-01 +3.23353350e-01 +1.43425623e-02 -1.80923179e-01 -4.93424863e-01 -3.91940206e-01 +4.95516717e-01 +1.13937080e-01 +2.95991063e-01 -6.74078017e-02 -1.92704082e-01 -1.90984324e-01 -1.09322466e-01 +3.73016670e-02 +1.30200356e-01 -1.09910034e-01 -6.93970099e-02 +8.94440636e-02 +4.10642982e-01 -2.04668134e-01 +1.96475625e-01 -1.24109931e-01 -2.34993100e-01 -2.11094409e-01 +4.58104551e-01 -2.32638389e-01 +4.93041612e-03 -6.49317279e-02 -5.47049046e-01 -8.31920058e-02 -1.05732553e-01 +3.89711827e-01 +1.68770641e-01 -3.27153921e-01 +3.99670124e-01 -3.94543447e-02 +3.85480464e-01 -3.38874906e-02 +1.73261434e-01 +1.49258822e-02 -3.23817253e-01 -2.95673888e-02 -1.35904744e-01 -2.65623797e-02 -2.02731982e-01 +2.88487971e-01 -1.97417140e-02 -2.84993853e-02 -7.06896335e-02 -1.86750013e-02 -1.59319028e-01 +1.49135873e-01 -3.03911418e-01 -1.05526306e-01 -1.24383263e-01 -4.70133126e-02 +3.17238331e-01 -3.96026701e-01 +5.82430623e-02 +1.08616158e-01 -2.93241918e-01 +2.02001825e-01 -2.97275901e-01 -1.62823081e-01 +2.76162565e-01 -1.87547766e-02 -1.57092474e-02 -2.31746837e-01 +3.80250722e-01 +1.80666242e-02 -9.35301185e-02 +1.39828980e-01 -2.90008634e-01 -7.30430409e-02 +1.76774114e-01 -2.29041085e-01 +6.29076213e-02 -1.42618477e-01 +1.23530313e-01 +2.88276952e-02 -1.19268134e-01 -8.18275139e-02 -2.71534532e-01 +3.03625494e-01 +1.27921417e-01 +1.99153736e-01 -2.63622522e-01 -4.18989122e-01 -1.20051548e-01 -3.60015243e-01 -3.29037458e-01 -1.13542736e-01 +6.42390847e-02 +5.34797693e-03 -2.63196141e-01 -1.84215993e-01 +4.41097111e-01 -1.10566512e-01 +1.85703695e-01 -3.78669873e-02 -1.75229669e-01 +2.89092243e-01 +2.78026849e-01 +3.72923076e-01 -1.95791125e-01 +1.70722649e-01 +1.63939491e-01 +6.89820424e-02 -2.99318433e-01 +1.08965762e-01 +3.22415888e-01 +2.39750251e-01 -1.27752513e-01 +1.68394204e-02 +2.48139396e-01 -5.71096428e-02 +2.70301521e-01 -1.88423157e-01 +2.41125882e-01 +8.16875473e-02 +4.29099500e-01 -3.38209450e-01 -1.33568048e-01 -2.42779747e-01 -6.93012448e-03 -4.63368505e-01 +5.03552780e-02 -7.71145672e-02 +3.26421469e-01 -4.89550799e-01 +2.57129878e-01 +8.25806439e-01 -1.71722963e-01 -1.98492840e-01 -1.91668227e-01 -1.17053390e-01 -4.31414187e-01 +2.28643656e-01 +2.00472564e-01 -4.38256823e-02 -4.48920548e-01 +4.87408131e-01 +5.27294278e-01 +9.00515690e-02 -3.37886602e-01 +2.43403941e-01 +2.17157200e-01 -1.16703197e-01 -1.81135401e-01 -4.85557467e-02 -3.66953075e-01 -3.14909279e-01 -3.62334609e-01 +3.40696096e-01 +3.94650519e-01 -8.36710557e-02 +4.05658633e-02 +1.46959111e-01 -1.15876220e-01 +2.56393760e-01 -3.28668922e-01 -1.48740023e-01 -2.97454655e-01 -4.47028011e-01 -2.59868562e-01 +1.28265619e-01 +7.97092766e-02 -2.15031072e-01 +3.44435424e-01 -3.34064871e-01 +1.83295742e-01 -4.61151265e-03 +2.71978855e-01 -2.92516619e-01 -8.12894255e-02 -4.19000715e-01 +2.78880268e-01 +1.05854478e-02 +5.08603975e-02 +2.26062447e-01 -2.89636850e-01 -1.55055663e-02 +3.70505214e-01 +2.82846212e-01 -2.09547758e-01 +1.03145085e-01 +3.44267756e-01 +4.26379502e-01 -2.24492371e-01 +3.93932164e-01 +4.08687145e-01 -4.17366236e-01 -1.79459512e-01 +3.84138525e-01 +6.67232573e-02 -1.92410424e-01 +1.89801484e-01 +7.27283657e-02 +2.72192597e-01 -3.57826918e-01 +4.28758085e-01 -1.87347829e-01 -3.45051944e-01 -5.11759698e-01 +2.85843104e-01 -1.82371899e-01 -1.48991153e-01 +2.10837394e-01 +1.23881407e-01 +1.57030702e-01 -2.06466690e-01 +4.04934943e-01 +5.36048055e-01 +3.45515162e-01 +2.81517863e-01 +3.84038985e-01 -1.27878815e-01 -1.12469219e-01 -3.24216127e-01 +7.00256452e-02 +3.78014483e-02 -1.95542544e-01 -3.36650431e-01 +4.05039340e-01 -2.23297521e-01 -1.85261533e-01 -2.22278059e-01 -2.16126576e-01 +2.56611735e-01 -3.15206587e-01 -2.01532871e-01 -2.55826205e-01 -4.58647013e-01 +1.78725705e-01 +2.62028605e-01 +2.37099767e-01 -2.55069286e-01 +4.41617072e-01 +2.48399198e-01 -3.30106020e-01 -1.31866172e-01 +2.05760494e-01 -2.34101817e-01 -2.99510688e-01 -4.50920016e-01 -1.96845084e-01 -2.09019691e-01 -2.55744845e-01 +1.69021696e-01 +1.28855621e-02 +1.06526524e-01 +1.75286546e-01 -2.36771196e-01 +2.65700873e-02 +1.66090652e-01 +3.25129122e-01 +8.59889388e-02 -9.63648111e-02 +2.49163657e-01 +1.32212684e-01 +1.22322896e-02 -3.12589318e-01 +2.79083580e-01 +8.59609544e-02 +9.08725485e-02 -1.47674158e-01 +6.67993799e-02 +1.17847711e-01 -1.54557467e-01 -3.48802894e-01 +1.63166404e-01 +1.02099948e-01 +1.21954143e-01 -1.50370542e-02 -3.11263919e-01 -2.01595321e-01 -1.02694118e-02 -1.04585767e-03 -1.03435509e-01 -2.47349247e-01 -1.51521683e-01 +1.85495988e-01 -1.96876228e-02 +1.47904679e-01 +4.63134766e-01 -1.52803630e-01 -1.38260946e-01 -1.88711062e-01 -2.08716378e-01 -1.90345459e-02 -2.62230873e-01 -4.85568851e-01 -4.63111907e-01 -1.17471643e-01 -7.77497366e-02 -2.61218071e-01 +1.70449037e-02 +3.80290747e-02 +1.36212304e-01 -2.81809390e-01 -1.31880060e-01 -1.77698955e-01 -5.30789375e-01 -5.30602872e-01 -1.44611016e-01 +6.50362996e-03 +6.89323246e-02 -1.37514949e-01 -3.15418690e-01 +1.43801540e-01 +6.70619160e-02 +4.14378315e-01 -5.51033676e-01 +1.98425099e-01 +1.51900081e-02 +4.85651910e-01 -1.18509926e-01 +1.90008819e-01 +3.78369212e-01 -2.77772367e-01 -3.40794414e-01 +6.39186502e-01 -1.81324273e-01 -2.43076086e-01 +1.74260601e-01 -2.12105542e-01 +2.33349130e-01 -2.59513348e-01 +4.78877068e-01 -1.37998208e-01 -8.93840045e-02 -3.75135660e-01 +1.86645329e-01 -4.20666277e-01 -2.95311272e-01 -4.87512425e-02 +1.36969984e-01 +3.64725962e-02 +9.27346572e-03 +1.86714068e-01 +2.24937364e-01 +2.64857471e-01 +3.96638393e-01 +5.18476546e-01 +1.88255519e-01 -1.29755735e-01 -3.01497191e-01 +3.95411626e-02 -3.56572866e-01 -3.30349207e-01 -5.99635467e-02 -1.69443876e-01 +2.76289999e-01 -3.04300040e-01 +7.41923868e-04 -2.18954757e-01 +1.51968166e-01 +4.62099493e-01 -1.39573425e-01 +3.82324904e-01 -3.11813444e-01 +5.06115317e-01 -5.17075434e-02 -6.73702657e-02 -1.49289966e-01 -2.02792332e-01 +7.00493827e-02 -1.54722661e-01 -2.41771773e-01 +1.42530471e-01 -1.85364097e-01 -3.78579915e-01 +3.30788583e-01 +1.83025062e-01 -9.14721340e-02 -3.04392457e-01 +1.50990197e-02 -5.62104173e-02 -1.71772569e-01 -2.04953641e-01 -2.60294020e-01 -5.71297765e-01 -5.19526124e-01 +1.80519745e-01 +4.21265215e-01 -2.23999441e-01 +4.85706449e-01 +4.90697861e-01 +5.92796169e-02 +2.29822800e-01 +6.95035011e-02 +1.39129721e-02 -1.58636659e-01 +5.51354289e-01 +8.50617662e-02 -8.68975595e-02 -4.06593412e-01 +1.74441025e-01 +1.29840896e-01 +8.27971175e-02 -3.87568682e-01 +1.75217986e-01 -1.28415540e-01 -3.96861494e-01 +1.27652884e-01 -4.11120653e-01 -1.36750370e-01 -5.33887684e-01 -5.70684150e-02 -1.08490586e-01 -9.28589255e-02 +2.11497083e-01 -2.47660339e-01 -3.09341878e-01 -4.16828811e-01 +1.46688834e-01 +2.59173095e-01 +5.67308068e-02 +4.00436282e-01 -1.35669589e-01 +2.02556029e-01 +1.65829077e-01 -2.72452861e-01 +4.25950199e-01 +9.01151747e-02 +5.25433004e-01 -2.68406749e-01 -1.80777654e-01 +2.25106776e-01 +1.72098517e-01 +2.22861946e-01 -1.70962781e-01 -1.96313813e-01 +1.32396400e-01 -1.61500461e-02 -4.09475178e-01 -1.71396255e-01 -2.63078213e-01 -1.63733751e-01 -4.31076884e-01 +1.54590756e-01 +6.53087273e-02 -2.01510504e-01 -1.65763259e-01 -1.92886263e-01 -4.86629270e-02 -1.71976939e-01 -2.84887016e-01 -1.32254705e-01 -4.91494685e-02 +3.76862913e-01 +3.46164465e-01 +1.07448764e-01 +5.30340672e-01 +2.98212864e-03 -2.27893203e-01 -1.72315195e-01 +5.00338554e-01 -2.53683850e-02 +3.57757099e-02 +2.93338209e-01 +4.20793861e-01 +4.01896089e-01 +2.21606597e-01 -1.11938812e-01 +1.46069229e-01 -1.94048867e-01 +9.11632180e-02 +3.17483515e-01 -4.64634858e-02 +2.28011869e-02 +4.08181995e-02 -2.64095634e-01 +1.46672830e-01 +2.73064196e-01 -3.00722681e-02 +1.87535927e-01 +1.78757340e-01 +1.21055476e-01 -3.66844274e-02 +1.61283702e-01 +1.19605444e-01 -2.39729524e-01 -3.10935318e-01 +2.02667579e-01 -1.29711673e-01 +1.85133472e-01 +2.57444054e-01 +1.48710743e-01 +1.09070055e-01 -2.05273151e-01 +1.41603932e-01 +3.58881861e-01 -3.59848142e-01 +2.58733314e-02 -3.71270627e-02 +1.77761823e-01 -2.54028976e-01 -1.83066204e-01 -7.67349154e-02 +4.55606967e-01 +4.43639785e-01 +3.56625527e-01 +1.83786556e-01 -3.40159565e-01 +3.21852058e-01 +1.01712637e-01 -6.73543811e-02 -1.38025463e-01 +1.39243618e-01 -2.52038930e-02 -1.78836659e-02 +1.63892761e-01 +2.32623711e-01 +2.32167020e-01 +1.95058301e-01 +1.48123711e-01 -1.43392801e-01 +7.92029351e-02 +9.64049250e-02 -1.01700872e-01 -8.36768188e-03 -9.63599309e-02 -1.18658751e-01 -7.98197538e-02 +1.23900659e-01 +1.52776480e-01 +1.50050014e-01 +1.44618809e-01 -6.16309345e-02 -2.88959354e-01 +2.54111499e-01 +2.34264266e-02 +2.86073804e-01 -1.94983631e-02 -4.76843771e-03 
#Parameter# /MlpAttender.dd4040ad/_1 {32,32} 16385 ZERO_GRAD
+5.36103658e-02 -1.17266692e-01 -1.07364573e-01 +2.05524102e-01 +2.42299989e-01 +3.90069395e-01 +2.36973763e-01 -3.97905588e-01 +2.22472221e-01 -1.85371377e-02 +4.76053506e-02 +1.49538264e-01 +2.46245097e-02 -2.10696593e-01 +4.81922785e-03 +2.79198945e-01 +3.44381541e-01 -4.34015870e-01 -3.14178586e-01 -5.11017561e-01 -2.82748099e-02 -4.12873626e-01 -4.70321923e-02 +2.12266564e-01 -4.46506552e-02 +4.93590355e-01 -5.00204116e-02 +1.81517750e-01 -1.80437461e-01 -2.49456376e-01 -3.88221532e-01 -3.67450297e-01 -5.04892431e-02 -3.41445029e-01 -2.70660996e-01 +4.45700407e-01 -2.70581245e-01 +4.25698578e-01 +1.32163972e-01 -4.78868842e-01 +1.42218798e-01 +5.01074456e-02 -2.21757591e-01 +1.34013101e-01 +2.57193834e-01 -1.29605487e-01 +1.27388567e-01 -9.82846990e-02 +4.23115104e-01 -4.07609582e-01 -4.78879690e-01 -4.64307129e-01 -2.10681796e-01 -3.38535070e-01 -7.68142417e-02 +1.22609474e-01 +1.45658422e-02 +3.68888497e-01 +7.04870448e-02 +7.12462962e-01 -8.72494876e-02 +1.52782992e-01 -3.87108117e-01 +4.34552059e-02 +4.62526143e-01 -2.06282958e-01 -8.57658591e-03 +2.90929556e-01 -2.66549289e-01 -4.17693853e-01 -5.19191623e-01 +4.53506380e-01 -3.19369361e-02 -2.03877717e-01 -3.24612439e-01 +3.17180783e-01 +1.76581070e-01 +2.93050677e-01 +9.02829617e-02 +1.75478876e-01 -4.51669469e-02 -1.57117732e-02 -1.33828789e-01 +1.28899977e-01 -5.95154706e-04 +1.10481746e-01 -3.58353835e-04 -2.52842367e-01 +2.00260535e-01 +1.00503750e-01 -6.74007758e-02 -6.33223727e-02 -2.66165882e-01 -2.29614332e-01 +2.77497202e-01 +1.23868659e-01 -2.28518143e-01 +3.14536631e-01 -1.67846888e-01 +1.35792285e-01 +9.77650061e-02 +3.19589108e-01 -5.17765105e-01 -4.31413770e-01 +2.09772408e-01 +5.84283531e-01 -4.25600737e-01 -4.66472268e-01 -4.28332955e-01 -5.76576114e-01 +4.46743011e-01 +3.95576835e-01 +3.93706381e-01 +6.41340464e-02 +1.38230771e-01 -3.49792778e-01 -4.88818884e-02 +8.35577548e-02 -6.04777992e-01 -8.41080695e-02 +5.56907117e-01 +2.16254711e-01 -3.08524042e-01 +3.40223521e-01 -2.01780885e-01 +4.17941958e-01 -3.80960882e-01 +4.33948755e-01 +2.95294840e-02 -4.61480558e-01 +3.75488371e-01 +4.57557619e-01 +4.66815323e-01 +2.28257224e-01 +3.93316865e-01 -1.95843399e-01 -2.82580197e-01 +5.96724311e-03 +3.81949753e-01 -3.31992321e-02 -5.12011111e-01 +2.06653312e-01 -4.25894737e-01 -2.77159393e-01 +4.03595299e-01 -1.00155033e-01 -2.95688063e-01 -1.18779086e-01 +9.03400686e-03 -1.09932728e-01 +1.76680058e-01 +1.65015370e-01 -3.65373313e-01 +3.31067741e-01 -9.91212297e-03 +2.89546251e-01 +3.67653847e-01 +1.63930878e-01 -2.56107897e-01 -1.57439902e-01 +4.73965108e-02 +3.46718132e-01 +2.03776568e-01 +1.77046150e-01 -5.31757951e-01 -1.47130072e-01 -4.28008884e-01 -2.80430466e-01 -3.22353572e-01 -5.56409433e-02 -1.85002476e-01 +1.48407556e-02 +3.41589972e-02 +1.74703017e-01 -3.85913134e-01 -1.17963195e-01 +1.56017870e-01 +1.52483881e-01 +2.48824805e-02 -3.14561605e-01 +9.93141010e-02 +2.39064410e-01 -3.46115321e-01 -2.09054276e-01 +2.80473143e-01 -3.07687163e-01 -2.87661552e-01 -6.23322204e-02 -1.11843400e-01 +2.64665633e-02 -9.06652063e-02 +3.49055827e-01 -6.69926882e-01 +1.97960675e-01 -6.83645532e-02 -3.25114131e-01 -3.70276839e-01 -4.55913633e-01 -2.07905397e-01 +4.01395053e-01 +2.07326978e-01 +1.03016213e-01 -7.19562471e-02 -1.42017767e-01 +7.55505800e-01 -1.04434848e-01 +1.02893822e-03 +1.42099127e-01 -2.95179635e-01 -4.24615331e-02 +2.23774791e-01 +4.32254463e-01 -1.86309308e-01 +8.06067437e-02 -4.03508455e-01 -8.36293306e-03 +3.44645172e-01 +1.90146878e-01 +2.19139289e-02 -4.06603783e-01 -1.35959759e-01 -1.74518824e-01 -8.23824033e-02 +3.09148401e-01 +3.87256980e-01 +3.41237262e-02 +1.73973560e-01 -9.08517912e-02 +1.88092962e-01 -1.23154633e-01 +2.16606036e-02 +3.27576771e-02 +6.20844811e-02 -2.84967422e-01 +2.34558120e-01 +6.17106080e-01 -4.81794238e-01 +4.59290504e-01 +2.76108801e-01 -1.49892956e-01 +1.70436487e-01 -2.58359939e-01 -3.34533095e-01 +4.63522553e-01 -1.62423372e-01 -2.05189303e-01 +1.68691993e-01 -6.73855469e-02 -2.76385099e-01 +3.01642001e-01 +1.32825673e-01 +2.13532850e-01 -1.60736248e-01 -3.64528149e-01 +2.23430563e-02 -3.01219970e-02 +1.73649341e-01 -1.49467975e-01 -2.53795087e-01 +5.94403863e-01 +1.70254424e-01 +2.86250293e-01 +5.15591919e-01 -5.04824460e-01 +2.96010256e-01 -4.23940420e-01 +1.64818883e-01 +4.22346085e-01 -2.25547373e-01 +1.40413716e-01 -3.22145194e-01 -5.26005566e-01 +6.25297308e-01 -3.35986465e-01 -6.10866606e-01 -2.86796719e-01 -2.33698741e-01 -2.12553963e-01 +3.34652483e-01 +2.62674570e-01 -3.44526708e-01 +3.43233079e-01 +2.01115012e-01 +2.64907032e-01 -9.61619020e-02 -5.02751350e-01 +4.74012345e-02 -2.39824861e-01 +2.21070182e-02 +1.08123489e-01 +5.96338272e-01 +4.68557850e-02 -2.18393549e-01 -1.45266831e-01 -2.47267723e-01 +5.15905559e-01 -4.68682021e-01 -2.83866674e-01 +8.68842676e-02 +1.07301496e-01 +4.97918785e-01 +3.75158012e-01 -2.63655752e-01 -3.29573900e-01 -1.38196304e-01 +3.22306216e-01 +2.23622724e-01 +2.41778791e-01 +8.20132792e-02 +3.20754766e-01 -2.21765444e-01 -4.46369827e-01 +1.27983287e-01 -1.64025769e-01 -2.17377543e-01 -2.11673856e-01 -8.94739926e-02 +1.45089269e-01 +4.46616486e-02 +8.85463133e-02 -2.80111060e-02 -4.38132793e-01 -7.79535025e-02 +1.30476430e-01 +3.20264906e-01 +3.67995024e-01 +1.44652143e-01 +5.33418842e-02 +6.16182864e-01 +4.43935096e-02 +2.42036045e-01 -4.58020538e-01 +2.70535588e-01 +1.09048411e-01 -4.15720880e-01 +5.74945569e-01 +3.99964638e-02 -4.08290297e-01 -1.33610100e-01 -4.75852899e-02 +3.14390436e-02 -6.94166899e-01 +1.72098473e-01 +1.85952857e-01 +1.25466391e-01 +4.44609553e-01 -2.26116270e-01 +6.54366672e-01 +2.16107801e-01 +9.99485701e-02 -2.20525131e-01 -1.94701105e-01 +5.17406575e-02 -3.60767514e-01 +1.47310689e-01 -1.45640345e-02 +3.01258147e-01 +1.83904484e-01 +1.88590810e-01 +2.34534740e-02 -1.82306305e-01 +2.47181982e-01 +1.74251541e-01 -4.41817462e-01 -5.49220927e-02 -4.25283790e-01 -3.78597409e-01 -2.68503666e-01 +2.45897248e-01 +6.74547106e-02 -1.52453363e-01 -1.28484771e-01 +3.10167879e-01 -3.48928005e-01 -8.97066444e-02 +1.95896611e-01 -4.67870593e-01 +2.64581628e-02 +5.98170936e-01 -1.52858704e-01 -1.35482848e-01 -7.70891011e-02 -5.63315526e-02 -1.64150923e-01 -1.82830051e-01 -1.09187476e-01 -4.98476475e-01 +4.14677322e-01 +2.48707384e-01 +1.08699873e-01 -1.12150334e-01 -1.41115874e-01 +2.78373152e-01 -1.20495083e-02 -2.03695476e-01 +1.15420535e-01 -3.53114337e-01 +1.88433439e-01 -3.73794407e-01 -2.39428759e-01 +2.88384467e-01 -4.06800285e-02 +1.61473006e-01 -5.37934244e-01 -2.78182104e-02 +8.76247436e-02 +2.50333667e-01 -5.10628998e-01 +1.25193045e-01 -2.17954621e-01 -1.72471792e-01 +2.53812283e-01 -4.04394597e-01 -2.76123077e-01 -3.16326708e-01 -2.68908609e-02 +1.25908837e-01 -5.40738925e-04 +5.25306880e-01 -1.29036948e-01 -2.85531551e-01 -4.11932319e-01 -2.82210916e-01 +3.30340356e-01 -3.76141638e-01 -7.91118741e-02 -2.10353300e-01 +1.30153090e-01 +1.34755507e-01 +3.47311646e-01 +3.26757580e-01 +9.92083400e-02 -4.43536043e-01 +5.68146050e-01 -5.59655428e-02 +2.29238376e-01 +3.63654107e-01 +5.41669726e-01 -2.85152555e-01 +2.00419903e-01 +3.99007797e-01 +3.23776484e-01 -3.07410210e-01 -2.63136536e-01 +2.31699273e-01 +3.61804515e-01 +5.23888350e-01 +2.55803823e-01 +1.03251167e-01 -1.41008168e-01 -8.82482156e-03 +7.10448474e-02 -8.45458657e-02 +6.18591346e-02 -1.50765225e-01 +5.34618832e-03 +2.35275880e-01 -1.03269853e-01 +1.07094191e-01 -2.09498554e-01 -4.11816031e-01 +2.28218228e-01 +1.84194297e-01 -7.11124092e-02 +1.21834382e-01 +1.48147017e-01 -1.46612404e-02 -1.07894465e-01 -2.68119633e-01 -1.19163781e-01 -2.83275712e-02 -5.41982234e-01 -3.79783474e-02 -7.09517822e-02 -1.68509647e-01 +3.38586092e-01 -3.06848079e-01 -6.39451966e-02 -2.54894674e-01 +1.19563162e-01 +4.74079132e-01 -2.83507973e-01 -1.13449786e-02 +3.39833885e-01 +3.20550412e-01 +7.51989186e-02 +2.86787096e-02 +1.65448770e-01 +5.42316325e-02 -4.00180191e-01 -4.01196294e-02 +5.26509583e-01 -1.94634609e-02 +3.13135684e-01 +3.22405338e-01 -3.70997071e-01 +1.44122289e-02 -2.89535582e-01 -1.02541544e-01 +6.30559251e-02 -4.13409978e-01 -2.73493290e-01 +2.36473326e-02 +1.01533383e-01 +8.91004577e-02 +3.69838208e-01 -4.63235788e-02 +2.79789120e-01 -4.06927586e-01 -3.68087679e-01 -9.29934755e-02 -1.07624270e-01 -2.50970632e-01 -1.30600110e-01 +5.59245110e-01 -2.03951016e-01 -4.04159307e-01 -5.14262199e-01 -2.83072174e-01 +1.89225972e-01 -2.21913368e-01 +1.68316543e-01 -2.99608022e-01 -3.38513792e-01 +2.84473956e-01 +1.66589513e-01 +1.91855296e-01 -3.18917811e-01 +2.64203511e-02 +5.23387074e-01 -2.70500369e-02 +1.05438396e-01 +5.21325231e-01 +4.21805054e-01 -3.09734344e-01 -2.01455832e-01 +2.47005984e-01 -5.16086876e-01 -4.58808601e-01 -2.53277868e-01 +3.90891224e-01 +1.57380611e-01 +1.85010776e-01 +1.42380297e-01 -3.59683961e-01 +2.76972447e-02 +6.83102459e-02 +1.48761094e-01 -7.12885186e-02 +2.78906375e-01 -2.80201703e-01 +1.25032857e-01 +3.73634368e-01 +4.90058362e-01 -4.44605976e-01 -9.02005881e-02 +4.00292009e-01 -3.42329919e-01 +1.23931810e-01 +2.39909843e-01 -1.70829535e-01 -7.01395646e-02 +4.39833701e-01 -5.94576336e-02 +3.68664078e-02 +2.69877344e-01 -2.24691182e-01 +4.32507396e-02 +1.92333087e-01 +3.12424719e-01 -1.21458739e-01 +1.29292220e-01 +2.56767198e-02 +1.24965467e-01 -1.96099415e-01 +4.76692230e-01 +4.23866063e-02 -1.46170467e-01 -6.48278221e-02 -2.26109073e-01 -2.24038571e-01 -5.09702321e-03 +2.57844329e-01 +5.28568029e-01 -3.28794628e-01 -5.29497564e-01 +1.88877687e-01 +4.66712981e-01 -9.27395150e-02 +1.42058387e-01 +2.34287784e-01 -1.11780487e-01 -1.66039571e-01 +3.87969255e-01 +4.78552990e-02 +9.10872128e-03 -4.15627696e-02 +8.19374844e-02 +3.13380897e-01 -2.64764242e-02 -1.02113627e-01 -3.27428043e-01 +3.26738089e-01 -4.76656795e-01 -2.25866333e-01 -1.09880790e-01 +2.72511959e-01 +5.96076697e-02 -4.30859178e-01 +8.23526308e-02 -2.45748330e-02 -2.08601996e-01 +7.21178278e-02 +1.64047435e-01 +2.80990899e-01 +2.22458929e-01 -1.42072096e-01 +4.52576041e-01 -3.16851288e-01 -4.59895253e-01 +1.20135978e-01 -3.03700298e-01 +1.61541980e-02 +1.29764616e-01 +5.33839338e-05 -3.98546644e-02 +2.43966967e-01 +1.99687019e-01 +3.53507608e-01 -9.75868572e-03 +7.77369663e-02 +5.26312053e-01 -2.58547723e-01 -1.81257993e-01 -2.67882019e-01 -1.72825664e-01 +4.32513326e-01 +2.72889823e-01 -6.84126243e-02 -1.07312851e-01 +3.47753257e-01 -3.09969753e-01 -1.24949105e-01 -8.13624859e-02 +3.66164148e-01 +3.73779446e-01 +1.13280542e-01 +4.07100357e-02 +5.66287041e-01 -1.17345512e-01 +6.63518459e-02 +2.71894276e-01 -2.04988152e-01 +1.73198536e-01 -2.01180905e-01 +2.95065850e-01 +3.57721627e-01 -5.35650015e-01 +2.94970900e-01 -4.37082797e-01 -3.79217118e-01 -4.27011520e-01 +2.05019683e-01 -4.80058551e-01 +6.89726993e-02 +7.03011602e-02 -1.88160956e-01 -1.70417011e-01 -2.64106989e-01 +5.48449904e-02 +1.95192307e-01 -2.35540584e-01 -5.14283240e-01 +3.33740026e-01 -1.18311979e-01 +2.41996586e-01 +1.16199784e-01 -4.27803874e-01 -5.96151412e-01 +3.20646465e-01 -1.65905684e-01 +4.46526647e-01 -5.86749136e-01 -6.41212165e-01 +8.55315104e-02 -3.83525461e-01 +4.89946529e-02 +4.65888321e-01 -7.20254257e-02 +3.21421117e-01 +5.98108530e-01 -1.14092365e-01 +2.20922404e-03 -4.33228798e-02 -5.65301418e-01 +2.45955084e-02 -1.36558420e-03 -3.72825772e-01 -2.86242247e-01 +1.70186788e-01 -1.71782881e-01 +2.18318909e-01 +6.92729205e-02 +4.04994309e-01 +3.62502635e-01 -5.85518420e-01 -4.73966822e-02 +2.78125376e-01 -1.93181187e-02 +3.02508354e-01 +6.34446263e-01 -1.13941424e-01 +3.63865346e-02 -1.17488138e-01 +5.19772172e-01 +4.54063624e-01 +5.25319338e-01 +4.11830455e-01 -1.05105415e-01 +2.43771568e-01 -3.08861226e-01 -1.00715920e-01 -5.01205981e-01 -9.39192809e-03 -8.82910937e-02 -6.66819215e-02 +2.85216188e-03 +1.59247056e-01 -2.87881732e-01 +3.61909121e-01 +1.58927664e-02 -2.25406811e-01 +4.35410529e-01 -2.42713749e-01 +3.13262373e-01 -3.60633761e-01 +6.16912432e-02 +1.73137143e-01 -2.43172720e-01 -2.59515554e-01 +1.62172318e-01 -1.27870627e-02 -1.16756996e-02 +4.16046791e-02 +3.49110439e-02 -1.00152090e-01 -4.00601566e-01 +4.63535666e-01 +4.07031506e-01 +3.50515097e-01 +4.58830327e-01 +8.03697333e-02 -4.60578531e-01 -1.28243983e-01 +2.21250951e-01 +3.42283100e-01 -1.60503268e-01 +8.02432224e-02 +2.93616980e-01 -1.13476478e-01 -1.29310891e-01 -4.34724204e-02 -2.06045881e-01 -9.58484635e-02 +4.83381227e-02 -4.05975461e-01 +4.45956498e-01 +1.46041378e-01 -1.18769497e-01 -1.42543048e-01 -1.12753324e-01 +9.32655334e-02 +4.25498337e-01 +3.20009679e-01 -8.67725722e-03 +1.84837341e-01 -2.65100002e-02 +2.73636472e-03 +1.46757692e-01 +7.63085485e-02 -2.60517240e-01 -1.62604406e-01 +4.31112468e-01 +2.58940719e-02 +2.69695558e-02 +8.00042674e-02 +3.26784819e-01 -1.85674533e-01 -5.02604663e-01 +1.45913452e-01 +1.52590990e-01 -2.34809697e-01 +3.82065475e-01 +3.91557842e-01 -4.11195129e-01 +1.20656967e-01 -4.45493549e-01 -7.93663487e-02 -3.68133128e-01 +1.55172050e-01 -4.19914484e-01 +1.47390082e-01 +2.01873258e-01 -2.00582311e-01 -3.20651650e-01 -2.36944407e-01 -3.35501470e-02 +3.31948429e-01 -6.29654601e-02 +2.90248662e-01 -3.96365970e-01 -2.54416406e-01 +5.19204438e-01 -4.39936519e-01 -2.13618949e-01 +7.47534513e-01 -5.54180503e-01 +2.14302942e-01 +2.80552626e-01 +2.43986040e-01 -6.37843907e-02 +3.69051695e-01 +2.43294947e-02 +4.18531895e-01 -3.21784526e-01 -2.59485573e-01 +3.08004022e-01 -2.42938712e-01 +2.40421414e-01 -1.11122780e-01 -5.19458428e-02 +1.77526996e-01 -1.34734824e-01 +4.92448330e-01 +9.27706733e-02 -1.73874348e-01 +1.66220933e-01 +1.23773061e-01 -2.54249066e-01 -1.69957116e-01 +1.47024050e-01 -2.85332382e-01 -1.68607831e-01 +1.03684947e-01 +3.89966257e-02 +4.86089960e-02 +9.84932259e-02 -1.30987182e-01 +4.40228283e-02 -2.33353257e-01 +5.08111417e-02 +1.32151604e-01 -1.04099162e-01 -2.40602791e-01 -2.23870799e-01 +3.40543576e-02 +2.89958298e-01 +1.76874753e-02 +3.73094708e-01 -3.82182270e-01 +1.78311113e-03 +7.82490075e-02 -1.31419599e-01 +3.77234280e-01 +3.27398002e-01 +1.01226032e-01 -4.42308933e-01 -2.97851413e-01 -1.03669986e-01 -2.84963250e-01 -3.36555690e-01 +4.24730092e-01 +2.14868814e-01 -3.11713725e-01 -1.39565825e-01 +5.83787203e-01 -5.39108440e-02 -6.67977035e-02 +2.27183804e-01 +1.87797338e-01 -2.13094503e-01 -1.62811771e-01 +1.45840630e-01 +8.48209783e-02 -3.92998189e-01 +2.68515795e-01 +5.52553713e-01 +8.70720446e-02 +1.74347654e-01 +2.05786079e-01 +4.57384914e-01 -9.53178182e-02 -4.98242468e-01 -2.47876048e-01 -1.92607641e-02 +1.04069695e-01 -1.16850704e-01 +2.60888666e-01 +1.09149538e-01 +9.10514519e-02 +5.73053695e-02 +1.31619245e-01 -5.90722868e-03 +3.94800194e-02 -1.58841595e-01 +1.24350958e-01 +1.04027824e-03 -3.65446098e-02 +9.77063477e-02 -1.73988670e-01 +2.31817663e-01 -1.11033633e-01 +1.55294359e-01 -4.96388935e-02 -2.03362688e-01 +3.22736144e-01 -7.33953938e-02 +1.93119973e-01 +4.85439599e-02 +3.85827482e-01 +1.69916824e-01 -4.22834456e-01 -1.70031562e-01 +2.68439054e-01 -1.77801684e-01 +9.08552632e-02 +6.54421329e-01 +1.16724946e-01 +1.26123533e-01 +2.06138670e-01 +1.73619613e-01 -1.08293109e-01 -5.63918278e-02 -3.31487805e-01 -1.64968729e-01 -4.39856797e-01 -4.01879698e-01 -1.90989062e-01 +2.12223336e-01 -1.13779046e-01 -5.01134843e-02 +1.69242863e-02 +2.06213266e-01 -1.55284569e-01 +3.68057162e-01 -4.29022834e-02 +1.78845059e-02 +6.31653786e-01 +9.28030387e-02 -7.81964324e-03 -1.68452293e-01 +1.68182701e-01 -2.20299140e-01 -3.47899854e-01 +2.16067806e-01 +2.18308032e-01 +1.62217364e-01 -1.31798327e-01 +1.08399637e-01 -6.31445423e-02 -1.95642084e-01 -1.07251011e-01 -5.07808864e-01 +3.42427194e-01 +7.88064599e-02 +1.48807131e-02 +3.44229251e-01 +1.29292890e-01 +5.68921864e-01 -4.99939322e-02 +1.18345037e-01 +5.62949702e-02 -1.92304432e-01 -4.07222360e-02 -3.64879608e-01 -3.26236039e-01 +2.41559207e-01 -3.93830597e-01 -2.71875650e-01 -4.62267213e-02 -4.74283308e-01 -7.42654577e-02 +6.83207661e-02 -2.37835556e-01 -1.93388239e-01 -1.75038218e-01 +4.36100006e-01 -3.19054842e-01 -4.47699428e-01 -1.64805755e-01 -3.40105742e-01 -6.86239243e-01 -1.06589377e-01 -1.45719439e-01 -2.42262781e-01 +2.32285053e-01 +1.63639143e-01 +4.39710408e-01 +1.11384094e-01 -2.51903236e-01 +1.04444914e-01 -1.58322513e-01 -1.33714512e-01 -8.90320633e-03 -3.12875211e-01 -4.56832722e-02 +1.35244593e-01 +2.58908290e-02 +1.49497390e-01 -1.09360524e-01 +1.24964260e-01 -1.50520597e-02 -9.88063589e-02 -2.76926488e-01 +9.09427702e-02 +2.37313315e-01 +6.22581653e-02 +2.58148462e-01 +1.60361424e-01 +3.63265991e-01 -5.79916656e-01 -2.72622138e-01 -3.87486935e-01 +1.35638222e-01 
#Parameter# /MlpAttender.dd4040ad/_2 {32} 513 ZERO_GRAD
-1.37656137e-01 +9.63958502e-02 +1.81346774e-01 -5.94918756e-03 -2.54931927e-01 -2.03505337e-01 -3.34052145e-01 +1.92361519e-01 -1.05231732e-01 +2.92622805e-01 -1.04037091e-01 -1.02116987e-01 -8.60970020e-02 -4.67425883e-02 -1.29505202e-01 +1.56810656e-01 -1.14076249e-01 +4.08166409e-01 +2.28096262e-01 -6.04899675e-02 +3.26458871e-01 +1.87926307e-01 -3.12811822e-01 -1.61660895e-01 +1.05813079e-01 -2.03388363e-01 -2.16283053e-01 -1.02464467e-01 +1.63921386e-01 +2.94508398e-01 -1.16518632e-01 +6.22638911e-02 
#Parameter# /MlpAttender.dd4040ad/_3 {1,32} 513 ZERO_GRAD
-5.79176903e-01 +4.77237940e-01 +5.69255471e-01 +4.06930864e-01 +5.63769877e-01 +5.34285009e-01 +5.01991570e-01 -6.21253252e-01 -7.67606616e-01 +6.07623160e-01 -4.06755179e-01 -4.21801507e-01 -4.73707259e-01 -4.64969158e-01 +6.33274019e-01 -5.06696522e-01 +5.41334033e-01 -5.83998382e-01 -4.02818501e-01 -4.91797894e-01 +5.87682366e-01 -4.20229524e-01 -4.89858389e-01 +6.25243306e-01 +6.39043033e-01 -3.86437923e-01 -5.20371497e-01 +3.22118640e-01 +4.41289991e-01 +2.43126765e-01 +5.59902310e-01 +7.57763445e-01 
