#Parameter# /UniLSTMSeqTransducer.f0cd8e59/_0 {128,64} 131073 ZERO_GRAD
-3.48873466e-01 -1.44693956e-01 +8.74072313e-02 +3.16824138e-01 +2.14272235e-02 +1.62952557e-01 +4.63554524e-02 +4.63014364e-01 +7.71656930e-02 -7.27154911e-02 +7.31733739e-02 +1.65269852e-01 -1.06232561e-01 -2.25876063e-01 -1.40507191e-01 -4.42493670e-02 -6.48707926e-01 +1.94670632e-01 -2.99071252e-01 -3.50140631e-01 -1.61784902e-01 +9.99832749e-02 +7.61506483e-02 -2.59400338e-01 -1.73291057e-01 -2.88879842e-01 +1.81531712e-01 -6.55875728e-02 -5.38755834e-01 +1.79490849e-01 -2.05224082e-01 -2.85795748e-01 -1.76424369e-01 -5.65090738e-02 +2.06110571e-02 -5.54252863e-01 -2.94838190e-01 +1.88007101e-01 +8.65314305e-02 -2.04827394e-02 +1.19643211e-02 -2.04481691e-01 +1.38049312e-02 +7.85518587e-02 +1.87983632e-01 -9.66212302e-02 +2.92068481e-01 -2.99261570e-01 +8.13482478e-02 -6.31780829e-03 +3.35076869e-01 +1.35617971e-01 +1.55462041e-01 -5.95905222e-02 -4.67260897e-01 -6.40311316e-02 +1.63495511e-01 +1.73738509e-01 +1.01661347e-01 -3.32441777e-01 +3.14269811e-01 +1.07831679e-01 +8.46401453e-02 +1.39615849e-01 +1.10274933e-01 +6.64810464e-02 +1.61337301e-01 -1.95014849e-01 +3.87878209e-01 -8.00563470e-02 +3.46599013e-01 +3.26596379e-01 +4.03316393e-02 -2.58464128e-01 +8.92010927e-01 -3.00577015e-01 -2.01581344e-01 -4.21697319e-01 +3.95180322e-02 -2.20114350e-01 -2.98898101e-01 -4.02388543e-01 +5.99130630e-01 -5.20688593e-01 -1.15919091e-01 +1.36898115e-01 -3.77635717e-01 -4.14130598e-01 -1.22089393e-01 -2.81043917e-01 -3.54890794e-01 -7.56784916e-01 -4.88709122e-01 +2.56136119e-01 -2.32896045e-01 -2.61342466e-01 +5.60406446e-01 +2.34980822e-01 -3.85980725e-01 -2.24088982e-01 -1.41555727e-01 +2.40843371e-02 -2.10117862e-01 -2.51145899e-01 -2.08588481e-01 -1.11142872e-02 +4.92221862e-01 -1.20215438e-01 +5.53644121e-01 -2.94854671e-01 -5.52247651e-02 +3.32366787e-02 -5.37388563e-01 -3.72437745e-01 -1.23179659e-01 +1.42971903e-01 +8.38886723e-02 +8.90439097e-03 +6.43337011e-01 -4.22395557e-01 -3.37520875e-02 -1.77679852e-01 -4.64266092e-02 -8.64992514e-02 -4.92059082e-01 -8.13075900e-02 +3.02770674e-01 +3.81162971e-01 +2.36642942e-01 +3.64441276e-01 +2.50878960e-01 +2.62421548e-01 +3.75455379e-01 -4.54946458e-01 +2.03429610e-01 -2.32666805e-01 -2.94597417e-01 -4.56553698e-01 -3.12382400e-01 +1.76228777e-01 +6.94137663e-02 +1.71328470e-01 -6.27644062e-01 -1.97253153e-01 -2.22516030e-01 +1.35433957e-01 +4.25618738e-01 -1.94218919e-01 -4.27498192e-01 +1.64639220e-01 -1.11006565e-01 +1.48211032e-01 -2.37704560e-01 +5.21094315e-02 +3.55022937e-01 +2.86905766e-01 +3.47509831e-01 -1.08142197e-01 -3.09394859e-03 -1.37203544e-01 +3.75957817e-01 +1.57850072e-01 +2.21244302e-02 -2.51334369e-01 +3.85129154e-01 -8.88622999e-02 -2.09679484e-01 -6.02673769e-01 +2.09743470e-01 -9.24388617e-02 -8.86211172e-02 +1.88382104e-01 -2.17609271e-01 +4.22125041e-01 +1.42374933e-01 -3.42577621e-02 +2.43279949e-01 -3.11169773e-02 +6.22673690e-01 -4.96237040e-01 +2.70258844e-01 -8.24960917e-02 -5.27226031e-01 -1.12611152e-01 -4.86406088e-01 +3.48412618e-02 -3.16178590e-01 +8.00201595e-02 -2.72061415e-02 -2.33628854e-01 -1.64794639e-01 -4.16198999e-01 +5.28532565e-01 +4.54958975e-02 +5.69529712e-01 +7.49490798e-01 +7.17164874e-01 -1.34885371e-01 -3.62864256e-01 -5.79393923e-01 -1.64022267e-01 -2.28615180e-01 -4.14934009e-01 -4.60462391e-01 +4.00682151e-01 +5.94710708e-01 +3.35856266e-02 -2.72508442e-01 +6.66173816e-01 -6.25398815e-01 +6.45388722e-01 -8.20541084e-01 +3.60506862e-01 -7.20341280e-02 +3.23972702e-01 -3.00056756e-01 +1.00120440e-01 +2.92444408e-01 -4.39086318e-01 +4.50756580e-01 -2.71993607e-01 +9.55141708e-02 +3.85143995e-01 -2.38426059e-01 +3.91598314e-01 +7.99872428e-02 +1.96657404e-01 +1.59089953e-01 -5.15919209e-01 -1.17976479e-01 -2.17648491e-01 +6.13433681e-02 -2.70507392e-02 -2.25299075e-01 +1.73419014e-01 -3.67860556e-01 -3.10698897e-01 +4.96416956e-01 +2.85220928e-02 +3.54169786e-01 -1.89959690e-01 -4.21545029e-01 -1.90062195e-01 -1.65071920e-01 -1.79967970e-01 +3.61714035e-01 +5.83966561e-02 +2.15234667e-01 +2.39028886e-01 -6.13823950e-01 -3.44118208e-01 -1.75229207e-01 +3.82464379e-02 -1.76477268e-01 -3.02048981e-01 -9.29202214e-02 +1.20419905e-01 -5.30053556e-01 +3.04850101e-01 +2.41872400e-01 -2.52291411e-01 -1.36746690e-02 -2.18597606e-01 -2.39118487e-01 -2.58288860e-01 +1.32783145e-01 +4.50136214e-01 -3.38432081e-02 +3.78390789e-01 +1.49321109e-01 +1.20534375e-01 -1.67257965e-01 +1.31907478e-01 -8.31140280e-02 +1.02150910e-01 +4.44676757e-01 +2.06076309e-01 +2.22806767e-01 +2.36358330e-01 -4.20457512e-01 -4.24415506e-02 +5.19305348e-01 +1.53361842e-01 -2.01776842e-04 +1.28392711e-01 -4.99750525e-01 +5.81134021e-01 +1.31114563e-02 +3.05068046e-02 -3.36015463e-01 -1.27765338e-03 -2.51910418e-01 +6.05270751e-02 -2.59953626e-02 -1.12544812e-01 -4.55327099e-03 +4.37793225e-01 +9.50342342e-02 +1.40116438e-01 -6.22766554e-01 +2.35004947e-01 +2.47390360e-01 +2.49493256e-01 +3.06035429e-01 -1.00475706e-01 +6.74430281e-02 -3.68480980e-01 +1.57881692e-01 +5.26193619e-01 +1.22322530e-01 +2.68737614e-01 -2.55424976e-01 -3.39242280e-01 -5.88557944e-02 +1.99121490e-01 +2.70193309e-01 +5.21523431e-02 +6.06258437e-02 -2.36871928e-01 +2.48774678e-01 -6.24381229e-02 -3.92977744e-01 +1.40970662e-01 +2.83870965e-01 +2.85969824e-01 +5.43914884e-02 +5.28509438e-01 +1.38166040e-01 -2.74272680e-01 +7.56776869e-01 +1.03525952e-01 -8.54136825e-01 +4.73020941e-01 +2.49744624e-01 +5.42884886e-01 +4.84690875e-01 +1.66476220e-01 -9.85788181e-02 -5.14738381e-01 +3.24160635e-01 -1.36267573e-01 +6.12948656e-01 -1.15051627e-01 -3.85232925e-01 -5.53136885e-01 -1.70118228e-01 +5.52383840e-01 +5.32110870e-01 -1.72254995e-01 -1.68765947e-01 +4.07428056e-01 +9.71313864e-02 -1.43365815e-01 +8.46317708e-02 +3.85009319e-01 +5.10371745e-01 +1.16648428e-01 -3.18724930e-01 +5.04571572e-02 -1.03586674e-01 -4.61307615e-01 +1.18905321e-01 +1.22169271e-01 -2.21901923e-01 +4.71061356e-02 +2.99024642e-01 +2.64141530e-01 -1.75735354e-02 -2.01641440e-01 +3.96638155e-01 +2.45266706e-01 -1.18547738e-01 +3.77873749e-01 +5.86298645e-01 -5.63076019e-01 +2.15272397e-01 +7.64486015e-01 +2.61959225e-01 -8.52938890e-02 +3.74171734e-01 -1.32355809e-01 -1.07512802e-01 -9.57171321e-02 +4.28481668e-01 -2.03482136e-01 -2.03696355e-01 -5.78780651e-01 -2.11850762e-01 -3.97587091e-01 -4.26851846e-02 -4.50958252e-01 -1.88313667e-02 -7.86103785e-01 +3.25071186e-01 +5.55877447e-01 +7.35760108e-02 -2.90259629e-01 +1.41941383e-01 +3.19150746e-01 +1.36276737e-01 +2.38222256e-01 -4.19219017e-01 +2.61050999e-01 -2.70153843e-02 +1.68324426e-01 -1.87461838e-01 -5.00303954e-02 -4.94966000e-01 +1.00267321e-01 -1.73852026e-01 +2.81367987e-01 -1.58606052e-01 +2.00421482e-01 -1.92177519e-01 +3.38625938e-01 +1.10388406e-01 +9.62327048e-02 -2.53270358e-01 -6.77249655e-02 -2.13577941e-01 -3.03679667e-02 +1.16243631e-01 -1.64466053e-01 -1.02476940e-01 -2.47825440e-02 -1.83570772e-01 +6.01427615e-01 -1.18676700e-01 -4.04569417e-01 +2.60522187e-01 -1.59505635e-01 -7.49633685e-02 -1.79407686e-01 -2.04858314e-02 -2.58778632e-01 +3.43410462e-01 +3.21149349e-01 +3.14484030e-01 +3.70045304e-01 +1.00696079e-01 +2.35349968e-01 +2.90514790e-02 -3.57684344e-02 +3.70804757e-01 +3.11128885e-01 -2.18913078e-01 -3.72256756e-01 +7.47918943e-03 -1.51151463e-01 -1.18285619e-01 +1.93218559e-01 +3.38931024e-01 -7.28347123e-01 -3.24771583e-01 +1.57368749e-01 -3.70583743e-01 -8.09119046e-01 -8.19316208e-02 +2.96840459e-01 +6.78654760e-02 -2.65992850e-01 -3.54058295e-01 -4.22366560e-01 +3.68861169e-01 +6.60630047e-01 +3.88288535e-02 +2.19324946e-01 +3.38551402e-01 +2.53439844e-01 +2.31821433e-01 +4.22506422e-01 +4.19485003e-01 -3.86012495e-01 -5.80021858e-01 +2.65928537e-01 +3.60547841e-01 +4.01499480e-01 -1.68804958e-01 +4.44826037e-01 -6.24271035e-01 -1.47810176e-01 -3.57673645e-01 -3.04779768e-01 +2.98451513e-01 -8.78913328e-02 -2.69254088e-01 -3.65858972e-01 +1.43909037e-01 +5.97651266e-02 -3.97066101e-02 +2.43504178e-02 -3.57483923e-02 +5.19937389e-02 -2.92058796e-01 +5.06052375e-02 +5.66266328e-02 -1.35951266e-01 -4.90268767e-01 -1.35689184e-01 -5.89545488e-01 +3.39111716e-01 +1.70671493e-02 -5.11269748e-01 -3.94997537e-01 +6.79013252e-01 -2.49348581e-01 -3.11181322e-02 -3.21371764e-01 -4.34212387e-01 +1.36533067e-01 -1.31051540e-01 +9.84424055e-02 -7.30657503e-02 +2.38498926e-01 -2.96309978e-01 +3.65296215e-01 -2.06671461e-01 -4.16592270e-01 +6.10162653e-02 -3.38728189e-01 -7.39030913e-02 +3.26361239e-01 +6.42855048e-01 +3.84904712e-01 -1.59614459e-01 -3.79167259e-01 -2.61189312e-01 -1.37587115e-01 -3.43332708e-01 -3.54233682e-01 +2.51968596e-02 +4.25513983e-02 +1.32640094e-01 -2.22328547e-02 -4.73877713e-02 -4.64502841e-01 +1.73960567e-01 -2.22039267e-01 +1.34390622e-01 +1.70277655e-01 -2.43840933e-01 -5.80240274e-04 +1.96505055e-01 +1.53748225e-02 +2.92318642e-01 +3.73935312e-01 -3.69359702e-01 -1.59488335e-01 +2.54607826e-01 +2.19354942e-01 +1.34099871e-01 -1.56335026e-01 +1.03300944e-01 +1.59974303e-02 +2.81676292e-01 -2.75103480e-01 +1.22817859e-01 -2.35804945e-01 -5.36938682e-02 -1.21574365e-01 -1.23317512e-02 +2.54741371e-01 +2.13070400e-02 -1.69433281e-02 +3.12359542e-01 +1.21716764e-02 -1.62192136e-01 -5.93321145e-01 +1.75475925e-01 -1.37972208e-02 -1.91951931e-01 +1.14559337e-01 +1.48865178e-01 +1.16717746e-03 -4.17218387e-01 +3.68587941e-01 +2.13542163e-01 +6.56404197e-01 +2.74149776e-01 +5.68239868e-01 +2.21203968e-01 -4.81595546e-01 -2.02166334e-01 -3.17590078e-03 -4.99359697e-01 +4.91692275e-01 +8.05140018e-01 -5.39236605e-01 +4.76910114e-01 -4.66553420e-01 -4.19818312e-02 -3.59255344e-01 -4.89741892e-01 -6.49979055e-01 +5.48429564e-02 -7.65260816e-01 -6.97887540e-02 +6.64184848e-03 -1.57867745e-01 -6.60017133e-01 +4.88175362e-01 +2.08778754e-01 +7.80858934e-01 -2.76798964e-01 -2.47620359e-01 +3.30694079e-01 +2.19987616e-01 +7.00924993e-01 +1.82117403e-01 -8.46858993e-02 +7.71860778e-02 +4.20060396e-01 -9.51250792e-02 -7.61134028e-02 -4.41964269e-02 +2.73561090e-01 +1.70242891e-01 +2.24744529e-01 +2.51616627e-01 +3.67873371e-01 +1.05879515e-01 +4.93856341e-01 +3.03367347e-01 +2.10655451e-01 +8.17971155e-02 -3.10421348e-01 +3.01515549e-01 -4.61581737e-01 +2.67383844e-01 +1.79776922e-01 -3.55889589e-01 +1.00223385e-01 +1.60398126e-01 -4.23973471e-01 +5.64362034e-02 +2.75400877e-01 -3.07832986e-01 -7.09946752e-02 +3.41721117e-01 +2.99717605e-01 -2.40707427e-01 -4.72536266e-01 +4.25089225e-02 +6.18491787e-03 -1.23829439e-01 -1.08334072e-01 -8.71635154e-02 -2.73460358e-01 -5.30931234e-01 +2.18646955e-02 +5.72267890e-01 +2.71093100e-01 +8.10011178e-02 +5.48657835e-01 -7.98908547e-02 -4.01103497e-02 +4.28763866e-01 -1.54886991e-01 +1.13669023e-01 -1.76780075e-01 +6.12127967e-03 +4.35415655e-01 -1.78703330e-02 -7.28127807e-02 +4.28379290e-02 +2.55348742e-01 +4.13272381e-02 +4.13147897e-01 +5.76376766e-02 -8.21541473e-02 +3.85629356e-01 -1.46582723e-01 -2.21202131e-02 -6.16105385e-02 -9.06068161e-02 -3.54961246e-01 +2.01189414e-01 -6.92564715e-03 -2.39405427e-02 -2.92486787e-01 -2.51096100e-01 +1.44791141e-01 +5.86245000e-01 +3.06647629e-01 -2.18135584e-02 +2.68803626e-01 -2.99767166e-01 +1.59411877e-03 -7.20418990e-02 +1.21023819e-01 +5.12767613e-01 +3.47573072e-01 +2.45731726e-01 -1.37391552e-01 +5.62846899e-01 +5.32892585e-01 -4.77678031e-01 +3.67274918e-02 -1.07795015e-01 +4.77108210e-01 +9.03820544e-02 -5.76162875e-01 +4.95419241e-02 -1.79268122e-01 -2.83188075e-01 -4.03056473e-01 +6.80134118e-01 +5.08156896e-01 -6.63162887e-01 -3.57089221e-01 +4.12640814e-03 -5.76669335e-01 -5.18166602e-01 -1.80423528e-01 +7.17766583e-01 +5.05156778e-02 +3.24329585e-01 +4.73469526e-01 -9.74643454e-02 -1.82304174e-01 +5.62474608e-01 +1.86645612e-01 +5.38167775e-01 -8.82619843e-02 -6.94772601e-02 +3.95724148e-01 +3.44179541e-01 +3.09180260e-01 -2.49151453e-01 +2.07283236e-02 +3.50612491e-01 +4.33910191e-01 -1.71122387e-01 -3.06645781e-01 +7.40511417e-01 -2.26370499e-01 -4.44982201e-02 -3.82128693e-02 -2.02056974e-01 +3.89533579e-01 +8.37395783e-05 -4.88758922e-01 -3.65868062e-01 +4.41569313e-02 +2.86166698e-01 -3.32837701e-01 +3.73392761e-01 -4.94963437e-01 +2.80826747e-01 -3.92185122e-01 +2.85965860e-01 +1.53503403e-01 +4.41074222e-02 -4.34628695e-01 -2.88674146e-01 -5.28212488e-01 +5.00239789e-01 -3.43967117e-02 -2.69803017e-01 -3.45229477e-01 +7.62563288e-01 -4.47676867e-01 -2.33480364e-01 -6.59664422e-02 -5.49071014e-01 -1.81220055e-01 -1.77481640e-02 +2.99380004e-01 -1.50353730e-01 +3.14819157e-01 +6.44418597e-02 +2.50198960e-01 +3.86515170e-01 -2.18442306e-01 +1.21094890e-01 +5.23991406e-01 +5.35121858e-01 +4.58126999e-02 -1.64269637e-02 +8.86268839e-02 +2.31172577e-01 +2.05906823e-01 +9.57398936e-02 -1.79543555e-01 -1.42615035e-01 +3.32510144e-01 -2.64833897e-01 +1.32824287e-01 +1.22898482e-01 -2.53770113e-01 +4.30273525e-02 -4.36368853e-01 +3.09519470e-01 +2.02638999e-01 +1.16013559e-02 -5.86202368e-02 +1.35283202e-01 +9.63227376e-02 +3.79975826e-01 -6.32231403e-03 -2.66068488e-01 +4.34390575e-01 +8.59849229e-02 -5.66659197e-02 -5.59079414e-03 +2.39507765e-01 -3.04944783e-01 +1.48634231e-02 +1.85204923e-01 -5.77699170e-02 -3.74139309e-01 +5.75164378e-01 +1.18376806e-01 -5.33597827e-01 +3.07150036e-01 +3.71832959e-02 +1.03462406e-01 +1.87777936e-01 +5.58680058e-01 +4.84190494e-01 -3.99842888e-01 +6.76923022e-02 -3.07480365e-01 -2.72098500e-02 +4.90269303e-01 -1.89132228e-01 +7.56412521e-02 +7.15897745e-03 -8.11966807e-02 +3.52381527e-01 -1.66646153e-01 +2.59372201e-02 -4.07741159e-01 +8.36134791e-01 +1.35307446e-01 +4.65887077e-02 -6.53305709e-01 -1.69680402e-01 +5.01792192e-01 +4.04817373e-01 +7.97872424e-01 -3.60042691e-01 -7.13381469e-02 +2.79671609e-01 -2.93265611e-01 +2.58944511e-01 +6.81534886e-01 +4.28707987e-01 -5.85237324e-01 +7.33698756e-02 +2.96659678e-01 +1.67293712e-01 -3.75485003e-01 -3.39870900e-01 -8.32305729e-01 -5.11364520e-01 +2.06936583e-01 -3.82474452e-01 +1.25075504e-01 -2.51443535e-01 -6.34451687e-01 +4.39555198e-01 -7.08236039e-01 +7.37020433e-01 +1.94273084e-01 +1.79843768e-01 -8.74164794e-03 +1.76710516e-01 -6.52826726e-02 -1.88393518e-01 +2.16456875e-01 -2.71248281e-01 -1.88103378e-01 -4.67170805e-01 +3.66348624e-01 -4.19527233e-01 +1.48155883e-01 -1.55124754e-01 +3.78462493e-01 +1.19692110e-01 -5.46445251e-01 +1.03732519e-01 -4.01595950e-01 +2.95483172e-01 -3.20056081e-01 -2.04877824e-01 +6.19390130e-01 +2.20950589e-01 -3.06642860e-01 +6.84402525e-01 +1.07003339e-01 +1.82504237e-01 +1.89410657e-01 -4.31352198e-01 -4.95195985e-02 +3.31897140e-02 +1.86207697e-01 +5.59927642e-01 -4.25050288e-01 +2.78344721e-01 -2.92745471e-01 -2.48165354e-01 -2.74796277e-01 -2.29686350e-02 -7.57457763e-02 +1.40557468e-01 +4.07035321e-01 +1.74081460e-01 -3.64888579e-01 -6.00348532e-01 -1.11179933e-01 +1.39287338e-02 -1.68894291e-01 -3.04371476e-01 -2.61441380e-01 +5.58120944e-02 -4.45211142e-01 +3.43200602e-02 +4.65053599e-03 +4.99791652e-02 -4.38116759e-01 -1.07074335e-01 +9.80173349e-02 +1.53625056e-01 -2.78048404e-02 +1.31978869e-01 +4.86883931e-02 +6.80923322e-03 +2.75653094e-01 -3.71682823e-01 -3.41780603e-01 +8.96556452e-02 +1.74029380e-01 -5.21744117e-02 +3.69558573e-01 -1.48448154e-01 -5.03578037e-02 -3.42409551e-01 +3.01425725e-01 -3.88673067e-01 -2.70675957e-01 -3.70213948e-02 -2.90228158e-01 -2.03823224e-01 -2.69001961e-01 -2.58801635e-02 -1.50636777e-01 -4.48715221e-03 +3.90780270e-01 -4.35664624e-01 +2.24684179e-01 -4.05799270e-01 +3.49963456e-01 -1.98408201e-01 -6.48428267e-03 -1.07712351e-01 -3.34701240e-01 +1.19245976e-01 +1.50438771e-01 +2.54811317e-01 -2.97238082e-02 +4.29051042e-01 -3.23435336e-01 -1.62579149e-01 -4.08940881e-01 -4.41686004e-01 -4.04717028e-01 +2.64172330e-02 -4.92261916e-01 -5.10330737e-01 +6.84469700e-01 +7.02877939e-01 -1.76815093e-02 -2.58407056e-01 -3.31413150e-01 -3.09080124e-01 -2.44304627e-01 +9.11758766e-02 +3.04263830e-01 -4.04238671e-01 +2.80044138e-01 -2.19879106e-01 +6.70608580e-01 -4.40651327e-01 +4.75230604e-01 -1.68210253e-01 -1.56199276e-01 -4.45969999e-01 +2.87201524e-01 +7.73188174e-01 +8.85055661e-02 -1.41187862e-01 -9.84157994e-02 -1.89493731e-01 -2.04237923e-01 +3.04868519e-01 -1.08598039e-01 +2.24472255e-01 -1.77456498e-01 +1.13113411e-01 +3.58188510e-01 +2.28507861e-01 +2.31672302e-01 +5.71112514e-01 +1.10260211e-01 +2.98075914e-01 +3.35667320e-02 +2.72830904e-01 +3.74881327e-01 -2.83543319e-01 +7.91308433e-02 -2.93536186e-01 +2.73992687e-01 -7.87978694e-02 +1.58351734e-01 +2.46089205e-01 +2.06004903e-01 -5.72990358e-01 +5.13347723e-02 -4.12234038e-01 +4.59390134e-02 +8.64907447e-03 -1.86380163e-01 -1.90076739e-01 +3.27562660e-01 +5.09476542e-01 -7.37224370e-02 +1.68047622e-01 +2.38737240e-01 +9.18661132e-02 +8.70698243e-02 +3.15898031e-01 +1.00696437e-01 +1.72497228e-01 +4.66725081e-02 +7.33143417e-04 +1.75194964e-01 +8.52299556e-02 +1.04108676e-01 +5.26441872e-01 -1.54334292e-01 +3.72125618e-02 -2.49967784e-01 -6.33078665e-02 +1.15952089e-01 -4.16376116e-03 -1.62375644e-01 +4.64405715e-02 +2.16251001e-01 +2.07466677e-01 +3.55491266e-02 -1.59121547e-02 -3.40045989e-01 +3.16169918e-01 -9.54051539e-02 +1.29203930e-01 -2.61942595e-01 -2.50544548e-02 -1.15484864e-01 +1.97819561e-01 -3.93248275e-02 -2.20881432e-01 -1.03187017e-01 +6.06171936e-02 -1.73183069e-01 -2.02831909e-01 -1.66282162e-01 -1.94343626e-01 +5.21899946e-02 -1.52370660e-02 -9.05357376e-02 -2.40905315e-01 -2.73859292e-01 +1.55862886e-02 -4.29752767e-01 -2.43243814e-01 -3.19720238e-01 +3.36707719e-02 -3.14767152e-01 -3.27997208e-01 -5.22091687e-01 -1.68828994e-01 -3.15846242e-02 -4.28325891e-01 -4.24864978e-01 +2.94268757e-01 +2.32504219e-01 +1.56812280e-01 +3.65919560e-01 +2.75692701e-01 -2.77119815e-01 -2.65792102e-01 -8.50146040e-02 +4.31725442e-01 +5.29363705e-03 +6.15905643e-01 +2.53228039e-01 +1.31177440e-01 +4.18409497e-01 +2.65061766e-01 +4.84200530e-02 -5.52080385e-02 +7.50550330e-02 +1.02684915e-01 +1.29380777e-01 -2.61332005e-01 +1.45286813e-01 -6.07809484e-01 +3.34798872e-01 -4.46564615e-01 +1.16951615e-01 +1.94571614e-01 +3.93722594e-01 +5.34652352e-01 +3.85086626e-01 -8.13768983e-01 +6.82041407e-01 +1.48243919e-01 -3.25873524e-01 -1.77805975e-01 +2.95013040e-01 -7.20095411e-02 -3.78856808e-02 +7.94117525e-03 -3.37372392e-01 +5.20701706e-01 +3.93433154e-01 -4.04432327e-01 +2.71329165e-01 +5.11348546e-01 +3.33714664e-01 +6.85169697e-01 -1.20634615e-01 +3.55337113e-01 -3.04371506e-01 -2.87658036e-01 +1.20845422e-01 -2.15584248e-01 +4.99058098e-01 +4.06005502e-01 -3.34818423e-01 -1.70009449e-01 +2.37195820e-01 -8.28878954e-02 -5.07275879e-01 +2.89668977e-01 -3.80606055e-01 -7.38841370e-02 +1.69260383e-01 +2.19918936e-01 -5.98161109e-03 -1.74166765e-02 +1.24337792e-01 +4.14459080e-01 +2.23395422e-01 +2.94450581e-01 -1.11521721e-01 -1.22976027e-01 +8.12804848e-02 +6.59342557e-02 +3.15093786e-01 +1.22636460e-01 +4.60944682e-01 +3.83939266e-01 +1.05895326e-01 -2.78857630e-02 -3.69052961e-02 +3.87043357e-01 -4.42346990e-01 +4.75393564e-01 +3.49984944e-01 +2.05564573e-01 +1.55259997e-01 +4.74140257e-01 +1.21945165e-01 +2.66694963e-01 +4.63641822e-01 +1.38011396e-01 +1.00931637e-01 +5.88092566e-01 +2.26822153e-01 -2.17871040e-01 +1.61813349e-01 +5.80942743e-02 +2.20255464e-01 +1.08757084e-02 -4.69924510e-01 -3.33069891e-01 +4.04472411e-01 +6.74422160e-02 -1.51970416e-01 -4.74661514e-02 +2.86482181e-02 -1.99844182e-01 -3.37687787e-04 -6.92919493e-02 +1.69594139e-01 +2.62755483e-01 -3.98509294e-01 +2.10354850e-01 +2.27908537e-01 +1.16943635e-01 -6.23939693e-01 -1.95849478e-01 +1.85283765e-01 +2.74910659e-01 -4.53746557e-01 -1.75758734e-01 -4.30302113e-01 -3.85136865e-02 -3.23959738e-02 +2.97811806e-01 -1.54862151e-01 -4.70660985e-01 -2.01555103e-01 -1.33902431e-01 +5.15892565e-01 -1.09511584e-01 +3.82934719e-01 +8.19322541e-02 +8.17666948e-01 +3.56605738e-01 -3.15692723e-01 +4.46859509e-01 +5.24540246e-02 +7.47035086e-01 -4.25527215e-01 +3.79253715e-01 +2.89361089e-01 +7.46706920e-03 -9.02460814e-02 +2.66380340e-01 +2.15326637e-01 +1.75550967e-01 +3.57392520e-01 -7.13539362e-01 +9.66641665e-01 -1.27431363e-01 +3.86360437e-01 +2.25746349e-01 +6.43484831e-01 +3.64521801e-01 +3.12961787e-01 -4.84973639e-01 +4.46092904e-01 -2.71896154e-01 +4.24899668e-01 -2.43487492e-01 +8.71345550e-02 +3.24994713e-01 +1.29759952e-01 -2.71177460e-02 +2.46580154e-01 +3.50356340e-01 +5.70117235e-01 -3.95782292e-01 -5.25476575e-01 +4.18350101e-01 +3.16615641e-01 +2.39749402e-01 -5.56063652e-02 +3.81131291e-01 -4.56327647e-01 -1.74816176e-01 +1.06865495e-01 -1.73220441e-01 +5.57349265e-01 +2.39993677e-01 -1.01261176e-01 +2.18627885e-01 -3.08209687e-01 +5.07308841e-01 +1.56579185e-02 +2.40663052e-01 -4.17380363e-01 +5.56155853e-02 +1.09945111e-01 -7.02962056e-02 -4.40031558e-01 -1.35755055e-02 +4.17558908e-01 +7.83163831e-02 -1.78781137e-01 -5.27389288e-01 +2.49037340e-01 +2.23087072e-01 +5.24452865e-01 +5.22736669e-01 +2.04278633e-01 +7.42177144e-02 +9.11128372e-02 -3.10234874e-01 -1.91193409e-02 +3.43523741e-01 +1.76377505e-01 +2.90467385e-02 +3.06623399e-01 -9.96014103e-02 +6.66304171e-01 -2.58082360e-01 +3.46307367e-01 -1.29599318e-01 -3.84907350e-02 -2.41363287e-01 +4.48398829e-01 +2.07639784e-01 +7.15088919e-02 -5.89700103e-01 +6.96071908e-02 +2.49771625e-01 -2.84404248e-01 -1.28208816e-01 +1.69514120e-01 +9.49815586e-02 -6.07877634e-02 +2.57663250e-01 +1.82349592e-01 +7.26441592e-02 +2.43584126e-01 +5.77383697e-01 -1.80012882e-01 -1.20041519e-01 -1.42633215e-01 +6.46279693e-01 -1.19290784e-01 -2.52256483e-01 +4.03576009e-02 -1.93915263e-01 +1.25122413e-01 +3.41502488e-01 +1.88305452e-02 -3.06781590e-01 -6.25456512e-01 -9.54523683e-02 -4.69302297e-01 +2.27050424e-01 -2.85328776e-01 +1.23444647e-01 -9.10900440e-03 +1.73376843e-01 +4.24806364e-02 -9.76789445e-02 -4.05218937e-02 +2.70095896e-02 -1.07914442e-02 -3.58503014e-01 +1.29923418e-01 -6.49497390e-01 +3.80950987e-01 +2.44651616e-01 +5.51031768e-01 +3.70057166e-01 +6.83131039e-01 -7.91428238e-02 -1.00669578e-01 +4.45368201e-01 -5.34753323e-01 +4.19481486e-01 -9.09688592e-01 +1.28158987e-01 -7.02536758e-03 +9.11088109e-01 +8.75810206e-01 -4.64318991e-01 -4.43853587e-01 -3.18106860e-01 -5.72068572e-01 +1.25416577e-01 +9.37672257e-02 +3.22271705e-01 -3.54749233e-01 -1.14237539e-01 +6.98489130e-01 -3.95952255e-01 -7.91022956e-01 -5.67870796e-01 -3.53738040e-01 -6.54047653e-02 -3.04315716e-01 -5.75579643e-01 -3.41741860e-01 +2.54522413e-01 +2.82909065e-01 -2.21068099e-01 -6.69165999e-02 -3.59561332e-02 +2.48028785e-01 +2.04557106e-02 -1.49236485e-01 +4.10475694e-02 -1.75559446e-01 -5.23119450e-01 -6.66531846e-02 -2.73434788e-01 +1.69830203e-01 +3.49481702e-01 -2.07946494e-01 -8.12948197e-02 +6.49899781e-01 -5.46539724e-01 -8.83514643e-01 +1.28660247e-01 +8.84280503e-02 -4.47099239e-01 -1.82546765e-01 -3.17258164e-02 +2.12649450e-01 -2.25954786e-01 +2.20903456e-01 -3.00511867e-01 +1.16041517e-02 +2.62948126e-01 +2.31091782e-01 -1.23250365e-01 +4.71735120e-01 +2.08984911e-01 +3.92992347e-01 +1.36742843e-02 +2.61305660e-01 -1.35355636e-01 +1.04262538e-01 +2.57734746e-01 +2.05130190e-01 -2.24354208e-01 +2.21750006e-01 -3.62257302e-01 +1.25954196e-01 -9.13365334e-02 -9.99556929e-02 +1.35772020e-01 -3.83112393e-02 -7.20709041e-02 -3.38405333e-02 -2.88515270e-01 +9.90967825e-02 +1.01104632e-01 +2.55178064e-01 -5.32347672e-02 +4.85332876e-01 +3.14136267e-01 +3.23839843e-01 +9.17361975e-02 +4.98353615e-02 +2.56380945e-01 +1.45617083e-01 +4.33596075e-01 -5.57904363e-01 -2.72275180e-01 +4.38226253e-01 -1.09258473e-01 +1.54596210e-01 +6.45374238e-01 +2.44617194e-01 +2.72034645e-01 -1.74566537e-01 -2.00371474e-01 +4.27595079e-01 -4.99146283e-02 +4.86150265e-01 -1.96308836e-01 +4.10373472e-02 +1.95476905e-01 -7.29132056e-01 -2.42087677e-01 -9.35830027e-02 +1.34853616e-01 +1.48291394e-01 +3.37674737e-01 -2.62927681e-01 -2.47390866e-01 -2.47005910e-01 +5.10796189e-01 +4.00813222e-01 +2.45790437e-01 +3.88495594e-01 +7.87207782e-01 -6.32998571e-02 +6.76560819e-01 +2.64567174e-02 -5.01791179e-01 +3.81208897e-01 +8.49235952e-02 -2.99545139e-01 -5.61686978e-02 -1.58802107e-01 +1.75569445e-01 -4.36156876e-02 +1.05305500e-01 +6.78425133e-01 -1.93973899e-01 +7.66811728e-01 +1.80785075e-01 -1.09138623e-01 +3.05629462e-01 -4.96219873e-01 -6.67417705e-01 -1.69483960e-01 -5.92716224e-02 -1.45760924e-02 -1.31294683e-01 -4.71435219e-01 -4.40984756e-01 +2.80600429e-01 +4.30478662e-01 +7.35210031e-02 +3.05909753e-01 +2.92481184e-01 +6.00350499e-01 -3.09814066e-01 -4.82066125e-01 +5.52152336e-01 -6.93567768e-02 -8.51557702e-02 -3.19194078e-01 -2.70341694e-01 -6.01771533e-01 -2.59242535e-01 +1.49819881e-01 -1.03661418e-01 +1.41776711e-01 -3.86911392e-01 +1.78952917e-01 -6.16477966e-01 -3.21843065e-02 +5.69898151e-02 +1.26675516e-01 -4.94351164e-02 +2.06684127e-01 -1.61566898e-01 +2.42475346e-01 -2.04944521e-01 +2.12927327e-01 +3.21512192e-01 -2.83064365e-01 -1.78667188e-01 +4.84780997e-01 -2.26455964e-02 -4.09289658e-01 +2.18107387e-01 -2.93393999e-01 -1.70813426e-01 +5.37353866e-02 -2.15992063e-01 -5.18017530e-01 -3.32389116e-01 +4.66924943e-02 -3.89345676e-01 +1.53481916e-01 -1.69048533e-01 +1.29365250e-01 +3.25295001e-01 -1.12157986e-01 +2.92129308e-01 +1.59170538e-01 +1.60424098e-01 +7.37517849e-02 -4.16575581e-01 +2.72605922e-02 +5.22133470e-01 +2.81526864e-01 +2.49597281e-02 -1.14960806e-03 -3.99669111e-01 +6.80841357e-02 +1.00230314e-01 -4.87012118e-01 -1.48246124e-01 +5.50610274e-02 -4.19170201e-01 -1.16759785e-01 +2.57004172e-01 +2.44273439e-01 -4.46168296e-02 -9.04100761e-02 +4.81213666e-02 +2.04158396e-01 -1.29030690e-01 -1.47294402e-01 +3.28720570e-01 +4.19541836e-01 -2.48758540e-01 -1.57106504e-01 -3.05863768e-02 +3.13527107e-01 +6.46622777e-02 +5.13938725e-01 +1.80598974e-01 +3.40145886e-01 +7.37490579e-02 -2.87999600e-01 +3.62731099e-01 +3.94455582e-01 -3.89070213e-01 +4.21999604e-01 +1.99113578e-01 +1.77980691e-01 +4.25211787e-01 +2.89751619e-01 -3.38053443e-02 -2.73008764e-01 +1.32759765e-01 +2.09155027e-03 +2.16694534e-01 +5.92266977e-01 -2.49917403e-01 +5.59787406e-03 +4.90117699e-01 -5.08982599e-01 -3.99444014e-01 +2.07170889e-01 +5.26075065e-01 -2.85856962e-01 +2.99738884e-01 -1.28539085e-01 +3.66002649e-01 +1.31068736e-01 +7.67117083e-01 +3.15802872e-01 -5.47953963e-01 +1.26649469e-01 -3.35372090e-01 +4.19463217e-01 +2.62776166e-01 +2.45918289e-01 -7.95067489e-01 +7.01271668e-02 +1.18844040e-01 +7.70673692e-01 +9.43016708e-02 -6.97325349e-01 +6.68628514e-01 -3.12225223e-01 +1.21784568e-01 +1.46562532e-01 +1.22324504e-01 -9.38508734e-02 -4.78969291e-02 -1.51493162e-01 -5.78935146e-01 +2.19495192e-01 +5.08766711e-01 -1.35578111e-01 -2.54133552e-01 +1.38235524e-01 -1.60853863e-01 -1.12909652e-01 -5.86219020e-02 -6.77343160e-02 +3.42839867e-01 -4.66281027e-01 +2.66139388e-01 -6.31964624e-01 +9.16504487e-02 -1.56968936e-01 -3.33625913e-01 -3.44627351e-01 +3.35343689e-01 -5.78378856e-01 +2.07031444e-01 +1.29513025e-01 -3.49866658e-01 +2.86157429e-01 +5.59773073e-02 +1.06821373e-01 +1.62625045e-01 +2.05449499e-02 -1.56080395e-01 -1.30394697e-01 -1.72542825e-01 -2.07856610e-01 -8.20957944e-02 +1.93545269e-03 -7.10189790e-02 -9.51454714e-02 +1.79324538e-01 +1.00444891e-01 -2.90148288e-01 -4.01196688e-01 +6.79277897e-01 +7.58115575e-02 +2.24607036e-01 -4.00202930e-01 +2.74889767e-01 +2.61141993e-02 -2.99872696e-01 -1.91069514e-01 +5.66329896e-01 +2.92424560e-01 +3.46239686e-01 -3.52094732e-02 +3.76127928e-01 -5.05043089e-01 -1.98438972e-01 +1.92562774e-01 +8.85466561e-02 +3.57717663e-01 +4.81354684e-01 -5.25536358e-01 -1.51534170e-01 +2.39939988e-01 -3.74310344e-01 +1.96771353e-01 -1.02966599e-01 -6.97426498e-02 +1.01299487e-01 +3.99280101e-01 +6.24512732e-02 +6.09256923e-02 -3.14823091e-01 -3.73381734e-01 -7.68761411e-02 -2.07835168e-01 -7.32629970e-02 +1.78404808e-01 -6.24195971e-02 +1.72269583e-01 -2.87926551e-02 -8.18053260e-02 -8.80675167e-02 -3.98492992e-01 -3.92528594e-01 +5.61230890e-02 +2.01226667e-01 -1.58488955e-02 -3.10876220e-01 +1.84403107e-01 -5.29182181e-02 +3.77793133e-01 +7.35691428e-01 +5.97642243e-01 -2.78524369e-01 +2.56934851e-01 -5.67803025e-01 -5.29129684e-01 -1.33637100e-01 -3.62172663e-01 +2.90692866e-01 +5.59285045e-01 +5.46705365e-01 -5.07136285e-01 -7.67735600e-01 -4.51713681e-01 -3.54677975e-01 +6.02782428e-01 +6.18260801e-01 -5.78817666e-01 +3.81274462e-01 +3.84353846e-01 -7.03494847e-01 -1.13330849e-01 +4.58666474e-01 -7.50267863e-01 -3.49407345e-01 -3.12948465e-01 -3.12760890e-01 +3.14034015e-01 -8.86832118e-01 -5.74051559e-01 +2.62296528e-01 +2.31525645e-01 -7.07441390e-01 -6.06298745e-01 -4.71094437e-02 +4.95280445e-01 -6.16309106e-01 -7.52850771e-02 +6.25376916e-03 +5.56331798e-02 -6.52814984e-01 -1.02613829e-01 -1.86010346e-01 -1.37078941e-01 -3.07820648e-01 +8.51825774e-02 -9.93195102e-02 -7.74429366e-02 +4.68666047e-01 -1.56884760e-01 +1.75032705e-01 -3.22270095e-01 +2.23800510e-01 +1.32085800e-01 -3.29302773e-02 +1.99575618e-01 -3.39392185e-01 -2.63442129e-01 +1.48514003e-01 +1.97261229e-01 -2.49422029e-01 +5.64286672e-02 -7.38394037e-02 -2.46018723e-01 -2.29769826e-01 -2.84799427e-01 -1.10652698e-02 +2.48031676e-01 -2.25284338e-01 -1.04123138e-01 -6.75670654e-02 +8.31610337e-02 +2.77989924e-01 +2.51758367e-01 +3.99402231e-01 +3.97485793e-01 +6.09838217e-02 +8.87831971e-02 -1.11285858e-02 +2.57628798e-01 +4.32427265e-02 +2.40795791e-01 +2.06287161e-01 +4.40957665e-01 +3.13485861e-02 +3.18326652e-01 +2.62899876e-01 -2.63299316e-01 -6.59444258e-02 +2.86046952e-01 +3.38725090e-01 -4.11397815e-01 -3.52837384e-01 +4.42796558e-01 +4.11642581e-01 +6.54285923e-02 +1.93553139e-02 -1.22479364e-01 -2.54330486e-01 +2.77387798e-01 -2.82036066e-01 +3.10695022e-01 +1.57382771e-01 -2.22697139e-01 +4.04151469e-01 +2.51041412e-01 +8.90414789e-02 -5.59531510e-01 +1.29925981e-01 +1.99390471e-01 +1.80350095e-01 +9.13315043e-02 -5.28825447e-02 +3.22171539e-01 -7.11454391e-01 +3.20950478e-01 +4.48200375e-01 +5.90534285e-02 -2.70145446e-01 -1.37744993e-01 -1.96131214e-01 -8.59437361e-02 +3.36056888e-01 +1.95267215e-01 -1.02308795e-01 +9.75006744e-02 -6.77210698e-03 +1.89682603e-01 -7.19833151e-02 +5.79847433e-02 -4.14833613e-02 +2.20683336e-01 -3.53657603e-01 -3.48478146e-02 +4.08552513e-02 +4.53466147e-01 +5.06825507e-01 +3.25797230e-01 -3.17593485e-01 +3.40293318e-01 +3.96895081e-01 -2.55023222e-02 +5.26368320e-01 +5.16894042e-01 -2.05267370e-01 +3.01609278e-01 -6.58337101e-02 +1.55472517e-01 +2.73216516e-01 +4.52192724e-01 -5.20008862e-01 -5.69650233e-01 +2.81580180e-01 -3.88654172e-01 +3.94385993e-01 -4.37226713e-01 +4.12873961e-02 -4.97676097e-02 +2.77105838e-01 +6.50151014e-01 -1.35559842e-01 -1.31482780e-01 +2.45682284e-01 +3.59968126e-01 -7.79899731e-02 -3.30311328e-01 +3.77905399e-01 -2.70497829e-01 -3.54139030e-01 +2.38925919e-01 +2.44952425e-01 +3.59797925e-01 +1.81861237e-01 +3.02754521e-01 +1.16903350e-01 +2.21928552e-01 -1.94780994e-02 +5.54725051e-01 +5.06762207e-01 +2.89149314e-01 +3.87178421e-01 +4.21494514e-01 -1.73554242e-01 +3.46690476e-01 +4.54295874e-01 +2.37524077e-01 -2.27286771e-01 +4.02082324e-01 +1.26352996e-01 -4.12423134e-01 +2.85017602e-02 +4.60526198e-01 +8.22590142e-02 +4.33791429e-01 +3.09693366e-01 -2.30195560e-02 -3.11643165e-02 +2.80131966e-01 +1.10765539e-01 -1.75692007e-01 +4.47963208e-01 +3.16448480e-01 -3.97755384e-01 +3.90895516e-01 +4.06229526e-01 -4.59777594e-01 +3.43206972e-01 +1.57647833e-01 +3.78664285e-02 +6.03124619e-01 -1.08223334e-01 +4.66435343e-01 +2.86320627e-01 +2.79747784e-01 -4.24205437e-02 +4.26806435e-02 +1.03576981e-01 +2.71584481e-01 -2.55259931e-01 +4.45211083e-02 +3.45383994e-02 -1.27462000e-01 +1.96256772e-01 -1.12126015e-01 +1.43132880e-01 +3.57637286e-01 +2.15996608e-01 +4.59452629e-01 -1.42680705e-01 -2.46244133e-01 -2.48136237e-01 +2.97126509e-02 +1.93938434e-01 +1.14953391e-01 +4.18050319e-01 -3.55491072e-01 -4.59429100e-02 -2.63282787e-02 -2.23275889e-02 +3.77950191e-01 +1.32853426e-02 -2.34609872e-01 -2.50245929e-01 +9.31952223e-02 +5.07904701e-02 +2.03851417e-01 +2.14937359e-01 -8.86402428e-02 -4.25753355e-01 -4.51087624e-01 +2.87864774e-01 -4.28098232e-01 +4.92507741e-02 +1.57354295e-01 -1.13519691e-02 +2.44880021e-01 -2.83524171e-02 +6.62252247e-01 -1.92286417e-01 -6.95467144e-02 -2.80918807e-01 -1.37594998e-01 -2.46591836e-01 +3.03605646e-01 +5.87777235e-02 +3.35245669e-01 +3.10265988e-01 +5.89675188e-01 +5.03614426e-01 -5.36005139e-01 +2.56560206e-01 +6.19114153e-02 +6.29429460e-01 -7.72915874e-03 -7.32678294e-01 +1.53604552e-01 +4.79008913e-01 +2.76047081e-01 +5.70206523e-01 +3.55337799e-01 +6.82221413e-01 +5.84358931e-01 -3.99746466e-03 -2.26719350e-01 +5.39827526e-01 -1.84532717e-01 +6.91802084e-01 +2.47747511e-01 -2.89727241e-01 +1.23597100e-01 +1.30093932e-01 -3.78326088e-01 +4.62277681e-01 +2.59671777e-01 +4.01627153e-01 +2.21692488e-01 -1.34788215e-01 +5.85551560e-01 -3.62025946e-01 +1.98390856e-01 -1.49883032e-01 +4.00309145e-01 +4.44487017e-03 -5.00062108e-01 +9.14522037e-02 +1.78304419e-01 +2.27824599e-01 +4.42871898e-01 -1.07026681e-01 -2.90865097e-02 -2.17120454e-01 +3.00145537e-01 +2.93384671e-01 +6.58366084e-01 +1.55347347e-01 -9.79814529e-02 -3.34206372e-02 +6.45559609e-01 -2.93722123e-01 +4.26008143e-02 -5.26064157e-01 -4.08087634e-02 -2.60270149e-01 +3.60747129e-01 +6.64732158e-02 -3.78833786e-02 +3.44785094e-01 +1.26339197e-01 -2.67336369e-01 +3.11786711e-01 +1.45442277e-01 +1.33917660e-01 +5.51892333e-02 -1.32830352e-01 -4.95282114e-01 +2.17925370e-01 -4.93839562e-01 +1.57432050e-01 -3.92478436e-01 +2.36641899e-01 +3.55141848e-01 +4.29160506e-01 +5.58420978e-02 +2.41811678e-01 -1.06283829e-01 +1.75342321e-01 +3.97471815e-01 -2.85613447e-01 -4.41132158e-01 +1.00133739e-01 +6.60867095e-02 -1.69315726e-01 -5.85178323e-02 -2.30135888e-01 -2.07649603e-01 -4.65232521e-01 -2.21951574e-01 -3.86136398e-02 -2.02295944e-01 -4.76331413e-01 -1.75205186e-01 -2.00337365e-01 +6.02078259e-01 -6.66154027e-01 -2.02897638e-01 +1.26269937e-01 -8.93599726e-03 -1.73666969e-01 -4.16650087e-01 +2.36024447e-02 -4.55049902e-01 -3.41210067e-01 +1.75204501e-01 +1.08318739e-01 +2.01213032e-01 -2.16234729e-01 -2.72111744e-01 -3.99399489e-01 +3.12136680e-01 +1.93792023e-02 +6.22728616e-02 -1.59034163e-01 +1.74535736e-02 +5.80706028e-03 -4.23295289e-01 -4.16788042e-01 -9.49948654e-02 -9.25353318e-02 +1.86842978e-01 -4.47222501e-01 -3.12671721e-01 +7.53249109e-01 -4.64661837e-01 -3.37678254e-01 +7.52007723e-01 -2.00557485e-02 +2.13694945e-01 +1.26939401e-01 -3.46089482e-01 -5.80589294e-01 -3.45872641e-01 -8.80460560e-01 -5.03331006e-01 -4.09675628e-01 +3.25939685e-01 +4.37696010e-01 -2.31951356e-01 -3.60316098e-01 +4.55837637e-01 +3.30044217e-02 +4.37313110e-01 -5.95504999e-01 -4.16335911e-01 +4.54848856e-01 -3.32523078e-01 -5.61246812e-01 +5.19212484e-01 -2.73373239e-02 +7.60063529e-03 +2.50978708e-01 -3.30788314e-01 +4.34337497e-01 +2.45849043e-01 -4.21300024e-01 -2.06787825e-01 +4.12756264e-01 +3.04885358e-01 +2.32469261e-01 +3.39241385e-01 -1.42451480e-01 -1.42199039e-01 -4.06939760e-02 +2.23632812e-01 +1.23710923e-01 -4.22677845e-02 +1.60255641e-01 +1.56507596e-01 +2.40864113e-01 -1.44165203e-01 -3.52440119e-01 +2.67408103e-01 -2.29723856e-01 -5.38519919e-01 +1.01967536e-01 -1.95324510e-01 -3.61052126e-01 -2.52415329e-01 +3.96856397e-01 -1.49155617e-01 -3.33231427e-02 +1.95255652e-01 +1.17531411e-01 -2.80900538e-01 -1.56162918e-01 -5.14011621e-01 -2.46965379e-01 -3.43048036e-01 -2.02752650e-01 -2.43617550e-01 +1.86497048e-01 +3.45581114e-01 +2.49981940e-01 -1.98219284e-01 -1.00931585e-01 -2.99251340e-02 +2.05844298e-01 +1.61613718e-01 -2.17252538e-01 +1.20159891e-02 +1.86963603e-01 +3.51424247e-01 +1.96152329e-01 -2.59448618e-01 -1.11899376e-02 +1.36139408e-01 +3.32217693e-01 -1.49792463e-01 -1.74149007e-01 +1.52946755e-01 -3.51802677e-01 -1.53851032e-01 +4.62498903e-01 +1.21365570e-01 +4.66816247e-01 +1.08053669e-01 -3.28979254e-01 +2.05004498e-01 -1.30390013e-02 -3.10045749e-01 +8.26875567e-02 -1.36258279e-03 -2.83335418e-01 +5.85399508e-01 +5.82870767e-02 +4.06690627e-01 +9.83885378e-02 -1.45802334e-01 +4.24739063e-01 +3.03205214e-02 +2.42465973e-01 +2.51314402e-01 +4.62394774e-01 -2.01485142e-01 -1.29462630e-01 +5.44915140e-01 +2.06401616e-01 -6.44642040e-02 -2.54043750e-02 +4.60467577e-01 +5.12217768e-02 +2.49484971e-01 +2.49679700e-01 -3.91989350e-01 +5.19548535e-01 +1.59448519e-01 +3.13327968e-01 -1.72165334e-01 +3.56788874e-01 -1.69908386e-02 -4.39441323e-01 -1.55140504e-01 +2.71843106e-01 -6.05699301e-01 -3.67224455e-01 +3.26137543e-01 +3.59399617e-02 +6.42452359e-01 -4.44695354e-01 +5.64308822e-01 +4.07548755e-01 -4.46222633e-01 +1.94600284e-01 +2.88050681e-01 +4.46320593e-01 -1.38330936e-01 +9.77337882e-02 -1.50127456e-01 -4.61736731e-02 +5.78035951e-01 +4.57317770e-01 +1.65616587e-01 -9.03103530e-01 +7.62475967e-01 +1.00063674e-01 +3.43490362e-01 +2.78972805e-01 +4.82249588e-01 -1.06358394e-01 +5.86405933e-01 -5.57204001e-02 -4.62912053e-01 +1.86909541e-01 +5.57800412e-01 -2.56125957e-01 -3.13667268e-01 -2.89621204e-01 +4.03482974e-01 +7.35371700e-03 +4.64273781e-01 +2.16701642e-01 -1.88989297e-01 +4.47131582e-02 +1.70636728e-01 -4.10322875e-01 +5.06233931e-01 +1.73459053e-01 -6.66474462e-01 +1.32171847e-02 +7.01094568e-01 +3.58293414e-01 -2.40948007e-01 -7.65119269e-02 +2.05553427e-01 +3.29489976e-01 +6.06531084e-01 +5.69054961e-01 -3.40304703e-01 +5.92926517e-02 +4.87498283e-01 +5.71827292e-01 -6.17746562e-02 -6.41156584e-02 -1.96352005e-02 -2.22458765e-01 -1.10516697e-01 -6.25778794e-01 +1.48496926e-01 -5.51521815e-02 +8.28627199e-02 +6.63053244e-02 +2.24421844e-02 -9.71646979e-02 +7.66511783e-02 +4.54205833e-02 -1.38604984e-01 +9.23901796e-02 -9.82559696e-02 +5.31895578e-01 -1.08385772e-01 -8.91727507e-02 +2.51645930e-02 -5.56753635e-01 -5.26014678e-02 +4.08648789e-01 -1.31945729e-01 +9.06010568e-02 -1.60289034e-01 -3.10184062e-01 -1.49084061e-01 +1.64768726e-01 -1.73969194e-01 -4.44114327e-01 +3.04960579e-01 +2.81994313e-01 -3.64196360e-01 -2.13942781e-01 +3.54437351e-01 -2.78267451e-02 -6.97823241e-02 +4.56688590e-02 +3.65308002e-02 +3.53151560e-01 -2.14977816e-01 +8.93616006e-02 -1.44738546e-02 -6.60564145e-03 +3.48560721e-01 +1.63186327e-01 -1.73323248e-02 +3.73867989e-01 -6.50563166e-02 -2.38416076e-01 -7.02363670e-01 +5.17649174e-01 -2.45942056e-01 +1.99199934e-02 -5.13664305e-01 +1.89887255e-01 +5.80058582e-02 +1.51088163e-01 +9.51318368e-02 -6.80818409e-02 -8.02331269e-02 +7.08773911e-01 -6.30782768e-02 -2.56405417e-02 -3.83051008e-01 -5.30192554e-01 -5.15562333e-02 +2.38257736e-01 +7.35536397e-01 +1.52289450e-01 +1.22215278e-01 +1.90538764e-01 -5.65195203e-01 -3.45206678e-01 +7.35657156e-01 -1.27883211e-01 +7.17998266e-01 -8.83879840e-01 +8.93248022e-01 +1.86315477e-01 +2.28374660e-01 -5.70824683e-01 +7.01191187e-01 -9.05264243e-02 -3.25958937e-01 -2.22925961e-01 -3.75392944e-01 -2.40369603e-01 +3.78812462e-01 -7.75843933e-02 +1.87882543e-01 +1.24189854e-01 -7.47297704e-02 +4.30466622e-01 -3.06000710e-01 -1.42806679e-01 +4.57962811e-01 +1.88473925e-01 -4.82455552e-01 -4.07598525e-01 +2.98586011e-01 -4.40708309e-01 +1.48540318e-01 +3.25361609e-01 -1.62958920e-01 +6.05587102e-02 +2.06621453e-01 +4.36151057e-01 -7.48970434e-02 +3.59500349e-01 -3.32053402e-03 +1.17803760e-01 -1.23075485e-01 +1.85096383e-01 +1.76171124e-01 +1.51087150e-01 -1.14996597e-01 +3.85785908e-01 +2.86752939e-01 +2.47686878e-02 -4.40220147e-01 +3.34071130e-01 -7.02102184e-02 -4.18409072e-02 -2.05352813e-01 -4.30972993e-01 -1.82281509e-01 -3.58203845e-03 -3.81915390e-01 +3.93717110e-01 -1.11027829e-01 +5.13201803e-02 -1.78811386e-01 -2.14997217e-01 +1.30973622e-01 -4.26032096e-01 -3.75549495e-01 +2.30251148e-01 -4.32881683e-01 +2.05994546e-01 +2.89498288e-02 -2.78905630e-01 +4.62661274e-02 -1.79752767e-01 -4.95860338e-01 -3.23164880e-01 -5.11466584e-04 -4.30237353e-02 -2.71517541e-02 -1.45821214e-01 -1.48972034e-01 +7.93158486e-02 -3.36740434e-01 +2.91906577e-02 -2.72908360e-01 -1.79070845e-01 -6.75630867e-02 -1.31744802e-01 +1.06695943e-01 -4.43549603e-01 +1.62863478e-01 +1.35737479e-01 -5.57496488e-01 -5.08441985e-01 -8.54277983e-02 -1.16138160e-01 -3.22873406e-02 -1.97798043e-01 -2.33334258e-01 -2.41103157e-01 -5.47908433e-02 -2.28398636e-01 -5.59149623e-01 -1.67065755e-01 +2.79863358e-01 -4.22272176e-01 +3.59395504e-01 +5.53290965e-03 -1.08709887e-01 +1.99220791e-01 -5.07687330e-02 +7.91704655e-02 +2.86360085e-01 -2.51900971e-01 +3.19493949e-01 -4.21772510e-01 -6.56695127e-01 -5.84525406e-01 +2.65338629e-01 -5.05175769e-01 +8.64541754e-02 -6.15955651e-01 -2.73437127e-02 +2.90849119e-01 -3.51546824e-01 -6.74439907e-01 -2.06208870e-01 +3.94564837e-01 +1.88940689e-01 -1.14611099e-02 -3.73139083e-01 -1.71332955e-01 -5.55848897e-01 +2.67504096e-01 +3.58220369e-01 -4.78990406e-01 +3.89780283e-01 -5.82300603e-01 +1.72923654e-01 +7.94183850e-01 +1.47785202e-01 +4.62363392e-01 +1.58165377e-02 +6.85829520e-01 +5.34829021e-01 +7.96000361e-01 -4.20898169e-01 -9.70651746e-01 -4.04574983e-02 +1.49162253e-02 +6.49509057e-02 -5.78167140e-01 +5.38681336e-02 +1.04873955e-01 -4.13644642e-01 -5.18029809e-01 -5.64347319e-02 +4.07706529e-01 +3.21233183e-01 +2.32577369e-01 +4.77772020e-02 -5.22735059e-01 +1.52195364e-01 -2.85086393e-01 -4.37891632e-02 -4.23883796e-01 +3.15284133e-01 +2.55813777e-01 +1.95476085e-01 -4.50973451e-01 +4.60237741e-01 -3.95219624e-01 +6.79852068e-02 -1.75425276e-01 -3.72738034e-01 -2.37754539e-01 -2.97415882e-01 -1.47893071e-01 +8.26313421e-02 -5.23985863e-01 -8.51772949e-02 -8.37522596e-02 -2.74497084e-02 -1.48957640e-01 -6.36858568e-02 -4.43083107e-01 +2.14277074e-01 +3.65469277e-01 +1.88398227e-01 -1.79704696e-01 +2.10626781e-01 +1.28231063e-01 -1.15455024e-01 -4.42829691e-02 +2.35892653e-01 +3.63498151e-01 -4.95891199e-02 +2.91110158e-01 -1.02239132e-01 +1.12100579e-02 +2.47813374e-01 +1.38669610e-01 -7.05298111e-02 -1.76991016e-01 +4.93446812e-02 +4.42963734e-04 +3.18136752e-01 -1.35648325e-01 -1.34553015e-01 -6.12367690e-02 +5.48799299e-02 -3.00882339e-01 -1.75641701e-01 +6.85620159e-02 -1.24328434e-01 +2.87163933e-03 -3.76924038e-01 -1.72093779e-01 +1.88852116e-01 +8.41145664e-02 -1.66514322e-01 +4.29053158e-02 -3.68617147e-01 -5.15932083e-01 +8.90599191e-02 +1.00966699e-01 +4.70267758e-02 +1.07853204e-01 +1.38010621e-01 +1.76038787e-01 -3.43588471e-01 +3.49533558e-01 -1.75215870e-01 -6.58552274e-02 +1.30036220e-01 -1.30588472e-01 -1.34728387e-01 -1.39116824e-01 +1.99179232e-01 -4.26726937e-01 -2.81918049e-01 -2.40344346e-01 +1.37067929e-01 +1.97537541e-01 -4.44670707e-01 -1.24772258e-01 +2.34443679e-01 -6.30958736e-01 -7.59527087e-01 -7.21446991e-01 -4.83650774e-01 +1.83650494e-01 +3.01550031e-01 -2.04232469e-01 -2.34587118e-01 +3.30326766e-01 +2.75650378e-02 +4.99591470e-01 -6.31955743e-01 +3.96517485e-01 -6.29571080e-01 +6.61097050e-01 +2.84085363e-01 -2.20507145e-01 +4.10086751e-01 +3.66855592e-01 +3.78384620e-01 +4.92091998e-02 +5.35934865e-01 -7.92636201e-02 -3.72875899e-01 -1.72558531e-01 +3.08456033e-01 -4.97562587e-01 -6.14386618e-01 +1.29131407e-01 +5.52855758e-03 -2.25961253e-01 +2.85576545e-02 -3.31854999e-01 +2.22956702e-01 +8.77206400e-02 +6.63056225e-02 +2.09691152e-02 +2.28070900e-01 +7.84392208e-02 +2.40969419e-01 +2.43561000e-01 +1.33227214e-01 +2.20154021e-02 -1.75584480e-01 -1.05883796e-02 +3.39132905e-01 +5.81623733e-01 +5.16362309e-01 +4.21451688e-01 +9.80473831e-02 +2.83330455e-02 -1.10303879e-01 +2.29899436e-01 +3.73191267e-01 +4.90376949e-01 -2.15541497e-01 +9.80418921e-02 +3.18991333e-01 -1.75848126e-01 -2.00912327e-01 -8.20501987e-03 -2.30012268e-01 -2.42900819e-01 +3.80315810e-01 +3.39976311e-01 +1.77397057e-01 -3.12453032e-01 -7.59593472e-02 -8.61290470e-02 +2.20089592e-02 +4.35233295e-01 -2.45695353e-01 -3.36574346e-01 -5.29280841e-01 +8.80619418e-03 -5.70535839e-01 -2.63399124e-01 -2.00109240e-02 +6.30995184e-02 -1.75942138e-01 +2.67597008e-02 -1.82509691e-01 -2.33845741e-01 +5.21188140e-01 -1.04872778e-01 +5.93191711e-03 +3.91906649e-01 +1.83939829e-01 +6.38556242e-01 +4.04418260e-01 +4.20819849e-01 -2.61083066e-01 -4.16165531e-01 -1.06266893e-01 +4.66485888e-01 +2.76975870e-01 -1.85569361e-01 +1.94199741e-01 -4.00916375e-02 -1.38399214e-01 -4.92033333e-01 +1.22328043e-01 -4.87967908e-01 +3.86354715e-01 +6.54700279e-01 +3.29660833e-01 -6.03444695e-01 -3.31501573e-01 -1.93687588e-01 -7.65263513e-02 -4.40413743e-01 +5.90264499e-01 +1.19262092e-01 -2.28922710e-01 +7.50399306e-02 +9.86839160e-02 +1.32621616e-01 +3.50177914e-01 -3.68241906e-01 +1.31992459e-01 +1.93104765e-03 +1.33717880e-01 -3.20607245e-01 -5.47056198e-01 +9.44646727e-03 -4.75637376e-01 +5.19096732e-01 +6.04857326e-01 +3.32903206e-01 +4.23419297e-01 -3.96950722e-01 +1.20429963e-01 -3.53607714e-01 +5.05976021e-01 +4.86322999e-01 -2.84098744e-01 -1.66908503e-01 +1.57780200e-01 +3.77791464e-01 -3.67724955e-01 -3.19865912e-01 -5.38643003e-01 -7.00464785e-01 +3.62806857e-01 -2.06586868e-01 +2.25943271e-02 +1.13565080e-01 +3.03664058e-02 -3.41242611e-01 -3.07903707e-01 -1.17471591e-01 +5.64829856e-02 +1.90760121e-01 +3.54184419e-01 +5.13751447e-01 -5.47598898e-01 -1.10635385e-01 +2.83466309e-01 +4.85598385e-01 +3.69890600e-01 +3.55929375e-01 -3.12179849e-02 -1.06614649e-01 +5.27446158e-02 -1.40998205e-02 +3.12174082e-01 +6.41588986e-01 -1.13758370e-01 -3.65970641e-01 -1.67587414e-01 +6.24352694e-01 +1.72518522e-01 +4.63731855e-01 +1.67616144e-01 -1.03296660e-01 -2.38462865e-01 -2.68671602e-01 -5.47012269e-01 -2.97716051e-01 -4.32596505e-02 -2.20922947e-01 -4.36688334e-01 -4.38794434e-01 -1.28924757e-01 -1.15109421e-01 +3.02471697e-01 -3.04371506e-01 -7.36307800e-02 +3.36689502e-01 +2.00492665e-01 -2.82720655e-01 -2.85805374e-01 -1.89874887e-01 +2.33570963e-01 +1.22593559e-01 +4.53945547e-02 -2.34995455e-01 -4.25187349e-02 +1.51803300e-01 +1.25319615e-01 +1.06664948e-01 +4.28626090e-01 +5.71468584e-02 +3.04535747e-01 -3.12376827e-01 +3.94508928e-01 -1.92094982e-01 -5.15413377e-03 +1.83749557e-01 +1.20623596e-01 -4.07173745e-02 -2.54907049e-02 -1.64444193e-01 +2.46748045e-01 -1.14520296e-01 -1.64352313e-01 +3.71399783e-02 +7.91914854e-03 -7.91367143e-02 +2.61340737e-01 +1.95340425e-01 +3.84627849e-01 -1.26086354e-01 +1.25811324e-01 +1.23615086e-01 -1.57590006e-02 -2.40939781e-02 +1.54103354e-01 +2.05679417e-01 -6.11448921e-02 +4.88315076e-01 +9.45508108e-02 -1.15969829e-01 -2.61858851e-01 -7.41688684e-02 -1.37573242e-01 -2.31096998e-01 +4.65066254e-01 -1.09301969e-01 -2.56638527e-02 +6.04787588e-01 +5.34220375e-02 +1.06710784e-01 -9.47752744e-02 -1.01282187e-01 -9.23712850e-02 -2.07457870e-01 -8.78380612e-02 +1.58922583e-01 -2.57775225e-02 +6.43095911e-01 +5.68142757e-02 +3.53209257e-01 +2.99273998e-01 +4.78298903e-01 +6.90941572e-01 +2.70816684e-01 +4.24656361e-01 +5.54056108e-01 +3.10080182e-02 -4.44978058e-01 +2.51064956e-01 +3.38721186e-01 -4.63180572e-01 -7.96420634e-01 +1.27870902e-01 -3.33155066e-01 +4.72642988e-01 -9.32434946e-02 +3.65021706e-01 -4.59573984e-01 -3.28514725e-01 +8.15232277e-01 -1.63993478e-01 +1.30675539e-01 -4.95007753e-01 +1.61353752e-01 -1.87544554e-01 -7.87264347e-01 +3.37472171e-01 +9.19537365e-01 -4.53825533e-01 -1.65388018e-01 +7.53774583e-01 +7.41018355e-01 -5.88948965e-01 -5.41369259e-01 -2.50633191e-02 +2.26920947e-01 -2.97796935e-01 -2.90809780e-01 +1.09809013e-02 +4.27263081e-01 -4.02558088e-01 -4.35052305e-01 -1.72006637e-01 -9.07683931e-03 -2.59440951e-02 +2.49956444e-01 +5.28134257e-02 +1.92969531e-01 -3.55359889e-03 +1.11837097e-01 -1.33388847e-01 +3.35154459e-02 +1.62563443e-01 +1.38225570e-01 -2.55191833e-01 +1.39913425e-01 -8.17499310e-02 +3.58758926e-01 -4.67508752e-03 +3.68912578e-01 -1.11791775e-01 -1.12552434e-01 +8.49976987e-02 -2.70814270e-01 +4.46238160e-01 -3.35328609e-01 +4.25340712e-01 +2.79212534e-01 -2.40673020e-01 -4.05371040e-02 +5.45332134e-02 +2.74330109e-01 +4.45275754e-01 -1.74329117e-01 -2.53845811e-01 -6.50539100e-02 -9.43927374e-03 +3.78638178e-01 +2.07542747e-01 +4.16033864e-01 +6.19555116e-02 -2.98022777e-01 +8.51683915e-02 +2.27358207e-01 +8.32646489e-02 +7.11993352e-02 -1.86543807e-01 +8.53057802e-02 +5.91471530e-02 +1.32686898e-01 +1.98338658e-01 +2.80972570e-01 +2.40286902e-01 +7.64903277e-02 +4.65753257e-01 -2.91171819e-01 -9.78437364e-02 -3.62869412e-01 -8.03448781e-02 +2.30701298e-01 -2.46213451e-01 -2.18970720e-02 +1.98140256e-02 +5.56919537e-02 +2.75626063e-01 +1.48964763e-01 -1.63161606e-01 +7.16013880e-03 +3.52820382e-02 +3.71358454e-01 +1.50785834e-01 +4.85561609e-01 +2.43954584e-01 +2.36504689e-01 -1.15565173e-01 +5.53105712e-01 +2.06056044e-01 +6.30448818e-01 -3.66559029e-01 -5.35249412e-01 -1.36703461e-01 +3.78549576e-01 +1.49419338e-01 +1.90102160e-01 -2.43347809e-01 -3.14601779e-01 +1.97426453e-01 +2.96304077e-01 +2.25393012e-01 -6.67669296e-01 +1.25283465e-01 +7.10204244e-01 -3.84511143e-01 +3.70991170e-01 -1.60721123e-01 +1.88167498e-01 +3.58532876e-01 +4.75160897e-01 -9.45101306e-02 -1.73751533e-01 +2.57069260e-01 +4.97860193e-01 +2.14487180e-01 +5.57430863e-01 -6.68753386e-02 -1.16355665e-01 -2.78941065e-01 +4.74823356e-01 +4.08930868e-01 +2.73915499e-01 +9.29296575e-03 -6.67831957e-01 -3.15429181e-01 -2.80022305e-02 +2.60404468e-01 -5.77378154e-01 -4.61997241e-01 -4.83659863e-01 +3.52740973e-01 -5.79127312e-01 -4.83532324e-02 +2.07681239e-01 +4.59699750e-01 +4.22834419e-02 +3.33641261e-01 +1.90620095e-01 +5.94833732e-01 -1.29271060e-01 -5.37706375e-01 -2.92930305e-01 +1.64212108e-01 +4.47678059e-01 +4.11355048e-02 +3.91492546e-01 +7.56732374e-02 +1.57466337e-01 -1.05784148e-01 +3.77255887e-01 +1.12978548e-01 +1.49268150e-01 +1.43170252e-01 +3.22907001e-01 +5.78661144e-01 +4.34317619e-01 +4.23425704e-01 +2.96028823e-01 -2.88855731e-01 +1.43211126e-01 +9.73941609e-02 -2.60118634e-01 -8.76320451e-02 +2.94820815e-01 +3.07671547e-01 +3.72110069e-01 -2.03731179e-01 -3.65105897e-01 +4.17335242e-01 +2.48545840e-01 +3.74997079e-01 -4.04071920e-02 +4.16433930e-01 -2.74536967e-01 +9.02896151e-02 -3.67387891e-01 -9.00111794e-02 +1.20243832e-01 +1.11825645e-01 +2.67256081e-01 +8.23956206e-02 -9.69310328e-02 -1.99750870e-01 +3.62314105e-01 +2.07339928e-01 -3.49825799e-01 -4.04706717e-01 +8.46077204e-02 +1.85578614e-01 -1.66482687e-01 -2.67252207e-01 -9.98550355e-02 +2.15840772e-01 -1.59850288e-02 -3.43852714e-02 +3.38138729e-01 -2.76233386e-02 +1.64925918e-01 +3.95135999e-01 +3.23894352e-01 +1.39482319e-01 -1.02985874e-02 +1.91294163e-01 +6.76729009e-02 +2.00751930e-01 -4.11468484e-02 -5.66030815e-02 +4.14216518e-01 -5.81094742e-01 -1.76549897e-01 -1.98181838e-01 +6.07785545e-02 -8.12787712e-02 -2.15450719e-01 +5.66023774e-03 +3.70204560e-02 -3.49295795e-01 -9.52196792e-02 +6.33778095e-01 -3.98502834e-02 -2.19420031e-01 -1.72322355e-02 -4.25952494e-01 -2.80813664e-01 -1.45454817e-02 -4.02204413e-03 -1.36130750e-01 -2.45753855e-01 -2.01219246e-01 -3.31180960e-01 +4.74554211e-01 -2.83053797e-02 -4.50466186e-01 -3.73430520e-01 +4.75481711e-02 -2.81141371e-01 +3.44612747e-01 -8.24968278e-01 +1.27978679e-02 +1.13990813e-01 -4.89745528e-01 +1.87816590e-01 -5.84168792e-01 +6.62437439e-01 -6.77680135e-01 -6.71335042e-01 -3.03988725e-01 +3.63788605e-01 -4.92742747e-01 -2.31421053e-01 +3.43996175e-02 +2.39364821e-02 -4.67142552e-01 -9.02916640e-02 -3.99636358e-01 -3.59918863e-01 -7.16425359e-01 -1.94739506e-01 +2.24097110e-02 -5.88863254e-01 -7.71505982e-02 -3.56791258e-01 -3.73013467e-01 +2.48338446e-01 +1.06745690e-01 +1.32981077e-01 -3.18455212e-02 +3.67791116e-01 +3.00225943e-01 +7.20972493e-02 -4.27562714e-01 -8.69419947e-02 -4.67949867e-01 -2.93464720e-01 -2.70079941e-01 -3.56143862e-02 +4.19228405e-01 +1.18999191e-01 -3.26104730e-01 -2.98931468e-02 -5.72567821e-01 -4.04546767e-01 -1.58968508e-01 +1.37935311e-01 -4.60358113e-01 +2.82830566e-01 +3.63961786e-01 -3.27430308e-01 +7.70354196e-02 -9.36165676e-02 -2.08148301e-01 -4.75981057e-01 +3.58601175e-02 +2.12141961e-01 -4.30347770e-01 -6.27016425e-01 +4.01948653e-02 +3.77599269e-01 +1.84997678e-01 +3.46754014e-01 +3.20395231e-01 +4.41763639e-01 -1.10445663e-01 -5.98651648e-01 +1.49049312e-01 -1.21893138e-01 +1.02570526e-01 +3.78812104e-01 +9.19075608e-02 -3.74431163e-02 +2.92444408e-01 -9.38515887e-02 +2.05823660e-01 -3.40781689e-01 -8.32231045e-02 +1.08775094e-01 +5.20158470e-01 +1.70467943e-01 -6.61618561e-02 -4.65312183e-01 -7.28853093e-03 -1.36542782e-01 -2.40605682e-01 -9.61873680e-02 -3.43259238e-02 -1.95320770e-01 +1.29792556e-01 +3.50326486e-02 +1.03207109e-02 -3.93055677e-02 +2.04059452e-01 +2.30792448e-01 +6.91516697e-02 -2.06176594e-01 +9.04414654e-02 -5.55583276e-02 +1.36662260e-01 +2.85429358e-01 -8.51152390e-02 -5.33219688e-02 -2.30590880e-01 -2.31010303e-01 -5.54455519e-01 -7.05138519e-02 -4.37778592e-01 -3.40101272e-01 +2.14261040e-01 -6.53009713e-02 -7.28510737e-01 -1.71081215e-01 +1.75024018e-01 -3.84128630e-01 +1.79766689e-03 -5.72390929e-02 +4.50054586e-01 -1.21894725e-01 +4.14641649e-01 -5.56604415e-02 -5.77832699e-01 -6.97528005e-01 +5.14261723e-01 +1.86855927e-01 +3.16636115e-01 +5.04753590e-01 +1.33113831e-01 +3.87456238e-01 +4.01313365e-01 -2.93477755e-02 -2.78341055e-01 -5.62436104e-01 -7.82063246e-01 +5.29233813e-02 +3.99036169e-01 -3.84639576e-02 -1.87623993e-01 -3.90629172e-01 -4.14093584e-02 -6.08932137e-01 +5.82099676e-01 +3.46914619e-01 +1.17724180e-01 +2.79186040e-01 -1.62715822e-01 -4.99381870e-01 +7.32812762e-01 +3.13087016e-01 -2.74255782e-01 -5.04663527e-01 -2.22576708e-01 -4.74375218e-01 -1.21875390e-01 -1.16675302e-01 +9.08075646e-02 +1.93665475e-01 +2.77716726e-01 -3.68310183e-01 -4.11589414e-01 +9.31911543e-02 -6.70264289e-02 -3.49479795e-01 -3.07250679e-01 -5.12949452e-02 -6.61153376e-01 -2.96294421e-01 +3.46246332e-01 +6.08611368e-02 +8.60225856e-02 -5.06453477e-02 -2.66695827e-01 -4.21521842e-01 +3.49402666e-01 -1.16669089e-01 -6.68789804e-01 -1.85852364e-01 -3.49594355e-02 +1.16576545e-01 -2.01163784e-01 +1.23363622e-01 -1.87357754e-01 -5.66016018e-01 -1.73581809e-01 -1.77825555e-01 +2.58606046e-01 -2.86408782e-01 +2.53514111e-01 +2.12684050e-01 +4.28718716e-01 +1.05699070e-01 +2.04647303e-01 +3.28333676e-01 -3.73378955e-02 +1.72735736e-01 +9.66058597e-02 +3.17766398e-01 +4.44884896e-01 -4.89706285e-02 +3.31716150e-01 -2.27300972e-01 +2.39628628e-01 +4.27201569e-01 +3.17761868e-01 +2.06028551e-01 -1.15669496e-01 +1.89723566e-01 +5.06024659e-01 +5.26658118e-01 -3.11840028e-01 -3.35203528e-01 +3.22738975e-01 -5.60877442e-01 +3.31720620e-01 +3.43894035e-01 +2.94513971e-01 +3.13508920e-02 -4.06484194e-02 +5.53525150e-01 -2.10030630e-01 +1.48860782e-01 -4.50555682e-01 +9.62554365e-02 +5.12654066e-01 -2.98898704e-02 -9.71144810e-02 +2.17900485e-01 +1.59486923e-02 -1.53640240e-01 -1.07485555e-01 -2.58439910e-02 +2.99225777e-01 -4.35912400e-01 -4.77317795e-02 -5.67154996e-02 -5.48706204e-02 +3.46251279e-01 +1.85748398e-01 -7.05298632e-02 -7.31273115e-01 -2.30624288e-01 +4.35648859e-01 -1.69643775e-01 -1.06225573e-01 -1.18373118e-01 +1.51929967e-02 +5.09297065e-02 +4.60649073e-01 -1.22901956e-02 +3.75646167e-02 +5.18233359e-01 +2.80568391e-01 +4.50452089e-01 +2.42062584e-01 +1.47923240e-02 -9.02808607e-02 +3.27504665e-01 -8.99175182e-03 -3.55932325e-01 +2.31861711e-01 +1.58119664e-01 +3.79515529e-01 -6.03742748e-02 +4.23958868e-01 -4.14831251e-01 -9.04297709e-01 +7.84274787e-02 -3.98055494e-01 +1.24018840e-01 -3.39621723e-01 -2.13250965e-01 -3.93069953e-01 +2.65105277e-01 +1.99005410e-01 -1.08971670e-01 -1.12660035e-01 -3.97962600e-01 +7.28831887e-01 +2.77702272e-01 -3.51058096e-01 -3.39296907e-01 +4.90925927e-03 +2.94234902e-01 -4.78461176e-01 +2.09406331e-01 +8.62869322e-02 +8.39057565e-02 -4.12399441e-01 +9.71971825e-02 -4.30138856e-01 +7.10907951e-02 -4.04657871e-01 +2.59691447e-01 -2.78813159e-03 -3.42549086e-01 +1.60215467e-01 +2.11398691e-01 -1.22209877e-01 +1.37824863e-01 -1.37271836e-01 +4.42566127e-01 -5.75094104e-01 +2.52619922e-01 -1.32125676e-01 +3.06111395e-01 +2.25569591e-01 +4.25034761e-03 +4.95392084e-03 +2.87310213e-01 -2.32722387e-01 -3.82095754e-01 +2.43721277e-01 -3.42344157e-02 -5.59211336e-02 -2.40445137e-01 -9.10574421e-02 -4.00125375e-03 +9.25888270e-02 -4.36302237e-02 -1.74508333e-01 -1.53679356e-01 -5.61411798e-01 +5.02861403e-02 -2.96446085e-01 -3.13441068e-01 +3.06878388e-02 +4.36122194e-02 +3.41960266e-02 -4.54445541e-01 +1.38990834e-01 +4.23422515e-01 +1.40083000e-01 -5.53089321e-01 -1.16967097e-01 -5.28397001e-02 -9.22349244e-02 +3.90400678e-01 -7.93312117e-02 +5.35176098e-02 -1.34802192e-01 -7.83373117e-02 +1.81577384e-01 -1.19620755e-01 -1.58406466e-01 +2.40237534e-01 +1.45871893e-01 -2.68029302e-01 +1.05958380e-01 +2.38356590e-01 +1.20172035e-02 +6.98501766e-02 +5.53500354e-02 +8.63330811e-02 +2.06984490e-01 +6.34893775e-01 -6.42850697e-02 -3.80276889e-01 +1.47428602e-01 +4.12112735e-02 +1.46251738e-01 -1.57382742e-01 +2.76212037e-01 +7.26616144e-01 -2.06898212e-01 -3.24594490e-02 +8.78375843e-02 +3.92030954e-01 -1.03632949e-01 -2.85595685e-01 -4.07067202e-02 +1.11435808e-01 +8.65627378e-02 +3.91091764e-01 +3.35802615e-01 +2.62460381e-01 +6.35555923e-01 +1.99764460e-01 -6.81099296e-01 -7.14520037e-01 +6.03547335e-01 +4.34131712e-01 +4.78870183e-01 +3.21634501e-01 +7.50309005e-02 +6.73621476e-01 -6.38629019e-01 -3.81868511e-01 -2.81199012e-02 -1.54915541e-01 +7.08448291e-01 +2.77069330e-01 +4.04614806e-02 -6.06068194e-01 -9.02814507e-01 +7.86003888e-01 -6.14312232e-01 -3.59277725e-01 -7.14545906e-01 -4.21644777e-01 -9.06964123e-01 -6.75640047e-01 -3.04870009e-01 +4.08083916e-01 -9.28794146e-01 -2.51853317e-01 +4.61331666e-01 +4.75662231e-01 -3.30941826e-02 -5.76260090e-02 -2.15399101e-01 -3.68579656e-01 +1.34842068e-01 -1.64278522e-01 +7.15954080e-02 +2.32401028e-01 +5.56755066e-01 +5.71073480e-02 -2.41239697e-01 -5.12240052e-01 +3.09273694e-02 -4.20508355e-01 +4.77921128e-01 -4.64770310e-02 -2.57903397e-01 +3.72007340e-01 -4.99272048e-01 -5.62223494e-01 -1.37375981e-01 -2.26058006e-01 -4.15599257e-01 -2.80020744e-01 +4.76969928e-02 -3.29483569e-01 +1.31126538e-01 -2.02050656e-01 -1.87752336e-01 +3.66665781e-01 +4.05491084e-01 +1.63910583e-01 +4.56611514e-01 +1.84201077e-01 -1.65752500e-01 +5.49132228e-01 -3.61548454e-01 +1.76174462e-01 +2.41156146e-01 -3.72298837e-01 -4.38046396e-01 -4.73405197e-02 +3.71158481e-01 -4.42337751e-01 -4.29602236e-01 -3.54694754e-01 +3.46474171e-01 +1.51735559e-01 +2.68716484e-01 -6.45700097e-02 +1.90307066e-01 +3.19407433e-01 +3.35123569e-01 +8.22135285e-02 +2.79649764e-01 -4.12748486e-01 +8.94372538e-02 +1.10667460e-01 +1.71474829e-01 -1.50041923e-01 +5.65403223e-01 -1.53453499e-01 +1.85321003e-01 +1.67925015e-01 +1.14173621e-01 -2.92815953e-01 -5.75130045e-01 -6.39392912e-01 -2.33512387e-01 +5.82222454e-02 +2.76861042e-01 +2.88264036e-01 -7.92605579e-02 +1.87624246e-01 +2.11491510e-01 +6.69462502e-01 +3.83006573e-01 -1.69862315e-01 +6.47020862e-02 -3.37777473e-02 +3.13122541e-01 -2.62599766e-01 +2.39046708e-01 -5.82499325e-01 +6.84990063e-02 -4.89096530e-02 +1.12441696e-01 +6.75655995e-03 +1.35580584e-01 +1.33597218e-02 -6.65478334e-02 +1.15406727e-02 +2.16986728e-03 -7.98221678e-02 -4.40054566e-01 +1.10939555e-01 +6.96406364e-01 +2.98555911e-01 -8.28155875e-01 -4.41006899e-01 +3.12943369e-01 +8.56926322e-01 +4.75631982e-01 +3.85469705e-01 -5.09420633e-01 +6.95140302e-01 -1.21679515e-01 +4.09912989e-02 +5.86834960e-02 -1.32915109e-01 +7.48195589e-01 +1.47919664e-02 +5.10447323e-01 +2.20434010e-01 +1.97522029e-01 +8.13112795e-01 +2.05882818e-01 +2.38522053e-01 +2.76299089e-01 -4.87806946e-01 +4.46648389e-01 +5.04827440e-01 +1.23922423e-01 -7.49696910e-01 +2.43678540e-01 -8.53272080e-01 +1.43428668e-01 +3.21790218e-01 -3.23712289e-01 +7.53331557e-02 +2.11017519e-01 +5.71043253e-01 +3.96663547e-01 +3.04615200e-01 +4.21481878e-01 +2.24150330e-01 -1.36189625e-01 +2.63178378e-01 +1.46314517e-01 -4.38973278e-01 -2.87971914e-01 +3.95521849e-01 -2.65974045e-01 +6.15691543e-02 +3.47677380e-01 -1.41100854e-01 -3.56061101e-01 +3.65848571e-01 -3.13947380e-01 +4.01639581e-01 -5.44875205e-01 +2.70864457e-01 +1.45397335e-01 +1.46056622e-01 +8.29761922e-02 -6.47014827e-02 +3.14250961e-02 -3.17728251e-01 -3.21759284e-01 +1.41565666e-01 +1.51802480e-01 -2.40208104e-01 -8.58878940e-02 -5.81668556e-01 -3.42052011e-03 -2.45037869e-01 +2.14136034e-01 +2.48631492e-01 +2.02908888e-01 +4.36584465e-04 +4.92129475e-02 +6.36191726e-01 +4.95159835e-01 +8.99583027e-02 +4.44364756e-01 +2.64796227e-01 -1.48410285e-02 +4.38526124e-01 +1.04763061e-01 +4.19269279e-02 +1.69975191e-01 -1.04058422e-01 -3.92973274e-01 -3.93994711e-02 -3.88775803e-02 +4.42926139e-02 +8.24657604e-02 -4.96143997e-01 -9.45454240e-02 -5.26641086e-02 -1.49072096e-01 +4.39535558e-01 +2.79363036e-01 -1.52697161e-01 -1.10609621e-01 +1.31762877e-01 -5.29704213e-01 +5.64422123e-02 -4.18412574e-02 +1.02645330e-01 +3.10231775e-01 +3.04785877e-01 -5.20502388e-01 -8.44657242e-01 -1.08393654e-01 +4.24078345e-01 +5.76908290e-02 +6.53506890e-02 -3.87006104e-02 +1.40571341e-01 -1.67965889e-01 +5.28113723e-01 -3.74158204e-01 +2.03472808e-01 -2.95442771e-02 +2.61452049e-01 +3.93138409e-01 -2.92664289e-01 -4.38758105e-01 -4.36091661e-01 +3.40693444e-02 -5.54090627e-02 +3.38264823e-01 +1.81893364e-01 +1.97191894e-01 -8.12799275e-01 +3.42721432e-01 -6.11213088e-01 -6.39719903e-01 -5.07165194e-01 +6.19860366e-02 +1.22223973e-01 +1.20118879e-01 -5.79006255e-01 -2.22366422e-01 +4.49128121e-01 -1.96204782e-01 +9.10900831e-02 -5.16650856e-01 +1.11071885e-01 -6.76913619e-01 -7.85950869e-02 -3.58194292e-01 +2.35805318e-01 -9.03793752e-01 -3.71589661e-01 -3.75137538e-01 +4.65957999e-01 -3.15220207e-02 +8.04361608e-03 -2.37055078e-01 +6.03890598e-01 -4.76587266e-01 -2.11951509e-01 +1.20639227e-01 +6.69744611e-01 +6.61704913e-02 -1.24328777e-01 -3.21231514e-01 -4.28496927e-01 -1.82076275e-01 -4.71036553e-01 -5.06398976e-01 -1.35465130e-01 +2.99004167e-01 -4.37229723e-01 -2.90250599e-01 +7.93853223e-01 -1.04063965e-01 -4.70678121e-01 +2.16815874e-01 -2.86672443e-01 -7.40773454e-02 +6.86264336e-01 -1.11404970e-01 +5.81951216e-02 +9.57683325e-02 +2.77197331e-01 -9.86712053e-02 +8.36388320e-02 +1.62784338e-01 +5.35405815e-01 -1.14594594e-01 +1.51486486e-01 -1.97425291e-01 -1.34476155e-01 +5.33417404e-01 -1.46304294e-01 +1.70220286e-01 -3.05446535e-01 +9.73344687e-03 +1.25229429e-03 -9.54846591e-02 +1.18478425e-01 +2.68026292e-02 -3.50710899e-01 +1.72156110e-01 +1.05348893e-01 -2.36575734e-02 +9.83199030e-02 -2.61568010e-01 -1.60277203e-01 +2.21043695e-02 +4.64001656e-01 +4.29690808e-01 -6.35882169e-02 -5.81050515e-01 +6.72398269e-01 +1.35848537e-01 +2.93495003e-02 +4.06530410e-01 -3.91357154e-01 +1.62890673e-01 -2.01393202e-01 -2.18085498e-02 -1.52005076e-01 +3.59787911e-01 +2.55677223e-01 +9.18645188e-02 -1.14149995e-01 +7.27489218e-02 -2.63715908e-02 +3.62413466e-01 +5.93506992e-01 +1.33803725e-01 -2.98670918e-01 -8.05423968e-03 +6.07760474e-02 +1.85067877e-01 +3.86455387e-01 +2.86486000e-01 +2.65587747e-01 -3.17276359e-01 -2.77465880e-01 +1.13461241e-01 +3.41345012e-01 +7.36020356e-02 -4.97927070e-01 +2.22990476e-02 +2.76081651e-01 -4.55683053e-01 +3.24106902e-01 +1.38593733e-01 -4.79209334e-01 -2.20732495e-01 -3.30959529e-01 +2.99272329e-01 -1.61066279e-01 +1.44566700e-01 -5.64487614e-02 +2.09116578e-01 -3.00079193e-02 -2.04965830e-01 +1.76012695e-01 +1.23966500e-01 +2.44390130e-01 -8.56391191e-01 +3.97797585e-01 +3.90780047e-02 -2.45069474e-01 +2.20563322e-01 -1.94964639e-03 -1.52420387e-01 +2.56787300e-01 +2.80226562e-02 -1.73333958e-01 +4.00855005e-01 +4.77170378e-01 +3.73033166e-01 +1.24807425e-01 -4.71091300e-01 +6.38754964e-01 -1.18385544e-02 +5.92183173e-01 +4.64607239e-01 +1.26332983e-01 -3.54767203e-01 -4.28449154e-01 -1.12471379e-01 -5.31457484e-01 +6.19229674e-01 -7.73422301e-01 +6.24244452e-01 -3.39075506e-01 -1.69578522e-01 +1.43564910e-01 -7.93175101e-02 +4.90174592e-01 +1.28538072e-01 -1.96921796e-01 +3.52918059e-01 +2.36506492e-01 +2.59414017e-01 -1.14013568e-01 +2.65282169e-02 +1.62402272e-01 -4.81872946e-01 +2.80915976e-01 +2.73322046e-01 -1.62658900e-01 +4.19132560e-01 +1.63608983e-01 -1.17237285e-01 +6.57283902e-01 -6.64561272e-01 +1.12361342e-01 -3.00901502e-01 +4.44900721e-01 +4.48968142e-01 +8.19603920e-01 -5.30632585e-03 +3.19898963e-01 +6.46969154e-02 +2.45129913e-01 +1.67248681e-01 +3.12230915e-01 -4.91853282e-02 -1.17983878e-01 +1.44821286e-01 +2.99562097e-01 +3.22314590e-01 -7.49312267e-02 +5.59011400e-01 +3.27214114e-02 +4.69576031e-01 -9.76396278e-02 +3.73872519e-02 +1.05358742e-01 -2.17885822e-01 -6.62821457e-02 -4.77607846e-01 +1.10019013e-01 -3.43847215e-01 +3.44819218e-01 -1.98339745e-01 +4.58097368e-01 +2.33192772e-01 -1.46751598e-01 -5.01279458e-02 -7.68203884e-02 -1.08233735e-01 -9.17870104e-02 -4.03580874e-01 +2.08897784e-01 -3.02386433e-01 +6.01965040e-02 -2.35991448e-01 +1.31696127e-02 +7.79675767e-02 +2.79728502e-01 -3.31929363e-02 -1.53885130e-02 +5.47577366e-02 -3.47450958e-03 -2.83340603e-01 -1.45946771e-01 -9.97991115e-03 +1.21724844e-01 -6.64973706e-02 +7.95269608e-02 -3.62519473e-01 -4.95026931e-02 -2.56623715e-01 +3.06791872e-01 -4.62970734e-01 -5.31101346e-01 +4.46027249e-01 +1.33785397e-01 -7.08597600e-01 -1.49454270e-03 +5.13410330e-01 -7.10076913e-02 -1.30230263e-01 -2.00513601e-01 -2.94281632e-01 +1.62523493e-01 +2.38672178e-02 -4.07822549e-01 +1.32265389e-02 -1.58300146e-01 -1.73548043e-01 -3.82361501e-01 +4.63435978e-01 -2.13643670e-01 -3.32782656e-01 -3.02806854e-01 +9.71961208e-03 +4.42463085e-02 +4.14935052e-01 -6.41723335e-01 +3.12034875e-01 +6.51239753e-01 -4.51167732e-01 -6.69765547e-02 -2.53117353e-01 +1.92315027e-01 -6.31779432e-01 -2.48922646e-01 +1.72162443e-01 +2.72917897e-01 -8.85826945e-02 +6.32282719e-02 +4.22739297e-01 +6.12007491e-02 +3.90974253e-01 -2.33167216e-01 -5.50375104e-01 -5.36449790e-01 -2.92698145e-01 -1.18361451e-01 -2.04086050e-01 +8.42030346e-02 +3.86909425e-01 +1.97672248e-01 -5.87268770e-01 +4.60710004e-02 +4.66539450e-02 +1.44425616e-01 +1.35209888e-01 +6.92469403e-02 +2.52298683e-01 -5.65642118e-02 -3.44618618e-01 +3.30412000e-01 -1.21748872e-01 +8.20035040e-02 -1.15290828e-01 -1.80064023e-01 +2.60644615e-01 +2.66148925e-01 -5.81125081e-01 +5.31735659e-01 -5.55578828e-01 -1.76867351e-01 -1.97183266e-01 -2.91215867e-01 -6.44997358e-01 +2.37532869e-01 -9.15650651e-02 -4.54231381e-01 -6.58110976e-02 -9.45151821e-02 -2.62135237e-01 -9.09072831e-02 +1.17092445e-01 +2.58851886e-01 -4.03459281e-01 +1.01715408e-01 +1.42638639e-01 +1.50945142e-01 -2.73416173e-02 +1.58684224e-01 +2.14127392e-01 +7.76523203e-02 -1.58008561e-01 +1.77893773e-01 -2.81782568e-01 +3.58524686e-03 -6.70649335e-02 +1.45268103e-03 +1.26998490e-02 -1.77191079e-01 +5.88667169e-02 -1.21244080e-01 -4.65893187e-02 -1.07998259e-01 -1.14369050e-01 -5.86534105e-02 +2.63117492e-01 -2.33918821e-04 -5.93786687e-02 +4.03255560e-02 -1.48290679e-01 +2.23888084e-01 -5.34606650e-02 +3.19643140e-01 +6.40861988e-02 +1.22814111e-01 -3.08866035e-02 -2.16895789e-01 +2.46735319e-01 +9.80383605e-02 +1.06954820e-01 -6.32792339e-02 -1.65898591e-01 -3.91244814e-02 +6.50770171e-03 +3.93680573e-01 +9.26623344e-02 -3.35763067e-01 -1.08341269e-01 +2.09442396e-02 +3.00410688e-01 -2.16193676e-01 -4.00100648e-02 +9.25145391e-03 +5.93216456e-02 -4.67463629e-03 +2.18709469e-01 +4.62585129e-02 -3.46354872e-01 -2.18029395e-01 +3.12182177e-02 -4.96967286e-02 -2.55876929e-01 +1.41689152e-01 +1.57009605e-02 -3.58838066e-02 -2.29646325e-01 -5.22818370e-03 +3.61989029e-02 +5.52915074e-02 +3.92354131e-01 -1.22199357e-01 +1.58472821e-01 -1.66777894e-02 +2.66891688e-01 +2.53236562e-01 +1.48121133e-01 +3.21667910e-01 -1.41867116e-01 +3.36552918e-01 -3.50737900e-01 +1.63462192e-01 +8.90762955e-02 -6.64595217e-02 +1.11020982e-01 +2.43128479e-01 -3.90987890e-03 -1.35857403e-01 +1.04746930e-01 +4.86394018e-02 +3.72133672e-01 +3.31831962e-01 -2.35228628e-01 -1.20168783e-01 -4.25063409e-02 +1.12604529e-01 -5.93918227e-02 -2.68231314e-02 -4.62782085e-02 -4.49064746e-02 +3.66622470e-02 +7.17278570e-02 -1.99498847e-01 -1.34485334e-01 +1.42965317e-01 -1.15311377e-01 -1.24915168e-01 -1.67822048e-01 -1.71537831e-01 -4.30096760e-02 -1.10529721e-01 -7.96383247e-02 +1.49029819e-03 -9.95546430e-02 +1.80013880e-01 -1.53443545e-01 +5.81844077e-02 -1.30704835e-01 -9.11878124e-02 +5.68459481e-02 -1.56907231e-01 -9.95669737e-02 +1.24324195e-01 -2.13679269e-01 -7.49357566e-02 +1.02496803e-01 +9.76854097e-03 -1.29322216e-01 +8.41338262e-02 -5.97720370e-02 -6.46016225e-02 -1.00070767e-01 +1.20617099e-01 +1.14078604e-01 +2.53600210e-01 +1.87667474e-01 -9.33353454e-02 -2.49151930e-01 -2.96815455e-01 +5.24937809e-02 -2.23950893e-01 -9.43667442e-02 -1.51771322e-01 +9.69007239e-02 -2.29046211e-01 -3.18327583e-02 -5.20601831e-02 -9.70034152e-02 +2.44951904e-01 +1.30674049e-01 +3.98519635e-02 -2.25547507e-01 -6.38052225e-02 +7.38317668e-02 +6.70820847e-02 -2.00430509e-02 -7.80049264e-02 -1.54559109e-02 -1.84912533e-01 -3.44331190e-03 +1.03889182e-01 -1.07361143e-02 -2.60709897e-02 +5.83814271e-03 +1.55465066e-01 -8.89905095e-02 -2.16148779e-01 +1.32675692e-01 -1.98213324e-01 -1.15730710e-01 -6.84707332e-03 -6.33834675e-02 -7.04644108e-03 +1.01310156e-01 +3.74766707e-04 -4.57902960e-02 +3.11285025e-03 +2.76633888e-01 +5.57427481e-02 +1.89742997e-01 +3.89359868e-03 +6.01758063e-02 -1.43242180e-01 -1.10929564e-01 +1.58468619e-01 +1.58505172e-01 +6.78005740e-02 -1.11519851e-01 -3.30250472e-01 -2.76679903e-01 +1.11180782e-01 -1.57127276e-01 +4.60623614e-02 -9.43370461e-02 -3.96917537e-02 +9.58546698e-02 -1.49994493e-01 -1.83648273e-01 +2.24932089e-01 -7.93639645e-02 -8.19075257e-02 -1.47692308e-01 +1.40623063e-01 -2.94010013e-01 +1.79274872e-01 -7.92488381e-02 -3.79663795e-01 -1.51011467e-01 +1.54277161e-01 +2.09839642e-01 +1.05048954e-01 +9.65688527e-02 -1.31526068e-01 -2.60659546e-01 -1.36005878e-01 -2.04647154e-01 -2.39008248e-01 -3.45877185e-02 -3.14362109e-01 -1.50493840e-02 -1.05443768e-01 +3.18245202e-01 -7.57027492e-02 -1.42923325e-01 +4.34243269e-02 -2.79337578e-02 -1.41358107e-01 +4.54402566e-02 -9.97020230e-02 -1.80286124e-01 -9.07862335e-02 +1.02559686e-01 -3.25681828e-03 +4.98699658e-02 +8.31429735e-02 -3.30121182e-02 -1.92601413e-01 +1.35199830e-01 -7.18355328e-02 +1.60887107e-01 -1.93919782e-02 +4.90613095e-03 +2.64451783e-02 +4.64029051e-02 -6.42433316e-02 -9.18146893e-02 -1.90395847e-01 -1.50592074e-01 +2.07608536e-01 +6.16102628e-02 +1.50137275e-01 +1.33885697e-01 +2.67612129e-01 -9.32899341e-02 +4.69963402e-02 +4.52346988e-02 +8.31791535e-02 +5.78925237e-02 -3.48945677e-01 -3.94878298e-01 -2.89933860e-01 +5.01889177e-02 -4.04070109e-01 +9.42597762e-02 -1.71898827e-01 +8.28967057e-03 -3.49264443e-01 -2.87029237e-01 -1.43084243e-01 -1.96558475e-01 -2.80702442e-01 -2.81293094e-01 -2.18791798e-01 +7.92697817e-02 +5.73498197e-02 -3.94237906e-01 -1.72942922e-01 -7.55749131e-03 -1.12000771e-01 +4.16864045e-02 -4.29771513e-01 -2.02315524e-01 -2.98084766e-01 -3.15091759e-01 +1.34251654e-01 -2.81536490e-01 -3.84063646e-02 -2.74475336e-01 -3.21729809e-01 -2.25145936e-01 +1.77053794e-01 +4.21517156e-02 -1.74179912e-01 +2.23522589e-01 -9.75601226e-02 +9.17399302e-02 +2.23729908e-01 +9.86738205e-02 +5.40640429e-02 -2.02923417e-02 +8.89765099e-02 -1.76836982e-01 -1.69988155e-01 -1.54193491e-02 +1.98782627e-02 +1.57903880e-01 +2.83800755e-02 +9.95943248e-02 +1.05280075e-02 -9.58585739e-02 -2.83397771e-02 +3.51651698e-01 +2.10764959e-01 -9.61236581e-02 +1.92168966e-01 -1.57326199e-02 -3.13100894e-03 -2.79701114e-01 -2.92478055e-01 -1.41329877e-02 +1.85013071e-01 +1.03913911e-01 +1.67970002e-01 -3.09151322e-01 -8.38686526e-02 -3.38602781e-01 -7.18613416e-02 +1.17038511e-01 -2.88207501e-01 -3.46111774e-01 +8.58845711e-02 -4.13113117e-01 +5.28886653e-02 -2.49835923e-01 -3.62223327e-01 -5.72676837e-01 -3.13653946e-01 -6.62440434e-02 -1.00881435e-01 -1.27074167e-01 -1.99539512e-01 -1.96049944e-01 -2.03443840e-01 -1.76833436e-01 -4.16568875e-01 -1.76102236e-01 -2.92955339e-01 -5.20886898e-01 -1.72563598e-01 +1.99772999e-01 -2.45394826e-01 +1.39420167e-01 -6.59955963e-02 -2.54464418e-01 -1.10282816e-01 +5.67049347e-02 -1.34206325e-01 +1.11035511e-01 +5.36300875e-02 +1.17100902e-01 +7.84673169e-02 -6.48968965e-02 +1.49739161e-01 -1.22845858e-01 -3.31785649e-01 +5.63922897e-02 +1.72134519e-01 -7.44330958e-02 -4.43099253e-02 +9.23395753e-02 -1.45626202e-01 -1.87825516e-01 +3.80775854e-02 -6.54926151e-02 +1.79401599e-02 -7.30128139e-02 +2.35582981e-03 -1.09082729e-01 -3.95381413e-02 -1.87967848e-02 +7.08023831e-02 -3.14888120e-01 -9.95107740e-02 +1.82630047e-01 -8.72949362e-02 -2.13069126e-01 -3.35418493e-01 -3.66641879e-01 -1.03019029e-01 -3.40174101e-02 +5.66506088e-02 -1.78788885e-01 +7.37640709e-02 -8.37649778e-03 -3.80048752e-01 -2.19912618e-01 -2.03502867e-02 -2.88622350e-01 -2.69886285e-01 -3.03660572e-01 +1.01456707e-02 +2.11745024e-01 +2.03203782e-01 -1.79108724e-01 +5.26154637e-02 -8.24195296e-02 -1.58305228e-01 +3.52559984e-02 -3.76422733e-01 -1.51132464e-01 -3.17207217e-01 -1.08752079e-01 -1.15100555e-01 -2.61169940e-01 +1.36236195e-02 +3.22196893e-02 -2.33550832e-01 -3.52138311e-01 +1.99774832e-01 +1.48817480e-01 -3.70231777e-04 +9.49160904e-02 -3.16353410e-01 -6.44670278e-02 +1.08075134e-01 +1.08714588e-01 +1.15890585e-01 -4.61078994e-03 +7.48642860e-03 +9.70820487e-02 +1.15321666e-01 -9.16626081e-02 +1.94148526e-01 -1.25207052e-01 +9.68570188e-02 -1.60272166e-01 +1.92563161e-01 -1.21007219e-01 -1.82314590e-01 -4.17259969e-02 -3.77373174e-02 -2.96346426e-01 +5.45537509e-02 -1.03113115e-01 -1.33240864e-01 +6.24967739e-02 -4.35616374e-02 -3.22764575e-01 +5.33512011e-02 +2.16175124e-01 -2.56517008e-02 +1.86615497e-01 -4.20725197e-01 -4.74057525e-01 +1.52260557e-01 +4.70464602e-02 -6.03285618e-02 +1.27039537e-01 -2.16228932e-01 -1.35735825e-01 -1.79572031e-01 -4.85273361e-01 -2.53649410e-02 -4.71101582e-01 -7.47139528e-02 +1.67992204e-01 +1.45937875e-01 +6.24809824e-02 -1.29297346e-01 +1.33671746e-01 -4.07228440e-01 -2.52415240e-01 -2.47835159e-01 -1.41942620e-01 -4.15688515e-01 -3.32286388e-01 -2.49609217e-01 +2.28706241e-01 +1.60041496e-01 -8.51592198e-02 -1.20439969e-01 -3.61714177e-02 +1.51419580e-01 -7.82014951e-02 -2.20312104e-01 -9.31033399e-03 +2.16572955e-01 -2.14672282e-01 -1.62320733e-01 -4.36700284e-02 +4.68811393e-02 -7.14002922e-02 -2.56812572e-01 +1.49889275e-01 -8.90485272e-02 +6.76748976e-02 -2.00944632e-01 -2.56093349e-02 -1.15855381e-01 -1.55390903e-01 +1.56457499e-01 +5.57203703e-02 +6.77992962e-03 +1.70156583e-01 -5.82183935e-02 -7.98414871e-02 -1.00579055e-03 -7.29489550e-02 +8.16544518e-04 -4.34817597e-02 +3.04952804e-02 +8.62383097e-02 +6.03007488e-02 +4.46751527e-02 +1.12044821e-02 -1.16658807e-01 -3.42325568e-02 +3.08717396e-02 -5.46938255e-02 -1.79949895e-01 -2.73038417e-01 -2.88622200e-01 +6.66256174e-02 +9.71676186e-02 -2.97694236e-01 -1.71337619e-01 -2.17832044e-01 -2.58014530e-01 +8.52942914e-02 -1.58318356e-01 -4.24554385e-02 -3.05842549e-01 -6.64254427e-02 -2.39600107e-01 +2.61429250e-01 -7.00172782e-02 -5.40943369e-02 -2.50855893e-01 -2.61025876e-01 +4.32337560e-02 -5.21444529e-02 -5.96109144e-02 -2.71567345e-01 -8.52139592e-02 -9.93231237e-02 +1.55347407e-01 +1.29954979e-01 +2.73271352e-02 -1.33730009e-01 +3.42438072e-02 -2.46782824e-02 +1.66229784e-01 +2.31570154e-01 -9.54715386e-02 +1.00392103e-01 -2.04816341e-01 +9.87571478e-02 +8.76465291e-02 +2.73954850e-02 +1.40946075e-01 -8.65247920e-02 -1.33536369e-01 +2.22941995e-01 -1.93077788e-01 +1.94932133e-01 -1.14188492e-01 +8.01521540e-02 -1.96653575e-01 +1.86379999e-01 -2.46319085e-01 -8.00405294e-02 -8.86967853e-02 +5.51285706e-02 +5.07835820e-02 -2.70764418e-02 -1.57712698e-01 +2.17624709e-01 +1.86596647e-01 +5.86406514e-02 +6.74792379e-02 -2.92298079e-01 -4.35766615e-02 +3.45046461e-01 -4.24471423e-02 -1.29734173e-01 -7.65358284e-03 +6.99102655e-02 -1.59725890e-01 -2.56302625e-01 +1.91700473e-01 -2.49119133e-01 -1.20605417e-01 -5.25908530e-01 +6.27833530e-02 -1.27088279e-01 -1.28030136e-01 -1.36444300e-01 -1.50305908e-02 +1.35538001e-02 -1.16427146e-01 -4.69832659e-01 -2.43955608e-02 -3.16432208e-01 -2.81703591e-01 -5.79157591e-01 +1.14562996e-01 -1.05696522e-01 +1.89017490e-01 -2.69883364e-01 +1.12837598e-01 -1.02845252e-01 +3.88022698e-02 -1.29023448e-01 +2.53263503e-01 +4.71667200e-02 +1.21406071e-01 -1.34030636e-02 +1.89254209e-01 +5.53395934e-02 -2.14280505e-02 -1.90698728e-01 -1.98587567e-01 -1.00872010e-01 +2.20642537e-02 +9.99090448e-02 -1.15300110e-02 -5.39349951e-02 +2.11822033e-01 -8.41532722e-02 -2.68856287e-01 -1.19588509e-01 -9.02069360e-02 +1.03178427e-01 -1.47745028e-01 -9.26120132e-02 +8.60002711e-02 +4.44538221e-02 -8.97850916e-02 -3.26043934e-01 +1.58230528e-01 -1.74314633e-01 -2.21696690e-01 -1.76028684e-01 +6.89681768e-02 -1.63582310e-01 -4.12326545e-01 -9.69827846e-02 -3.56820822e-01 -2.80963838e-01 -2.81180292e-01 +3.46792582e-03 +6.22468106e-02 -1.55781716e-01 -7.85553381e-02 -2.76635230e-01 -2.41560951e-01 -1.12572856e-01 +5.57695515e-02 +1.52573481e-01 +6.06388412e-02 -2.51335621e-01 +8.45751390e-02 -2.83805549e-01 +8.20481330e-02 -7.24349022e-02 -9.97886807e-02 -4.89819050e-01 -3.14909577e-01 +4.21057567e-02 -1.00052550e-01 -8.77095461e-02 +4.99536619e-02 -1.56901389e-01 -1.30693316e-01 +7.21873119e-02 -1.08839527e-01 +2.00064197e-01 +2.52746642e-01 -1.65440664e-01 +1.52515128e-01 +7.30006862e-03 +2.09826782e-01 -1.99824870e-01 -1.81296334e-01 +2.98087932e-02 -8.43868852e-02 +1.64863706e-01 +2.98032552e-01 +7.41926208e-02 +2.45220158e-02 +2.87416518e-01 +7.28711188e-02 -4.97700535e-02 -1.15414448e-01 -8.89164209e-02 -7.01683089e-02 -1.23772649e-02 -1.56451583e-01 -1.34158880e-03 -1.75125867e-01 -5.58693744e-02 -1.65999889e-01 +1.87625721e-01 -1.21301308e-01 +6.19933882e-04 +3.14160772e-02 +7.62128606e-02 +8.52358341e-02 -8.25456753e-02 -5.27515747e-02 -4.28059995e-02 -8.08824375e-02 -2.01829582e-01 +9.64308809e-03 +1.43691421e-01 -8.53613243e-02 -3.43135655e-01 -1.91734359e-03 -1.06978007e-01 -9.97464266e-03 -2.92525977e-01 -7.74404034e-02 +9.18934792e-02 -2.93734282e-01 -1.40815541e-01 -4.46946695e-02 -4.63158786e-02 -7.83595890e-02 -1.11355245e-01 -4.81453300e-01 -2.61286348e-01 -9.48048532e-02 +8.29731375e-02 -2.84593254e-01 -1.29185066e-01 -1.72635719e-01 -8.66030529e-02 +2.59750932e-01 +1.49301395e-01 -1.68770820e-01 -2.12392747e-01 +1.44475490e-01 +1.22929938e-01 -2.19755806e-02 -1.69359848e-01 -8.90031736e-03 +8.68050754e-02 +2.53473525e-03 -1.69577405e-01 +1.14109330e-01 -9.33451951e-02 +1.91266447e-01 +9.01495889e-02 +2.19841078e-01 -7.62899071e-02 +3.24876100e-01 +3.16070318e-02 -2.98317336e-02 +2.36864403e-01 -1.05734067e-02 -1.04391783e-01 +1.71948880e-01 +1.41180810e-02 -9.83459130e-02 -1.06428355e-01 +2.23155513e-01 +9.11027119e-02 -3.39966416e-02 +2.68700629e-01 +1.38726234e-01 -2.58876354e-01 -1.48555234e-01 -1.91916972e-01 -1.77447915e-01 -3.98764536e-02 +1.04703940e-03 -1.63452610e-01 -7.93581828e-02 -1.00681260e-01 -7.82041326e-02 -8.89941156e-02 -4.46850687e-01 -1.97153129e-02 -1.34849727e-01 +1.21054715e-02 -1.42392069e-01 -2.55208254e-01 -5.08323982e-02 -1.20263882e-01 -1.13317847e-01 -2.74301320e-01 -1.67600676e-01 -2.47795075e-01 -2.34205768e-01 -2.72824556e-01 -1.99848771e-01 +1.77911315e-02 +2.06692852e-02 -8.05858895e-02 -1.25280041e-02 -2.76047848e-02 +3.12708430e-02 +5.08939438e-02 +2.56264508e-01 +1.03756078e-01 -1.75735921e-01 +1.13705553e-01 -1.42561540e-01 +3.25571567e-01 -4.12619673e-02 +1.54495880e-01 -2.14382801e-02 +1.63465738e-01 +3.76707673e-01 -1.47435650e-01 +2.35459790e-01 -1.25967711e-01 +8.76356289e-02 -3.24135274e-02 -6.68244530e-03 +1.52053282e-01 +2.76607186e-01 -1.45257011e-01 -4.60025594e-02 +1.89717025e-01 -2.25589171e-01 +6.34713769e-02 -1.00005023e-01 +8.75183195e-02 -6.42223805e-02 -4.36159782e-02 +3.14327389e-01 -7.73721561e-02 +1.14465527e-01 -1.53522357e-01 -3.66791099e-01 -2.49965534e-01 -1.75603647e-02 +1.75286591e-01 -2.25353226e-01 -1.75707638e-01 -3.95155013e-01 +2.61888206e-01 -9.80150625e-02 -2.20964685e-01 -7.61318058e-02 +6.79628551e-02 -7.22102672e-02 -2.18098328e-01 +7.27602988e-02 -1.91370800e-01 -2.36218765e-01 -1.56850666e-01 -2.67622638e-02 +1.84805952e-02 +6.73223287e-02 -2.08520919e-01 -2.04041222e-04 -4.05878156e-01 -4.47362036e-01 -2.97618866e-01 +1.32983387e-01 -7.63136223e-02 -2.91755259e-01 -3.57885391e-01 -2.45181601e-02 -1.12507688e-02 -6.51030336e-04 +1.30208746e-01 -1.75923314e-02 -9.94611904e-02 +1.92906032e-03 +1.04922563e-01 +1.76056728e-01 -3.75766829e-02 -2.83066750e-01 +1.12819299e-01 -9.51422527e-02 -1.04495198e-01 +1.49971664e-01 +1.68821603e-01 +2.76962295e-02 -7.32317939e-02 +2.17176750e-01 -5.59094809e-02 -4.41776216e-02 +1.11912347e-01 -7.77080283e-02 +2.17050910e-01 +4.57135402e-02 +4.96575311e-02 +2.97950190e-02 -1.29620954e-01 +2.13832662e-01 -4.67256308e-02 +9.28051025e-02 +2.03499138e-01 -8.90924186e-02 +4.00689632e-01 +1.03761904e-01 +3.61998260e-01 +1.05609007e-01 +1.44560680e-01 +1.07871167e-01 +7.70333335e-02 +6.87586963e-02 -2.84383297e-02 -1.61489800e-01 +3.38152796e-01 +1.45487294e-01 -1.12796379e-02 +2.84836650e-01 +3.27568315e-02 -2.04072833e-01 +3.24872106e-01 -1.16393968e-01 +3.27826023e-01 +1.29130661e-01 +4.55371380e-01 -1.67975336e-01 +1.88275516e-01 +3.78529936e-01 +2.77820081e-01 +2.18653068e-01 -2.82668084e-01 +6.37383014e-02 +3.99051040e-01 +3.01195323e-01 +4.63093743e-02 +4.56381030e-02 +2.37804741e-01 +9.10633355e-02 +5.35268821e-02 -5.16591454e-03 +7.70905316e-02 +2.77160674e-01 -2.06073597e-02 +4.49136272e-02 -2.61104703e-01 +2.25625739e-01 -1.15641862e-01 +3.12867165e-02 +2.11356953e-01 -4.82396781e-02 +2.06840169e-02 -2.29269430e-01 -2.91029289e-02 -1.09239155e-02 +2.25443184e-01 +1.14092156e-02 +7.60888308e-02 -2.65623778e-01 -1.40475137e-02 -4.31186929e-02 -3.17497365e-02 +3.62002030e-02 -1.50839999e-01 -6.66192248e-02 -1.25886336e-01 +1.81670561e-01 -9.36419740e-02 +2.69576311e-01 +1.43189281e-01 +3.10203731e-02 +6.31942302e-02 -5.00188991e-02 +3.73659208e-02 +1.12269163e-01 +3.67368877e-01 +3.75880115e-02 -1.70548651e-02 +6.69082552e-02 +7.78902620e-02 +2.39403248e-02 -2.50577182e-02 +4.13225234e-01 +1.40535742e-01 +1.59857273e-01 -9.82473716e-02 -5.46863005e-02 +1.47353217e-01 +5.09011336e-02 +1.40566781e-01 +1.69413313e-01 +5.41863203e-01 +3.91075492e-01 +6.41706944e-01 +4.18019176e-01 +8.29499513e-02 +5.46285249e-02 -1.18186414e-01 +2.75676608e-01 +6.36539236e-02 +2.52704266e-02 -4.07956876e-02 +7.19399601e-02 +5.36447354e-02 +1.14472412e-01 -1.43896744e-01 +2.96915114e-01 +7.87831191e-03 -1.30591542e-01 -1.53088763e-01 +3.00895035e-01 +9.78321210e-02 +1.62093759e-01 +6.51778951e-02 -2.32612833e-01 -1.00427479e-01 +3.60275954e-02 +1.00889124e-01 -1.12479128e-01 +1.33857504e-01 +1.55495644e-01 -4.43130285e-02 +2.21128881e-01 -1.23943072e-02 -2.20585495e-01 -4.28361446e-02 +5.06765135e-02 -1.79200679e-01 -2.05404565e-01 +1.53698334e-02 -1.74941525e-01 -1.10002615e-01 +6.50927424e-02 +3.25853489e-02 -3.41514587e-01 -5.66989407e-02 -1.12247713e-01 -1.99678883e-01 -4.72927056e-02 -8.06491598e-02 -1.14307471e-01 -3.23079675e-01 -3.26709539e-01 -2.68882364e-01 -2.30327874e-01 +4.98789735e-02 -1.00997396e-01 -2.27441601e-02 -9.76292491e-02 +8.90817791e-02 -4.37001261e-04 -4.67407852e-01 +7.51684085e-02 -5.46400994e-02 -1.11342318e-01 -4.54661369e-01 -3.72646719e-01 -3.12409699e-01 -2.18358383e-01 -1.82713524e-01 -1.46663129e-01 -1.18554063e-01 -6.40794411e-02 -1.43899396e-01 -1.79535612e-01 +1.14246152e-01 -6.61764592e-02 +1.18370742e-01 -6.51718080e-02 -8.43825117e-02 -2.31805444e-01 +1.95076376e-01 -2.15244815e-02 +3.26491147e-01 +3.15123759e-02 +1.04779363e-01 +1.30246222e-01 -7.37891719e-02 +1.27113700e-01 +1.29029658e-02 +5.57747968e-02 -1.48238942e-01 -1.87765613e-01 +1.43685071e-02 +2.06812963e-01 +1.27918273e-01 +1.80155272e-03 +3.07470024e-01 -1.54843509e-01 +2.87572611e-02 -3.83294187e-04 -2.60759115e-01 +9.34251174e-02 -3.46515863e-03 +2.55307168e-01 -5.23512587e-02 +9.99489948e-02 +8.07153136e-02 -1.38737917e-01 -2.73777872e-01 -1.61830053e-01 +5.30884676e-02 -8.21820423e-02 -8.45445991e-02 -1.43908963e-01 +8.85472968e-02 -1.31939933e-01 -2.67141968e-01 -1.30592421e-01 -1.75441906e-01 -3.72374475e-01 -4.23402697e-01 +1.22166835e-01 -1.60344079e-01 -2.43556544e-01 +3.05059981e-02 -2.46463329e-01 -1.39782682e-01 -9.73234326e-02 -1.95207521e-01 +1.48323298e-01 -4.10450786e-01 -5.52396059e-01 +1.00890964e-01 +1.16554968e-01 -1.12775683e-01 +6.36991933e-02 -2.19510153e-01 -2.31868088e-01 -6.98635355e-02 +1.24349773e-01 -2.07757384e-01 -1.13305978e-01 +1.81172207e-01 -2.30331749e-01 -4.18545566e-02 +6.91268668e-02 +1.39645547e-01 -2.35988140e-01 -3.16535607e-02 -1.16957277e-02 -7.31011033e-02 -3.87286916e-02 -2.90665664e-02 +1.18955739e-01 -1.60354272e-01 +1.87896758e-01 +2.77460478e-02 +6.44507236e-04 -3.42933796e-02 -1.61320958e-02 -1.52477259e-02 -3.56532186e-02 -1.34845050e-02 +1.06447130e-01 +1.85475335e-01 -9.04193819e-02 -2.87227333e-02 -1.41364522e-02 +1.28837675e-01 -1.08720977e-02 +1.77551713e-02 -2.84488142e-01 -9.61734876e-02 -1.46437213e-01 -5.63353971e-02 -1.02168769e-01 +1.99876919e-01 -2.50634462e-01 +4.76400219e-02 -2.30852976e-01 -2.31575727e-01 -1.76431984e-01 -1.34414554e-01 -4.23822910e-01 +8.64000916e-02 -6.99626282e-02 -4.32251766e-02 -3.24392647e-01 -1.05856597e-01 +1.40757203e-01 -1.43961176e-01 -3.65345716e-03 -2.83593953e-01 -2.35755235e-01 -3.71378899e-01 -1.42057240e-01 -2.75291502e-02 +2.13442445e-02 -3.99179697e-01 +5.02050556e-02 +5.28152250e-02 -4.76248637e-02 -2.42055982e-01 -6.79751113e-02 +2.34586857e-02 +1.53830484e-01 +1.46608785e-01 -1.36472940e-01 -5.25217578e-02 -1.36300817e-01 -7.19133243e-02 -1.88103274e-01 +2.33633101e-01 +2.51525551e-01 +3.69504429e-02 +1.09221868e-01 -6.94682524e-02 +2.34298661e-01 +9.94264632e-02 +9.55131352e-02 +3.51551771e-02 +1.75544601e-02 +3.27560864e-02 +1.04488404e-02 +1.16644531e-01 -1.33959493e-02 +1.14724189e-01 +1.02722771e-01 +2.02727199e-01 +2.17624813e-01 +2.49534369e-01 -7.94188306e-02 -2.07354367e-01 +8.13109651e-02 -1.33870512e-01 -2.82196552e-01 -1.48522690e-01 -7.20424205e-02 +9.85474139e-02 +1.05341911e-01 -2.41768032e-01 -3.10259223e-01 -1.08993009e-01 +1.30603895e-01 -1.98517069e-01 -1.79084823e-01 -2.21949250e-01 -2.33043119e-01 -4.09942746e-01 -6.98345229e-02 +1.67679414e-02 -1.72951311e-01 -6.81824610e-02 -8.84193033e-02 -1.51850626e-01 +1.65161297e-01 -1.57969356e-01 -3.12710583e-01 -4.31921899e-01 -3.23275536e-01 -7.14080185e-02 -8.42023641e-03 +2.19988190e-02 -1.43358409e-01 +1.02404375e-02 -1.32641375e-01 +2.62470031e-03 -1.45287022e-01 +9.78000462e-02 -2.45489076e-01 -1.83738228e-02 +1.26254894e-02 -1.09487392e-01 +1.98168516e-01 +1.86056435e-01 -7.24256635e-02 -4.38653193e-02 +3.36709209e-02 +8.22787508e-02 +1.83387384e-01 +2.01468214e-01 -6.47765994e-02 -1.85046002e-01 -1.26711488e-01 -1.61976010e-01 -1.78480893e-01 -4.11250144e-02 +8.40812698e-02 +2.30743513e-01 -6.77999780e-02 -9.34784040e-02 +1.07996285e-01 +4.63145711e-02 +6.89964071e-02 +1.79896340e-01 -8.18422288e-02 +3.05606723e-01 -1.28979802e-01 -2.39945218e-01 -1.44864306e-01 -2.44612135e-02 -2.41533563e-01 -1.94646791e-01 -2.88319439e-01 +6.94483444e-02 -5.16985357e-02 -2.08145618e-01 -2.30929255e-02 -2.78119534e-01 -4.80662048e-01 +6.96951151e-02 -4.43376601e-01 -3.57780427e-01 -2.31624678e-01 +1.91415120e-02 -3.30734760e-01 -1.34131640e-01 -7.36477897e-02 -2.72992492e-01 -8.79570842e-02 -3.58798765e-02 -1.64204210e-01 -4.01906401e-01 -3.91835749e-01 +1.35329589e-01 -1.45344630e-01 -3.36046696e-01 -6.55454770e-02 -2.82302558e-01 -7.05535635e-02 +1.88999906e-01 -7.47863501e-02 -6.90354779e-02 -1.23962751e-02 +1.30041972e-01 -1.03288978e-01 +1.18591271e-01 -1.55459180e-01 +1.74043253e-01 -1.43289700e-01 -2.23138258e-02 +2.14098349e-01 +4.33470085e-02 +3.28636080e-01 -9.59763676e-02 +3.81323546e-02 -9.53041762e-02 +1.42349005e-01 -1.11217527e-02 +1.28503948e-01 +1.92469776e-01 +1.04118593e-01 +2.39273250e-01 +5.14615737e-02 +4.27414924e-01 +9.15829763e-02 -1.73189059e-01 -4.09046859e-02 -1.02268279e-01 -1.08416587e-01 -2.36219302e-01 -2.10400537e-01 -6.50667772e-02 -4.38932888e-02 -6.88586906e-02 -8.56652632e-02 -5.45275249e-02 -3.28552797e-02 -4.21267152e-01 -6.93805516e-02 -1.00200713e-01 -2.99549606e-02 -1.87141672e-02 -1.62664130e-01 -1.11766174e-01 -2.06927523e-01 -3.57660085e-01 +6.83833137e-02 -1.79892883e-01 -1.93951383e-01 -2.48350129e-01 +5.83810844e-02 -3.18609893e-01 -2.25633755e-01 -5.74414909e-01 -2.94235438e-01 -4.52572912e-01 -4.44739997e-01 -4.93402593e-02 -9.88253485e-03 -1.29574403e-01 -3.42457950e-01 -1.92488551e-01 -2.64357626e-01 +5.71953133e-02 -9.65064466e-02 -5.71479723e-02 -2.50694901e-01 -1.13680191e-01 -3.66106868e-01 +1.08948924e-01 +1.13076478e-01 -9.33126137e-02 -1.59569420e-02 -1.53287008e-01 +1.09188326e-01 -1.10562868e-01 +5.06246872e-02 -5.92595316e-04 +2.08640799e-01 -3.19969207e-01 -4.85770628e-02 +3.89678255e-02 -2.39514843e-01 -5.13179637e-02 +2.22282223e-02 +1.17741250e-01 +3.79024483e-02 -3.21288481e-02 -2.27713306e-02 +1.13165356e-01 -4.63310108e-02 +6.20208718e-02 +1.21231422e-01 +5.49712256e-02 +1.87058464e-01 -3.27912629e-01 -3.37465882e-01 +4.79713976e-02 -2.80783325e-01 -2.36410975e-01 -9.00012627e-02 -2.45928854e-01 -1.40567780e-01 +9.79143456e-02 +1.22983661e-02 -1.45744756e-01 -5.24153709e-02 +1.42907619e-01 -3.27482931e-02 +2.14453805e-02 -1.57900721e-01 -2.40209848e-01 +7.58294761e-02 -2.23501444e-01 -1.45999566e-01 -2.32064798e-01 +1.13188550e-01 +6.19816966e-02 -6.99483603e-02 -2.93858677e-01 -3.84656012e-01 +1.92686349e-01 +2.80246185e-03 -1.48249313e-01 -6.33656140e-03 -6.84322715e-02 +1.44331753e-01 -3.20055366e-01 +1.54254347e-01 +8.38799998e-02 +3.55800688e-01 -1.30057827e-01 +1.19204625e-01 +2.32889250e-01 -5.15169576e-02 +1.87548295e-01 +4.42567281e-02 +1.00896038e-01 -2.97368560e-02 -1.32188573e-01 -7.95184374e-02 -1.61588013e-01 +6.41671941e-02 -4.40649837e-02 -1.75808221e-01 -1.28185228e-01 +3.16649467e-01 -3.51864696e-01 +1.63806126e-01 +4.41416465e-02 -1.65769443e-01 +2.28708863e-01 +6.83385953e-02 +1.33503646e-01 +9.91082191e-02 +3.07323574e-03 -2.19451964e-01 -1.26694962e-01 -3.17429900e-01 +1.13998406e-01 -2.13648543e-01 -8.40556473e-02 +5.90037033e-02 -1.91516191e-01 -1.73822250e-02 -1.53229654e-01 -1.39467657e-01 -1.32710133e-02 +8.38141665e-02 -1.10784009e-01 -9.20495484e-03 +1.76459551e-01 -4.72401738e-01 +1.80926815e-01 -1.83081359e-01 +5.28180562e-02 -2.71796823e-01 -2.78167248e-01 -7.34127983e-02 -1.74303293e-01 -1.53969541e-01 -2.83367664e-01 -2.26070493e-01 -3.48531097e-01 -4.55000281e-01 +3.71147633e-01 -2.08550487e-02 -2.04585865e-01 -2.10144371e-01 +2.04569530e-02 -2.94124275e-01 +2.26442084e-01 +1.21675387e-01 +1.10347204e-01 +8.41076393e-03 +1.60741672e-01 -3.22179824e-01 -6.42734095e-02 +5.35379201e-02 -1.86646238e-01 -3.35837722e-01 +1.42820314e-01 -1.14213809e-01 -1.92161277e-01 +1.24564230e-01 -1.03747137e-01 -1.31687582e-01 -3.38321120e-01 -1.66879967e-01 -2.59961691e-02 -1.14825360e-01 +3.32438022e-01 -9.55364779e-02 -8.59237388e-02 +5.98040298e-02 -3.35269831e-02 +5.73896244e-02 +2.08471462e-01 -3.06813885e-02 -2.17751965e-01 +1.69329554e-01 +5.96046494e-03 +1.23217680e-01 +3.55678380e-01 +5.06918907e-01 +2.43835807e-01 +1.80559605e-01 +1.34049982e-01 +3.64587098e-01 +4.61351722e-02 +1.35449301e-02 -5.54168560e-02 +1.88833475e-01 +2.38395989e-01 +4.12455261e-01 -2.32601076e-01 +1.07455060e-01 +1.63452595e-01 +9.16441232e-02 +1.94971282e-02 +8.47543254e-02 +4.35995907e-01 -6.58366829e-02 +2.58230895e-01 -1.33632228e-01 +5.05373836e-01 +3.64493966e-01 +3.34169447e-01 +3.28635722e-01 -9.20697898e-02 -1.88205913e-02 +1.99336573e-01 +2.06283242e-01 +2.15930343e-01 +3.00163895e-01 -1.16303214e-03 -6.79204687e-02 -9.01730880e-02 -1.01472512e-02 +5.00096641e-02 -2.81901378e-02 +3.40588540e-02 +1.73770994e-01 -1.79899365e-01 +2.15328410e-01 -1.76465362e-01 -4.78421822e-02 -6.34331554e-02 -1.16382807e-01 +7.82413259e-02 -2.23451152e-01 +2.94019699e-01 +7.44585916e-02 -2.04958599e-02 -1.80749357e-01 +2.38818884e-01 -1.03246801e-01 +6.12372532e-02 +1.46805093e-01 +5.47793321e-02 -1.89011946e-01 +5.66533022e-02 -1.67984828e-01 +6.63589239e-02 +5.53557537e-02 -7.91814253e-02 -4.34141494e-02 +1.96966007e-01 +1.34234959e-02 +6.68661296e-02 -1.68322638e-01 -3.37687694e-02 +2.30523735e-01 +2.22663775e-01 +1.12313718e-01 +9.22627822e-02 +3.10960207e-02 +2.84841061e-01 -4.23196480e-02 +2.25394830e-01 +2.28674009e-01 +7.77403116e-02 -1.32234350e-01 +1.33675218e-01 +2.22575232e-01 +1.64802283e-01 +1.25380024e-01 +1.61580876e-01 +2.92450637e-01 +1.46520153e-01 +1.27478972e-01 +5.74329019e-01 +3.79520357e-01 -5.26245423e-02 -1.48457795e-01 +2.84239292e-01 +9.68964100e-02 +7.13436007e-02 -1.46687487e-02 -1.93629954e-02 -5.31678163e-02 -2.34385818e-01 +6.69336095e-02 +8.00053850e-02 +3.72222155e-01 -6.91659898e-02 -2.45251328e-01 -1.30292952e-01 +1.74509883e-01 +1.56885862e-01 +9.15616937e-03 -1.84172243e-01 +7.09494874e-02 -2.50100255e-01 +9.08337384e-02 +2.79671073e-01 +9.68137104e-03 +1.54321507e-01 -1.33955896e-01 -2.26235464e-01 +1.18513688e-01 +5.12791798e-04 -7.89265672e-04 -4.78105694e-02 +8.18380527e-03 +2.02322111e-01 +2.03855023e-01 -7.33259916e-02 -2.06504777e-01 +4.04897258e-02 +9.24438089e-02 -2.35206664e-01 +2.58562118e-01 +2.21785873e-01 +3.60526919e-01 +1.83275402e-01 +5.71504384e-02 -1.10405371e-01 -5.16886897e-02 -1.83529943e-01 -1.50231585e-01 +4.49987389e-02 +1.67529479e-01 +2.53016740e-01 +1.08879343e-01 -1.22859985e-01 -2.21243486e-01 -7.22619891e-02 -9.61917937e-02 +1.70711875e-01 +5.58528379e-02 +3.06741148e-01 +1.60614565e-01 +1.02420904e-01 +4.17482615e-01 +8.01258162e-02 +3.06519806e-01 -3.89406011e-02 +8.54914039e-02 -7.42688999e-02 +3.75959277e-01 +9.58618056e-03 -2.71171987e-01 +1.51384249e-01 -1.90206349e-01 -1.95255056e-01 -1.24844082e-01 -3.78913917e-02 +1.95736960e-01 -9.68236383e-03 +1.38487116e-01 -2.03013077e-01 +4.86023091e-02 -9.36041549e-02 -3.60289901e-01 -1.12549998e-01 -5.20990901e-02 -1.08376615e-01 +1.63117513e-01 +8.22395459e-02 -8.10238048e-02 -4.79101315e-02 -1.48796588e-01 -1.06831715e-02 +1.04557149e-01 -8.47398117e-02 -2.83654332e-01 -1.20050058e-01 +2.48159483e-01 -3.47292349e-02 -1.87246382e-01 +9.66530144e-02 -2.65643030e-01 +1.57485738e-01 +2.01896414e-01 -7.27890953e-02 +3.73660959e-02 +1.92345127e-01 +1.74688265e-01 -1.78480193e-01 -8.12761411e-02 +2.86608517e-01 +2.55503684e-01 +1.50501922e-01 -1.56020746e-01 +7.50764459e-02 -3.17538321e-01 -1.26454547e-01 +3.63550521e-02 +3.91301900e-01 -9.13721696e-02 -1.31812945e-01 +3.01180705e-02 -1.65135548e-01 +4.92184870e-02 -2.52192691e-02 -1.36835650e-01 +2.63816118e-01 +3.87289435e-01 +2.95815289e-01 +2.31631145e-01 +4.00298722e-02 +7.80457705e-02 +2.76710063e-01 +3.33619304e-02 -1.10465035e-01 +3.57712880e-02 +7.49826059e-02 -1.81283411e-02 -6.30804002e-02 +1.27746426e-02 -3.68553698e-02 +2.70199478e-01 +1.54168205e-02 -8.43040198e-02 -8.65210444e-02 +2.43795395e-01 -8.85303244e-02 -9.33540240e-03 -6.14097118e-02 +1.19195275e-01 -1.22899488e-01 -1.11138269e-01 +4.97059003e-02 +9.41148475e-02 -9.05997753e-02 -1.52715966e-02 +1.56809151e-01 +2.50379238e-02 -7.70751238e-02 -1.40673190e-01 -6.74756989e-02 +8.06629509e-02 +1.48447379e-01 +8.31452608e-02 +1.89095572e-01 -3.45492661e-02 -2.97922716e-02 -3.39761898e-02 -7.09564239e-02 +3.69132459e-02 +6.52957559e-02 +1.41243353e-01 +1.86701305e-02 +2.50366360e-01 +1.86267525e-01 +3.41884010e-02 +8.45310465e-02 +5.99775203e-02 +1.42974153e-01 +1.27266824e-01 +2.04425640e-02 +1.59124136e-01 -1.38067439e-01 -1.03763618e-01 +2.56404817e-01 +4.11249936e-01 +2.66374111e-01 +2.46831894e-01 +3.33812326e-01 +8.14736858e-02 +2.51813978e-01 +2.13456213e-01 +1.53972760e-01 +4.73784477e-01 +1.30317122e-01 -6.51388168e-02 +5.83708063e-02 +1.30554855e-01 +2.63590664e-01 +1.89561740e-01 +4.05585021e-02 -2.46054620e-01 +1.06126584e-01 -2.34316990e-01 -2.33030304e-01 -8.88205245e-02 -2.53483057e-01 -1.38136759e-01 -2.10996673e-01 -1.07344948e-01 +2.87867952e-02 -1.49902657e-01 -5.00673801e-02 -3.35859746e-01 -8.52864236e-02 +1.40630588e-01 -1.17985504e-02 +2.42758319e-01 -7.14549283e-03 +3.77896242e-02 -9.11722556e-02 -7.38383532e-02 -2.17736751e-01 +1.78818688e-01 -4.78349552e-02 +1.68763012e-01 +1.16374470e-01 +3.59764993e-02 +6.78710465e-04 +5.96366376e-02 -1.70145750e-01 +2.05275297e-01 +1.79659098e-01 +2.17070565e-01 +3.03346873e-03 +4.12112288e-02 +1.43087879e-01 +8.78797565e-03 +2.37997416e-02 +9.06113759e-02 +1.25878960e-01 -1.40856564e-01 -7.78801143e-02 +3.57115082e-02 +4.97574583e-02 +1.31861314e-01 +4.69561785e-01 -1.60036698e-01 +7.59783685e-02 +3.75223935e-01 +1.95569843e-01 -9.88370404e-02 +4.45413947e-01 +2.35162169e-01 +4.18214202e-01 +9.88279805e-02 +4.28344905e-01 +3.81681651e-01 +3.21971506e-01 +1.93722658e-02 +8.87092855e-03 -3.79951745e-02 +1.59402654e-01 -9.86043662e-02 -1.72300398e-01 +1.80172175e-01 +4.63829227e-02 -5.08299693e-02 +2.55697649e-02 +3.08919460e-01 +3.80995385e-02 -5.08619435e-02 -1.40501872e-01 -1.07746534e-02 +8.14189091e-02 +8.97071436e-02 +1.53396726e-01 +2.14882165e-01 -2.35512018e-01 -1.28558790e-02 -3.95307392e-02 +5.78831919e-02 -5.38621210e-02 +1.17615312e-01 -1.98020220e-01 +2.31567219e-01 +4.45888698e-04 -8.26381743e-02 -4.85998802e-02 -1.21343024e-01 -1.87422782e-01 -1.74795672e-01 +4.53892350e-02 +5.70666157e-02 +4.17535305e-02 +8.81915167e-02 +6.59144372e-02 +7.57784098e-02 -1.79188341e-01 -6.68025250e-03 -1.70608580e-01 -1.99679062e-01 +2.10748866e-01 -1.64695099e-01 +2.05001652e-01 -1.17007248e-01 +6.80936798e-02 +1.37983143e-01 -2.82806903e-01 -4.16347161e-02 -9.28643942e-02 +1.18413143e-01 +4.14062925e-02 -2.43658319e-01 +5.06621934e-02 +9.90943015e-02 -3.08460116e-01 +2.45467529e-01 -1.52170837e-01 -2.05345042e-02 -5.22511750e-02 -1.12562507e-01 -6.74617887e-02 -2.49559991e-02 -1.03100009e-01 -1.44254759e-01 -5.30549958e-02 +2.37973899e-01 -9.52326432e-02 -5.93516529e-02 -1.14226453e-01 +6.99836761e-02 +2.64697909e-01 +8.99548903e-02 -6.74643815e-02 -2.91674249e-02 +1.97482537e-02 -1.81873009e-01 +1.08157896e-01 -1.32373929e-01 +3.17610092e-02 -2.56099384e-02 -1.77366197e-01 +2.91489847e-02 +2.06120387e-02 -5.31506166e-02 -1.32210016e-01 -6.62664473e-02 -1.09430611e-01 -2.18163595e-01 -1.04361139e-01 +8.67767707e-02 +1.01197369e-01 -5.28605655e-02 +2.07825452e-01 -1.48506060e-01 +7.11393729e-03 +1.64166823e-01 -6.08563051e-02 -2.13013023e-01 -1.08717889e-01 -1.91158965e-01 +2.72245139e-01 +1.68112889e-01 +2.20021039e-01 +6.49812073e-02 -7.25032166e-02 -1.74336433e-01 -7.48328939e-02 -3.95985581e-02 -1.57500401e-01 +1.92370772e-01 -5.07401228e-02 +2.85535514e-01 -1.35714173e-01 -2.08753884e-01 -4.47218157e-02 -4.60051559e-03 +1.85999021e-01 +2.26652771e-01 +1.46903276e-01 +9.12515670e-02 +1.14191331e-01 -2.18403507e-02 +1.25897139e-01 -2.26051696e-02 +3.71686332e-02 +3.76135558e-02 -2.95578778e-01 -3.40845734e-02 -2.71389186e-01 -1.08138882e-01 -5.06159551e-02 +7.67070148e-03 -1.09674074e-01 -1.61397979e-01 -1.63949251e-01 +5.68255372e-02 -4.09871042e-02 +9.51058269e-02 +1.48187578e-01 -5.78119829e-02 +1.38723642e-01 -2.14264750e-01 -7.25776106e-02 +1.06221162e-01 +1.89035639e-01 -1.81554750e-01 -1.19255267e-01 -2.06735246e-02 +1.18339034e-02 +9.10426304e-02 +2.38060690e-02 +9.35572758e-02 +7.72499889e-02 -6.33274466e-02 +9.15878043e-02 -1.65427119e-01 -6.29327893e-02 +1.84355974e-01 +2.06945509e-01 +1.79658309e-01 +1.29138380e-01 +5.91639383e-03 +8.41547698e-02 -1.07156515e-01 +3.20763513e-02 -2.27947757e-02 -1.60306498e-01 +1.25325352e-01 +3.19839329e-01 +2.00022265e-01 -2.79026598e-01 -1.84636176e-01 -2.63114404e-02 -3.42068851e-01 -1.32945299e-01 -1.73239961e-01 -1.04508556e-01 +1.51814371e-02 -9.08702910e-02 -3.02015722e-01 -1.26908913e-01 -2.61561990e-01 +2.34256312e-01 -5.19535579e-02 -1.01452276e-01 -2.16096893e-01 -4.09285307e-01 -2.06062108e-01 +1.73081115e-01 -1.93426743e-01 +4.32018563e-02 -3.16022724e-01 -1.46176800e-01 +9.67753455e-02 -3.88488114e-01 -9.33428779e-02 +7.30426684e-02 +9.15439203e-02 +1.41912341e-01 -2.46052910e-02 -1.30809247e-01 +1.36967480e-01 +1.94297552e-01 -1.93348780e-01 +2.57127076e-01 -2.04627499e-01 -2.82866936e-02 -1.25486806e-01 -8.53745192e-02 -4.42785658e-02 -3.68478708e-02 -1.81303263e-01 -8.39942992e-02 +3.18361908e-01 +2.71569937e-01 +2.36570895e-01 +9.03706849e-02 +2.63962507e-01 +3.08677375e-01 +1.73226148e-01 -3.20703268e-01 -1.34685025e-01 +4.13077138e-02 -2.15455502e-01 -4.92668599e-02 -1.19577751e-01 -4.25095819e-02 -1.08781993e-01 +1.25420257e-01 +2.21604947e-02 -3.42033535e-01 +7.85381198e-02 -3.06097837e-03 -3.57947767e-01 +6.15968043e-03 -1.74378939e-02 -6.72120154e-02 -2.98113823e-01 -1.92510501e-01 -1.46352366e-01 +1.38329625e-01 -1.72811300e-01 -3.34376663e-01 +6.00604601e-02 -3.69894579e-02 -4.84655946e-02 -1.64439112e-01 +3.00552193e-02 -1.89217031e-01 -1.76445842e-01 -5.51647067e-01 -4.93654132e-01 +2.60855943e-01 +5.55588342e-02 -2.83781737e-01 -2.87422270e-01 +3.03247720e-01 -8.25974643e-02 +6.14281222e-02 -1.98045112e-02 +9.54355672e-02 -7.58848116e-02 +1.03387430e-01 