#Parameter# /UniLSTMSeqTransducer.597432e9/_0 {64,32} 32769 ZERO_GRAD
+4.86928560e-02 -4.97469194e-02 +3.28403145e-01 +6.02238953e-01 +2.22082004e-01 -2.60999411e-01 -1.38237059e-01 +3.01931858e-01 -5.50624549e-01 -4.68957663e-01 -6.57498688e-02 -4.77038436e-02 -1.81999937e-01 -2.65011460e-01 +7.60711147e-04 +1.81213617e-01 -3.00210476e-01 +1.57176420e-01 +2.70226359e-01 -1.39471099e-01 -2.59989232e-01 +4.52154785e-01 -1.97790861e-01 +9.44873970e-03 -4.61891890e-01 -2.31262594e-01 +1.60791159e-01 +1.13814354e-01 +4.89327870e-02 -2.36785054e-01 +1.11487344e-01 +9.63718966e-02 -7.40947202e-02 +2.60067612e-01 -4.03692052e-02 -8.03575516e-02 -3.57760817e-01 +3.74074221e-01 +2.00265571e-02 -2.27974113e-02 -9.87043083e-02 +1.89536795e-01 -1.52430490e-01 -6.76617995e-02 +7.81222284e-02 -2.93021351e-01 -2.10331842e-01 +3.03512990e-01 +1.74772799e-01 +2.26248458e-01 -2.80658334e-01 -2.13643938e-01 +4.60647643e-01 -8.88578594e-02 +1.00505657e-01 +2.77090579e-01 +3.01571429e-01 +2.86371082e-01 -4.20299321e-02 -3.21339488e-01 +3.05719078e-01 -3.35253209e-01 -6.66119531e-02 +2.48105988e-01 +2.78964221e-01 +2.81889409e-01 +1.96098715e-01 +3.11768621e-01 +1.42974153e-01 -2.72676021e-01 +1.49929658e-01 -2.80334592e-01 +3.58950078e-01 -1.10926598e-01 +2.13336125e-01 +5.83562255e-01 -5.04075177e-02 -6.48210198e-02 +1.60779268e-01 +2.48230204e-01 +4.84885499e-02 +1.80381343e-01 +2.30498344e-01 -1.71570897e-01 -3.56784612e-02 -1.82845369e-01 +3.00887991e-02 +9.24488157e-03 +3.16377670e-01 +3.00973624e-01 -8.15379247e-02 -8.90262127e-02 -1.21124975e-01 +3.87205303e-01 -2.12973710e-02 +1.76865175e-01 +4.55640942e-01 -1.81453750e-01 -5.14892936e-02 +2.91633219e-01 +2.86686718e-01 -4.22839612e-01 -1.90776691e-01 -8.36136490e-02 -2.15025604e-01 +2.78952360e-01 +4.31248128e-01 -2.62806565e-02 +1.68599665e-01 +1.20385066e-02 +2.01988015e-02 +2.92395115e-01 +5.01622379e-01 -3.16193491e-01 +1.36016220e-01 -9.48695913e-02 +2.40498036e-01 +2.01488838e-01 +2.06700563e-01 +1.14060663e-01 -3.55563968e-01 +2.23366648e-01 -3.16378713e-01 -3.47175568e-01 +1.21937670e-01 +2.17325278e-02 +2.17859447e-01 +2.22620573e-02 +4.65000778e-01 +1.12179764e-01 -1.38616413e-01 +2.68453389e-01 -5.61407879e-02 -1.51162401e-01 -7.82322045e-03 +3.91184958e-03 +2.52929568e-01 -1.83417335e-01 -5.42595983e-02 +4.67639118e-01 -3.99892837e-01 +2.76308417e-01 +9.22692046e-02 +4.37673569e-01 -1.66521057e-01 +5.26388049e-01 -1.07822277e-01 -1.67756990e-01 -3.52942169e-01 +2.03276485e-01 +5.78637868e-02 -2.85624385e-01 -2.67862707e-01 +1.59322426e-01 +2.63585299e-01 -3.19915444e-01 -5.06857872e-01 +3.01296771e-01 +3.36481303e-01 +2.32053306e-02 +2.94182505e-02 +2.14511469e-01 +2.16050908e-01 +2.80380964e-01 -2.25315511e-01 +2.90607959e-01 -3.59928250e-01 -3.19907546e-01 +1.48940206e-01 -6.34179652e-01 -4.02571797e-01 -1.01843320e-01 -9.46036056e-02 -4.16848093e-01 +2.28563935e-01 -7.94167146e-02 +4.53300893e-01 -3.34497631e-01 -3.42503130e-01 -2.94537067e-01 +2.96028674e-01 -2.78785676e-01 +3.97947282e-01 -4.06061023e-01 -1.38187066e-01 -1.34277821e-01 +1.03954688e-01 +1.29511565e-01 -7.31830448e-02 +5.81461117e-02 +1.96127072e-01 +4.84207690e-01 -5.91478609e-02 +2.47806862e-01 -1.87330335e-01 -2.47497067e-01 -7.41629303e-02 -1.14943504e-01 -2.06106305e-01 -3.06989163e-01 +2.44315222e-01 -1.66627124e-01 -1.71322569e-01 -2.81011075e-01 +2.91864306e-01 +1.41604841e-01 -1.48672953e-01 +8.83859023e-02 +1.36609167e-01 -4.28921282e-01 -4.74086285e-01 +1.01459712e-01 -2.36207768e-01 -2.09880993e-01 -2.46540308e-02 -2.86753923e-01 -5.83164841e-02 -3.65306497e-01 -5.42607367e-01 -5.07109582e-01 +2.02718511e-01 -3.04137498e-01 -4.23178583e-01 +7.19788224e-02 -1.76202700e-01 +8.87640938e-02 -4.69739020e-01 +1.37891188e-01 +3.21914226e-01 +5.07344492e-02 +3.96036915e-02 -2.87772834e-01 -3.75545382e-01 -2.14496553e-01 -3.14647853e-01 +1.24343641e-01 +4.70127165e-02 -1.89112797e-01 -5.19140422e-01 +3.17555755e-01 +6.34958521e-02 +3.09805989e-01 +2.11773857e-01 +3.44833761e-01 +4.90519494e-01 +2.47671455e-01 +5.14561057e-01 -9.00953636e-02 -3.23561393e-02 +1.28757849e-01 +2.34577566e-01 +1.66919470e-01 +4.77424897e-02 -8.41969103e-02 -5.07912397e-01 -1.27096400e-01 +1.96563646e-01 -2.19586551e-01 +1.13510363e-01 -1.80269331e-01 +7.00363982e-03 -3.68779361e-01 -2.29545251e-01 -3.51309270e-01 -4.87751603e-01 +2.83342570e-01 -4.88640703e-02 -5.99532500e-02 +2.48065680e-01 +6.40747473e-02 +1.47060052e-01 +4.97993946e-01 -4.46489565e-02 -2.85828672e-03 -1.12403169e-01 +1.20949997e-02 +3.27341050e-01 -3.35724950e-01 -3.35731894e-01 -1.96085379e-01 +1.36600539e-01 -1.89993903e-01 -3.00171614e-01 +2.40495279e-01 -1.74076874e-02 +2.64073730e-01 -4.32689607e-01 -5.44653647e-02 +5.00186801e-01 +9.46728364e-02 +2.24009812e-01 +4.76043582e-01 +2.89580733e-01 +9.22476128e-02 +4.03928518e-01 -3.44873101e-01 +6.52184561e-02 +4.59053040e-01 +1.14095613e-01 -5.36671244e-02 +4.94884819e-01 -1.13417648e-01 +1.78018823e-01 +9.77094099e-03 +3.54877859e-01 +1.80998370e-02 +3.16873699e-01 +3.37280005e-01 +1.72618598e-01 -1.99107409e-01 -1.12241253e-01 +1.95083886e-01 +3.20062041e-01 -2.18242213e-01 +2.25967139e-01 +5.79558611e-02 +2.79097497e-01 +4.46700603e-01 -2.17022732e-01 -4.54429835e-01 -8.67692456e-02 +2.62588620e-01 +1.58648103e-01 -3.17932159e-01 -4.57470752e-02 -3.06864560e-01 -3.64301264e-01 +4.96694930e-02 +3.14696640e-01 +1.53589472e-01 -2.18093872e-01 -1.76204830e-01 -2.25078762e-02 -3.15607905e-01 -5.19227147e-01 -2.66559213e-01 +1.20705716e-01 +7.34954849e-02 -2.49012679e-01 -3.70073736e-01 +3.20661999e-02 -3.54126632e-01 -3.70283484e-01 -2.16724530e-01 -1.74586788e-01 -9.87358242e-02 -5.19587845e-02 +2.67752886e-01 -2.94388741e-01 -2.73792177e-01 +1.69627547e-01 +1.75011933e-01 +1.09826759e-01 +3.48775804e-01 +1.00933518e-02 +3.16857964e-01 +2.56285518e-01 -2.81610340e-01 -1.44726723e-01 +2.70712256e-01 -2.62258440e-01 -1.42259344e-01 -1.04433894e-01 +4.12878431e-02 +4.52023625e-01 -3.67756188e-01 +6.87179342e-02 +3.39592367e-01 -2.11815536e-01 +1.19902916e-01 +2.92751700e-01 -1.17421327e-02 +1.52136296e-01 +3.93381834e-01 +2.41504222e-01 -5.05263150e-01 -1.93944827e-01 +4.16943252e-01 +4.76432532e-01 -2.40499422e-01 +1.73759952e-01 -1.80110469e-01 -4.28626776e-01 +4.31921482e-01 -9.52506885e-02 -3.41971606e-01 +1.18892297e-01 +9.94747952e-02 -1.10555045e-01 -1.52382329e-01 +4.30224419e-01 -4.19212461e-01 +1.74213544e-01 +5.02889603e-02 +2.25548118e-01 -1.67773858e-01 +1.41618326e-01 -2.75221448e-02 -3.10253322e-01 -5.95988818e-02 -1.07893080e-01 +2.20489070e-01 -4.48654115e-01 -9.76977572e-02 -1.90991476e-01 -1.78072169e-01 +9.76293758e-02 -6.49625957e-02 +2.93366760e-01 -4.86859292e-01 +2.94067472e-01 -1.99339584e-01 +1.74674168e-01 +1.57621905e-01 -3.63406003e-01 -1.05494842e-01 +1.83114871e-01 -4.84565556e-01 -2.37906337e-01 -4.50290620e-01 +1.99131146e-01 -8.30849558e-02 +1.49299935e-01 -1.41423360e-01 -1.10878542e-01 -3.60648632e-01 +1.61453456e-01 +2.19794959e-02 -1.12741038e-01 -1.69898093e-01 +2.21678093e-01 -2.37271741e-01 +2.16691401e-02 +1.97610691e-01 +3.07027727e-01 +2.63885111e-01 +3.71494532e-01 -2.06247583e-01 +2.40900926e-03 -1.89348206e-01 +2.19224602e-01 +2.93034345e-01 +2.29464889e-01 -2.92372316e-01 -1.57345399e-01 +2.38597602e-01 +1.26559928e-01 +2.69264519e-01 -3.05586040e-01 +3.44864339e-01 -2.74871081e-01 +3.41627508e-01 -5.21094864e-03 +2.85687387e-01 -2.00872600e-01 -2.35435888e-02 +3.69952321e-02 -2.10344091e-01 -1.58413008e-01 +6.14316240e-02 -1.31397754e-01 +1.11776851e-01 +2.60532200e-01 -3.57425421e-01 +8.47848356e-02 +5.09915173e-01 -3.99736702e-01 +3.40973511e-02 +7.81554952e-02 +2.76491016e-01 -2.37564400e-01 -2.31538266e-02 -9.93701667e-02 +1.69181019e-01 +4.48599517e-01 -1.13956191e-01 +4.36509341e-01 +2.79017121e-01 -1.17315829e-01 +1.41039148e-01 -2.42436424e-01 +2.62698084e-01 -3.28583717e-02 -6.41617225e-03 +1.73910797e-01 +1.44271225e-01 -8.90713334e-02 +5.73172513e-03 -7.60209784e-02 +2.75277525e-01 -1.39419138e-01 -1.78758241e-02 +2.02802032e-01 +4.03965533e-01 +1.94991231e-01 +5.56408346e-01 +4.15589213e-01 +8.61945748e-02 -1.01520307e-01 -1.09836251e-01 -4.03270051e-02 +1.52597651e-01 -1.55871034e-01 -7.87045062e-02 -1.38848826e-01 -2.01635614e-01 -1.95344254e-01 -3.26759778e-02 +3.17992531e-02 -1.43906087e-01 +3.58857185e-01 +1.48460090e-01 +3.60913604e-01 +2.20495239e-01 -2.04737902e-01 +3.74991633e-02 +1.34041846e-01 +3.84334326e-02 -3.80466878e-01 -5.13938069e-01 -1.24548599e-01 +1.02287069e-01 -3.75519763e-03 +9.70441997e-02 -3.21999669e-01 +3.41309994e-01 -3.21142375e-02 -3.48101228e-01 +4.41633791e-01 -1.15197659e-01 +3.69105786e-01 +6.21196866e-01 -4.23478454e-01 +2.13373214e-01 +9.16557983e-02 +1.22072868e-01 -1.57393038e-01 +1.67972833e-01 -8.57093465e-03 +2.15125859e-01 -1.42803490e-01 -2.08748907e-01 -1.96645036e-01 +9.20302570e-02 +7.86976293e-02 +1.19722404e-01 +2.11466908e-01 -2.90248096e-01 +6.95535466e-02 -5.35155609e-02 +3.73327583e-01 -8.99954140e-02 +3.58117729e-01 -1.75032333e-01 -9.59638134e-02 +3.93687859e-02 -1.78683341e-01 +1.11443833e-01 +1.75884381e-01 +1.42381996e-01 -1.96827471e-01 -1.85423791e-02 -7.11285137e-03 -1.34927183e-01 -9.81168002e-02 +1.51805431e-01 +2.23526686e-01 -2.72824913e-01 -2.34402776e-01 -1.43843353e-01 +1.30492568e-01 -3.35668921e-01 +1.29635315e-02 +3.64127040e-01 +1.19414426e-01 +2.79980689e-01 -3.29735458e-01 +2.64791787e-01 -8.68372396e-02 +9.98277962e-02 +1.95455670e-01 +1.55706838e-01 -3.28293324e-01 +3.31793316e-02 +8.32028314e-02 +3.75785795e-03 -3.82376850e-01 -1.77023962e-01 +1.92011386e-01 +1.85121208e-01 +2.31585652e-01 -4.44766790e-01 +1.28921464e-01 -1.28893271e-01 -1.81933358e-01 +1.52197540e-01 -1.37044908e-02 -7.16391876e-02 -7.21718669e-02 -4.22314890e-02 +2.18896165e-01 -2.66060561e-01 +5.95932500e-03 -2.86603093e-01 -1.12744145e-01 +1.80439457e-01 +1.61449119e-01 -1.88004360e-01 +9.39513445e-02 -1.01165809e-01 -1.91073701e-01 -9.87278149e-02 +3.53703409e-01 -4.08138633e-01 -3.85452211e-01 +4.73223537e-01 -6.71142936e-02 -1.05447002e-01 -7.22342879e-02 +1.14632152e-01 +3.14901352e-01 +4.09727603e-01 +2.76756406e-01 -1.27723917e-01 -4.55137610e-01 +1.30069824e-02 -5.58202714e-02 +1.53946862e-01 -5.45636356e-01 +3.91097546e-01 -1.97555125e-01 +4.36606295e-02 -6.14684559e-02 -7.92706087e-02 +3.69255543e-01 +3.19646358e-01 +1.22506119e-01 -2.22215652e-01 +1.43759996e-01 -1.09661497e-01 -3.85997355e-01 -2.90076256e-01 -3.82405549e-01 -4.58546162e-01 -4.25388843e-01 +2.96744496e-01 -1.33399330e-02 +3.78144443e-01 +4.52547163e-01 -1.64883003e-01 -1.71691388e-01 -5.35203159e-01 -3.54471892e-01 -1.15338251e-01 +7.07887337e-02 -3.67093921e-01 -3.06395143e-01 -4.08498108e-01 -5.89779988e-02 -3.67061585e-01 -5.90297699e-01 +2.10373104e-01 -2.42496461e-01 -5.67396060e-02 -3.32703501e-01 -3.90278846e-02 +5.85887209e-02 -3.43240142e-01 -2.13807970e-01 -1.05930269e-01 +1.76187634e-01 -7.29303420e-01 -1.20686434e-01 -3.89228433e-01 -3.38272065e-01 -5.00084519e-01 -6.36241555e-01 -1.59198448e-01 -3.39281797e-01 +2.75611192e-01 +6.06300049e-02 +9.89803672e-02 +3.63107882e-02 +4.93886657e-02 -5.65373778e-01 -3.70688230e-01 -3.48055661e-01 -6.21367395e-01 -3.73630077e-01 -2.74962634e-01 +4.33869153e-01 +1.78400576e-01 -1.08877476e-02 -1.99880138e-01 -3.57994698e-02 +3.54336381e-01 -2.27900058e-01 -1.33109421e-01 +1.56870335e-01 +8.09909329e-02 -1.85005367e-01 -4.33022261e-01 +1.43705681e-01 -1.73062220e-01 +1.26729421e-02 -2.09899321e-01 +1.25994340e-01 -1.27830073e-01 +2.98332483e-01 -2.35527694e-01 +1.36653051e-01 +4.26321596e-01 -2.97212660e-01 -7.86274225e-02 +1.48396447e-01 +2.67526686e-01 -1.65791973e-01 -1.55754521e-01 +2.94677645e-01 -1.79910526e-01 -9.98335108e-02 -3.75581421e-02 +2.93107573e-02 -3.73526514e-01 -9.22394618e-02 -8.47212151e-02 -1.46965850e-02 +7.36203715e-02 -8.35557431e-02 +2.54667886e-02 +1.90520972e-01 +2.79231787e-01 +2.24936500e-01 +5.15112579e-01 +1.51077867e-01 +3.93137820e-02 -3.14758331e-01 -4.18490022e-01 -1.26047786e-02 -2.41881967e-01 -2.61990726e-01 +8.88511315e-02 +1.49578601e-01 +5.10138571e-02 -2.68267214e-01 +2.31495753e-01 -2.87542809e-02 +6.61560953e-01 +5.20902611e-02 -2.22963601e-01 -3.54400456e-01 -1.36094868e-01 +1.32917419e-01 +6.98665753e-02 -2.24120039e-02 +5.42277098e-01 -1.37984067e-01 +1.01500526e-01 -1.53449764e-02 +1.68094948e-01 +3.52637738e-01 -8.37855041e-02 -2.19114050e-01 -4.23692197e-01 +5.77607229e-02 +6.74694926e-02 +2.37152234e-01 -4.45445359e-01 -5.50598130e-02 +1.58300459e-01 -2.32687861e-01 -2.47504249e-01 +2.81817824e-01 -3.90304327e-01 +3.00124317e-01 -3.89163792e-01 -8.88429880e-02 -5.47331311e-02 +1.54350236e-01 +2.89388932e-02 -1.60293039e-02 +9.19743553e-02 +1.41195223e-01 +2.71585882e-01 +4.30222042e-02 +4.40797120e-01 +9.72663760e-02 +2.41250455e-01 +4.79198024e-02 -2.87110750e-02 -1.74105838e-01 -3.13706011e-01 +1.13269035e-02 -3.75846326e-01 -5.00221670e-01 -4.73003685e-01 +2.40794480e-01 -1.11571901e-01 -5.19253552e-01 +1.78425416e-01 +2.34978229e-01 +2.02515170e-01 -8.50874633e-02 +4.55120772e-01 +6.59140229e-01 -3.09048980e-01 +2.46985108e-01 +3.53346348e-01 +2.47323200e-01 +4.37900089e-02 +4.13591146e-01 +3.01524431e-01 -2.85785973e-01 -1.18375570e-02 +4.18098420e-01 +5.36543906e-01 +5.16989045e-02 -6.24426425e-01 -2.43634265e-02 -1.63905695e-01 -2.01092064e-01 -4.31109825e-03 +5.08393571e-02 -1.26827106e-01 -7.99710527e-02 +5.05779684e-01 -4.22783978e-02 +4.64086048e-02 -1.71426371e-01 +4.11311567e-01 -4.73553985e-02 +4.90997642e-01 +2.10977435e-01 -8.03863555e-02 -4.35210727e-02 +5.89652836e-01 +7.72702843e-02 +1.97378814e-01 -5.80121838e-02 +2.42778093e-01 +9.81028825e-02 -8.96170363e-02 +1.16980270e-01 -4.23024237e-01 -1.99804664e-01 -3.73036027e-01 -6.92103505e-02 -1.17395438e-01 +5.43341279e-01 +2.96878129e-01 +7.71516003e-03 +3.74120533e-01 -2.67524540e-01 -1.44151971e-01 +1.34823412e-01 -1.50067210e-01 +2.17532054e-01 -2.03996256e-01 -4.25584376e-01 -5.12061357e-01 -2.62424618e-01 -3.14246863e-01 -9.23866406e-02 -1.68591529e-01 +2.09942102e-01 +1.30327344e-01 +1.70907583e-02 +1.49015442e-01 +1.85174495e-01 -3.13499689e-01 +3.10015529e-01 -9.69612449e-02 +2.74227083e-01 -2.10134193e-01 -4.27910984e-01 +5.39670773e-02 -2.83547103e-01 -2.74573684e-01 +6.16452545e-02 +2.22708248e-02 +8.79803374e-02 -5.14773667e-01 -2.10554346e-01 -5.03786147e-01 -4.04524505e-01 -8.40751976e-02 +3.19220752e-01 +3.22192092e-04 +4.32251059e-02 +2.79241800e-01 -3.58553410e-01 +2.40760252e-01 -2.48856142e-01 +1.39611274e-01 -2.94839382e-01 +1.52347967e-01 +4.92302775e-01 +1.56934381e-01 -1.92920983e-01 +1.16042420e-01 +2.87639946e-01 -4.50843990e-01 +1.31169170e-01 +1.47768542e-01 -1.49537772e-01 -1.80963740e-01 -1.57134727e-01 -1.61652282e-01 +1.71299577e-01 -1.57943994e-01 -1.19061351e-01 +2.22994238e-02 -4.26428393e-03 +3.62219661e-01 +2.27615371e-01 +6.98323920e-02 +6.86157286e-01 +1.92269504e-01 -4.38496798e-01 -4.84681465e-02 +1.29761651e-01 -1.93367809e-01 -1.56927034e-01 +3.00528910e-02 +7.02115595e-02 +3.27765830e-02 +8.12043995e-02 +6.25628591e-01 +1.17539754e-02 +4.64980543e-01 +5.72379768e-01 -6.90227700e-03 +4.84841138e-01 -6.94373697e-02 +1.38443902e-01 +3.60919625e-01 +3.21607813e-02 -9.63951647e-02 +3.38730484e-01 -1.48493186e-01 +1.04312345e-01 +3.88289154e-01 +6.20170645e-02 +5.67531884e-01 +1.31747186e-01 -4.64094207e-02 -2.81274855e-01 -3.81700873e-01 -2.78166652e-01 +2.53073692e-01 -6.72670640e-03 -2.92852372e-01 +2.47577801e-02 -3.22849937e-02 +1.52443901e-01 -1.48431033e-01 -1.50717929e-01 -2.41440415e-01 +7.90177956e-02 +1.03063330e-01 +2.85670701e-02 -1.97887883e-01 -5.86203337e-01 +3.91978547e-02 -3.26024055e-01 +2.83250630e-01 -4.65562880e-01 -4.91377443e-01 +2.62086749e-01 +7.23604783e-02 -1.14235096e-01 -1.68261647e-01 -2.58018851e-01 -3.62903848e-02 -3.04871589e-01 -5.85844330e-02 -1.23727553e-01 -2.94331461e-01 +1.30048811e-01 -3.68496299e-01 -9.70461592e-02 +4.33983982e-01 -3.93965930e-01 +9.55369994e-02 -5.56192622e-02 -4.24979962e-02 +2.37676129e-03 -1.49498537e-01 +2.28255782e-02 +5.48946038e-02 -4.99733895e-01 -1.74238846e-01 -4.48009282e-01 -2.55477637e-01 -2.06823468e-01 -6.80184066e-02 -6.43075168e-01 -1.35758117e-01 +1.59704313e-01 -5.57550907e-01 -1.28669709e-01 -3.78422588e-01 +1.38723031e-02 +2.70156860e-01 -3.20413977e-01 -9.93492380e-02 +1.33872762e-01 -2.58048564e-01 +2.76245713e-01 +4.97099817e-01 +2.24155277e-01 +5.01738667e-01 +3.50856543e-01 +3.32086831e-01 +2.66607672e-01 -4.38202530e-01 -7.51446486e-02 -2.75108457e-01 +2.28382945e-01 +5.76388650e-02 -3.58952284e-01 -5.51740289e-01 -4.62466508e-01 +2.13405222e-01 -2.14892447e-01 -1.59394786e-01 +1.61211938e-01 +2.89115459e-01 -1.68356329e-01 -3.17408323e-01 +9.20088217e-03 -2.50761807e-01 -1.57798365e-01 -1.98869333e-01 +2.98424959e-01 +5.26787281e-01 +3.88735235e-01 -1.70397267e-01 -5.11246562e-01 +2.55677879e-01 -2.79712230e-01 -9.17225257e-02 -1.08601518e-01 -3.81947309e-01 +5.47948964e-02 -2.72104204e-01 +2.32969314e-01 -1.91942766e-01 -2.89152175e-01 -2.90719151e-01 +7.30350539e-02 +1.93605900e-01 -2.79062986e-01 +2.09199399e-01 -3.00408602e-01 +7.76251480e-02 +1.20366633e-01 -2.34242514e-01 -2.50561118e-01 +9.80497748e-02 +2.65380710e-01 -1.63497347e-02 +2.59581089e-01 -2.57106692e-01 -1.68274671e-01 +2.01916397e-01 +1.00232460e-01 +6.13907754e-01 +4.28576618e-01 +1.71528518e-01 -1.48341238e-01 +2.39976376e-01 +1.27069905e-01 +3.16864282e-01 +3.85403372e-02 +3.07490230e-01 +9.86205041e-02 +1.43813267e-01 -1.61380291e-01 +3.41586381e-01 +6.81123435e-02 -1.46940872e-01 -1.60757616e-01 -3.21870536e-01 +1.79314315e-01 +1.37173772e-01 -4.25902784e-01 +8.58740807e-02 +3.02018851e-01 +3.39624912e-01 +8.57290402e-02 -1.10240690e-02 -4.18346435e-01 -1.33807972e-01 -4.75335449e-01 -4.75155115e-01 +2.65511781e-01 +2.25288458e-02 -1.31222129e-01 -4.78806300e-03 +7.55092651e-02 -1.66342735e-01 -1.29444614e-01 -4.66386616e-01 +3.45573485e-01 +2.60031164e-01 +2.31846228e-01 +2.89106339e-01 -4.03236419e-01 -2.58412305e-02 -3.41489732e-01 -1.74424887e-01 -3.62930626e-01 +5.43803722e-03 -2.55030751e-01 -2.55995214e-01 -1.45128235e-01 +3.43881458e-01 -1.56144723e-01 +5.81983149e-01 +3.58042657e-01 +4.62434262e-01 +1.78876802e-01 +7.88676441e-02 -2.87665380e-03 +1.36599317e-02 -2.69944817e-01 -2.94046372e-01 +2.96961725e-01 -3.22908938e-01 -2.93681145e-01 +4.19408143e-01 +2.38959864e-01 -5.77415293e-03 -6.13879599e-02 +4.33892965e-01 +2.93829858e-01 -2.19628975e-01 +1.11225694e-01 +4.85341698e-05 +3.39407176e-01 -1.88261166e-01 +3.45297366e-01 -5.29087186e-01 -8.59415084e-02 +3.37971121e-01 +3.06404848e-02 -2.44449735e-01 +2.24339649e-01 -1.27347201e-01 -3.27962548e-01 +1.73239782e-01 -3.18957567e-02 -9.64100286e-02 +2.85008047e-02 -4.75359242e-03 +1.60751283e-01 +3.01794022e-01 +3.14010918e-01 -2.10580155e-01 -1.44457653e-01 +8.50965455e-02 +2.84481887e-02 +1.55038431e-01 +3.63134682e-01 -1.44623265e-01 +1.25882149e-01 +1.08869910e-01 +1.07489815e-02 +1.28990784e-01 +4.46515083e-02 -7.03713819e-02 +3.56881142e-01 +2.68339515e-01 +1.92934349e-01 +2.24589542e-01 -7.79723050e-03 +4.88374799e-01 +3.46662372e-01 +2.98350096e-01 +3.23150247e-01 +1.23736382e-01 -1.96642503e-01 +9.55031365e-02 -1.53846845e-01 +7.53795654e-02 +1.91018894e-01 -4.44313228e-01 -8.98998156e-02 +1.35859385e-01 +1.07852370e-01 +1.50303068e-02 -4.66741323e-01 +5.81263125e-01 +3.50734621e-01 +2.58506656e-01 -2.52613813e-01 -2.77143121e-01 -3.00566882e-01 +2.00707138e-01 +7.79890120e-02 -1.03073269e-01 +3.65244180e-01 +5.39309442e-01 -9.93251503e-02 -2.82852381e-01 -2.90784329e-01 -1.75598234e-01 -8.00968781e-02 -1.91520508e-02 -8.61215219e-02 -2.40253657e-01 -5.50178401e-02 +4.24592078e-01 +3.85877071e-03 -2.83856899e-01 +5.20128846e-01 -4.28630471e-01 +2.43225291e-01 +2.01148763e-01 -9.73327756e-02 -8.05293173e-02 +3.66008550e-01 -7.03333765e-02 +1.72172233e-01 -4.12019610e-01 +3.93641382e-01 -3.38194758e-01 -1.08755365e-01 +8.76982808e-02 -7.00346753e-02 +2.73931652e-01 +5.09307802e-01 +9.44350939e-03 +3.07367027e-01 +3.54969323e-01 +2.55042166e-01 -3.77336323e-01 +2.93501347e-01 +2.94393301e-02 +3.24287750e-02 +1.39581487e-01 +4.68711197e-01 -1.93162020e-02 +1.24711439e-01 -2.98449010e-01 +7.54617248e-03 +4.43626583e-01 +3.52510810e-01 +7.23507106e-02 +9.24417302e-02 +4.98821229e-01 -1.47064347e-02 +1.42751589e-01 -4.91324030e-02 -8.76877755e-02 +5.16360939e-01 -4.83818859e-01 +4.38749641e-01 -3.01730424e-01 +2.78846681e-01 -1.24233432e-01 -2.71105677e-01 -1.07897893e-02 +2.97281891e-01 -2.64118999e-01 -2.23952055e-01 -2.79725611e-01 +2.73818254e-01 -6.64155856e-02 +1.08104318e-01 +1.95518523e-01 +1.24086887e-01 +2.53348976e-01 -2.51382053e-01 +3.03217471e-01 -2.46044308e-01 -2.08909944e-01 -3.40887606e-01 +5.65593362e-01 -3.01528156e-01 +2.05477595e-01 +1.51806653e-01 -2.93023735e-01 +2.85622835e-01 -9.98531133e-02 -1.59251213e-01 -3.59966278e-01 +1.90589011e-01 +1.39095545e-01 -1.05503492e-01 -1.91460356e-01 -1.30011991e-01 +1.53847933e-01 +2.43933886e-01 -4.21118736e-01 +1.99596122e-01 -2.25689318e-02 +4.16117340e-01 +1.33152843e-01 -1.35027081e-01 +3.97776604e-01 +4.79458906e-02 -1.39230341e-01 +6.74347878e-02 +2.17051074e-01 +1.13624036e-01 -1.53427199e-01 -1.16906308e-01 +3.84985834e-01 +5.54946586e-02 -2.78226435e-02 -5.48837841e-01 -3.15849841e-01 +4.52910930e-01 +2.66414374e-01 -1.84399188e-01 -7.05575570e-02 +1.50964573e-01 -1.79196015e-01 -1.47835046e-01 +3.21015567e-01 -4.54578012e-01 -1.47846257e-02 +9.89382863e-02 +5.28097868e-01 +2.80394912e-01 -4.18224484e-01 -5.29597521e-01 -2.59811997e-01 -8.02480355e-02 -4.60365355e-01 -2.14254662e-01 +3.64086688e-01 +2.61565626e-01 +9.20140073e-02 -1.69705316e-01 -1.85576752e-01 -2.29585335e-01 -1.21198736e-01 -1.80045977e-01 +1.73536196e-01 -9.09925327e-02 -1.99193224e-01 -2.76690394e-01 +3.63156766e-01 +1.98767170e-01 -1.19143665e-01 +4.55105871e-01 -3.88961464e-01 +1.19454198e-01 +2.74885178e-01 +2.43697137e-01 +2.31062680e-01 +3.28734368e-02 -4.68433827e-01 +7.54163787e-02 -3.70917678e-01 +4.23257291e-01 -4.90629151e-02 -2.78218657e-01 +8.34508613e-02 -1.25149295e-01 +2.14075640e-01 -1.68178156e-01 +1.10542461e-01 -2.97556426e-02 +2.17396483e-01 -4.33043987e-02 -1.67180210e-01 +2.80092001e-01 -1.95488706e-01 -6.13384470e-02 +2.85503358e-01 +2.49604955e-01 +2.68076181e-01 +2.51553446e-01 -1.51548922e-01 +7.91843683e-02 -5.23501217e-01 +2.99672395e-01 -1.11942895e-01 +2.60815650e-01 +3.92449409e-01 +3.12614262e-01 +1.00768909e-01 +1.62895277e-01 -2.76280463e-01 +8.03070664e-02 +7.63870329e-02 -1.82880238e-01 -9.55779850e-02 -4.39275764e-02 -3.59123498e-01 +7.16358200e-02 -2.18340158e-01 -5.09878516e-01 +6.53021857e-02 -3.35690290e-01 +2.50795782e-01 +1.40847012e-01 +4.50670347e-02 +5.18701598e-02 -7.72579163e-02 +1.81159258e-01 -1.31799921e-01 +3.80183280e-01 +1.61512643e-01 +2.01049726e-02 +1.97162092e-01 -4.30220515e-01 -3.60089362e-01 -1.38164327e-01 +2.56702751e-01 -3.92547190e-01 -1.35769486e-01 -4.22778815e-01 -4.94232386e-01 -2.45539397e-01 +5.07504493e-02 +9.06859934e-02 +5.26543260e-01 -8.85726139e-02 +2.25742608e-01 -1.30221754e-01 -4.42209356e-02 -4.62927334e-02 -3.31722856e-01 -1.33371592e-01 +7.97154158e-02 +3.46955299e-01 -3.29052389e-01 -4.59531844e-02 -1.08201317e-01 +1.42324204e-03 -1.41241074e-01 -2.91297793e-01 +4.47936893e-01 -2.34350890e-01 +3.57541621e-01 +5.17055631e-01 +1.52317081e-02 -6.93686306e-02 +2.42331654e-01 +5.04653566e-02 +2.37117246e-01 +1.22536384e-01 +1.20031431e-01 -1.08841017e-01 -6.78836033e-02 +3.93577665e-03 -3.19690377e-01 +4.74148452e-01 +9.43389535e-02 -1.33278325e-01 +6.69134915e-01 +9.95807275e-02 +1.97086185e-01 +2.95188189e-01 +2.67745368e-02 -6.04832135e-02 +3.89085680e-01 +4.90895361e-02 -2.60672867e-01 +1.88825622e-01 +2.23455042e-01 +2.12717488e-01 +2.45607212e-01 +4.22933608e-01 +3.84372659e-02 -1.25648409e-01 -4.14568931e-01 -9.76245925e-02 -7.13552162e-02 -8.43942724e-03 -2.90041119e-02 -4.24336255e-01 -1.65346608e-01 -2.10823640e-01 -3.46370488e-01 +3.72915953e-01 +9.91441011e-02 -2.44112149e-01 -4.06187363e-02 -1.82379782e-01 -4.59036291e-01 -3.17012407e-02 -4.69805986e-01 -9.80142802e-02 -3.29469502e-01 -9.40855816e-02 -5.37155904e-02 -6.55773044e-01 +4.57876951e-01 +1.57732859e-01 -3.13945025e-01 +1.34278759e-01 -8.42844769e-02 -9.25343782e-02 +2.01962724e-01 -6.74770176e-02 -6.38715029e-02 +2.62927506e-02 -7.06493855e-01 -5.64120770e-01 -3.46171021e-01 -4.35828418e-01 -5.15350282e-01 -2.12034836e-01 +1.95136070e-01 -4.29740638e-01 -2.66180277e-01 -2.24536762e-01 -1.81672558e-01 -5.12973964e-01 -8.75527561e-02 -1.62860647e-01 -1.58261374e-01 -2.32676744e-01 -4.17174399e-02 -2.02513650e-01 +1.23685487e-01 +7.19630346e-02 +3.64983641e-02 +1.21695712e-01 -1.82315707e-01 -1.19057447e-02 -4.81147677e-01 +2.13300437e-01 +3.94551814e-01 +1.97352469e-01 +3.01288128e-01 -5.95895112e-01 -7.61945009e-01 +1.60993949e-01 +6.88783452e-02 -8.39723647e-02 +3.32055628e-01 -2.50294894e-01 +1.91622958e-01 -1.84549958e-01 +2.03856304e-01 -2.34768003e-01 +2.26457089e-01 +2.74581820e-01 -3.15364093e-01 -3.46040726e-02 +3.59716624e-01 -3.63212645e-01 -1.43483117e-01 +1.51498467e-01 -3.74057025e-01 +2.21197885e-02 -1.86174482e-01 -4.27831039e-02 -6.53403848e-02 +2.99093146e-02 -1.23246670e-01 +4.37035263e-02 +2.46811762e-01 +2.47913729e-02 -1.63366571e-01 -1.74076542e-01 +1.12615593e-01 -3.15527707e-01 -1.95332795e-01 +3.66854280e-01 -1.35955334e-01 -3.89114358e-02 -4.97215427e-02 -4.63328391e-01 -2.11815789e-01 +8.67645741e-02 -1.10048577e-01 -3.87587935e-01 -2.66889483e-01 +2.31828928e-01 -3.06128323e-01 -5.14509618e-01 -3.10468575e-04 -3.04998010e-01 -2.85632461e-01 -2.73882478e-01 -3.18405956e-01 -3.05900007e-01 -2.77780265e-01 +4.83101383e-02 +1.47253554e-02 +8.31849128e-03 -3.62909287e-01 -2.19038427e-01 +1.56511106e-02 +3.11672717e-01 -4.81063463e-02 -1.48401797e-01 -1.08482495e-01 +4.19843942e-02 -5.06155305e-02 +3.89903516e-01 -9.03104693e-02 +3.02549034e-01 -2.48753536e-03 -3.41321319e-01 -1.75358877e-02 +1.51614621e-01 +1.60895139e-01 -2.45621294e-01 -2.71861494e-01 -3.86410594e-01 -1.79687515e-01 -2.53858864e-01 -5.22989687e-03 +2.71591663e-01 +5.29546440e-01 -6.77202269e-02 -3.25585186e-01 +2.84896106e-01 -3.28030944e-01 -2.97422439e-01 -2.71817595e-01 -1.15362808e-01 -3.66148911e-02 +1.38726115e-01 -3.88046801e-01 -3.65706772e-01 -9.11778361e-02 -5.20154834e-01 -3.87693971e-01 +4.85229380e-02 +1.00857325e-01 -8.14565271e-02 -1.25030369e-01 +3.03795457e-01 +2.39451289e-01 -6.93476014e-03 -3.10154229e-01 +2.86009312e-01 -4.73408699e-01 -1.20630274e-02 +2.88352430e-01 +8.81952643e-02 -1.67647302e-01 -1.15681002e-02 +1.51879072e-01 +1.72336251e-01 +6.44606411e-01 +2.66358387e-02 +1.58643112e-01 -3.44921321e-01 +1.27956465e-01 -1.31112412e-01 +2.90957838e-01 -9.18698311e-02 +4.71656211e-02 +4.00402933e-01 -3.83603871e-02 +1.62506461e-01 +2.15518802e-01 +3.67798388e-01 -2.70225137e-01 +2.34838143e-01 +7.83526823e-02 +5.47190681e-02 +7.03631639e-02 +5.61660826e-02 +1.23730361e-01 -3.61577142e-03 -1.32739440e-01 +2.19043210e-01 +1.97583642e-02 +1.42067015e-01 -2.71796554e-01 -9.77478698e-02 -2.14507002e-02 -6.67031631e-02 -8.92214552e-02 +3.64575714e-01 +6.06369197e-01 -3.77934501e-02 +3.99445325e-01 -1.73345581e-01 -2.46901706e-01 +3.75401616e-01 -5.88131659e-02 -8.63992497e-02 -3.40502933e-02 -8.55423883e-02 +1.24883413e-01 -2.56582320e-01 +2.89533347e-01 +9.36179310e-02 +2.15452343e-01 +4.55427676e-01 +3.67952466e-01 +3.22445631e-02 -5.43586947e-02 -3.38250160e-01 -1.46098897e-01 -1.12470835e-01 +6.52699992e-02 +3.34471732e-01 +4.83416244e-02 -4.13437873e-01 -5.12972921e-02 +1.96942657e-01 +1.59097288e-03 -9.27411020e-03 -7.31974328e-03 +3.58130455e-01 +2.22671598e-01 -1.21177822e-01 +1.98282480e-01 +3.11188519e-01 -2.67976195e-01 +1.43432379e-01 +4.41761643e-01 +7.37152770e-02 -2.65921712e-01 -3.63215268e-01 -1.54232040e-01 +2.82425165e-01 -5.04950166e-01 -3.37326191e-02 +1.70740690e-02 +3.88705343e-01 +3.45229745e-01 +3.03152829e-01 -2.26750836e-01 -1.05516590e-01 +2.22826719e-01 -2.06552476e-01 +3.19006085e-01 +1.27996430e-01 -2.53401726e-01 +3.34043615e-02 +1.35371998e-01 -1.90256074e-01 -3.58989745e-01 -2.29996294e-01 -4.71891224e-01 -4.23110723e-01 -4.74347532e-01 -4.44454074e-01 +4.11848217e-01 +1.74974591e-01 -2.11777657e-01 +2.78414655e-02 -3.16514820e-01 +1.74620263e-02 +1.38317734e-01 -2.30469018e-01 -3.40281010e-01 +5.27885929e-02 -4.08441275e-01 -3.55730861e-01 -6.46131337e-02 -2.70455241e-01 -1.41070470e-01 -1.67920336e-01 +7.94461444e-02 -3.51032495e-01 +6.75935019e-03 -1.20235272e-01 +2.56592661e-01 +1.36544675e-01 -2.17584014e-01 +1.21479660e-01 +2.59233594e-01 +1.92379981e-01 -2.06583813e-01 +1.86719134e-01 -3.82778674e-01 +5.23664579e-02 +1.38387635e-01 +1.38354376e-02 -1.05237469e-01 -4.85881157e-02 -3.49366665e-01 +3.66482854e-01 -1.47726983e-01 -4.75304544e-01 +3.56533051e-01 -2.96449304e-01 -2.99354702e-01 +4.35220078e-02 +2.01612294e-01 -9.14202780e-02 +3.35568070e-01 -2.74346352e-01 -2.26514265e-01 +5.44419475e-02 -5.51310033e-02 +1.36549726e-01 -4.27498259e-02 +3.55672911e-02 -2.29242474e-01 +6.40687793e-02 -2.50540048e-01 -2.25169539e-01 +2.30689690e-01 -2.85549730e-01 +1.15958070e-02 +3.49177927e-01 -3.49643022e-01 -2.94251777e-02 -4.11790162e-01 +4.92619500e-02 -4.25687909e-01 +4.79495406e-01 +3.80892664e-01 +6.11996604e-03 +1.13070384e-01 +2.00131074e-01 -1.71181038e-01 +2.44692750e-02 +4.44977134e-02 -1.20069034e-01 +1.69965386e-01 -4.13721055e-02 -2.98968643e-01 +1.01277173e-01 +3.19618374e-01 -6.63415119e-02 -1.49210379e-01 +3.37818980e-01 +1.18910059e-01 +2.51767635e-01 +4.18503173e-02 -2.46714219e-01 +1.86447844e-01 +5.57165071e-02 +7.72169828e-02 -1.11581288e-01 -1.18471615e-01 -2.59653535e-02 -3.37988526e-01 -4.89304543e-01 +2.06625894e-01 -6.06259517e-02 -2.38815937e-02 +2.20683534e-02 +1.91977732e-02 -3.16262662e-01 -5.68176843e-02 -3.90345216e-01 +5.43184802e-02 +2.37727419e-01 -2.20470607e-01 -2.48221338e-01 +1.54195353e-01 -1.88447505e-01 +3.03977638e-01 +1.13546811e-01 -5.08144438e-01 -4.35360581e-01 +5.27571559e-01 +4.87896532e-01 -4.58119176e-02 -2.13336181e-02 +3.70187126e-02 +5.29571950e-01 +8.35882127e-02 -3.53756435e-02 +2.16636315e-01 -1.70149475e-01 +1.99805275e-01 +3.19305986e-01 +1.20008677e-01 -1.58903658e-01 +2.55495489e-01 +3.36695947e-02 +6.02186024e-01 +2.19743624e-01 -2.10623920e-01 -1.12215623e-01 -5.22876978e-01 -5.08466735e-02 -4.94391799e-01 +6.07936792e-02 -3.23403507e-01 +3.52811009e-01 +1.02422476e-01 +2.14545608e-01 -3.91027242e-01 -1.62200816e-02 -1.91609561e-01 -3.35975438e-01 -2.08975717e-01 +1.50494650e-01 +1.98256165e-01 +6.40192106e-02 +4.46678162e-01 +6.73494875e-01 -6.09624028e-01 +3.43576550e-01 +6.02944568e-02 +4.45540436e-02 -5.62755354e-02 +6.44385517e-01 -2.88463622e-01 +1.96871758e-01 +1.59729823e-01 -2.37160191e-01 +3.72986466e-01 +3.16324830e-01 +2.46029913e-01 +3.01126689e-01 +1.31579071e-01 -2.17708960e-01 -1.22794129e-01 -8.07606652e-02 +1.38322383e-01 -2.07966372e-01 +5.12159988e-02 -3.76530409e-01 +2.52272338e-01 -1.97822731e-02 +3.90562207e-01 -6.37112483e-02 -1.57094166e-01 -1.07413922e-02 -1.60724446e-02 +2.51886725e-01 +2.73893118e-01 +1.06195033e-01 -3.04965168e-01 +1.93235815e-01 +3.20200562e-01 -2.45689511e-01 +2.98912749e-02 +1.73518881e-01 +1.17631800e-01 -4.54742797e-02 -2.91957092e-02 -8.69621187e-02 -1.19698897e-01 -1.84160203e-01 +1.57058492e-01 +1.31261386e-02 -1.23604938e-01 -2.19771545e-03 +1.85189351e-01 -7.26433322e-02 +1.36841051e-02 +1.79818571e-01 +1.64639741e-01 +6.16804883e-02 +3.63101400e-02 -2.78140940e-02 +2.52874494e-01 -3.43032479e-01 +1.70395285e-01 -1.19421974e-01 +3.56528103e-01 -4.75708442e-03 +3.93391103e-01 +2.53345907e-01 -3.27341497e-01 -2.29258269e-01 +3.76240283e-01 -1.14852255e-02 -2.38245115e-01 +1.67604372e-01 +5.34984916e-02 -2.03795075e-01 -3.14435422e-01 +3.45195144e-01 +1.83845252e-01 +9.34873223e-02 +9.15331095e-02 +3.05457771e-01 -1.85804039e-01 -4.98228312e-01 +1.48883298e-01 -1.34337336e-01 +1.79792225e-01 +1.00445434e-01 -1.18851937e-01 -3.46437603e-01 +2.52992302e-01 -1.41751096e-01 +4.48941290e-01 -6.45251721e-02 +3.22358519e-01 +1.74852852e-02 +2.56929815e-01 +2.22733632e-01 +6.67413920e-02 +2.70682693e-01 -1.70612126e-03 -6.11649118e-02 +1.23565033e-01 -1.17471464e-01 +1.76239014e-01 +3.34586263e-01 +1.28251567e-01 -3.08925569e-01 -4.49484996e-02 -3.41235816e-01 -7.60807320e-02 -2.38066316e-01 -4.48548585e-01 +4.81451303e-02 -2.71572173e-01 -2.60469615e-01 -2.01547286e-03 +1.00422852e-01 +4.20605503e-02 -1.28544658e-01 -3.09186608e-01 -2.22549513e-01 -4.04899806e-01 -4.29996243e-03 -1.13903746e-01 -5.00718839e-02 -2.20973864e-01 -4.95502055e-02 -4.42925453e-01 -3.55853766e-01 -3.57566914e-03 +5.89419566e-02 -5.81482388e-02 -4.50314470e-02 -5.45249842e-02 -2.99910933e-01 -6.52969599e-01 -2.66697615e-01 +3.22212242e-02 -4.16412443e-01 -5.32347262e-01 +1.09832115e-01 -6.04285955e-01 -2.97339797e-01 +1.11608624e-01 +1.30186677e-01 +1.29963905e-01 -3.61350626e-01 -2.07090229e-01 -3.11015606e-01 +1.96860090e-01 +3.58077362e-02 -2.90203597e-02 -3.35524902e-02 -8.60283803e-03 -3.50334942e-01 +5.93362004e-02 -2.25464299e-01 +9.54702422e-02 
#Parameter# /UniLSTMSeqTransducer.597432e9/_1 {64,16} 16385 ZERO_GRAD
-7.15722665e-02 +3.85121346e-01 -2.45545328e-01 -2.71965116e-02 +2.00341083e-03 +3.03488731e-01 -2.89023489e-01 -1.40172556e-01 -2.99343377e-01 +1.31278843e-01 +3.09394538e-01 +8.89614001e-02 -2.21374512e-01 -2.28650764e-01 -1.28587792e-02 +8.37874264e-02 +1.69634640e-01 +6.99216202e-02 -1.18792437e-01 +3.91105622e-01 -4.28772449e-01 +1.12023436e-01 -8.09205249e-02 -1.65635750e-01 -9.22767594e-02 +2.74908580e-02 -2.82853413e-02 -1.73403397e-01 +1.19135715e-02 +2.53245026e-01 +2.47179538e-01 -9.19084549e-02 -3.19841981e-01 +3.61933917e-01 -1.61990866e-01 +5.35988212e-01 +3.60940725e-01 -4.21371132e-01 -2.45520204e-01 -1.90496668e-01 -9.75226313e-02 +4.83857095e-01 +2.42017582e-01 -6.12413883e-02 +4.66128320e-01 +1.36887029e-01 -3.67936999e-01 +2.33480543e-01 +2.43100345e-01 -5.13908379e-02 -1.34402916e-01 +1.17579825e-01 -5.03624678e-02 -3.03011835e-01 +2.60305367e-02 +1.66438073e-01 -2.98916787e-01 -1.13963298e-01 +2.14530349e-01 -3.58931839e-01 +3.20979655e-01 +3.94942850e-01 -5.48279099e-02 +3.79860938e-01 +1.56147450e-01 +2.74298698e-01 -2.70899832e-01 -4.53983337e-01 +9.60653573e-02 -3.36485356e-01 -2.32562914e-01 +2.07558751e-01 -3.58502299e-01 -2.62148798e-01 +3.37203406e-02 +6.79561049e-02 +1.68496996e-01 -4.53490794e-01 +1.06245711e-01 -3.05191457e-01 -2.02427775e-01 -3.38481754e-01 -1.59135967e-01 -5.96922636e-01 +2.15930790e-01 +2.50643939e-01 +2.32948571e-01 -1.73035085e-01 -2.88823336e-01 +1.68446094e-01 +1.48460537e-01 +4.19888556e-01 +3.74883175e-01 +1.39751732e-01 +3.46626937e-01 +2.37674773e-01 -2.42854178e-01 -1.05796412e-01 -1.14591792e-01 -3.11191946e-01 -3.23808134e-01 -9.34642479e-02 +1.16583787e-01 +1.08688712e-01 +1.19333528e-01 +1.71964273e-01 -1.64928380e-03 -4.95659299e-02 +4.19528812e-01 +3.25501740e-01 +8.36415589e-02 -2.67022938e-01 -3.24408948e-01 -1.92981020e-01 -2.39309326e-01 +3.74398418e-02 +4.51602936e-01 -3.93353105e-02 +1.99248806e-01 +2.92980611e-01 +2.84449190e-01 -1.24961719e-01 +3.82408381e-01 +1.99120343e-01 +2.79215127e-01 +3.10273379e-01 -1.41444892e-01 -2.83944577e-01 -1.00053072e-01 -1.56937167e-01 -9.19433460e-02 +1.88862130e-01 -1.42723978e-01 -1.33124366e-01 -5.15029940e-04 -1.24441437e-01 +3.58625650e-02 +7.82320648e-03 -2.09715128e-01 +1.07510068e-01 -2.27242976e-01 +5.26752844e-02 -1.58816129e-01 -3.43502879e-01 -1.40389085e-01 -4.42898311e-02 -2.47747630e-01 +4.79966439e-02 +2.50640243e-01 +3.83822769e-01 -1.62626162e-01 +7.00664073e-02 +2.15153590e-01 +6.68345466e-02 -2.80099157e-02 +2.72224844e-01 +2.90156692e-01 +3.92751396e-01 -1.18899465e-01 -1.10811844e-01 -1.60828128e-01 +2.79832631e-01 -4.17982668e-01 -2.99540699e-01 -3.29893440e-01 -3.49788219e-02 -1.69821158e-01 -3.34881008e-01 -1.60372481e-01 +1.24707446e-01 +1.81030616e-01 -2.77243435e-01 +1.68358013e-01 -1.70941591e-01 +3.59083086e-01 -3.91378969e-01 -2.98615415e-02 -9.97159816e-03 +3.27527374e-01 +3.81395221e-01 -7.56559195e-03 -8.89532939e-02 +2.95383304e-01 -2.99216539e-01 +1.60824552e-01 +9.10694420e-04 +1.37603223e-01 +3.25773694e-02 -2.83888966e-01 -2.36173749e-01 -3.88940096e-01 +7.91829675e-02 -2.48396136e-02 +8.23634118e-02 -3.86906058e-01 -1.97215751e-01 -2.36990511e-01 +1.43273041e-01 -5.71839511e-03 +4.83506352e-01 -1.12788089e-01 -1.26498595e-01 +1.70677021e-01 -2.71518618e-01 +2.21082672e-01 -3.25564444e-01 +1.45835295e-01 +3.56706858e-01 +2.37982810e-01 +4.24073070e-01 -2.53900409e-01 +8.17152187e-02 -1.49338290e-01 +2.04394996e-01 +8.65573734e-02 -3.20595592e-01 -4.03487206e-01 +2.45692655e-01 +1.85604557e-01 +2.40911826e-01 +4.80037153e-01 +2.66764283e-01 -4.20879960e-01 -7.85187185e-02 -2.54424185e-01 -6.76712021e-02 +1.53643545e-02 +1.23746574e-01 +1.84700787e-01 +5.08353487e-03 +1.25557810e-01 +1.58206865e-01 -2.98227936e-01 +4.04847682e-01 +1.64018944e-01 -1.86863780e-01 +4.77933109e-01 +2.34741613e-01 -1.93736225e-01 -3.54095548e-01 -2.87179768e-01 +4.36431706e-01 +1.91975087e-01 +3.05716455e-01 +2.03387141e-01 +3.59562665e-01 -1.67403549e-01 -1.95539564e-01 -1.93158045e-01 -3.79959843e-03 -5.59026301e-02 +6.27806187e-02 +1.84698656e-01 +3.14906865e-01 -4.37657773e-01 -1.86202407e-01 -4.62096892e-02 +2.80531496e-01 -1.34187952e-01 +2.67181933e-01 -2.25133970e-01 -1.77863285e-01 -4.28245813e-02 +2.88401484e-01 -4.11661044e-02 +5.03800958e-02 -3.10794026e-01 +3.41946602e-01 +2.31509268e-01 +1.26181036e-01 -3.24713767e-01 +1.07813455e-01 -1.77474901e-01 +2.49271736e-01 -5.35110384e-02 +5.65775447e-02 +3.65182221e-01 +4.08797950e-01 -8.23309943e-02 +1.89373657e-01 +3.43217790e-01 -2.64835767e-02 -3.16152275e-01 +3.66151303e-01 +1.48599267e-01 +1.72218621e-01 +2.32709628e-02 -3.04468185e-01 +1.44675635e-02 -1.75185904e-01 -3.19980592e-01 -4.38923657e-01 -5.01288116e-01 -4.20696646e-01 -2.72706389e-01 +1.87250525e-01 -3.38501245e-01 +9.01270583e-02 -1.46449119e-01 +2.88857222e-01 -2.69294411e-01 +2.71329165e-01 -3.82830240e-02 -2.27185920e-01 +2.06253931e-01 +2.69367158e-01 +2.75889695e-01 +1.15942158e-01 +4.32601631e-01 +4.49586749e-01 +2.22384036e-01 +4.26048301e-02 +1.85346693e-01 +2.20232651e-01 -2.51002491e-01 -4.02302265e-01 -3.12439352e-01 -2.76405036e-01 -1.09854825e-01 -1.25156388e-01 +3.24050248e-01 -5.20970635e-02 -3.39273661e-02 -3.78522128e-01 -2.45673954e-01 -9.18779820e-02 -4.29157197e-01 +3.99138667e-02 -3.39849353e-01 +1.94217395e-02 +3.84092629e-01 +7.68509731e-02 -3.66224229e-01 -1.39793992e-01 -1.32524893e-01 -4.02127713e-01 +2.53219247e-01 +4.64856513e-02 -3.18582386e-01 -1.18068680e-01 -5.03687300e-02 -5.90448007e-02 -9.76767987e-02 +4.16240431e-02 -1.38082489e-01 +9.22488198e-02 -5.72698787e-02 -2.86205709e-01 +3.11735749e-01 -2.40104541e-01 -4.80494261e-01 -5.76673090e-01 -3.65464061e-01 +3.48707974e-01 +1.90758422e-01 -2.45557010e-01 -1.94422960e-01 +1.12355001e-01 -1.83626860e-01 -3.78020316e-01 +2.94808924e-01 -4.12755972e-03 +2.36766830e-01 -4.41930771e-01 +2.31026232e-01 -9.35625359e-02 +3.80155236e-01 +3.29967260e-01 +3.36071938e-01 +1.88738808e-01 -1.01503022e-01 -2.72202939e-01 -2.52626687e-01 +4.54011671e-02 +1.46614298e-01 -5.32067120e-01 +3.11106414e-01 +3.74507725e-01 +3.08636248e-01 +2.10741207e-01 -3.53657722e-01 +2.36899629e-01 -2.46031750e-02 -1.74692243e-01 +1.06756299e-04 -4.21988852e-02 -8.46510753e-02 +1.33231834e-01 +2.56110638e-01 +3.35081778e-02 -4.40488547e-01 -1.35241777e-01 -7.61734545e-02 +2.33075507e-02 +3.39215130e-01 -2.07613289e-01 +1.42618433e-01 +4.68148142e-02 -1.39959613e-02 +1.28432855e-01 +1.23000488e-01 -1.29195496e-01 +1.29242599e-01 -4.69024815e-02 +1.84714466e-01 +1.31272301e-02 -4.48734537e-02 +1.28792077e-01 -4.25070137e-01 +7.34475255e-02 -2.20795900e-01 +1.71280816e-01 +2.41129965e-01 +2.24787489e-01 -1.02138877e-01 -1.88562304e-01 +2.11228598e-02 +1.57669991e-01 +3.06940019e-01 -8.92561823e-02 +1.01808347e-01 -2.99503475e-01 -1.80119812e-01 -1.42436400e-01 -3.82262349e-01 -1.97548583e-01 -4.98397388e-02 +1.87347978e-01 +1.32303283e-01 +4.56915163e-02 +3.25974941e-01 -3.24662365e-02 +2.99295276e-01 +3.86804380e-02 +2.21181333e-01 -1.12143673e-01 +1.67885229e-01 +1.83592319e-01 +3.25174659e-01 -4.39162314e-01 +3.58845383e-01 +7.33720837e-03 +2.44731288e-02 +3.77645269e-02 -6.07886240e-02 -2.94395536e-01 -1.97123379e-01 -1.47545010e-01 +1.73698869e-02 -2.71688282e-01 -1.15160942e-01 -3.46261024e-01 +4.40186977e-01 +1.70019969e-01 +3.07878643e-01 +4.56750959e-01 -1.23180985e-01 +3.61587226e-01 +1.76881671e-01 -2.29769513e-01 +3.03210467e-01 -1.01465479e-01 +2.57254089e-03 -5.02212010e-02 -2.15936750e-01 -3.22527960e-02 -2.76146859e-01 +1.33334354e-01 +2.42619701e-02 +1.79764852e-01 +7.59999380e-02 -1.15590282e-01 -2.13960484e-01 -1.16193697e-01 -2.44891346e-02 -1.50685370e-01 +7.41038322e-02 -3.48642081e-01 +3.30531061e-01 +1.00659125e-01 -1.36588156e-01 +5.78643866e-02 +3.02920222e-01 +2.94309288e-01 -1.34210527e-01 +1.60412267e-01 +3.59099984e-01 +1.13066316e-01 +1.91826612e-01 -8.94239247e-02 -4.39450592e-01 +1.52156606e-01 +1.24438211e-01 +3.34346026e-01 +1.37943149e-01 -2.46561393e-01 +8.17401260e-02 +4.81255688e-02 -4.67588864e-02 -2.51391768e-01 -1.07136711e-01 +1.70116022e-01 -3.61120731e-01 +2.27128789e-01 -1.69593960e-01 -9.16609019e-02 -1.58344254e-01 -2.18228146e-01 -1.14279009e-01 +6.08884208e-02 +3.11662227e-01 -1.82626098e-01 -1.65289149e-01 +2.25967523e-02 +1.59717366e-01 -9.21773240e-02 -1.43962026e-01 +3.77890974e-01 -3.79172146e-01 -2.32863724e-01 -3.23815614e-01 +9.23511907e-02 +4.21717912e-01 -3.70845020e-01 -1.29864171e-01 -3.00367117e-01 +1.54901331e-03 +2.18167663e-01 -3.79317135e-01 +2.06785262e-01 -2.44424239e-01 -1.60376415e-01 -4.62191820e-01 +1.81522556e-02 -1.69158623e-01 +3.16886693e-01 +1.86279416e-01 -1.80874184e-01 +7.81041533e-02 -3.37870158e-02 -6.70138150e-02 +7.27051927e-04 -2.58928150e-01 -3.30646098e-01 +2.52241731e-01 +1.94266930e-01 -6.57579750e-02 -1.52341276e-01 +1.53380066e-01 -2.88937658e-01 -4.11285013e-01 -5.59061989e-02 -3.95514488e-01 -1.46734312e-01 +2.40723453e-02 -1.23356730e-01 +8.42345804e-02 +4.61281128e-02 +2.52357274e-01 +2.97940761e-01 +3.25509101e-01 +3.84383053e-01 +5.64746074e-02 +7.22152144e-02 -2.84088552e-01 +4.49478924e-02 -2.68329331e-03 -4.37977314e-01 +3.56873810e-01 +2.09323987e-01 +4.39947098e-01 +1.18217997e-01 -6.49608970e-02 +3.68896633e-01 -4.47583318e-01 -7.18839616e-02 +3.70486498e-01 -1.46702662e-01 -8.09023529e-02 +4.90712464e-01 -1.63875923e-01 -6.06299564e-02 -1.65779293e-01 +3.35715264e-01 -4.85630602e-01 +1.27431244e-01 +1.76621333e-01 +1.07479483e-01 +9.48179960e-02 -1.47260815e-01 -2.35311598e-01 +4.59104538e-01 -1.95034936e-01 -5.24761565e-02 +3.98478955e-01 +1.00137785e-01 -2.09723935e-01 +2.82660276e-01 -1.64720953e-01 -4.02935922e-01 +1.66575700e-01 -1.15565449e-01 -9.50948298e-02 +2.23459065e-01 -4.47475463e-01 +1.59213275e-01 +1.58931520e-02 -4.67153192e-01 -5.20917438e-02 -4.57527488e-01 -1.31747127e-01 +1.30529344e-01 -4.06548828e-01 +2.88827658e-01 -1.62881166e-01 -4.08476651e-01 -7.02144578e-02 +2.09584445e-01 +2.24148318e-01 -2.06649199e-01 -3.89926285e-01 -4.35484052e-01 -9.80839059e-02 -3.04210931e-01 +7.51224905e-03 -1.51526406e-01 +2.34210938e-01 -1.24321148e-01 +2.70473480e-01 +1.64148092e-01 -1.39077127e-01 -5.32456577e-01 +3.13832983e-02 -2.06781432e-01 +4.12585020e-01 +3.32734942e-01 -3.84620577e-01 -2.35420197e-01 -2.20049426e-01 +3.20428669e-01 -2.66650338e-02 -1.15412027e-01 +2.11107478e-01 +1.34896189e-01 -2.36585289e-01 -2.85273701e-01 -1.96932346e-01 -4.89120595e-02 -1.22003797e-02 -4.20826077e-01 -1.08995169e-01 +2.42640927e-01 -3.79584491e-01 +1.79927751e-01 +1.40452430e-01 +1.41724721e-01 +3.15491587e-01 +1.38346627e-01 +1.11926578e-01 +1.52673781e-01 -2.70097703e-01 +3.26673985e-01 -3.89992088e-01 -3.95974398e-01 -3.62636924e-01 +3.37869495e-01 -4.27095354e-01 -8.67805537e-03 +2.31172261e-03 +2.51957685e-01 -3.92540932e-01 -4.73996967e-01 -4.23456132e-01 -2.24417686e-01 -1.11392690e-02 -7.45820403e-02 +5.64894080e-02 -2.89636761e-01 -3.55144739e-01 -3.12738627e-01 -5.50914109e-01 +6.84998482e-02 +1.29243895e-01 +1.84219092e-01 -4.22830641e-01 +2.63125092e-01 -2.95362115e-01 -2.93859035e-01 -9.44357589e-02 -9.26342756e-02 +4.36863482e-01 -2.79341578e-01 +2.59511232e-01 -1.00321705e-02 +2.94381708e-01 -2.28063509e-01 -1.24273643e-01 -1.23498135e-03 -8.88596177e-02 +2.79023141e-01 -1.02529554e-02 -6.81551844e-02 -3.72039437e-01 -1.84388608e-01 -8.11673850e-02 -1.39509648e-01 -3.00017178e-01 -9.48649868e-02 -2.04296693e-01 +2.84216195e-01 -2.36704558e-01 +3.92218828e-02 +1.82547346e-01 -2.54988614e-02 -3.92707735e-01 -2.87329525e-01 -1.90899745e-01 -5.18318899e-02 -3.04722726e-01 +2.65821368e-01 -2.92875499e-01 +9.07702595e-02 +2.71853149e-01 -8.17443877e-02 +2.45292768e-01 -1.01994053e-01 -1.32609189e-01 -9.03646648e-03 +7.01409280e-02 -1.27642110e-01 -4.07179058e-01 -1.13632016e-01 +1.80109814e-01 +1.52432084e-01 -1.10539280e-01 +2.15127364e-01 +3.21159065e-02 -4.55923192e-02 +1.41259745e-01 +1.52486533e-01 -3.24405491e-01 +3.77388448e-01 -2.29770228e-01 -2.50781715e-01 -2.89996505e-01 +3.33021820e-01 +2.62428761e-01 +6.06064945e-02 +1.69849962e-01 -3.13273817e-01 -5.11399023e-02 -4.52294320e-01 -1.34563819e-01 -1.14708558e-01 +3.57753098e-01 +4.84045558e-02 -2.09774330e-01 +1.15611196e-01 +3.47790688e-01 -2.11458594e-01 +4.45482731e-01 +3.41430008e-01 +1.95945174e-01 -2.96376795e-01 -1.31228164e-01 -4.26291525e-01 -1.21263944e-01 +2.42149994e-01 +5.25260195e-02 -2.12218702e-01 -1.09396107e-01 +4.14422184e-01 +9.26943682e-03 -1.47307977e-01 -1.94861993e-01 -3.46841604e-01 -1.85282275e-01 -6.87526911e-02 +1.53245181e-01 -3.60825628e-01 +3.52820307e-01 -2.43527368e-01 +2.41372958e-01 +3.36092651e-01 +1.71979234e-01 -3.02459270e-01 +3.78897220e-01 -2.97853261e-01 +4.60468531e-01 -3.83404978e-02 +1.99742571e-01 +1.69528678e-01 +1.35960340e-01 +3.07426322e-02 -3.20797205e-01 -9.26296264e-02 +4.30364221e-01 +4.90699969e-02 +8.03189501e-02 +8.48913714e-02 -3.43003780e-01 -2.00689197e-01 +1.51364943e-02 -2.51770139e-01 -1.13393992e-01 -8.47446322e-02 +7.52142817e-02 -2.67220348e-01 +2.34234884e-01 +7.68983141e-02 +2.52177209e-01 +3.86057049e-01 +5.16709447e-01 -1.10126100e-01 -1.12472912e-02 +3.20378929e-01 -1.12682648e-01 +2.41647542e-01 -2.16068506e-01 -7.90927783e-02 -9.63479877e-02 -1.34433329e-01 -4.80747342e-01 +4.05309170e-01 -4.49568570e-01 -4.61547315e-01 -3.60050917e-01 -1.04710758e-01 +1.02104716e-01 +6.50411248e-02 +2.98473746e-01 +1.84956528e-02 -2.22394451e-01 -1.40529722e-02 -2.18449771e-01 -3.33095342e-01 +8.13769177e-02 +2.17457786e-02 +3.82520467e-01 +2.01580942e-01 +2.58489907e-01 -1.02209091e-01 +3.57466638e-01 -3.62142682e-01 -2.23172680e-01 -9.26225856e-02 +1.63976550e-01 -4.42540556e-01 -3.38845104e-01 +1.21609583e-01 -2.37503454e-01 -1.93709329e-01 -2.78521776e-01 -1.50522247e-01 +7.56589472e-02 +1.84063345e-01 -6.92050382e-02 +1.05955482e-01 -3.67583007e-01 -5.87198138e-02 +4.50556070e-01 +3.20795290e-02 -1.73693278e-03 -1.90424487e-01 -8.41452852e-02 +2.47419372e-01 -1.00938775e-01 +1.45556420e-01 +3.34262162e-01 -1.86203629e-01 -2.02560857e-01 -1.19094057e-02 +9.41033512e-02 -1.30419597e-01 +2.30419844e-01 -1.25618756e-01 +2.86321163e-01 -1.71529397e-01 +4.25072581e-01 -8.97188187e-02 -7.67177343e-02 -1.22118413e-01 +2.75204796e-02 -1.36657476e-01 +3.93717811e-02 -3.53608102e-01 -3.63087878e-02 -3.04636687e-01 -1.87645823e-01 -4.22127604e-01 -4.37244743e-01 +4.36678268e-02 +5.10947220e-02 -1.39851972e-01 +2.42249921e-01 -1.38896359e-02 -9.68789682e-02 -2.80350316e-02 +2.91203037e-02 +2.55180150e-01 -2.56881475e-01 +4.14651781e-02 +8.79412815e-02 +4.22399908e-01 +1.03818372e-01 -3.24960887e-01 +3.73418629e-01 -2.42244750e-01 +1.46019787e-01 -9.25958753e-02 -5.64848073e-02 -2.28090256e-01 -1.96085259e-01 +2.39448443e-01 +3.66795272e-01 +4.23252016e-01 +1.66337162e-01 -1.56738341e-01 +4.93261963e-01 -1.12713138e-02 +2.21561313e-01 -4.85513397e-02 +4.24700044e-02 +5.27695656e-01 -1.94591150e-01 +3.10736030e-01 +2.77656376e-01 +2.43692443e-01 +4.09358777e-02 +3.35083008e-01 -1.60618909e-02 +2.83062071e-01 -1.95390195e-01 +4.54371661e-01 +2.39945948e-01 +1.25348391e-02 -1.69815451e-01 +3.45487535e-01 -1.12650119e-01 +3.01212609e-01 -2.58034885e-01 +4.11083877e-01 -3.07529896e-01 +2.69870222e-01 -8.98219179e-03 +1.49031878e-01 -1.13593608e-01 -2.21960217e-01 -1.70455486e-01 -2.66727269e-01 -1.44767612e-01 +8.54611769e-03 -4.53192055e-01 -4.69004095e-01 +3.66554409e-02 +3.00328612e-01 -2.53259629e-01 +2.13020593e-01 +2.69629478e-01 -1.24586627e-01 -2.53501702e-02 +3.55576158e-01 -4.85654175e-02 +3.56443763e-01 -2.38985270e-01 -1.28668442e-01 -5.15621841e-01 -1.59038737e-01 +2.55048312e-02 +1.27457425e-01 +1.14703000e-01 -1.82881609e-01 +4.04463708e-02 -4.36998695e-01 +1.23413168e-01 +1.64180338e-01 +1.58284649e-01 -1.91772833e-01 +9.66217443e-02 +2.46845052e-01 +2.64597237e-01 +6.19176254e-02 +1.75609455e-01 -1.65054396e-01 -2.83108521e-02 -3.02679151e-01 +3.44586223e-01 +1.56231523e-01 +1.70835957e-01 -5.45270965e-02 +6.07657656e-02 -7.24980831e-02 -9.41756815e-02 -2.39254370e-01 +2.09867314e-01 +1.73247352e-01 -1.37701064e-01 +3.32190454e-01 -3.02523404e-01 -5.24023533e-01 +1.73521399e-01 +5.24190906e-03 +3.15211624e-01 -4.01389062e-01 -1.49260178e-01 +4.57740650e-02 +8.01860392e-02 -3.11212242e-01 +5.83402365e-02 -2.01840982e-01 -1.41518682e-01 -1.66395143e-01 -2.48996377e-01 +2.59288460e-01 +2.44161546e-01 -3.27887505e-01 -2.77082622e-01 +1.70081869e-01 -1.90403715e-01 -1.03020743e-01 +1.57825768e-01 -3.96159552e-02 -3.14094335e-01 +2.44871885e-01 
#Parameter# /UniLSTMSeqTransducer.597432e9/_2 {64} 1025 ZERO_GRAD
+1.64086998e-01 +3.73984464e-02 +1.42786130e-01 +1.62860677e-01 +2.05421716e-01 +1.10537872e-01 +1.14917845e-01 +1.83020994e-01 -2.47622952e-02 +1.30088225e-01 +1.46393090e-01 +5.20498119e-02 +9.77704823e-02 +1.31347224e-01 +2.08706647e-01 +1.25665456e-01 +1.71187855e-02 +9.98255685e-02 +1.84021726e-01 +2.51544863e-01 +1.86383337e-01 +7.28519261e-02 +1.14766240e-01 +1.67936578e-01 +2.08554566e-02 +1.22848079e-01 +2.07631022e-01 +1.38272032e-01 +5.59027791e-02 +5.32385483e-02 +2.23018616e-01 +2.40894079e-01 +1.12628698e-01 +1.66768879e-01 +3.98546308e-02 +9.13827345e-02 +1.78146958e-01 +1.22008935e-01 +1.41378194e-01 +2.08949000e-01 +4.06490974e-02 +3.53960097e-02 +1.18033066e-01 +1.20137222e-01 +1.04426831e-01 +1.08506896e-01 +3.07345912e-02 +1.14089713e-01 +8.41285139e-02 -4.35054824e-02 -1.40003935e-01 -5.26522174e-02 -5.37573211e-02 -1.54169291e-01 -9.93239656e-02 +2.25528717e-01 -6.25423640e-02 -1.57715648e-01 -2.70265222e-01 -1.34341121e-01 +1.45779416e-01 +6.04475290e-02 +1.95843443e-01 -8.17167980e-04 
