#Parameter# /AuxNonLinear.63afb176/_0 {32,64} 32769 ZERO_GRAD
+4.08945233e-01 -4.20785040e-01 +8.82584751e-02 +3.89007509e-01 +2.55012326e-02 -3.54345202e-01 +6.53092742e-01 +2.22108990e-01 +5.82177520e-01 -1.38649449e-01 -2.31694788e-01 +3.77292871e-01 -5.18844724e-02 -3.05898666e-01 +1.53370202e-01 +1.35786965e-01 +2.23907351e-01 -4.44177061e-01 +2.30643347e-01 -7.76018798e-02 +3.15911263e-01 +2.78332114e-01 -2.22588465e-01 -1.56058282e-01 -4.24354047e-01 +2.73910493e-01 -3.95585150e-02 +3.10158253e-01 +4.37661290e-01 +2.05864966e-01 +4.91342902e-01 -2.03168541e-01 +3.83410633e-01 -4.42881197e-01 +6.58654124e-02 -1.22388572e-01 +6.87906086e-01 -2.44146869e-01 +7.49088347e-01 -2.72233188e-01 +6.50844634e-01 -4.82929289e-01 +2.23476201e-01 +1.86349735e-01 +1.42302021e-01 -3.31711978e-01 +3.04850191e-01 +7.91537836e-02 -5.44197075e-02 -3.83129030e-01 -3.37266296e-01 -1.49919344e-02 +6.67741001e-01 +2.44868904e-01 +2.09560648e-01 -2.53097743e-01 +2.77542621e-01 +1.03613690e-01 -7.00175762e-01 -1.20631240e-01 +2.31537938e-01 +8.40584785e-02 +6.16211474e-01 +1.26551196e-01 +6.43743455e-01 +1.27237037e-01 +1.00857973e-01 +6.18186891e-01 -2.40577579e-01 +6.87682271e-01 +4.72005755e-02 -2.56769657e-01 -4.34915215e-01 +7.01059163e-01 +3.22569370e-01 +4.99225035e-02 -6.91665336e-02 +2.99560040e-01 +5.40423989e-02 +5.06501973e-01 -5.47167957e-01 +2.92044312e-01 +3.39059442e-01 -1.96333751e-01 +1.95106968e-01 +3.75447541e-01 -3.43465507e-02 +2.68143386e-01 +6.38961613e-01 +5.52910745e-01 +1.21791542e-01 -1.99392974e-01 -2.50927716e-01 +7.27718621e-02 +5.22033751e-01 +6.81260824e-01 +6.10168576e-01 +2.88554192e-01 +2.00404167e-01 +5.61743081e-01 -3.23930740e-01 +7.03163087e-01 -2.51380116e-01 -4.53264803e-01 +4.71928507e-01 -1.23504341e-01 +6.96773410e-01 +3.20941538e-01 -1.54944792e-01 -7.22066164e-01 -6.35100961e-01 +1.11567348e-01 -3.24202418e-01 -9.34318751e-02 +2.08434895e-01 -4.92217213e-01 +9.66681123e-01 -2.31078267e-02 +1.36593387e-01 +2.03213505e-02 -1.18056372e-01 +5.15897274e-01 -6.00093424e-01 -9.23868537e-01 +3.40647608e-01 +4.42442626e-01 +1.45193040e-01 +4.50926632e-01 +7.50957072e-01 -2.69888252e-01 -1.28151953e-01 -5.84620059e-01 +5.47239244e-01 +5.44090867e-02 +4.08571452e-01 +3.63934040e-01 -1.22435674e-01 -1.51383370e-01 -3.03563148e-01 +3.71289372e-01 -3.89641267e-03 -5.74152619e-02 -1.87097594e-01 +1.02250554e-01 -4.13541526e-01 -1.11650877e-01 -4.16633338e-01 +5.93397260e-01 -1.52836934e-01 +3.36659312e-01 -2.30580777e-01 -1.37955427e-01 -4.91685897e-01 +5.90066969e-01 -5.22545516e-01 -2.94091366e-02 +1.31451279e-01 +3.93034564e-03 -1.40501499e-01 -2.16366753e-01 +3.05473506e-01 -4.50903296e-01 +7.82778740e-01 -2.71590889e-01 +1.11252233e-01 +4.07487899e-01 +5.15568852e-01 -1.59448311e-01 +9.60191339e-02 -2.36257702e-01 +1.62351698e-01 -5.25174797e-01 +2.58484393e-01 +1.59712717e-01 -4.14021522e-01 +2.18336821e-01 -1.53209552e-01 +3.88249308e-01 -7.52047777e-01 -4.34138834e-01 -4.24289048e-01 -6.20911010e-02 -5.67220271e-01 +1.89068243e-01 +3.33382070e-01 -2.43980289e-01 -2.83366859e-01 -3.08522582e-01 +8.52101222e-02 +5.43935783e-02 -1.43946722e-01 +2.40952656e-01 +2.24088982e-01 -4.18735772e-01 +8.87379825e-01 -6.49220496e-02 -4.69859950e-02 -4.44472969e-01 +1.58080503e-01 -5.73652208e-01 +3.44049960e-01 -1.73003569e-01 +8.04996312e-01 -8.13580513e-01 +6.91144019e-02 +2.91917473e-01 -3.62274915e-01 +5.37043691e-01 -3.61490875e-01 +7.04157591e-01 -4.16926146e-01 -4.77722228e-01 +9.41999350e-03 +3.67448782e-03 -2.27602437e-01 +1.69874519e-01 +2.15700656e-01 -3.57916236e-01 +3.62846106e-02 -3.55281234e-01 -2.57739961e-01 +8.63766313e-01 -6.29365325e-01 +5.93644738e-01 +3.72430772e-01 -4.34263289e-01 +6.19458482e-02 +6.13244355e-01 +5.44378817e-01 +6.70586407e-01 -6.39006421e-02 +1.81229427e-01 -1.23926550e-01 +8.04130673e-01 -4.50124770e-01 +5.52423120e-01 +4.04899150e-01 -4.39644828e-02 +5.48880637e-01 -5.76626599e-01 -4.20196533e-01 -6.15264587e-02 +3.01259428e-01 -1.93578824e-01 +1.77016690e-01 -4.19579476e-01 +5.57792425e-01 -2.61468738e-01 +6.12767898e-02 +3.73653769e-01 -4.08912301e-02 -6.98518455e-01 +3.92091483e-01 -5.00798881e-01 -3.25247109e-01 -2.63008863e-01 +1.98876336e-01 -6.02335513e-01 +1.44577175e-01 -1.34965017e-01 +2.95226246e-01 +5.22571743e-01 +6.78297102e-01 -1.54676720e-01 +2.26706028e-01 +5.50660014e-01 -6.36775374e-01 +5.93958199e-01 +1.99418873e-01 -2.96436876e-01 +3.48443657e-01 -1.31919190e-01 +3.54651302e-01 -5.00491440e-01 -1.98454186e-01 -3.96512032e-01 -5.91027915e-01 -2.35447079e-01 -1.83110476e-01 -2.49343410e-01 -2.73179412e-01 +2.79630125e-01 -1.03812747e-01 +3.88332039e-01 +5.10939062e-01 -3.17348421e-01 +1.02255046e-02 -4.45642382e-01 +9.09855440e-02 -8.84598345e-02 +5.04508495e-01 -3.30495477e-01 +5.65374672e-01 +4.36281651e-01 +4.41853136e-01 -3.48904788e-01 -1.16091244e-01 -2.47104652e-02 +1.43553004e-01 -7.03830361e-01 -3.50254089e-01 +4.54099178e-01 -4.67010796e-01 +3.98749828e-01 -1.47453442e-01 +3.52320433e-01 -1.38973728e-01 -6.57197654e-01 -8.53858650e-01 +4.29868232e-03 -4.90161449e-01 +6.55283213e-01 +2.27431849e-01 -5.21315575e-01 -6.15317464e-01 -3.54285717e-01 -7.66958594e-02 +3.49450052e-01 +8.07757914e-01 +5.32899022e-01 -2.60791689e-01 +6.49805486e-01 -3.02510917e-01 -2.43660174e-02 -3.31894234e-02 -1.36780692e-02 +4.31264132e-01 -1.93941355e-01 +6.11078560e-01 -2.37881690e-01 +4.83357191e-01 -1.45281896e-01 -5.73055863e-01 -8.17693293e-01 -7.87581727e-02 +6.80257380e-01 +4.39063907e-01 +3.60931605e-02 -6.04645789e-01 -2.90565133e-01 +4.12604332e-01 -6.55983686e-01 -5.40587008e-01 -1.13284430e-02 -1.87787965e-01 +2.21822321e-01 -2.05526561e-01 -2.46627908e-02 +6.46327794e-01 +1.04068004e-01 +1.10051729e-01 +1.43171042e-01 -5.07021725e-01 +2.90318012e-01 +5.71326390e-02 +3.61909829e-02 +3.51358563e-01 -2.18713619e-02 -1.36519819e-01 +8.29475403e-01 +1.41161993e-01 -1.95524693e-01 -7.70001188e-02 -1.83974616e-02 +5.42437494e-01 +2.64177233e-01 -3.41323316e-01 +5.82528055e-01 +1.90243348e-01 +5.03619373e-01 -6.20220065e-01 +2.43551657e-01 -6.44067585e-01 -2.16783091e-01 -5.49053013e-01 +7.11897969e-01 -1.03887546e+00 +3.69835645e-01 +4.42993850e-01 -2.29153425e-01 +1.56292737e-01 -6.77657247e-01 -1.57024205e-01 -5.21672487e-01 -1.56612396e-01 -2.46901602e-01 -1.20794326e-01 -7.75589719e-02 +4.69029903e-01 -2.78151602e-01 +2.44877696e-01 -4.60378379e-02 +4.82954532e-01 -3.54500949e-01 +2.41198346e-01 -5.26534282e-02 -6.02605402e-01 -1.01231687e-01 +2.15091780e-01 -4.08631295e-01 +1.44341737e-01 -3.20840061e-01 -3.97920497e-02 +4.50651526e-01 -4.14034367e-01 -2.39269331e-01 +1.31181255e-01 +7.18626603e-02 -2.95688987e-01 +6.82851613e-01 -6.15154624e-01 +4.95158195e-01 +3.79909009e-01 -1.57516852e-01 +3.54382277e-01 -2.74175555e-01 -1.39922544e-01 +6.63072526e-01 +3.07407498e-01 +2.90314019e-01 +3.75972331e-01 +4.28624809e-01 +1.59357369e-01 -2.05738127e-01 +6.09048121e-02 +3.41345251e-01 +3.91270846e-01 -4.25313711e-01 -1.77229922e-02 +3.65218639e-01 -2.54429191e-01 +7.54136860e-01 -6.26832664e-01 +7.20386922e-01 +1.61761656e-01 -4.20264065e-01 +4.50290084e-01 +1.64010555e-01 -1.56451330e-01 +1.23218723e-01 +5.88588893e-01 +3.66120249e-01 -5.31463921e-01 -6.27393484e-01 -5.68239331e-01 +6.27332687e-01 +6.92154348e-01 +8.13039392e-02 +5.14136791e-01 -3.71911943e-01 -2.78096884e-01 +4.69067901e-01 +5.91128826e-01 -1.57825649e-01 +6.37116551e-01 +4.70954895e-01 +9.98308063e-02 +2.03457803e-01 -5.12858406e-02 +6.29826248e-01 +3.48471195e-01 +1.38019115e-01 -8.74620210e-03 -4.13542122e-01 +4.08510625e-01 -7.84833133e-01 +8.00564587e-02 +5.98446354e-02 +2.12212503e-01 -6.38947248e-01 +2.17607230e-01 -6.26423210e-02 -2.34895349e-01 +6.00521207e-01 -6.19573057e-01 -2.52198517e-01 +5.74409604e-01 +1.60246670e-01 +3.17318082e-01 -4.68826920e-01 +6.03453815e-02 +1.19341321e-01 +1.02636568e-01 +2.19983369e-01 +4.15083021e-01 +1.40901357e-01 +5.36405921e-01 -4.05990072e-02 +8.26928541e-02 +6.80525482e-01 -4.60211113e-02 +1.96311727e-01 -2.81234890e-01 +4.76870447e-01 +3.32267910e-01 +1.00343838e-01 +3.00088078e-01 -3.21397513e-01 +2.01323569e-01 -2.35728443e-01 -3.55512559e-01 -3.98246258e-01 +3.19113672e-01 -1.51144788e-01 -3.40305805e-01 +5.62216938e-01 -2.29571819e-01 -1.32112339e-01 +8.33240822e-02 +2.74906486e-01 +4.38396633e-01 -5.75901382e-02 -6.21564269e-01 -3.52194309e-02 +4.78088528e-01 +2.58107800e-02 +2.43050992e-01 +8.10091734e-01 -4.38220710e-01 -3.88469160e-01 -4.56391841e-01 +8.05508137e-01 +4.40384656e-01 +2.01042414e-01 -5.04553378e-01 -1.19101070e-01 -3.32220137e-01 +4.97777879e-01 -1.74112335e-01 +4.23566312e-01 -6.19655907e-01 -8.82907569e-01 -8.16339672e-01 -1.82886142e-02 -1.14713490e-01 +7.38492757e-02 -4.09589745e-02 -4.31175500e-01 +7.38504902e-02 -7.50862002e-01 -1.61716759e-01 -4.78390045e-02 -2.55052954e-01 -1.43920437e-01 +6.84425950e-01 -5.26799709e-02 +7.14495540e-01 +5.63755035e-01 +6.97830260e-01 -6.96270347e-01 -3.25221330e-01 -3.87878835e-01 -6.08996987e-01 +1.41010657e-01 +1.65053383e-01 -5.57630837e-01 +2.57846415e-01 -5.31168818e-01 +1.65506214e-01 +3.05750847e-01 +5.11539102e-01 +3.51249836e-02 -2.00524554e-01 -3.47469568e-01 -2.90092707e-01 -1.89966530e-01 -4.96316075e-01 +5.99593043e-01 -6.24106407e-01 +2.39066139e-01 +5.66495180e-01 -2.23917156e-01 +5.69591820e-01 +2.42311418e-01 -3.01512331e-01 +2.24182457e-01 -7.21606985e-02 +4.19258296e-01 -3.41645777e-01 +3.37880790e-01 +5.40667884e-02 +3.66932154e-01 -6.31082356e-01 +7.43351340e-01 -3.64703923e-01 +5.21366358e-01 +7.98207164e-01 +1.10789515e-01 -2.73986012e-01 +4.33179140e-01 +2.48827443e-01 +2.39919797e-01 -5.77317059e-01 +6.71460211e-01 -4.83765841e-01 -2.99658567e-01 -8.64479899e-01 -4.15850550e-01 -2.53831208e-01 +7.43367672e-01 +7.17150494e-02 +1.92510501e-01 +1.43732443e-01 +3.79351616e-01 -6.42500632e-03 -6.07658505e-01 +6.32398546e-01 +2.62951970e-01 -9.97979566e-02 +2.44286060e-01 +3.00476760e-01 -7.35600233e-01 -3.10848862e-01 -6.10351145e-01 +6.81985319e-01 -3.54219563e-02 +6.20845333e-02 -5.26995540e-01 -2.92691380e-01 -6.81488037e-01 +4.82508630e-01 -1.68599144e-01 -7.32233047e-01 +1.72318459e-01 -3.55377048e-01 +5.18082976e-01 -8.00862312e-01 +4.30957705e-01 +7.73644209e-01 +8.15647542e-01 -7.84161150e-01 +3.43950301e-01 +2.00864717e-01 -4.79171693e-01 +5.69238886e-02 -1.03705831e-01 -1.45280678e-02 +7.04461575e-01 -4.29313570e-01 +4.01845634e-01 -4.32693988e-01 -5.43631315e-01 -5.67620873e-01 -3.56467813e-01 +8.70453492e-02 +2.75391936e-01 +4.72302139e-02 -4.11765009e-01 +4.77953494e-01 -4.04267423e-02 +1.44041255e-01 +4.12912190e-01 -5.15655816e-01 +3.34800899e-01 +5.09680748e-01 -1.12486847e-01 -5.26576698e-01 -1.17479384e-01 +4.52369690e-01 +7.09922493e-01 -6.01819098e-01 -5.59376299e-01 +6.43407345e-01 +5.36358714e-01 -2.25534528e-01 +7.85292804e-01 -4.91996318e-01 +1.92905009e-01 -9.27247629e-02 +3.05847496e-01 -8.90098629e-04 +1.03013322e-01 +4.34952229e-01 -4.08104897e-01 +2.21396714e-01 +6.30455196e-01 -2.80846447e-01 +2.99200922e-01 -4.77654487e-01 -4.59665030e-01 +3.83608848e-01 +3.79164636e-01 +4.91601139e-01 -9.26410854e-02 +3.75363916e-01 -6.08630240e-01 +3.26830119e-01 +1.96481213e-01 -3.16412836e-01 -8.98894966e-02 +8.92201737e-02 +2.16099963e-01 +7.05029489e-03 +1.86177611e-01 +1.27298295e-01 +6.17821336e-01 -4.47558880e-01 +4.95876968e-01 -1.84783503e-01 -5.85401952e-01 +3.62081707e-01 +5.95836997e-01 -4.58173811e-01 +1.93741754e-01 -1.89257309e-01 +7.81845868e-01 -7.24801362e-01 -1.24648370e-01 -6.34476900e-01 -6.05921090e-01 -5.58257364e-02 +3.99255812e-01 +9.67923701e-02 -6.13344610e-01 +6.26123995e-02 -3.24027777e-01 +2.07928736e-02 +5.79286337e-01 -3.46572578e-01 +6.67446196e-01 +1.74993709e-01 -1.42434053e-02 -5.18897593e-01 +4.77086812e-01 +6.51725471e-01 -5.44725657e-01 -2.75274783e-01 -2.73641706e-01 +3.46988887e-01 -3.12793225e-01 +2.39956930e-01 +7.30266690e-01 -2.47236639e-01 +3.81509244e-01 +7.07220137e-01 +4.75744575e-01 +6.07225478e-01 +3.48856151e-01 +1.40105754e-01 +2.85209596e-01 -1.92708254e-01 +1.35591075e-01 -7.38780618e-01 -1.50008053e-01 -6.71674430e-01 +3.38550270e-01 +6.26369476e-01 -2.10971117e-01 +5.63934565e-01 +5.62012076e-01 +3.07772476e-02 +3.45369190e-01 +3.70073974e-01 +4.37208354e-01 +1.37908921e-01 +3.01977426e-01 +1.22551985e-01 -3.08076501e-01 +3.63271505e-01 +5.79716563e-01 -4.19874221e-01 +4.30364907e-01 -1.61474854e-01 -3.99318904e-01 -1.78280145e-01 +6.64890170e-01 +4.76444602e-01 +3.84448469e-01 +1.03014386e+00 -9.25290406e-01 -9.39373374e-01 +4.06836063e-01 +6.86498106e-01 +8.53659391e-01 -4.61064309e-01 -8.66553903e-01 +3.25411201e-01 -2.24600106e-01 +6.87641054e-02 -4.98696556e-03 -5.12556434e-01 -7.48725474e-01 +7.75365710e-01 -4.88493741e-02 -6.54764533e-01 -5.85639417e-01 -6.02047026e-01 +2.75381058e-01 +2.83451557e-01 +2.34910905e-01 +7.22853243e-01 +9.09083903e-01 -2.69823760e-01 +5.54057539e-01 -4.99511570e-01 +2.97236145e-02 +7.56487429e-01 +3.58261317e-01 -5.48969269e-01 +7.72068679e-01 +7.39022374e-01 -3.58057737e-01 +5.52075505e-01 +7.33416021e-01 -8.53924975e-02 -8.86866510e-01 -7.29756176e-01 +1.20292775e-01 -6.18803799e-01 +7.24897087e-02 +6.12356625e-02 +7.36949891e-02 +5.87930739e-01 +2.47796386e-01 +4.99504864e-01 +6.21504635e-02 -1.17892690e-01 -5.25241718e-02 -5.28198779e-01 +1.40555277e-01 +7.30757833e-01 +4.28886533e-01 -3.65810037e-01 +7.89108694e-01 -2.16407359e-01 +2.65893996e-01 +6.55827045e-01 -2.84598544e-02 -3.44082832e-01 +7.45167673e-01 -7.39465117e-01 -3.25840153e-02 -3.50458503e-01 -3.86460125e-01 +2.37047346e-03 +1.36550456e-01 +4.72940952e-01 -2.54187405e-01 -3.68130535e-01 +4.13049102e-01 -3.76760840e-01 +2.71760613e-01 -2.94033617e-01 +7.29016587e-02 +4.18600947e-01 -2.19138533e-01 +1.22966520e-01 -6.31356001e-01 -7.25117698e-02 +4.19233069e-02 -1.18154123e-01 -3.34047616e-01 -3.26646656e-01 -3.21555018e-01 +4.10304725e-01 -3.14270139e-01 -3.41053270e-02 -4.42847371e-01 +4.83040102e-02 +3.14219236e-01 -1.45468622e-01 -5.23364805e-02 -7.46023893e-01 -2.34303936e-01 +3.14974129e-01 -2.81634390e-01 +3.42126340e-01 +6.97064519e-01 -2.68052965e-01 +2.45383486e-01 -4.51061487e-01 -4.16206509e-01 -1.97470233e-01 +6.56745434e-01 +7.10291862e-01 +5.47628440e-02 +2.77925998e-01 -3.98674697e-01 +2.31495604e-01 -4.12776977e-01 +5.99114239e-01 +1.74724177e-01 +6.32394552e-01 -6.95444405e-01 +4.87890005e-01 -5.75018406e-01 +7.02398062e-01 +3.77359450e-01 +2.90091753e-01 +3.88706535e-01 +4.78286922e-01 -5.53819656e-01 -3.91106635e-01 +2.57970721e-01 +2.27689937e-01 +1.52441651e-01 +2.86603034e-01 +1.38730943e-01 +2.81370074e-01 +8.44274580e-01 +1.23553991e-01 -1.73478648e-01 -8.04467052e-02 -2.39221185e-01 -6.47705197e-01 +7.64185429e-01 +4.60824996e-01 -8.37650970e-02 +9.24574435e-01 +2.64222115e-01 +1.44073427e-01 +3.08113426e-01 +1.55547932e-01 +5.17420769e-01 -4.05815005e-01 -8.45576520e-04 -2.31627211e-01 +2.31486812e-01 -6.29264534e-01 +3.74785811e-03 +7.61884004e-02 +5.52621841e-01 +1.01193026e-01 -1.10686347e-01 +6.20968267e-02 +2.01244429e-01 +5.08506298e-01 +5.12935042e-01 -4.02913511e-01 -4.22631800e-01 +5.70871122e-02 +2.51866788e-01 +3.96863252e-01 +4.48194534e-01 +2.04924762e-01 +3.58211070e-01 +1.68460310e-01 +4.11478095e-02 -5.77096820e-01 +5.31216264e-01 +5.39201081e-01 +1.30779848e-01 +2.19346121e-01 +2.80128065e-02 -6.00190520e-01 -7.14697018e-02 +7.33645558e-02 -6.63110763e-02 -4.08120304e-01 +5.49273610e-01 +7.42997304e-02 +1.37412667e-01 +3.71580273e-01 +1.28145725e-01 +2.48992473e-01 -6.18590772e-01 +3.61213923e-01 -2.40161374e-01 -5.32281935e-01 -1.05792575e-01 -3.10777932e-01 -1.80205435e-01 -3.87563050e-01 +2.23298311e-01 +3.64636749e-01 -7.17371762e-01 -2.80104168e-02 +6.52099073e-01 +6.82724714e-02 -2.60725647e-01 +2.22687379e-01 +7.98651278e-01 +4.78890300e-01 +5.50303578e-01 +6.36901975e-01 -2.58829035e-02 +4.60715443e-01 -7.27680981e-01 +3.37065935e-01 +5.22367001e-01 -3.29578638e-01 -4.54656571e-01 +5.74822426e-02 -9.19351075e-03 -4.30598468e-01 +1.81441054e-01 +2.11628422e-01 +7.85841793e-02 +3.13975543e-01 -6.41022861e-01 +3.08726460e-01 -4.66450602e-01 +4.50214624e-01 -1.07750699e-01 -1.54506177e-01 +3.97518337e-01 +8.03165555e-01 +8.72054994e-02 +6.22086644e-01 -6.34492487e-02 +6.85065091e-01 +2.13704348e-01 +5.18384039e-01 +8.59955400e-02 -6.90928921e-02 -4.09703821e-01 -1.13618426e-01 +3.28854173e-01 +2.80677557e-01 -2.67282903e-01 +1.97502673e-02 +3.62230927e-01 +8.27138722e-02 +1.67509735e-01 +6.45488262e-01 -2.32126832e-01 +9.93553475e-02 +7.03224361e-01 -6.93937540e-01 -1.99723840e-01 +9.46448743e-01 +3.39841574e-01 +3.32980715e-02 +2.48705149e-01 -1.92221165e-01 +7.13448301e-02 -7.60554895e-03 +2.04601720e-01 +9.03200544e-03 +7.69193694e-02 -1.14009351e-01 -9.49951187e-02 +1.36209592e-01 +3.22600573e-01 +6.41985610e-02 -2.41104543e-01 -2.56710798e-01 +2.75191128e-01 -5.77646792e-02 -5.36714077e-01 -1.87802278e-02 +6.82366863e-02 +5.22919118e-01 -1.16509967e-01 -9.90220085e-02 -4.29367349e-02 -1.29549578e-01 -4.91679043e-01 +6.47329867e-01 -5.66833377e-01 -1.10799752e-01 +2.18220890e-01 -2.64424771e-01 +3.99485111e-01 +9.78608951e-02 -4.03151363e-02 -6.04099333e-02 -4.64948446e-01 +1.33357599e-01 -1.45163134e-01 +5.55168211e-01 +1.35925382e-01 -8.93968865e-02 +1.53508902e-01 -5.27978182e-01 -4.29168433e-01 -4.17379439e-01 -1.06164120e-01 -3.31870392e-02 -7.08610937e-02 -5.31551421e-01 +2.23982081e-01 -1.90017253e-01 -1.28001273e-01 -3.49363178e-01 -2.29974799e-02 +1.78652242e-01 -6.21598721e-01 +2.05418840e-01 +2.49480866e-02 -2.89665014e-01 +2.02789068e-01 +3.77110600e-01 +5.28039634e-01 +1.28811330e-01 -5.17038107e-01 +1.74710914e-01 -2.05398425e-02 -2.20156074e-01 -1.61901638e-01 +1.22644305e-01 -3.31562683e-02 -2.51027942e-02 +1.03640884e-01 -1.14799298e-01 -2.08503976e-01 +2.25759670e-01 -3.30986351e-01 -9.44949687e-02 -1.09954961e-01 -1.29857525e-01 -2.11563990e-01 -1.54306307e-01 -5.71615435e-02 -2.85635293e-01 +1.21034771e-01 -4.23899263e-01 +7.99680278e-02 +2.63785392e-01 -4.60413434e-02 +1.53452093e-02 +7.63638061e-04 -1.85872838e-01 +8.69899392e-02 -2.22130477e-01 +3.39665920e-01 +1.77868947e-01 -2.81039536e-01 +3.09288092e-02 -1.29658625e-01 -4.65828300e-01 -5.09480238e-01 +7.69228041e-02 -3.50066334e-01 +1.66611493e-01 +2.69492734e-02 +1.80718914e-01 +2.86535114e-01 -3.26125920e-01 -4.55712587e-01 -3.79613400e-01 -3.38217288e-01 -8.46856758e-02 -1.71150953e-01 -1.69156343e-01 +1.21747173e-01 -3.26998115e-01 +2.40162492e-01 -1.87311009e-01 +2.62044638e-01 +1.61304265e-01 +5.97145259e-02 +1.01429373e-01 +3.06706876e-02 -3.01442832e-01 +1.79557845e-01 -8.97339284e-02 +3.67531985e-01 +7.69689679e-02 -1.94356173e-01 -2.59664189e-02 -4.34772283e-01 +1.56895012e-01 -6.19990647e-01 +5.11166692e-01 +1.99567571e-01 +5.95287144e-01 +1.11563422e-01 -3.32294852e-01 -3.98015618e-01 -4.43620652e-01 -4.36009854e-01 -4.48918521e-01 -4.13721085e-01 -5.23502231e-01 -9.48708225e-03 -3.31645817e-01 -3.15027237e-01 -2.96374224e-02 -7.71882609e-02 +5.43843627e-01 -4.70881104e-01 +5.77255748e-02 -4.97100145e-01 -3.64775001e-03 +6.34042844e-02 +4.05689418e-01 -4.59005356e-01 +3.97634000e-01 +6.31754160e-01 -3.81559670e-01 -2.19244495e-01 +2.73001820e-01 -1.57400832e-01 +2.04301000e-01 +3.60710949e-01 +1.85955614e-01 -3.26468572e-02 +5.27533710e-01 +1.66723177e-01 -1.63753048e-01 +1.99104175e-01 +9.44667384e-02 +3.74567717e-01 +1.15128279e-01 -1.16339199e-01 -3.78575832e-01 +1.75850481e-01 +2.42538288e-01 +2.80771613e-01 +3.03177357e-01 +2.16413021e-01 +1.86642364e-01 -1.51432887e-01 -3.12620495e-03 -3.55313957e-01 +3.10089380e-01 +2.43994340e-01 -4.46045280e-01 +2.34080106e-02 -1.47934526e-01 -2.89935410e-01 +5.67526147e-02 -9.20272544e-02 -5.24953241e-03 +1.94207598e-02 +3.58381629e-01 -8.79585966e-02 +1.78026870e-01 +2.79529065e-01 +4.66450378e-02 -1.46283031e-01 -4.18214619e-01 -2.96216249e-01 -1.03947558e-01 +1.98024601e-01 -1.51289850e-01 -3.92445773e-01 -1.70697883e-01 +1.07119478e-01 +3.49520713e-01 -1.70450196e-01 +3.17466646e-01 -1.55887797e-01 +1.26670063e-01 -3.94274414e-01 -2.35641956e-01 -3.01275998e-01 +4.13901567e-01 +4.80922572e-02 +4.25031543e-01 -2.09090233e-01 -5.62200099e-02 +4.38356131e-01 -1.41218096e-01 -7.95801356e-02 +3.61237437e-01 +5.28470846e-03 -8.43666568e-02 +2.50392109e-01 +2.41473272e-01 +3.16149965e-02 -4.01552737e-01 -1.99696571e-01 +5.96685745e-02 +4.50977415e-01 -2.93145955e-01 -1.01293862e-01 +2.87631154e-02 +2.76297033e-01 +4.54636335e-01 -2.28466138e-01 -3.86471152e-01 -2.73171789e-03 +2.33420298e-01 -1.44899979e-01 -4.03229952e-01 -6.95931464e-02 +1.16841525e-01 -3.27125043e-02 -2.88032293e-01 -6.24825135e-02 -9.82057187e-04 +3.86620872e-02 +1.39595166e-01 -2.49689326e-01 +2.44600445e-01 -2.51233190e-01 -3.39318484e-01 -4.60782647e-01 +3.69363278e-01 -4.15782332e-01 +2.62642801e-01 -8.19822922e-02 +2.29532599e-01 +1.58047542e-01 -1.06842481e-01 +1.53944343e-01 -4.15717334e-01 +8.51445347e-02 -4.11381014e-02 -8.95889029e-02 -5.53854033e-02 -2.51379788e-01 -1.97949991e-01 +3.20127308e-01 -2.81766832e-01 -8.20980594e-02 -2.41371557e-01 +2.68619746e-01 -8.83121267e-02 -9.71919522e-02 -8.46362710e-02 +1.99691564e-01 -1.77718520e-01 +3.01268250e-01 -1.25967950e-01 +4.63426799e-01 +4.69778366e-02 -2.60422111e-01 +8.31798166e-02 -2.19110757e-01 +2.58704036e-01 -1.97783023e-01 +3.74085456e-02 +3.95162821e-01 +2.86077738e-01 -2.53601044e-01 -6.34474307e-02 -1.11225411e-01 +2.87553042e-01 +1.09278791e-01 +1.08124167e-01 -1.04207762e-01 +1.13941766e-02 +1.04089834e-01 +2.56639034e-01 +2.94435441e-01 -1.06226012e-01 +2.06326529e-01 +4.18110847e-01 -5.72972834e-01 -2.35331617e-02 -1.44278541e-01 +2.03717679e-01 -2.96842277e-01 +2.29189977e-01 -4.92048830e-01 -1.80654943e-01 +3.01930189e-01 -2.25468978e-01 -1.02718636e-01 -2.85838187e-01 +3.79666895e-01 +7.55582079e-02 -3.21794450e-02 -2.00762856e-03 +1.26882240e-01 +3.16106170e-01 +2.79171705e-01 -1.47445574e-01 -1.36904150e-01 -1.97221875e-01 -3.51972520e-01 -2.64416993e-01 -4.04171348e-01 -4.22841042e-01 +2.01791972e-01 -6.26664143e-04 +3.26410443e-01 -3.42877060e-01 +2.30634615e-01 +2.99535304e-01 +7.64182210e-02 -1.20857418e-01 +1.15089240e-02 -2.15667337e-02 +3.55600506e-01 -2.49290273e-01 +2.73452878e-01 +1.82721347e-01 +4.48445491e-02 +1.28279641e-01 -3.56202796e-02 +3.49213749e-01 +2.75078744e-01 -6.89417496e-03 -4.95018326e-02 -3.96189570e-01 +1.34257749e-01 -2.08371803e-01 +8.36777017e-02 +5.77925444e-02 +6.60597682e-02 +2.23062158e-01 +1.47057533e-01 +2.43835583e-01 +5.76140955e-02 +2.65321791e-01 +8.90325457e-02 +6.08769894e-01 +3.98128957e-01 -7.88637549e-02 +3.65383148e-01 -2.20895886e-01 +3.23343039e-01 -5.33559695e-02 -7.51217678e-02 -2.56389737e-01 +1.99394614e-01 -1.20373122e-01 -8.77456889e-02 -2.61579901e-01 +1.77536737e-02 +1.78266197e-01 -1.83262065e-01 +3.33812051e-02 +2.90505022e-01 -2.79133528e-01 -6.42791688e-02 +2.58681208e-01 -3.86360079e-01 +5.28428406e-02 +1.86815292e-01 +1.06924243e-01 +1.30154788e-02 -3.57478321e-01 -1.99540138e-01 -1.20003764e-02 -1.46400347e-01 -2.60574102e-01 -1.24358773e-01 -1.98400065e-01 -3.53627741e-01 +3.38625237e-02 -4.46607322e-01 +3.13156903e-01 +1.14386953e-01 +2.19930321e-01 -1.73024267e-01 +8.69755819e-02 -2.90749520e-01 +2.00036362e-01 +3.06867622e-03 +2.00156629e-01 -3.79115492e-01 -3.17944139e-01 -2.88194329e-01 +1.67882144e-01 -2.32648894e-01 +5.51272556e-02 -2.48487249e-01 +3.33690375e-01 -3.63569021e-01 -3.20772320e-01 -2.37640694e-01 +3.61056924e-01 +2.72219539e-01 -3.68646681e-01 +1.13132462e-01 +4.21288222e-01 +4.03596938e-01 +2.17650980e-01 -5.04947752e-02 -5.66239476e-01 -5.46075940e-01 -1.95671488e-02 -1.91534549e-01 -4.15933758e-01 +3.16786557e-01 -1.26926020e-01 +7.64668267e-03 +3.03900713e-04 +5.25720976e-03 +4.70061116e-02 -2.23733243e-02 +1.55846119e-01 -2.58876860e-01 -1.31263221e-02 +5.84693253e-02 -2.15949833e-01 -3.44570577e-01 +1.10394239e-01 +1.54386595e-01 -8.88114199e-02 -3.25439513e-01 -3.08892965e-01 +1.21604070e-01 -2.19058674e-02 +1.55768916e-01 +1.59599185e-02 +2.26206496e-01 +1.89586822e-02 +2.82594800e-01 +5.20049214e-01 -1.76339760e-01 +2.83317775e-01 +6.51183128e-02 +1.32909909e-01 +1.22398958e-01 -2.01492190e-01 +4.10034776e-01 +2.11785942e-01 +3.26011121e-01 -2.62892574e-01 +1.37929365e-01 -2.25762859e-01 +2.20398381e-02 +4.60935012e-02 -1.76027268e-01 +3.15612912e-01 -4.79633547e-02 +2.36801524e-02 -1.70629635e-01 +5.87729625e-02 +1.88081395e-02 -2.62453943e-01 +4.75113183e-01 +2.89609700e-01 -3.16777676e-02 -1.00371897e-01 -3.20839435e-01 +6.09969497e-01 +5.52242815e-01 +3.60134870e-01 -1.37720138e-01 +5.29186055e-02 +4.67740804e-01 +3.72200489e-01 +9.74878222e-02 +5.03006518e-01 +5.53623736e-02 +6.35062158e-01 -4.62708116e-01 -5.51884830e-01 +1.67393774e-01 +7.39508346e-02 -3.67075086e-01 +4.79158431e-01 -3.62676680e-01 -5.13424218e-01 -2.57661313e-01 -3.73057097e-01 +6.15790725e-01 -3.45214993e-01 +3.20673198e-01 -7.65633956e-02 -2.27841541e-01 +1.87874034e-01 +2.93883413e-01 +1.71894178e-01 -5.54803200e-02 -6.57693073e-02 +9.92836580e-02 -1.94710225e-01 -7.37382248e-02 -1.89545527e-01 -3.26040238e-01 +3.38428646e-01 -1.40816212e-01 +1.03111276e-02 +5.93310535e-01 +4.83751535e-01 -1.40545398e-01 -1.55110121e-01 -5.25255382e-01 -1.97480157e-01 -1.53871715e-01 -6.63243830e-02 +5.23235798e-02 -3.45697492e-01 +2.44047999e-01 +5.41208744e-01 -1.51303008e-01 +6.92077398e-01 -4.17127371e-01 +2.06613362e-01 +8.68790746e-02 +2.97337193e-02 +1.50092408e-01 +6.59329519e-02 +2.17484862e-01 +1.32836506e-01 +3.46746966e-02 -9.36971754e-02 +3.66269141e-01 +5.31936996e-02 +2.13843659e-02 -2.17039734e-01 +1.39876112e-01 +2.79176474e-01 +1.65691376e-02 +5.70099831e-01 +4.58448261e-01 +4.48932111e-01 -1.44758582e-01 -1.02406360e-01 -6.13047481e-01 -1.48648143e-01 -2.68319219e-01 -2.15031818e-01 +1.71211343e-02 -1.18900359e-01 -1.61052421e-01 +5.14738500e-01 -4.47689772e-01 +2.93168247e-01 +1.56372279e-01 +2.02488482e-01 -6.15404267e-03 +1.20389782e-01 -4.84005600e-01 +2.20811293e-01 -2.33781204e-01 -2.30512321e-01 +1.97660655e-01 +1.57284543e-01 -6.51353374e-02 -1.30847424e-01 -2.12813139e-01 +1.58962607e-01 +1.06617860e-01 +1.01131909e-01 -3.89678255e-02 -4.60793853e-01 -1.85622275e-01 -4.13950592e-01 +1.18843690e-01 -9.04278248e-04 -2.64471956e-02 -5.98318968e-03 +1.16390705e-01 +2.12945119e-01 +3.19765776e-01 -1.18056335e-01 +2.65495121e-01 -1.20041907e-01 +4.11680937e-01 -1.19189424e-02 -9.04990882e-02 +1.65957257e-01 -2.02928662e-01 -4.64671463e-01 +2.79352278e-01 +2.97016233e-01 -2.85057366e-01 +1.92805275e-01 +3.46489213e-02 +6.39723659e-01 +3.10252398e-01 -3.15225065e-01 +2.91315824e-01 -2.33284384e-01 +6.31840453e-02 +7.88051561e-02 -1.00835405e-01 -4.37475234e-01 -2.93084327e-02 -1.29299592e-02 +3.54445249e-01 -2.92323947e-01 +2.65166163e-01 +2.81747520e-01 -1.83347121e-01 +1.18770912e-01 +8.66972581e-02 -4.52965572e-02 -9.27835889e-03 +1.64826125e-01 -3.47658485e-01 +1.99169993e-01 +3.17423731e-01 -1.80356726e-01 -2.44051054e-01 +1.97393894e-01 +6.69035688e-02 +3.80211145e-01 -1.85849339e-01 +2.02067956e-01 +1.01244710e-01 +9.57663059e-02 -8.18470716e-02 -3.06002289e-01 +7.40976911e-03 +3.53168249e-02 -4.42172766e-01 -2.90661156e-01 +3.91930282e-01 -6.67505413e-02 -5.03706574e-01 +1.58611700e-01 -4.69738334e-01 +5.32677293e-01 -1.44755557e-01 +1.19408881e-02 +1.21936224e-01 +3.79427642e-01 -2.27291565e-02 +1.02275185e-01 +6.54164702e-02 -3.35475840e-02 +4.85643260e-02 -1.15993157e-01 +1.05957657e-01 +1.99459672e-01 +5.23312502e-02 +1.27992302e-01 -3.26827973e-01 +1.40636479e-02 +2.35351473e-01 -3.85249823e-01 +1.16209604e-01 -4.55838116e-03 +2.61961013e-01 +8.07272419e-02 +2.04831108e-01 +2.12223753e-01 -3.03923544e-02 +3.92024934e-01 -7.48629123e-02 +3.63379091e-01 +1.28564879e-01 -5.24062198e-03 -2.06655294e-01 -1.20956056e-01 -9.57821235e-02 +1.71386778e-01 +4.88429695e-01 -1.76897332e-01 -1.76144451e-01 +3.53558838e-01 -2.31283739e-01 +6.26638755e-02 +1.43541396e-01 +4.38381225e-01 +4.40718345e-02 -2.98969656e-01 +3.86829814e-03 +3.42635125e-01 +4.70832467e-01 -3.82038832e-01 -2.06660941e-01 -2.84015685e-01 +2.87325144e-01 -1.00404188e-01 +2.43271217e-01 -2.66314838e-02 +1.30359590e-01 +1.01983458e-01 +1.97072849e-01 -1.47006348e-01 -1.76768545e-02 +3.13739747e-01 -1.32847846e-01 -6.85638562e-02 +6.46000952e-02 +2.85292976e-02 +5.03738523e-01 +1.18306622e-01 +8.28931183e-02 -1.35574937e-01 +4.80244368e-01 -4.27168578e-01 +3.57728451e-02 -1.45395428e-01 -1.94633961e-01 -1.24875214e-02 +1.09460540e-01 +1.25883415e-01 -6.68227449e-02 +1.48696363e-01 +6.27851605e-01 -7.16961563e-01 -6.00995757e-02 -3.45279396e-01 +2.15959966e-01 -1.21448329e-02 +2.45154854e-02 +4.47623700e-01 +1.36742031e-03 -1.38651699e-01 +2.08015993e-01 +1.20974898e-01 -2.30266646e-01 +5.97488046e-01 +6.58624589e-01 +2.08837718e-01 +3.44237894e-01 -3.63316923e-01 +7.71705359e-02 -1.50831714e-01 +2.12290347e-01 -3.95578325e-01 -1.51350453e-01 -5.69409311e-01 +3.51495951e-01 -1.36797115e-01 -3.18259597e-01 +3.87789339e-01 +1.15432613e-01 +6.68273047e-02 +1.84956148e-01 +2.86521405e-01 +3.52054723e-02 -1.17184125e-01 +1.00779541e-01 -3.13452572e-01 +4.77870479e-02 -4.41517264e-01 -6.63827658e-02 +8.84342473e-03 -2.72909373e-01 +7.45780841e-02 -8.70043188e-02 -4.72894043e-01 +2.54753143e-01 +1.04785204e-01 -1.03374779e-01 -3.29973757e-01 -6.32404536e-03 +2.42604818e-02 +4.52049971e-01 +2.99552809e-02 -3.29308033e-01 +1.83549616e-02 +2.48802021e-01 -3.29519771e-02 -1.09522671e-01 -2.68202662e-01 +2.69434452e-01 -4.68485564e-01 -3.13707553e-02 +1.46112576e-01 +6.50470778e-02 -4.55707981e-04 +2.88641304e-01 +2.48710945e-01 +2.42050558e-01 -1.82876483e-01 +4.30180654e-02 -1.07318535e-01 +1.67562682e-02 -2.56325960e-01 -2.46885478e-01 -3.54867205e-02 -2.11415663e-01 +2.59680152e-01 -1.47300780e-01 +3.57122838e-01 +2.57503986e-01 +3.08887511e-01 -1.81658298e-01 -1.34316057e-01 -3.14837277e-01 +1.64728351e-02 -6.18040785e-02 -1.24744594e-01 -3.41260672e-01 -6.90177158e-02 -1.89862192e-01 +1.80592418e-01 +2.76064545e-01 +1.84722036e-01 -2.56551057e-02 -8.00814405e-02 +1.21721968e-01 +2.24301413e-01 -3.07735987e-02 -3.09149474e-01 +4.40647542e-01 -3.82802010e-01 -7.91513473e-02 -4.10012633e-01 +2.76717484e-01 +2.82161050e-02 -1.41042307e-01 +2.73757070e-01 -3.92101146e-02 +3.72446924e-01 -2.78843015e-01 +1.57880604e-01 +3.30358356e-01 +3.45318198e-01 -2.55749166e-01 -1.71224400e-01 -5.00127196e-01 +5.13870567e-02 -1.11939587e-01 -4.83676225e-01 -5.00690222e-01 +1.67495042e-01 -1.96147621e-01 -9.36203897e-02 +4.92151946e-01 +2.96427965e-01 +1.96995199e-01 +3.58589701e-02 +3.84355113e-02 +1.02230072e-01 -3.42224687e-01 +3.75744730e-01 -1.55421328e-02 +9.55363214e-02 -2.94785611e-02 +2.12885037e-01 +1.69865161e-01 -1.70758337e-01 +1.47690833e-01 +4.38984841e-01 +6.34240359e-02 -4.65039350e-02 -1.23300664e-01 -1.04558021e-01 +1.04065277e-01 -2.81232804e-01 +1.79312438e-01 -5.90511747e-02 +2.03145042e-01 -1.98740497e-01 +3.07271183e-02 -1.97241887e-01 +9.71107930e-02 +3.79762113e-01 +1.81101367e-01 +2.86609203e-01 +9.60851386e-02 +3.81295502e-01 +8.82143229e-02 -1.52935246e-02 +6.45063743e-02 -1.87402055e-01 -5.09555936e-01 -6.46384954e-02 -1.19234420e-01 +4.55089845e-02 -1.05748467e-01 +4.59032767e-02 -6.29195049e-02 +3.42433155e-01 -4.14705634e-01 -1.31015694e-02 +8.56297463e-02 +5.03058970e-01 -3.24703157e-01 +1.10183604e-01 +4.90593791e-01 -3.09853166e-01 +3.80886227e-01 -3.98843080e-01 -2.28472874e-01 -3.01017258e-02 +3.28519553e-01 -9.39481258e-02 +3.97001803e-02 -1.41348481e-01 +1.91099718e-01 -2.13963807e-01 +2.13425651e-01 +3.46658260e-01 -4.05185014e-01 +1.06098466e-02 -2.19776794e-01 -6.72978535e-02 -5.90116799e-01 -2.47626081e-01 +3.03176552e-01 +2.65997946e-01 -1.42313272e-01 -5.06502129e-02 -1.34935096e-01 -2.68191963e-01 -2.07704887e-01 +2.76614398e-01 -1.22693375e-01 +4.62281287e-01 -2.07416162e-01 -4.57280099e-01 +1.05686843e-01 +4.92925989e-03 +4.47797000e-01 -6.68947771e-02 -3.01224720e-02 +1.85477883e-01 +7.31691718e-02 +1.80900854e-03 +2.18787175e-02 +2.41988286e-01 +3.56456757e-01 -1.13638140e-01 +4.73363608e-01 -4.58184071e-02 -1.67056069e-01 -3.13289344e-01 -8.14513564e-02 +2.54067123e-01 -1.17026277e-01 -2.41195649e-01 +3.70806962e-01 -9.62104574e-02 -3.32322180e-01 -2.15953112e-01 +6.07544258e-02 +3.19189250e-01 -2.46169254e-01 +3.23570520e-01 -3.24901819e-01 +9.90759209e-02 +2.30088130e-01 +5.85382208e-02 -5.87241650e-02 +1.68859020e-01 -3.23508114e-01 -1.07907988e-01 -2.12924797e-02 -2.72792220e-01 +1.90539747e-01 -1.57025218e-01 -3.36029619e-01 +3.64610583e-01 -1.29376337e-01 -3.28988671e-01 +5.03731847e-01 -1.91714689e-01 +7.18477219e-02 -8.96824896e-02 +1.53865129e-01 -1.03837706e-01 +2.66611457e-01 +2.40814000e-01 -9.58807301e-03 +3.69455904e-01 +1.01845145e-01 +3.59114707e-01 -3.47109772e-02 +9.51354355e-02 +4.80454043e-02 +2.21567173e-02 -1.98833436e-01 +4.89430986e-02 -2.90065348e-01 -1.92630798e-01 -1.66895762e-02 +1.60032064e-01 -2.83100847e-02 -1.02594502e-01 -3.17570925e-01 -2.11466998e-02 -5.51051311e-02 +1.66591570e-01 -3.84591818e-01 -2.11477727e-02 +2.76554823e-01 +2.26589054e-01 -3.26825529e-01 +2.20617339e-01 +1.06500030e-01 -1.37947679e-01 -1.80609316e-01 
#Parameter# /AuxNonLinear.63afb176/_1 {32} 513 ZERO_GRAD
+4.40696739e-02 +5.12978993e-02 -1.34527594e-01 +7.74872229e-02 -5.13287447e-02 -1.41414285e-01 -1.01206459e-01 -3.18088457e-02 +6.49788827e-02 -1.80282488e-01 +2.74474192e-02 +5.19947410e-02 +2.06689462e-01 +3.08383442e-02 -3.53738619e-03 +3.76830809e-03 +1.99334938e-02 -1.19473487e-01 -5.67078143e-02 +1.65860243e-02 +3.57007906e-02 +5.19950781e-03 +3.51734273e-02 -3.13148573e-02 +1.81792397e-02 +4.83954325e-02 -1.16936885e-01 +5.12024425e-02 -3.35028619e-02 -6.16734964e-04 -5.33077940e-02 -3.63865122e-03 
