#Parameter# /Linear.1c40e55e/_0 {69,32} 35329 ZERO_GRAD
+1.07460424e-01 +4.45744485e-01 -8.88727546e-01 +3.00207555e-01 +9.27557170e-01 -7.03095198e-01 +5.08880258e-01 -3.24286103e-01 +2.43720993e-01 -3.59891027e-01 -5.66657901e-01 +6.84967756e-01 +6.58318341e-01 -2.95118243e-01 +1.34540185e-01 -5.24010360e-01 -6.22553170e-01 +8.04813445e-01 -2.11645886e-01 +7.04309344e-01 +6.10726595e-01 -2.57549882e-01 +4.64355767e-01 +8.06478977e-01 -5.96681774e-01 -4.18165416e-01 -3.05511266e-01 -5.42168796e-01 -7.42507100e-01 -5.88996828e-01 -5.56946158e-01 +6.17849648e-01 +5.10523677e-01 -5.64372540e-01 -3.48946154e-01 -9.54272151e-01 -4.29392427e-01 -7.42509544e-01 +3.76733661e-01 -3.30946624e-01 +4.74033445e-01 -4.77482349e-01 -3.43751371e-01 +3.44668120e-01 +5.01942262e-02 +8.49255025e-01 +2.96009681e-03 -1.02181280e+00 -5.03352284e-01 +5.63620746e-01 +3.50678384e-01 -4.26246852e-01 -2.61908621e-01 -5.81083298e-01 +6.30376577e-01 -7.46562541e-01 +4.70545352e-01 +1.92435369e-01 +4.87097263e-01 -3.28057975e-01 +4.93868351e-01 +5.06941259e-01 +6.74847588e-02 +2.17979625e-01 -1.08422212e-01 -7.14524416e-03 +1.36540428e-01 +7.06270456e-01 -1.66813150e-01 -2.75207907e-02 +7.48054832e-02 +4.72478896e-01 -8.29969347e-01 +3.34261447e-01 +1.03158510e+00 +5.21205544e-01 +3.46139342e-01 +5.94143212e-01 +7.34444082e-01 +8.84398878e-01 +4.54760939e-01 -7.11723149e-01 -3.48934144e-01 -7.21640170e-01 -3.90330493e-01 -8.10602665e-01 -5.70148647e-01 -3.93246710e-01 -3.61475050e-01 +8.62599671e-01 +4.80665475e-01 +2.97387272e-01 -9.11820889e-01 -3.58894378e-01 -5.58248162e-01 +5.72547197e-01 -1.23687491e-01 +1.20830975e-01 +2.94241101e-01 +7.28270590e-01 -5.41655660e-01 -4.48490858e-01 -7.54723370e-01 -9.26182389e-01 -8.29392254e-01 -8.77753496e-01 -5.48855662e-01 -3.46024811e-01 +4.33349580e-01 -2.60634154e-01 -7.18210340e-01 +4.26559031e-01 +4.67615843e-01 -5.45651615e-01 +3.45257342e-01 +7.35092461e-01 +2.10726038e-01 -5.44220150e-01 +3.79601061e-01 -3.38748366e-01 +5.40861905e-01 -3.79494578e-01 +3.85595739e-01 +3.40071976e-01 +4.92156476e-01 +7.65209913e-01 +6.83892429e-01 -6.82169735e-01 +2.67012835e-01 +2.67393708e-01 +2.73179293e-01 -6.69654489e-01 -1.00028610e+00 -6.93648756e-01 -5.73947012e-01 -4.97551054e-01 +9.29067314e-01 +3.00509166e-02 +3.44041511e-02 +3.84041965e-01 +3.56611282e-01 -5.49561143e-01 +1.87801063e-01 -8.87897730e-01 -3.75490338e-01 +8.92358303e-01 -3.56130838e-01 -5.44221342e-01 +5.57803273e-01 +7.64345407e-01 -2.68054783e-01 +9.17306542e-01 +8.83515835e-01 +7.42340684e-01 -2.70362943e-01 +5.98261237e-01 -3.73586327e-01 -3.90638113e-01 +2.58108050e-01 -6.15859509e-01 +7.72452652e-01 -1.67495087e-01 -8.87385070e-01 +5.91760576e-01 +1.59059927e-01 +5.49042523e-01 -6.64865315e-01 +4.00515139e-01 +6.35916114e-01 +7.88298607e-01 -3.50603521e-01 -2.32166037e-01 +3.21892858e-01 -4.35488075e-01 -5.84140301e-01 +4.17847127e-01 +4.45031434e-01 -7.55524755e-01 -8.94769192e-01 +1.64975017e-01 -5.34066916e-01 -1.90218151e-01 +3.99064422e-01 +5.74396431e-01 -5.32394946e-01 -6.60525203e-01 -2.65950590e-01 +4.27964061e-01 -9.21372294e-01 +4.44643497e-01 +6.00636065e-01 +4.22183603e-01 +6.21803284e-01 -2.37306148e-01 -3.09955299e-01 -4.64838088e-01 -5.96456707e-01 -5.20351768e-01 -6.33764207e-01 +3.05410236e-01 -4.98856187e-01 -3.50712448e-01 +4.76369947e-01 -4.05027956e-01 -3.53882104e-01 -5.66029370e-01 +6.96239546e-02 -1.74717441e-01 +5.69304347e-01 -7.02480972e-01 +7.43542075e-01 +4.25385773e-01 -8.10007274e-01 +3.60634774e-01 +2.17097983e-01 +3.13254863e-01 +8.10257852e-01 -4.32807952e-01 +5.60867965e-01 -7.86282122e-01 -4.40269619e-01 -6.09972954e-01 -3.69921893e-01 -1.99425608e-01 -2.43767336e-01 -2.05096781e-01 +7.19752610e-01 +1.19588673e-01 -4.16493624e-01 +2.83971965e-01 +2.46219784e-01 -5.04461050e-01 +7.56190121e-01 -7.07145631e-01 -5.10274231e-01 -4.69313979e-01 +6.76227629e-01 -4.87998694e-01 +1.88042864e-01 -6.44466519e-01 -5.71115792e-01 -5.72241545e-01 +2.17324793e-01 -4.68530536e-01 -1.45547286e-01 -4.67537284e-01 -4.61054116e-01 +4.63524312e-01 -9.04521644e-02 -3.52804631e-01 +1.21619515e-01 -4.88879293e-01 +4.85632032e-01 -3.34775895e-01 -4.85066324e-01 -5.88077903e-01 +6.03112638e-01 +3.51741970e-01 -7.46882498e-01 -3.28248709e-01 -3.15749258e-01 +4.69989568e-01 -6.60665989e-01 +3.90690416e-01 -5.98214269e-01 +2.92371780e-01 +4.08057272e-02 +7.07050383e-01 +1.83254823e-01 -2.65149355e-01 +3.48788351e-02 +5.22508502e-01 +6.95155501e-01 +2.81730086e-01 +3.09569091e-01 +4.11661603e-02 +2.47921661e-01 -2.56913453e-01 -3.40155810e-01 -1.38859466e-01 -2.72054374e-01 -8.53278458e-01 -6.93717182e-01 -7.29000032e-01 -6.28957689e-01 +2.45354325e-02 -2.41280168e-01 -4.16525006e-01 +8.26205075e-01 -3.56831670e-01 -4.71230090e-01 +1.19324043e-01 -4.28636998e-01 +5.47196567e-01 -4.94333804e-01 +7.05761135e-01 +8.64644289e-01 -1.94234893e-01 -9.76980180e-02 +9.91923034e-01 +5.73531270e-01 +6.64411068e-01 -4.49529767e-01 -7.36221075e-01 -4.11909074e-01 +3.24866436e-02 -2.58561939e-01 +5.55477798e-01 +2.83338785e-01 +1.82157844e-01 -3.15240115e-01 +8.86541963e-01 -7.74572968e-01 +3.18012506e-01 +5.28025091e-01 +4.30627987e-02 +5.28443396e-01 -4.77275431e-01 -3.85145731e-02 -5.19705653e-01 +9.04725611e-01 +7.07334355e-02 -5.08254766e-01 -4.92599219e-01 +8.38818491e-01 -5.12059212e-01 -5.77682674e-01 -4.64024544e-01 +5.89406610e-01 -3.03299546e-01 +9.76197720e-01 -1.74232684e-02 +8.49595368e-01 +6.84741259e-01 +1.15856856e-01 -4.04160649e-01 -5.14033079e-01 -3.91472667e-01 +2.32560933e-01 +1.87386692e-01 -7.43918121e-01 +1.69649154e-01 +5.04595339e-01 -2.43257999e-01 +3.01814616e-01 +2.17157230e-01 +9.58644032e-01 -9.09690917e-01 -7.05922306e-01 -9.72376287e-01 -6.73420966e-01 -3.02123994e-01 +7.25676358e-01 +9.19238031e-01 +5.45779884e-01 -1.02768135e+00 -4.66510862e-01 -4.91441190e-02 -4.77864772e-01 +4.79816198e-01 -2.36367345e-01 +8.47608268e-01 +7.37638831e-01 -1.06245697e-01 -5.77216029e-01 +6.06683969e-01 +8.61712277e-01 -7.90759563e-01 -3.67481500e-01 -6.03457570e-01 -2.16828302e-01 +3.95418972e-01 +9.37641621e-01 +6.58482313e-01 -8.80345851e-02 -6.80405855e-01 -3.92033219e-01 +4.62122291e-01 -3.34659725e-01 +8.66517723e-01 -1.83232464e-02 -2.06881657e-01 +1.01332247e+00 +8.80534887e-01 +3.04026842e-01 +6.76019073e-01 -4.79047924e-01 -6.51654124e-01 -2.57484287e-01 -3.93229365e-01 +4.01482284e-01 +5.05575955e-01 +4.32119608e-01 -2.61826128e-01 -6.64177418e-01 -7.28534043e-01 +6.02725148e-01 +9.75977659e-01 -6.77349389e-01 +6.99759185e-01 +4.76308167e-01 -3.22010338e-01 -7.70560324e-01 -3.67488593e-01 +1.74532488e-01 +7.00003624e-01 -2.39388682e-02 +6.30282342e-01 -8.01876307e-01 -2.95681834e-01 -4.17858034e-01 +3.91897321e-01 -3.90523881e-01 +2.45048031e-01 -1.74833506e-01 -4.14059490e-01 -3.06538224e-01 -8.80018532e-01 -3.55805010e-01 +6.39403880e-01 -1.08591878e+00 -1.69086844e-01 -2.63698488e-01 +7.64028668e-01 +6.77017331e-01 +8.13343287e-01 +6.98229492e-01 +7.45680809e-01 -6.63260400e-01 +4.96556312e-01 +3.52596521e-01 +4.75564599e-01 +5.20021260e-01 -6.47557378e-01 -3.87326449e-01 +2.38147676e-02 +7.29477584e-01 -4.38298792e-01 +1.63778052e-01 +6.62615478e-01 +7.87150443e-01 -1.04238704e-01 +5.61296940e-01 -3.59831125e-01 +8.85380246e-03 -4.16306078e-01 +5.26550114e-01 +3.83927643e-01 -7.24401414e-01 -8.58460307e-01 +3.91769677e-01 +9.49482679e-01 +2.54627198e-01 -5.71339965e-01 +9.72494721e-01 -8.77397954e-01 +7.86909401e-01 -6.68343663e-01 +6.93447173e-01 -5.93908131e-01 +4.50118989e-01 -5.58085442e-01 +3.89844537e-01 -6.10433102e-01 +5.21100461e-01 -3.57642084e-01 +5.32341897e-01 -6.87354505e-01 -6.69584394e-01 +3.48282844e-01 -2.50294715e-01 +2.95677483e-02 +4.65757370e-01 +3.81916732e-01 -2.96887338e-01 -3.77599984e-01 -1.08882926e-01 +9.23563898e-01 +4.85397249e-01 -6.38122380e-01 -6.00869417e-01 -4.75519210e-01 -6.33573979e-02 +1.28639266e-01 -5.25712848e-01 -1.87330022e-01 -7.44469523e-01 -3.26422364e-01 +5.78335345e-01 -4.97250468e-01 -6.68631792e-01 -3.52148235e-01 +8.80582631e-02 -3.69327515e-01 -3.68443042e-01 -5.36437809e-01 +2.11901918e-01 -4.32612121e-01 -3.69183153e-01 +6.74617410e-01 -6.02182150e-01 +5.03137767e-01 +5.35214424e-01 -3.10258120e-01 -2.83595532e-01 +5.24501383e-01 +8.07015300e-01 +4.10082579e-01 +6.49553180e-01 -3.88133854e-01 -8.12613130e-01 +4.37734932e-01 +2.27015957e-01 +7.07502007e-01 +3.26101094e-01 -8.54509890e-01 +7.40164459e-01 -8.19380283e-01 +1.84646040e-01 +1.01091906e-01 -5.47303855e-01 -2.63122499e-01 +9.50778127e-01 -1.57423154e-01 -1.03116050e-01 +7.48597920e-01 +5.81645906e-01 -4.37708139e-01 -7.16424882e-02 +2.37306684e-01 -2.71847785e-01 +5.81971169e-01 -2.46316507e-01 -3.90332043e-01 +4.90499884e-01 +6.23510718e-01 +1.61592662e-01 -2.04888716e-01 +2.40729108e-01 +7.45404661e-01 -1.16858922e-01 +5.85672319e-01 +1.25887111e-01 -1.03041045e-01 -2.67037243e-01 -5.44096768e-01 -3.20999980e-01 +5.85920751e-01 +7.32162774e-01 -3.90306950e-01 +7.22887695e-01 +3.31390351e-01 -9.53753144e-02 -3.16368818e-01 -4.82647777e-01 +3.93504173e-01 -6.00629747e-01 +3.30144614e-01 +5.88200986e-01 -8.73094082e-01 -1.67999804e-01 +7.06154466e-01 +6.10830128e-01 +6.14515543e-01 +6.33324385e-01 -6.85745001e-01 -4.98170078e-01 +4.61448997e-01 +3.98581177e-01 -4.77083325e-01 +2.18197986e-01 -1.18851222e-01 +3.17286253e-01 +5.83903968e-01 -1.16527557e-01 +1.50882959e-01 -9.22734320e-01 +5.62233865e-01 +5.94706535e-01 -5.84012687e-01 +2.64118835e-02 -5.42214990e-01 +4.14039671e-01 -8.28091323e-01 +6.17903352e-01 +6.10601187e-01 -3.59492898e-01 -5.08688390e-01 +4.21016455e-01 -6.02275789e-01 +2.05413401e-01 -4.85008419e-01 +3.94647777e-01 -3.47171009e-01 +8.20008814e-01 -5.43821275e-01 -5.85308731e-01 -6.95975184e-01 +5.56194723e-01 +6.36682034e-01 +5.43128669e-01 -8.59615803e-01 +1.81342408e-01 -5.58555245e-01 -9.70546126e-01 -4.25038457e-01 -1.18066692e+00 +2.92373478e-01 -5.30708909e-01 +6.04738414e-01 +3.24984878e-01 +5.20212829e-01 +2.87329733e-01 -6.60039067e-01 +3.55467081e-01 +1.52559996e-01 +4.19007003e-01 +6.05468571e-01 +2.75638252e-01 +5.52282989e-01 +1.71772793e-01 +1.15569271e-01 +5.40158570e-01 -7.63702035e-01 -2.34432980e-01 +2.54286349e-01 -5.49528420e-01 -4.63169575e-01 +7.39973426e-01 +9.38836396e-01 +8.40788126e-01 +2.52011791e-02 -3.13602388e-01 -5.82753718e-01 -3.55111659e-01 -3.77645463e-01 +5.72563231e-01 -6.05536066e-02 -4.72853601e-01 -4.16107088e-01 +6.87174141e-01 +4.20298755e-01 -6.20015383e-01 +7.80460358e-01 +6.16404235e-01 -5.37272751e-01 -7.73401380e-01 +5.39957941e-01 -3.29087436e-01 +5.75783789e-01 +3.40495825e-01 -7.84354389e-01 +7.05440640e-01 -3.43803972e-01 +4.17153418e-01 -6.34232342e-01 +4.42632049e-01 -2.23979533e-01 -4.32657480e-01 -5.16211569e-01 -5.77401161e-01 -6.46764517e-01 -4.99230921e-01 -3.93216133e-01 +7.59093702e-01 -2.78601259e-01 +2.28940815e-01 -5.49932897e-01 +1.52921990e-01 -6.02292359e-01 +7.85030782e-01 +4.71891128e-02 +8.04270625e-01 -2.49801144e-01 -3.29545885e-01 +1.82542447e-02 -2.81432211e-01 -4.17937428e-01 -4.75172371e-01 -4.05875325e-01 -4.50204939e-01 +4.64929819e-01 +3.66701335e-01 -4.93563294e-01 -5.60719609e-01 -7.14321852e-01 -8.04879487e-01 +8.03115249e-01 +7.13506877e-01 -2.12219730e-01 -3.31598371e-01 +3.87447208e-01 +4.40420657e-01 +3.61473382e-01 +7.79933259e-02 -7.45447934e-01 +3.24114621e-01 +2.56030500e-01 +5.23707904e-02 +2.53882259e-01 +3.77586663e-01 +2.63870358e-01 -3.99421334e-01 -5.50148785e-01 +3.60992759e-01 +4.02010739e-01 -9.21648026e-01 +3.64430368e-01 +4.52241212e-01 -5.11094332e-01 +2.39299878e-01 +1.39879197e-01 +2.92180777e-01 +5.86590290e-01 -5.58782697e-01 -8.99760902e-01 +2.15464637e-01 -7.33161688e-01 +4.18458492e-01 -1.79434791e-01 +1.87533230e-01 -6.38037145e-01 -8.45135331e-01 -5.48320949e-01 -6.83598876e-01 -3.76833715e-02 -7.71975756e-01 -7.64343917e-01 -5.11763990e-01 +4.34470624e-01 +2.26714462e-01 -7.70433903e-01 +4.46725160e-01 +4.94474441e-01 -6.05617821e-01 -9.09384266e-02 +4.19104904e-01 -1.26318038e-01 -4.42838132e-01 +1.59999460e-01 +3.77219111e-01 +9.79099423e-02 -4.49763298e-01 +4.09674942e-01 -7.05786748e-04 +7.92110503e-01 -9.07280266e-01 +4.20759082e-01 -7.42893100e-01 -1.37707770e-01 +2.13006705e-01 +1.55820489e-01 +1.64934278e-01 +6.86859991e-03 +2.15209037e-01 -2.47618586e-01 -4.32727635e-02 -4.33017641e-01 -4.88198511e-02 +2.63954014e-01 -7.79460743e-02 -4.85753834e-01 +4.91465151e-01 -4.23732758e-01 +5.27816236e-01 -3.41379642e-01 -1.84158057e-01 +1.32038161e-01 +7.97654450e-01 -4.61151242e-01 -7.57342219e-01 -3.97181809e-01 +3.26949149e-01 -2.89853007e-01 +5.22829771e-01 +4.44650471e-01 -5.06081939e-01 +7.70747662e-01 +5.98157942e-01 -7.62571275e-01 -2.85816312e-01 +1.16634153e-01 +3.84933949e-01 +4.26193863e-01 +4.25067127e-01 -4.27095234e-01 -3.36513668e-01 +2.37615317e-01 -5.62911153e-01 -6.40757561e-01 +5.73221684e-01 +4.58122522e-01 +5.31251907e-01 -5.27706325e-01 +1.61961138e-01 +6.86954618e-01 -4.44955140e-01 +8.91296387e-01 -3.66391271e-01 +2.42160931e-01 -5.36533356e-01 +4.07395922e-02 +3.43959659e-01 -5.02565622e-01 -2.66705696e-02 +7.70680606e-01 -5.75827062e-01 +4.91387933e-01 -9.45194885e-02 +5.15757978e-01 +4.14176106e-01 +6.25420809e-01 -5.45392394e-01 -3.28649908e-01 +5.74422717e-01 +2.27656886e-01 -7.05342174e-01 +2.97245115e-01 -6.41638637e-01 -2.03118190e-01 +5.16716652e-02 -5.08018017e-01 -7.68052936e-01 -6.80331826e-01 +3.29884201e-01 +1.09577350e-01 +2.88117081e-01 -9.23096985e-02 +1.42155075e-03 +5.59763610e-01 +6.07008576e-01 +2.63018757e-01 +6.24882579e-01 +4.22435850e-01 -6.63438201e-01 -8.50002170e-01 -4.06522602e-01 +2.07720071e-01 +1.26253441e-01 +3.31023633e-01 -3.64894181e-01 -1.03046969e-01 -5.03950715e-01 +4.48235601e-01 -8.02984357e-01 -1.58741623e-01 -9.66522396e-01 -5.31037867e-01 -5.06082058e-01 -7.38042951e-01 +5.44703662e-01 +7.56802440e-01 +4.02122676e-01 +1.55206129e-01 -4.61594641e-01 -4.54884112e-01 -7.85045624e-01 +7.66398549e-01 +6.20873451e-01 +3.69736820e-01 -6.12712741e-01 +1.14853293e-01 -4.22437072e-01 +5.80003381e-01 +9.02569354e-01 -7.34157979e-01 -6.26676261e-01 +7.57686377e-01 -6.35544419e-01 -2.74088830e-01 -5.26434481e-01 +3.28822851e-01 -4.56603169e-01 +9.46378589e-01 -1.68363228e-01 -5.16283095e-01 +8.54304552e-01 +2.29270369e-01 +6.03383660e-01 +4.51912850e-01 +2.64523566e-01 -3.25457186e-01 -4.61334914e-01 -4.01722878e-01 -5.88435352e-01 -6.68241143e-01 +7.11280465e-01 +2.99560517e-01 -6.39351845e-01 +5.08592606e-01 -3.74338001e-01 -5.59652746e-01 +3.90138209e-01 -7.54349828e-01 -2.26195827e-01 +2.64025390e-01 +9.58116874e-02 +9.29114446e-02 -1.76254719e-01 +8.97795081e-01 -7.91963637e-01 +8.41110528e-01 -6.31734908e-01 +6.50583148e-01 +6.63265884e-01 +5.87687254e-01 +2.69799590e-01 -3.83451693e-02 -5.61178505e-01 -1.12735495e-01 -3.14718604e-01 +8.18991482e-01 +6.94875494e-02 -5.84611893e-01 -4.45938170e-01 -4.60067540e-01 +7.59745717e-01 -3.11533302e-01 -7.52511978e-01 +2.70105809e-01 -5.65403342e-01 -3.32440555e-01 -4.38799590e-01 -5.79333901e-01 -2.24721089e-01 +8.89251947e-01 +4.41832334e-01 -6.69412732e-01 -4.70831484e-01 +5.34046233e-01 +1.95114687e-01 -6.46621704e-01 -3.95288229e-01 -1.25582024e-01 -2.41778210e-01 -3.51434320e-01 +2.49751672e-01 -3.39576066e-01 -4.60417211e-01 +2.07596924e-02 -6.51518106e-01 -1.89513296e-01 +7.33859956e-01 +3.42627987e-02 +5.22796392e-01 +1.23909168e-01 +3.81338328e-01 -3.93819839e-01 +6.67207479e-01 -1.48020819e-01 -6.42784178e-01 +1.03574800e+00 -4.62870449e-01 +7.60985315e-01 +1.75949544e-01 -3.19499046e-01 -4.98552024e-01 +3.01804394e-01 -7.93652773e-01 +7.25165367e-01 -1.05050981e-01 -5.10979176e-01 +7.55648494e-01 +6.55197203e-02 +7.13834226e-01 -1.27039656e-01 +8.08803365e-03 -4.47660387e-01 -5.28395832e-01 +6.34178519e-01 +5.41534834e-02 -2.21523672e-01 +3.07915062e-01 -8.60982060e-01 +7.51238525e-01 +6.71408474e-01 -7.83068895e-01 -5.34754395e-01 -1.42247736e-01 -2.93029666e-01 -5.11912346e-01 -6.50839448e-01 +7.04762399e-01 -4.57052350e-01 -4.43318903e-01 +1.53456897e-01 +3.67501676e-01 -4.79966789e-01 +7.19553173e-01 -1.50592893e-03 -3.61214161e-01 +8.06288004e-01 -4.81159419e-01 -1.84522942e-01 -5.65680861e-01 -4.06281769e-01 -2.83258528e-01 +6.25413537e-01 +8.73918593e-01 +6.73531413e-01 -2.11480960e-01 +4.16427940e-01 -7.61966348e-01 -6.73962310e-02 -6.11778438e-01 -3.04885954e-01 +1.02944501e-01 -1.54418245e-01 -1.96370408e-01 +2.51596183e-01 -1.74445122e-01 +7.53453135e-01 -8.40322435e-01 +8.16038370e-01 +5.66792786e-01 -1.51172891e-01 +5.61908364e-01 -2.18575761e-01 -6.32103622e-01 -8.95299166e-02 +4.52447176e-01 +1.51884750e-01 +4.83978570e-01 +1.90950856e-01 +8.99012566e-01 -1.43088162e-01 +6.78260922e-01 +7.30648816e-01 -4.66258764e-01 +7.78724551e-01 -3.44486713e-01 +3.45668256e-01 +4.05512094e-01 +1.73544884e-01 +1.05767399e-01 +3.52884591e-01 +5.25086641e-01 +3.90370309e-01 -3.95101100e-01 +5.96627057e-01 +5.07189572e-01 -4.44032133e-01 +2.89683402e-01 -4.27559257e-01 -3.49429816e-01 -7.53710806e-01 +6.56637013e-01 -7.27545619e-01 -3.85480493e-01 -6.30639851e-01 -1.22377776e-01 -6.47566855e-01 -1.73663020e-01 +7.86826313e-01 -4.07659799e-01 +6.83617055e-01 +7.47039795e-01 +4.02109772e-01 -7.38212168e-01 -1.82776928e-01 +5.14550924e-01 -2.05309719e-01 -3.97448301e-01 +6.53170824e-01 +5.99808276e-01 +6.92270100e-01 -5.55455804e-01 +8.00022259e-02 -2.03347698e-01 -5.70491493e-01 -5.62179908e-02 -2.70568728e-01 -3.18157449e-02 -3.85082513e-02 +4.70754087e-01 +5.49614906e-01 -6.11324847e-01 +5.93235016e-01 -4.15697724e-01 -3.77797663e-01 +6.92896843e-01 +4.26894784e-01 +5.96020758e-01 -4.84582692e-01 -8.62148345e-01 +6.20287120e-01 -3.78068268e-01 -4.03555244e-01 -6.24322832e-01 +2.72587359e-01 -5.95356643e-01 -1.08668432e-01 +7.74332941e-01 -4.40397054e-01 +5.96144557e-01 +5.92662334e-01 +3.65250111e-01 -4.52656537e-01 -4.61792290e-01 +6.13971472e-01 -8.56188312e-02 +7.39347279e-01 -2.73008317e-01 -1.43142775e-01 -5.13995551e-02 -9.08577859e-01 -2.94185936e-01 +4.80490983e-01 +8.15147817e-01 +4.63025361e-01 +4.47316974e-01 -5.27756214e-02 +6.63006127e-01 +5.87931275e-01 +4.49553221e-01 +2.90987790e-01 +2.20573712e-02 -2.48095170e-01 -4.51701522e-01 +2.99606919e-01 -4.05435354e-01 -5.23283303e-01 -7.52892733e-01 +6.40941739e-01 -5.88463187e-01 -6.56269372e-01 +2.20502287e-01 +4.24416274e-01 +1.54794604e-01 +5.37278414e-01 +1.32881820e-01 -3.05030107e-01 -2.05992088e-01 +6.51460707e-01 +3.98168206e-01 +3.12274247e-01 -6.11118197e-01 +6.17563665e-01 -5.40856838e-01 +3.34911168e-01 +6.58822894e-01 -4.94498402e-01 -6.21333003e-01 -7.49863803e-01 +6.98986590e-01 -6.00918412e-01 -7.02266932e-01 +5.06570458e-01 -2.38039300e-01 +5.17024815e-01 -5.92165291e-01 +7.85230994e-01 -9.47524786e-01 +3.74098301e-01 +2.35382915e-01 +9.10400525e-02 -3.00988644e-01 +2.47199342e-01 +6.65714890e-02 -3.49396169e-01 +5.63760579e-01 +5.72206676e-01 -7.86170781e-01 +5.79166114e-01 -6.51223540e-01 +3.68200809e-01 -6.62005067e-01 +4.52860445e-01 +6.54909551e-01 -8.15805912e-01 +5.94056070e-01 +2.87138999e-01 +8.84602964e-02 +1.96176454e-01 +4.34699625e-01 +3.30765814e-01 -4.74997729e-01 +5.80699503e-01 -6.96474195e-01 -6.89241648e-01 +4.46540833e-01 -8.57297659e-01 -5.62678277e-01 -4.22049344e-01 -6.02713749e-02 -5.71350992e-01 -4.22732562e-01 +5.56431472e-01 -5.13452053e-01 -9.14968476e-02 -6.71538338e-02 -5.85742593e-01 -1.51711509e-01 +8.25618505e-01 +6.27846241e-01 -4.79249805e-01 +2.47709714e-02 -1.08077005e-01 -4.33717728e-01 +4.48020637e-01 +7.20389664e-01 +8.76337349e-01 +4.75731641e-01 +7.24176884e-01 -4.12046343e-01 -2.63845891e-01 -3.02897636e-02 +4.21308100e-01 -1.85160503e-01 +8.59642252e-02 -4.11931545e-01 -6.20727003e-01 +5.38712204e-01 -5.88411808e-01 -3.78394127e-01 +9.82416034e-01 -4.31427389e-01 -5.59895039e-01 +3.76031846e-01 -4.78493035e-01 +9.68089104e-01 -2.36886352e-01 -1.39110982e-01 -7.13086784e-01 +4.52009112e-01 -1.64442569e-01 +7.76747823e-01 +7.67265320e-01 -6.01217031e-01 -5.94392829e-02 -4.99238342e-01 +1.24906465e-01 -3.65552783e-01 +5.07160127e-01 +2.64220119e-01 -5.64914465e-01 -3.99486870e-01 -5.33578157e-01 -3.46905738e-01 -8.63857090e-01 -2.00817242e-01 +2.88142443e-01 -1.49367064e-01 -4.47014779e-01 -4.80664313e-01 +4.67106491e-01 -7.89406374e-02 -3.30614626e-01 +4.51728880e-01 +5.18937588e-01 +5.52165508e-01 +6.16414726e-01 +7.79537737e-01 -3.07991296e-01 +4.34827864e-01 +9.25850213e-01 +3.38143736e-01 +8.21934819e-01 +4.79504645e-01 -7.89159238e-01 -4.36395437e-01 +4.73499537e-01 -4.47156355e-02 -2.65258402e-01 -6.60780966e-01 -5.20361722e-01 +8.36218059e-01 -3.58282596e-01 -5.20513773e-01 +3.54278713e-01 -6.36502922e-01 -6.38854027e-01 -1.51649579e-01 -5.25602221e-01 +4.05073762e-01 +4.72551644e-01 -8.04721057e-01 +2.65373975e-01 -6.27012134e-01 -8.46768677e-01 -1.41067728e-02 -2.61411667e-01 +5.54626584e-01 -6.53048873e-01 -2.99908012e-01 +8.91974270e-01 -8.11803460e-01 +7.71321177e-01 -5.18595099e-01 +6.43356979e-01 -7.32155383e-01 +3.81588608e-01 -8.58657777e-01 -5.22996008e-01 +4.16195899e-01 -7.04885840e-01 +3.55168313e-01 -7.07725823e-01 +3.12992394e-01 -3.22849810e-01 -6.55866563e-01 -3.61183286e-01 +2.74476826e-01 -4.40148830e-01 +3.00521940e-01 +2.86402225e-01 -2.33739197e-01 +3.68107706e-01 +7.99740553e-01 +4.87249970e-01 -1.62775546e-01 -1.73688345e-02 -5.83693087e-01 -1.55976579e-01 +4.81171519e-01 -3.47881913e-01 +6.84780926e-02 +7.40090013e-01 -9.45333987e-02 -6.92512572e-01 +6.82128787e-01 -5.95474303e-01 -4.58945125e-01 +8.35146427e-01 +8.55138898e-01 +5.87450445e-01 -6.34269357e-01 +4.68882114e-01 -7.95605838e-01 +4.65079159e-01 -5.36265224e-02 -5.49522460e-01 +5.81075311e-01 +5.73464274e-01 +5.35593212e-01 +3.38079780e-01 -4.59241211e-01 -5.87825000e-01 -6.06672287e-01 +6.09996378e-01 -3.54717374e-01 -6.32268965e-01 -7.83973813e-01 +4.35694456e-01 +6.85559437e-02 -5.35892725e-01 -8.50796700e-01 +5.29038429e-01 -1.81717247e-01 -6.31929696e-01 +4.10258353e-01 +5.78853607e-01 +5.90942740e-01 +6.45906270e-01 +6.29886925e-01 +8.71116459e-01 -5.13965964e-01 +3.79950345e-01 -1.09636560e-01 +3.53334397e-01 -5.31880260e-01 +7.38431931e-01 +7.45004535e-01 +8.38499486e-01 -7.20069051e-01 -5.93139410e-01 +3.73181939e-01 +4.41973686e-01 +8.01394761e-01 +1.16305828e-01 -7.65375733e-01 -5.24605930e-01 -6.54731274e-01 +6.30889893e-01 -4.11935270e-01 -6.39880478e-01 +2.20100150e-01 -1.06932938e+00 +5.59185326e-01 -3.07623208e-01 -1.51851147e-01 +5.88366508e-01 -7.96160474e-02 +7.76582360e-01 +9.23012197e-01 +1.10998595e+00 +3.81502479e-01 -4.06829745e-01 -5.44160724e-01 +5.25701582e-01 +7.00852036e-01 +6.74351037e-01 +8.25831771e-01 +4.77241248e-01 -5.07709026e-01 -6.12830579e-01 +1.43914461e-01 +6.74377561e-01 -7.72081077e-01 -4.73441452e-01 -3.80949944e-01 -6.06216550e-01 -8.13500106e-01 -3.90310526e-01 +4.21253502e-01 -1.92830145e-01 -5.79512715e-01 -5.98065376e-01 -2.87859976e-01 -7.84919202e-01 +3.53417516e-01 -7.26620436e-01 -6.54171467e-01 -8.57427955e-01 -1.35588065e-01 -8.23871493e-01 -8.41133714e-01 -7.35516310e-01 +1.94632038e-01 -4.26086545e-01 -7.64496863e-01 +6.42138302e-01 -4.19538736e-01 -5.58970511e-01 +6.46919906e-01 -4.38609421e-01 +6.23219967e-01 -4.61035639e-01 -1.02570522e+00 -2.21760884e-01 +3.73751223e-01 -1.08178213e-01 +1.09582469e-01 +2.78794050e-01 -5.70995867e-01 -5.41830957e-01 -4.41859625e-02 -8.24262679e-01 +7.30370224e-01 -7.38798797e-01 +2.60008276e-01 +6.45976424e-01 -9.90831196e-01 -4.51789290e-01 +6.17973387e-01 +6.55874729e-01 -6.10713422e-01 -8.93326998e-01 -3.25612843e-01 -2.93661088e-01 +5.71454465e-01 +2.82899201e-01 -1.17783509e-01 +4.66412961e-01 +3.92193913e-01 -1.60240039e-01 -6.96975231e-01 -8.10639262e-01 +1.05563357e-01 +1.32187665e-03 +4.07989740e-01 +3.62504810e-01 +7.17842162e-01 +5.94298184e-01 +3.13173831e-01 -4.34028298e-01 +9.22643114e-03 +3.87762964e-01 -5.11508882e-01 -4.87290978e-01 +1.85429215e-01 +5.70984602e-01 -8.32280040e-01 -4.58230674e-01 +1.88612059e-01 +3.38602424e-01 +1.19269956e-02 -6.20833099e-01 -9.00856733e-01 +2.58170784e-01 +2.74937093e-01 +1.58167824e-01 +4.66565818e-01 +5.23512959e-02 -6.47526562e-01 +4.09931317e-02 +3.34434897e-01 +2.82874107e-01 +2.00329423e-01 -2.76234239e-01 +3.70930731e-01 +1.75798878e-01 -4.06534731e-01 +4.17238504e-01 -7.18101442e-01 -5.51394105e-01 -4.76345330e-01 +5.32303512e-01 -7.89820611e-01 -4.88398761e-01 +2.47505426e-01 +1.66168347e-01 -2.92725414e-01 -4.43873167e-01 -5.01609325e-01 -6.66314960e-01 -4.48702782e-01 +5.97194195e-01 +4.56888527e-01 +4.13846672e-01 +5.29412627e-01 +3.36201817e-01 -3.49490762e-01 -2.90273726e-01 -4.85651404e-01 -4.15019900e-01 -6.10242009e-01 -8.44248086e-02 -3.37597094e-02 -4.40541863e-01 -4.05691594e-01 +6.36787176e-01 -2.67534554e-01 +2.13784818e-02 +2.92044818e-01 -2.62814224e-01 +8.15590024e-01 +5.99154949e-01 -3.71615320e-01 -3.60340893e-01 +5.59706450e-01 +3.51588994e-01 +1.74574271e-01 +8.90895128e-01 +3.49709541e-01 +3.84088099e-01 -4.80761826e-01 +7.45746717e-02 +2.32367948e-01 -4.58347291e-01 -6.68845415e-01 +2.77215540e-01 +6.57217324e-01 -5.36824286e-01 -7.16712534e-01 -3.95416498e-01 -6.56501234e-01 -5.75855374e-01 -9.16477367e-02 -9.28929090e-01 +3.16303194e-01 +6.68785870e-01 -4.01708513e-01 +7.91996837e-01 -6.89325213e-01 -2.23251507e-01 +5.26647806e-01 -3.65915716e-01 +2.86521018e-01 -2.71380901e-01 -4.00362253e-01 +3.21611017e-01 -3.46376419e-01 -6.15775466e-01 +3.04983497e-01 -2.76164204e-01 -6.16640329e-01 -5.80878437e-01 -8.12548518e-01 -6.50580466e-01 +7.75018215e-01 -5.22983015e-01 +7.21593440e-01 +6.48258984e-01 +3.24366033e-01 +4.64596488e-02 +6.70713484e-01 -3.83475572e-01 -5.77390969e-01 -1.98189527e-01 +6.79715633e-01 +4.20266449e-01 -5.89249134e-01 +1.05522491e-01 +5.78357875e-01 +1.84348971e-01 +2.13811523e-03 +1.27926007e-01 +4.64245021e-01 +4.24369305e-01 -2.58939356e-01 +4.03814524e-01 -5.67086041e-01 -6.09899998e-01 +3.43268248e-03 +1.88683778e-01 -6.57250166e-01 -6.00578189e-01 -2.27922633e-01 +3.91686141e-01 -5.89665174e-01 +6.99578822e-01 -4.97584134e-01 +2.60626495e-01 -3.14384341e-01 -3.58006030e-01 -4.08156484e-01 +3.47242832e-01 +7.78326571e-01 +5.28426528e-01 +1.10204411e+00 -1.31883979e-01 -4.55481023e-01 -2.81296253e-01 -9.54613388e-01 +3.63244712e-01 +2.95588017e-01 -8.34257364e-01 -4.39596146e-01 -7.74000823e-01 -1.69179529e-01 +7.06890702e-01 -6.23445868e-01 -4.49471921e-01 -6.74406946e-01 -5.22040308e-01 +2.77491480e-01 +6.76143467e-01 +6.70054793e-01 -4.88991916e-01 -1.00661919e-01 -4.76111501e-01 +3.08316588e-01 +3.81968588e-01 -4.20919359e-01 -3.51284780e-02 -6.83908999e-01 +2.46597633e-01 +4.35391873e-01 -4.97714996e-01 +6.17418885e-01 +2.09174335e-01 +7.44759560e-01 -5.12150943e-01 +6.99971616e-01 -2.96947271e-01 -3.19901913e-01 +5.82566619e-01 +5.13843298e-01 +9.13279176e-01 -3.51919442e-01 -1.58440471e-01 -3.75891924e-01 +6.29859805e-01 -5.72989583e-01 -3.00691389e-02 +6.06477037e-02 +5.18525243e-01 +2.16224894e-01 -5.86586714e-01 +7.44012773e-01 -4.27447677e-01 +5.73411047e-01 +3.86255622e-01 +2.34333783e-01 +7.40601122e-01 +5.36035001e-01 -3.70404087e-02 -4.29566830e-01 +5.00204444e-01 +5.55476248e-02 +3.18904370e-01 -6.11919165e-01 +1.08754471e-01 -2.84597248e-01 +7.26541400e-01 -5.11117637e-01 +3.16376358e-01 -3.86668473e-01 -5.90612173e-01 +6.85230970e-01 -6.92756832e-01 +2.10054621e-01 +3.27111483e-01 -5.50748408e-01 -3.79035860e-01 +5.50674677e-01 -3.13576639e-01 +4.19132739e-01 +6.78349018e-01 +2.59090304e-01 -5.84852040e-01 -8.82203639e-01 +2.80669004e-01 +4.62375432e-01 +5.35910904e-01 -6.75224483e-01 -3.33085001e-01 +5.21094739e-01 -7.40923524e-01 +5.21591067e-01 -8.06876421e-01 -4.60386127e-01 +5.09099960e-01 -5.63125908e-01 +7.47659087e-01 -5.58950841e-01 -6.36194706e-01 +4.62327927e-01 +1.30537838e-01 -8.67858768e-01 -4.70403582e-01 -1.02077627e+00 -4.18159187e-01 +3.08997929e-01 +7.24558234e-01 +6.36512160e-01 -9.19577658e-01 +1.57044213e-02 +5.10514140e-01 -5.48262477e-01 +6.13215864e-01 -4.72160637e-01 -9.99615252e-01 -2.79121608e-01 +2.74334818e-01 -2.95680135e-01 -3.99125218e-01 +7.78202355e-01 -4.78845954e-01 -4.08992738e-01 -6.51431084e-01 +5.38651228e-01 -5.46835244e-01 +1.03208578e+00 -6.18726134e-01 +3.67527455e-01 +8.14994276e-01 -3.25867683e-01 -1.94009870e-01 -6.67391837e-01 +6.01936042e-01 -3.74253124e-01 +3.57601672e-01 -4.14283752e-01 +4.52065229e-01 -2.61278480e-01 +6.21601582e-01 +4.95758682e-01 +9.25612032e-01 -4.71623480e-01 -5.22519231e-01 -3.42951268e-01 +5.03415048e-01 -7.37723291e-01 -3.75941396e-02 +4.01622474e-01 +6.21816993e-01 -6.13654494e-01 -3.37505527e-02 +3.33602816e-01 -3.53432745e-01 -8.23322654e-01 -5.37742615e-01 -3.51755619e-01 +1.69423372e-01 -3.00354242e-01 -7.06082463e-01 +3.58054370e-01 -7.46295094e-01 +6.36525333e-01 +3.34093869e-01 -4.60272312e-01 +6.99802399e-01 -3.02269459e-01 +4.65544671e-01 +4.29820418e-01 +6.04201615e-01 -4.53929484e-01 +8.20414245e-01 +2.37416208e-01 +7.21798897e-01 +2.33238176e-01 +3.21649671e-01 -3.00274014e-01 -4.04931605e-01 +9.11982894e-01 +5.29346094e-02 -6.45869136e-01 -2.68325776e-01 +5.92888772e-01 +7.15544343e-01 -6.13581249e-03 +1.10868849e-01 +1.14669964e-01 +5.08791566e-01 +3.98300558e-01 -6.81556702e-01 +2.68406063e-01 +9.67136845e-02 -2.62917012e-01 -1.05662830e-01 -2.78259963e-02 -1.27827972e-01 -4.01501566e-01 -8.04008782e-01 -3.95766914e-01 +8.39636862e-01 -7.29965508e-01 -3.17341715e-01 -2.11807236e-01 -8.36258650e-01 -5.42290688e-01 +9.50732157e-02 -6.65606976e-01 -3.02810341e-01 -7.19620883e-02 +1.10243127e-01 +4.94773448e-01 +6.30537927e-01 -5.55537879e-01 +7.14607954e-01 -5.77503443e-01 +6.29726112e-01 +6.88607037e-01 +3.26528996e-01 -2.93022096e-01 -4.05006945e-01 +9.63430882e-01 +6.72379196e-01 -3.55895221e-01 -5.36783278e-01 -6.75084889e-01 +1.72966346e-02 -6.66442513e-02 +7.86728442e-01 -3.37078750e-01 +6.96527839e-01 -4.88191485e-01 +7.72011459e-01 -4.23122376e-01 -6.11065626e-01 -1.87145650e-01 +6.11780465e-01 -3.14093828e-01 +2.65663803e-01 -5.46011269e-01 +4.81181085e-01 -7.62559474e-01 -3.71650815e-01 +2.28483915e-01 -7.10401759e-02 -5.07288337e-01 +1.47735313e-01 -6.40946090e-01 +9.22491491e-01 -3.63821238e-01 -5.20198643e-01 +6.42742097e-01 -5.03645539e-01 -5.63338518e-01 -7.79703319e-01 -1.54055387e-01 +1.39739275e-01 -3.14328045e-01 -5.62913835e-01 +2.91049838e-01 -2.66777247e-01 -3.46117735e-01 +9.38181221e-01 -4.51481968e-01 -7.04639792e-01 -8.89543116e-01 +3.28798145e-01 -6.09543204e-01 +4.83384460e-01 +2.26536840e-01 +9.85448807e-02 -5.08361161e-01 -6.55007064e-01 -7.95939267e-01 +5.73778212e-01 +5.08250058e-01 -2.10343719e-01 +6.40640855e-01 -4.43405032e-01 -4.36963171e-01 +9.55321431e-01 -1.09618753e-01 -5.38223326e-01 +6.75315380e-01 -3.92316014e-01 -3.91009867e-01 +1.57321796e-01 -6.24057055e-01 +7.05901563e-01 -7.23373234e-01 -6.59958065e-01 +1.25398532e-01 +5.29706836e-01 -4.00661707e-01 -5.28362870e-01 +7.54574597e-01 -5.42333186e-01 +7.00020015e-01 +4.71619874e-01 -7.14517057e-01 +5.47418118e-01 +1.83033124e-02 -5.69704115e-01 -4.78629619e-01 +3.15281838e-01 +8.24074566e-01 -4.70540822e-02 -4.22759950e-01 -3.98881137e-01 +4.97765839e-01 -2.76915491e-01 -6.61588788e-01 +6.05348110e-01 +5.88436961e-01 +4.88396585e-01 +7.74949908e-01 -4.23416376e-01 -3.41993362e-01 +5.54059565e-01 +6.54006481e-01 -3.08333099e-01 +4.31192070e-01 -5.12471914e-01 +4.64345366e-01 +2.42086630e-02 +1.44031420e-01 -2.01454982e-01 -5.39209604e-01 +5.86184263e-01 -2.85274476e-01 +2.62610197e-01 -5.71836233e-01 -7.67211735e-01 -8.14774096e-01 +3.70120496e-01 -3.98004770e-01 +7.10601032e-01 +8.50965753e-02 -9.11637485e-01 -5.31950533e-01 +3.78480107e-01 +4.78680730e-01 -3.24558854e-01 +9.98188853e-01 -8.53824735e-01 +1.14670146e+00 +4.15154427e-01 +5.44562697e-01 +3.98910731e-01 -1.37853682e-01 +1.29557475e-01 -1.71447873e-01 -3.53483647e-01 -2.28550538e-01 -1.98348209e-01 +5.13020217e-01 +4.60230678e-01 -5.43509841e-01 -1.96930349e-01 -4.46943849e-01 +6.54726624e-01 +4.82628912e-01 -6.93638980e-01 +5.22297978e-01 -7.92071819e-01 +6.24993503e-01 -2.52038389e-01 -4.55682099e-01 +3.73863697e-01 -1.31696323e-02 -2.71101862e-01 +7.18201339e-01 -4.30694401e-01 +3.30845356e-01 -4.75216746e-01 +5.04485011e-01 -4.30248141e-01 +6.86955094e-01 -1.45530120e-01 -4.50139105e-01 +6.99810147e-01 +5.00403404e-01 +7.01251686e-01 +6.82448745e-01 +9.26515281e-01 -2.42924497e-01 +7.25766122e-01 -7.51845837e-01 -1.90000802e-01 +4.90596741e-01 -8.14417183e-01 +8.26840639e-01 -2.58237869e-02 +1.55581146e-01 -2.63191760e-01 +4.74601269e-01 +5.06033123e-01 +2.29560301e-01 +2.50156850e-01 -4.16354924e-01 +6.18997633e-01 +7.89168715e-01 -2.19866574e-01 +3.87004435e-01 +5.09732664e-01 +1.80530369e-01 +9.33520675e-01 -5.77994704e-01 +7.76602507e-01 +5.56219578e-01 -5.38601637e-01 +3.47052306e-01 -5.34699738e-01 -5.66340089e-01 +1.26527831e-01 -4.14765850e-02 +1.70497552e-01 +1.72684118e-01 -3.51055592e-01 -5.84324837e-01 +5.21285892e-01 -8.40713978e-01 +5.65591753e-01 -5.38636029e-01 -5.05542099e-01 -5.07838070e-01 -5.57790816e-01 -6.10621214e-01 -2.88331676e-02 -6.15002096e-01 -2.29903921e-01 -7.72988558e-01 -6.17779315e-01 -7.74308741e-01 -4.00973223e-02 -5.99120200e-01 -6.70933604e-01 -3.52078378e-01 +1.59220800e-01 -6.75768316e-01 +7.50329256e-01 +8.37468505e-02 -3.58741611e-01 +1.76012754e-01 +4.37225848e-01 -3.69328499e-01 -6.34306192e-01 -6.25117302e-01 +3.28246981e-01 -4.87426609e-01 -6.31696999e-01 +1.49235040e-01 -1.03263907e-01 -8.11456621e-01 +2.26387739e-01 +5.39062917e-01 -1.85264975e-01 +3.06875914e-01 +4.47032481e-01 -7.06201613e-01 +7.79489987e-03 +7.69717395e-01 -1.33494228e-01 -6.39564544e-02 -6.42541468e-01 -7.98661709e-01 -8.35880041e-01 +9.97263372e-01 -9.20219272e-02 -1.16760820e-01 +8.00129294e-01 +6.05198681e-01 +2.83280641e-01 +3.43518630e-02 +7.68889427e-01 +7.56326497e-01 -2.22403720e-01 -2.73344636e-01 -4.36027408e-01 -8.57548833e-01 -3.69857997e-01 +3.79194766e-01 -8.00020218e-01 +5.59971519e-02 -6.63876891e-01 +6.50324047e-01 -3.45951021e-01 +1.09786093e-02 -4.52912450e-01 -5.84416091e-01 -1.53770698e-02 +3.32557410e-01 +6.25084817e-01 -4.52895254e-01 -3.25184017e-01 -5.06255507e-01 -4.00710523e-01 -7.93863535e-02 -4.64431137e-01 -8.10629189e-01 -2.25358859e-01 -2.25075483e-01 +3.76749903e-01 +4.23967212e-01 -4.48669463e-01 +6.58936381e-01 -3.40160988e-02 -6.55149147e-02 +5.83665848e-01 +6.22484446e-01 +4.71824467e-01 -2.37873659e-01 +3.35896999e-01 +4.85329568e-01 +7.12451398e-01 -3.18151712e-01 -3.01745594e-01 +2.68812269e-01 +1.67117521e-01 +4.15897220e-01 +2.60317981e-01 -5.64043760e-01 +8.16198051e-01 +6.48060620e-01 +1.61992639e-01 +6.57449245e-01 +3.46494883e-01 -6.84699118e-01 +7.43559778e-01 +4.22897756e-01 -3.74725789e-01 +1.08490705e-01 -1.54049888e-01 +5.25761425e-01 +4.30991471e-01 +1.53599620e-01 +9.39699858e-02 -6.36595607e-01 +4.74765569e-01 +2.64634013e-01 +3.43210816e-01 +1.44624457e-01 +1.94019675e-02 +4.99130696e-01 +5.32257378e-01 -5.43581545e-01 +1.95560262e-01 -3.61555219e-01 -2.87705868e-01 -1.01943299e-01 -2.65983939e-01 -4.73528802e-01 +4.59485680e-01 +6.63557529e-01 +3.76148432e-01 -5.56256354e-01 -3.10199976e-01 -5.28618217e-01 +4.55658495e-01 -3.09779882e-01 +2.86353938e-02 +8.32056776e-02 +6.27919257e-01 -3.99934143e-01 -6.18460655e-01 -5.29987037e-01 -2.54558921e-01 -2.73807287e-01 -2.50152677e-01 -4.72914338e-01 -5.30199349e-01 +6.38305187e-01 +3.79391313e-01 -6.99183643e-01 -1.26609191e-01 -5.88670313e-01 -4.12653625e-01 -3.57941628e-01 +5.89268565e-01 -1.00992238e-02 -4.74363685e-01 +7.47642368e-02 +4.99831527e-01 -4.88832176e-01 -2.67224073e-01 -9.44837749e-01 +2.26808220e-01 -6.35012984e-01 -4.85141277e-01 +4.69166011e-01 -2.61640787e-01 +8.42815042e-01 +1.17029086e-01 +2.91746259e-01 -1.92242742e-01 +2.98378795e-01 -7.64594555e-01 -6.55664146e-01 +1.92710370e-01 -1.52717888e-01 +6.48688301e-02 
#Parameter# /Linear.1c40e55e/_1 {69} 1105 ZERO_GRAD
-1.30777746e-01 +5.86117245e-02 +1.16105869e-01 +1.76840216e-01 +1.10901959e-01 +2.33062759e-01 +1.35218933e-01 +1.82583019e-01 +1.99725345e-01 +2.41623133e-01 +7.08617121e-02 +1.25830481e-02 +7.11509362e-02 +1.60944797e-02 -6.79340661e-02 -1.24046355e-01 -8.45670104e-02 -1.36971369e-01 -2.33965114e-01 -1.04706630e-01 -1.21316820e-01 -1.47857890e-01 -3.03808153e-02 -1.69779405e-01 +8.74160007e-02 -7.61098191e-02 -2.04229489e-01 -9.92068574e-02 -1.15251370e-01 -2.11218461e-01 -2.05932647e-01 -8.05989727e-02 -2.57822365e-01 -1.07837677e-01 -1.86702579e-01 -2.58068498e-02 -1.46452561e-01 -1.82317734e-01 -1.24373361e-01 -1.90709859e-01 -1.57293946e-01 -6.22584745e-02 -1.41139969e-01 -1.09130785e-01 -5.47800101e-02 -6.71566278e-02 -2.09709615e-01 -1.86208978e-01 -3.10560092e-02 -1.71687990e-01 -1.34019703e-01 -5.98681942e-02 -1.20824240e-01 -1.54694334e-01 -2.03667700e-01 +5.20652533e-02 -2.04587057e-02 -8.22401047e-02 -3.01905926e-02 -9.69350561e-02 -2.00256675e-01 -2.64956355e-02 -9.06649902e-02 -1.78960562e-01 -4.59918864e-02 -9.68152210e-02 -2.26634935e-01 +8.20816755e-02 -1.54951736e-01 
