#Parameter# /UniLSTMSeqTransducer.710411d0/_0 {64,32} 32769 ZERO_GRAD
+8.81211236e-02 -2.35325135e-02 +8.92177150e-02 -2.66836017e-01 -1.84780404e-01 +2.96116263e-01 -1.98505566e-01 +1.88376278e-01 +1.68097153e-01 +4.00158018e-01 -8.15800056e-02 +2.61824042e-01 +3.12981576e-01 -6.76578954e-02 -3.72191519e-02 +6.81526884e-02 +3.76596928e-01 +4.62604314e-01 -1.96382359e-01 -7.59143662e-03 +5.07508405e-02 +1.94618374e-01 -1.40157472e-02 -5.97923659e-02 +2.17507645e-01 -1.01103283e-01 -1.11459158e-01 -4.05752212e-01 -1.99176744e-01 +5.44889085e-02 +2.26891845e-01 -2.06496015e-01 -1.23628937e-02 +3.78552318e-01 +7.48453289e-02 -3.57461981e-02 -4.99474406e-02 -4.02699172e-01 +3.19860071e-01 +3.86682153e-01 +4.32901494e-02 +3.95919532e-01 +1.60366541e-03 -2.92238623e-01 +2.34099686e-01 +5.42239472e-03 -1.77016202e-02 -4.35707808e-01 +2.81348228e-01 +3.27641159e-01 -6.27800077e-02 -5.26981890e-01 +4.81505170e-02 +2.14956731e-01 -6.57442153e-01 -4.91537273e-01 +2.26068929e-01 +1.15522437e-01 +1.27138689e-01 -2.38619111e-02 +1.13486774e-01 -2.62108535e-01 -1.47403926e-01 +1.96203545e-01 +8.98970068e-02 -3.55935842e-01 -1.97896749e-01 -1.23626851e-01 +1.25892371e-01 -5.45884371e-01 -5.82661740e-02 +3.56147230e-01 -1.48621991e-01 -8.78482163e-02 +1.59570277e-01 +2.40468621e-01 -1.46894351e-01 -1.03561290e-01 -3.79174471e-01 -5.04318714e-01 +4.96492028e-01 +4.41798195e-02 +2.26072401e-01 +1.67485803e-01 +1.65986925e-01 +5.31281717e-02 -2.58941770e-01 +4.19278979e-01 +3.47922474e-01 -3.41704220e-01 +1.93093896e-01 +3.48324358e-01 -3.43883544e-01 +2.45420590e-01 +3.45499516e-01 +1.25229508e-01 +2.76280753e-02 +1.70490354e-01 +2.35261500e-01 +1.83411799e-02 +2.96305895e-01 -3.50145549e-01 +2.08536431e-01 +6.17314339e-01 +3.57358932e-01 -4.72440198e-02 -1.30440921e-01 +5.11869825e-02 -5.41549101e-02 +4.51287389e-01 +4.30916131e-01 +1.48993641e-01 -6.73151135e-01 -1.90597951e-01 +1.59405351e-01 +7.63594359e-02 +1.89596578e-01 -1.21266566e-01 +2.14555547e-01 -4.42748159e-01 +3.70346457e-01 -2.44733468e-01 -6.10313974e-02 +4.06143554e-02 -3.09957176e-01 -1.87604621e-01 +1.95690733e-03 -1.73815429e-01 -3.83741587e-01 -1.54897332e-01 -1.88662723e-01 +3.42574477e-01 -2.39168182e-01 -5.82139492e-01 +1.01396121e-01 +5.23763239e-01 -1.42854720e-01 +1.36863783e-01 +9.45138186e-02 +3.51421505e-01 +2.27775887e-01 +1.27797112e-01 +2.41692215e-01 +3.90229762e-01 +4.38037254e-02 -1.26487792e-01 +3.19931537e-01 -6.15472384e-02 +3.68917942e-01 -3.28603247e-03 +4.53524478e-03 +2.42039531e-01 +5.21715432e-02 +4.51328158e-02 -2.97029354e-02 +2.89295614e-01 -1.92666173e-01 -8.58545303e-02 +3.01436871e-01 +6.76989034e-02 +7.13163167e-02 -2.61524349e-01 +2.49235526e-01 +5.87712586e-01 +2.08939776e-01 -1.66908950e-01 +4.76585031e-02 +3.44289631e-01 +3.82862568e-01 +6.85377046e-02 -3.38649005e-01 +3.30979288e-01 +1.36473984e-01 +5.39842434e-02 -1.25764102e-01 +2.85222471e-01 -1.68238860e-02 -2.85511315e-01 -3.11894082e-02 -2.66417056e-01 +2.51711279e-01 -4.52565044e-01 -2.18026146e-01 +3.23961079e-01 +2.32556492e-01 -3.38912129e-01 +9.62472931e-02 +1.16775982e-01 -3.72773856e-02 -7.95438290e-02 +2.40867794e-01 -3.17186356e-01 -1.99052040e-02 -6.71139583e-02 -1.68939382e-02 +2.25943252e-01 +6.12159744e-02 +2.96415269e-01 +4.43062723e-01 -5.22715390e-01 +1.00046754e-01 -4.28877354e-01 -1.92853436e-01 +1.04309984e-01 +4.31918234e-01 +3.19054723e-01 -1.49275318e-01 +2.10139930e-01 +7.84635544e-02 +9.78663564e-02 -1.22538388e-01 -3.63152891e-01 -1.92538779e-02 +2.78175563e-01 +2.02954933e-01 +2.81639490e-02 -1.41321972e-01 -1.51746497e-01 +1.83918267e-01 -3.16874444e-01 -9.25641283e-02 -5.83921447e-02 +4.73077804e-01 +1.46652833e-01 +1.30593693e-02 +1.91922501e-01 -1.01083778e-01 +5.39166015e-03 +4.67146218e-01 +2.12470978e-01 -3.01159501e-01 -3.11462879e-01 +3.66149664e-01 +3.34009618e-01 +4.30208966e-02 +1.25209451e-01 +2.19138131e-01 +3.92386138e-01 +1.58470258e-01 +6.64996356e-02 -5.18468991e-02 -3.17255139e-01 -1.73278704e-01 -2.78879881e-01 -2.65386313e-01 -1.12975918e-01 +1.43223509e-01 -6.16046712e-02 -1.03795663e-01 +1.77252203e-01 -1.75046980e-01 -4.83814955e-01 -3.80827934e-02 +1.67866983e-02 -1.41976625e-01 +1.75706949e-02 +3.62802476e-01 -2.41537988e-01 +1.42646343e-01 +1.16596150e-03 +2.74650663e-01 -5.18490732e-01 +8.74556750e-02 +5.23467481e-01 -2.80003771e-02 -6.71375841e-02 -4.15682942e-02 +3.03027689e-01 -2.37554699e-01 +1.00518093e-01 +3.74103129e-01 -2.26428360e-01 -2.55198240e-01 -3.29078704e-01 +1.27542958e-01 -3.47601891e-01 +6.96836188e-02 +1.09019943e-01 +1.74633846e-01 +1.91705916e-02 +2.21146923e-02 -5.06423898e-02 -1.51962772e-01 +1.05302222e-01 +4.55629937e-02 -2.05875203e-01 +5.27788587e-02 +3.63457859e-01 -1.58148050e-01 -7.33071119e-02 +1.37681067e-01 +7.50353932e-02 +9.23899934e-02 -2.36583188e-01 -2.28970721e-02 +6.88823819e-01 +3.22058886e-01 -1.80482179e-01 -3.94404858e-01 -3.20118070e-01 +4.27930728e-02 +1.06785223e-01 +2.41973072e-01 +4.85797115e-02 -4.15449828e-01 +5.11577278e-02 +1.61741748e-01 +2.33336076e-01 +2.22286403e-01 +1.92871571e-01 +3.06509793e-01 -1.96803302e-01 +2.84893245e-01 -1.16414294e-01 +8.55963901e-02 -4.42909390e-01 -5.42067945e-01 -3.00056666e-01 -1.21220402e-01 -4.71921474e-01 -2.70027786e-01 -3.73396605e-01 +9.28487908e-03 -2.39639193e-01 +5.49598411e-02 +3.25123191e-01 +4.67846334e-01 -2.16122176e-02 +3.16077083e-01 +2.74818420e-01 -1.91854164e-01 -1.52457401e-01 -3.30782562e-01 +3.15167427e-01 -3.69039029e-01 -2.00436249e-01 -4.48877931e-01 -2.95467284e-02 +3.24097902e-01 -6.50551915e-02 +1.00361876e-01 -7.82381669e-02 -2.69501001e-01 +1.27777889e-01 -2.10770160e-01 +1.22974319e-02 -3.03503752e-01 -8.26284662e-02 -3.23789380e-02 +4.39905711e-02 -1.06919982e-01 +3.90528888e-01 -3.89248952e-02 +3.57465476e-01 -1.14575356e-01 +1.18840285e-01 +3.50748569e-01 +1.54108971e-01 +2.74423689e-01 -1.35645688e-01 -1.31737307e-01 +3.66908640e-01 -3.39849651e-01 +3.37702669e-02 -4.96481717e-01 -8.67097825e-02 -5.31674743e-01 +9.74523574e-02 +1.01133443e-01 +1.72045201e-01 -2.43782982e-01 +1.86611965e-01 +3.13908905e-01 -2.22099409e-01 -3.82466912e-01 -3.11964124e-01 -4.46546584e-01 +1.59993067e-01 -3.46072406e-01 -7.59265348e-02 -2.98211783e-01 -2.85891205e-01 -2.48719722e-01 +8.82405788e-02 +3.27285409e-01 -2.88491905e-01 +3.77373360e-02 -1.44757837e-01 -3.31573367e-01 -6.10944033e-02 +3.82242315e-02 +1.45676330e-01 -2.37395391e-01 -8.48019719e-02 +3.10245663e-01 -2.90056169e-01 +5.12583368e-02 -5.18037617e-01 +5.10555267e-01 +1.85815573e-01 +5.33851504e-01 +1.76320244e-02 +2.48782381e-01 +7.61095211e-02 -2.86532398e-02 +3.39203328e-01 -2.42585316e-02 -7.29818046e-02 -2.21935228e-01 -6.50664791e-02 -1.13103814e-01 -5.92094719e-01 +1.29797101e-01 +2.27773368e-01 -1.64834723e-01 -4.18187864e-02 +1.18282121e-02 -7.69908875e-02 +6.31418675e-02 +1.47314653e-01 +2.11483255e-01 -1.27389342e-01 -1.71392262e-01 -3.28603417e-01 +1.99921668e-01 -8.26032162e-02 +2.75314115e-02 -4.60868388e-01 +4.39410992e-02 -1.35024846e-01 +1.87010802e-02 -7.80095309e-02 +2.44450897e-01 -2.73229182e-01 -2.55440474e-02 -2.68049657e-01 -9.13748667e-02 -2.81403251e-02 -4.99992371e-01 -1.36101022e-01 -2.83458024e-01 +2.17970595e-01 +4.08860564e-01 -9.58695784e-02 +3.22669953e-01 +3.12347353e-01 +4.42973197e-01 +4.78307717e-02 +1.31321419e-03 -9.97265875e-02 +4.20809269e-01 -2.30642602e-01 +7.84251746e-03 +2.02423945e-01 +2.17808187e-01 +1.80224463e-01 -5.13893127e-01 +5.58634773e-02 -1.56660434e-02 -4.86051962e-02 +2.10651323e-01 -2.34751672e-01 +6.35404289e-02 -2.36081034e-01 -9.13032144e-02 +4.28636670e-01 -9.13482010e-02 +2.45679080e-01 -1.62892476e-01 -8.89935493e-02 +3.30857545e-01 -1.80957213e-01 +3.66951525e-02 +9.09058228e-02 -5.24915271e-02 +4.71977234e-01 -1.92396343e-03 +6.56326115e-02 -2.85814404e-01 -5.59516884e-02 +4.00584377e-03 -1.65744647e-02 +1.16102517e-01 -3.57760966e-01 -3.36292922e-01 +3.36065441e-01 -1.55987199e-02 -1.13513127e-01 -5.63424034e-03 +3.90860915e-01 +6.78476617e-02 +5.63746355e-02 -1.46353945e-01 +4.60385740e-01 -4.31325376e-01 +1.27764232e-02 +6.36111200e-02 -1.54050559e-01 +5.73346801e-02 -3.35727423e-01 -9.27965492e-02 +2.08617747e-01 +4.90058698e-02 +1.27832051e-02 -3.59147012e-01 +3.62239957e-01 -9.46177170e-03 +4.30616140e-01 +2.48317868e-01 +3.63683403e-01 -4.75653587e-03 -7.65873492e-02 +3.11706990e-01 +3.44579041e-01 +4.20981675e-01 -2.60790735e-02 +2.86183774e-01 +7.63436630e-02 -3.81268054e-01 +2.79750619e-02 -7.87118971e-02 -3.67853105e-01 +2.91923076e-01 +2.05276832e-01 +1.01097681e-01 -3.93079728e-01 +1.69906512e-01 +1.27891116e-02 -1.76443517e-01 +2.52973437e-01 -1.02702789e-01 +1.03006005e-01 -4.35763747e-02 -2.15330288e-01 +3.28319930e-02 -1.04000174e-01 +1.70104623e-01 +4.28200625e-02 -2.92094052e-01 -4.07095283e-01 -1.16101410e-02 +2.91232672e-02 +2.20305413e-01 -2.98899382e-01 +2.00448185e-01 +5.88557832e-02 -4.14891124e-01 +9.31414589e-02 +5.06882548e-01 -1.80823207e-01 -2.59652436e-01 +4.88352180e-02 +5.03652170e-02 -3.83880019e-01 -1.31875277e-02 +6.70868978e-02 -3.87573481e-01 -5.34270883e-01 +2.79653549e-01 +1.96265429e-01 +2.23649338e-01 +4.07784671e-01 -1.89079821e-01 -5.47007442e-01 +4.18203443e-01 -1.82440072e-01 +1.53135002e-01 -2.48525292e-01 +1.53401881e-01 -8.74605104e-02 -4.47145104e-02 +6.82811663e-02 -3.17172378e-01 -4.39669430e-01 +3.52734178e-01 -1.67579040e-01 -2.38920301e-01 -2.52123654e-01 -1.04891494e-01 -7.47597665e-02 -1.34328589e-01 +2.25173980e-01 +4.28237254e-03 +7.67735625e-03 +5.09341300e-01 -3.80883843e-01 -2.53319681e-01 -1.82136014e-01 +2.47659311e-01 -1.80110857e-01 -4.09459144e-01 +2.26903241e-02 +4.33171876e-02 +1.20608754e-01 -8.92632920e-03 +3.72592241e-01 +3.84795010e-01 +2.26049572e-01 +7.71319419e-02 -2.22106546e-01 +4.99267817e-01 +1.48781121e-01 -3.10255110e-01 +5.62470034e-02 -1.09215468e-01 -1.89237162e-01 -2.37529740e-01 -7.14450479e-02 +5.13465703e-01 +1.29648358e-01 -2.12243441e-02 -1.16030939e-01 +2.77966917e-01 +2.56981313e-01 +2.82082260e-01 -3.08303177e-01 +1.93871588e-01 -1.54555261e-01 -2.25611538e-01 -1.48918748e-01 -4.72191393e-01 -2.50689805e-01 +2.61554092e-01 +2.23793015e-02 +2.95706868e-01 +3.61801088e-01 -2.77000934e-01 -2.50053346e-01 +3.80037129e-01 -7.81799182e-02 +1.32702634e-01 +4.43394065e-01 +9.84532684e-02 -2.55813450e-01 -5.65607131e-01 -2.09032804e-01 -3.30418855e-01 -9.47063118e-02 -1.49624199e-01 +1.78815573e-01 -5.59030697e-02 +2.05223367e-01 -2.93255031e-01 +1.98251866e-02 -1.59794271e-01 +6.36986077e-01 +2.25644439e-01 -7.72244483e-02 +1.98073909e-01 -6.96740672e-02 +7.90380016e-02 +1.16920419e-01 -5.75382076e-03 +5.95805794e-02 +2.16439918e-01 +1.44933060e-01 -2.45986938e-01 +1.41395777e-01 -2.23623380e-01 -7.69207180e-02 -1.71816900e-01 +2.46580318e-01 -4.06547636e-01 -4.44975793e-01 -2.81096101e-01 -1.03310026e-01 +2.51618832e-01 -4.88617122e-01 +1.67822123e-01 +1.67127013e-01 -1.99551761e-01 -7.76988193e-02 -2.19441324e-01 +1.64131761e-01 -3.24364543e-01 +3.39874551e-02 -4.08021957e-01 -1.00267142e-01 +8.65890905e-02 -2.74958611e-01 -1.77150905e-01 +1.28020436e-01 +6.10127330e-01 -2.22361341e-01 -9.61105153e-02 +2.63456665e-02 -3.08118433e-01 +1.50521159e-01 +5.40190816e-01 +5.15496373e-01 -2.72414207e-01 -3.03789616e-01 -4.32158649e-01 -2.49765888e-01 +2.39262521e-01 -1.37427121e-01 -8.33429098e-02 +1.10102274e-01 +4.67934757e-01 -5.32509461e-02 +2.71264285e-01 -1.18563123e-01 +1.23427853e-01 -3.81798744e-01 -1.06189810e-01 +5.25177479e-01 +2.13108495e-01 -1.67425886e-01 +4.22196835e-01 -3.74265648e-02 -3.39591920e-01 -2.29136631e-01 -3.07429463e-01 -3.02839369e-01 -1.68943062e-01 -2.19710991e-01 -4.35050339e-01 -4.73165363e-02 +3.16885710e-01 -2.40464061e-01 -2.27274150e-01 +7.29075000e-02 -2.68716484e-01 +1.70255721e-01 +2.57404178e-01 +3.55257958e-01 -3.89686137e-01 -1.78062573e-01 +7.80528188e-02 +3.71417888e-02 -3.65287393e-01 +1.69923663e-01 -3.88210490e-02 -1.27147675e-01 +1.96343735e-02 -1.05128676e-01 -5.48425801e-02 +3.42310518e-01 -1.76979408e-01 -1.29260033e-01 -2.52739843e-02 +3.21817279e-01 +2.41413847e-01 -1.92951068e-01 -4.98739541e-01 -2.45324746e-01 +4.92974110e-02 +1.40570357e-01 -3.11730295e-01 -8.88953134e-02 +3.39062184e-01 -1.00358345e-01 -2.02024743e-01 -2.79867798e-01 +5.14268756e-01 +3.56884569e-01 +1.16855733e-01 -1.26243914e-02 -3.69949788e-01 -1.16790682e-01 -2.35803481e-02 -5.56158960e-01 -2.63594061e-01 +3.09720576e-01 +2.10798606e-01 +4.87412423e-01 -1.41707882e-02 +1.34989649e-01 -7.51984864e-02 -1.97347607e-02 +3.04191232e-01 +2.26978213e-01 +1.43291801e-01 -3.80682081e-01 +6.51487350e-01 -4.31438014e-02 +2.97801364e-02 -1.27541885e-01 +2.24259466e-01 -1.93633735e-01 +7.64508471e-02 -1.65387824e-01 -3.78046371e-02 +1.68666318e-01 -2.80195326e-02 -3.56424540e-01 +1.84249714e-01 +1.31730407e-01 -7.84226507e-02 -1.04006171e-01 +7.24710047e-01 +2.12093130e-01 -2.02535108e-01 -8.74544308e-03 -1.34388700e-01 +3.56663197e-01 -1.20067954e-01 -3.62047285e-01 +1.42212495e-01 +4.10403341e-01 +3.44715476e-01 +1.12636812e-01 +1.89443961e-01 +1.29204705e-01 -6.77233888e-03 -2.92253971e-01 +4.28491384e-01 +3.87103632e-02 -5.46460263e-02 -1.00819923e-01 +2.82501876e-01 +2.38373101e-01 +1.61100194e-01 +3.96031916e-01 +1.28226608e-01 -1.05240205e-02 -4.06967327e-02 -1.01840355e-01 -4.59211648e-01 +1.01459093e-01 +4.02994215e-01 +5.61980069e-01 -3.49776655e-01 +1.33601308e-01 -1.57035843e-01 +1.07631072e-01 +4.96856213e-01 -1.63022786e-01 -1.89271066e-02 -1.06197156e-01 +4.78998423e-02 -7.99880922e-02 -2.73811847e-01 -2.32748687e-01 -4.74611633e-02 -2.54510790e-01 -1.75123990e-01 +1.33718088e-01 -3.76191705e-01 -3.62146527e-01 -3.56253982e-01 +3.03364880e-02 +2.65114963e-01 -3.35349888e-01 -2.62871772e-01 +5.47902733e-02 +2.68542320e-01 +1.41489238e-01 -5.70796393e-02 -5.30629009e-02 +3.92799258e-01 +3.76516342e-01 +3.39568146e-02 -2.92544603e-01 -3.45023796e-02 +8.96873325e-02 +1.14151359e-01 +1.98077977e-01 +4.35000300e-01 +2.72939742e-01 +3.52346778e-01 -8.02743137e-02 +3.38558704e-02 +3.63496244e-02 -4.19601172e-01 -3.51399004e-01 +3.65343839e-01 -1.22191221e-01 -9.14125815e-02 -2.84425527e-01 -5.34602404e-01 -1.27936691e-01 -8.84201191e-03 -8.50883052e-02 +5.56269288e-01 -1.41729593e-01 +4.84604508e-01 +7.93816745e-02 -4.79181632e-02 +2.93420553e-01 +2.05999985e-01 +4.89505142e-01 -4.09115523e-01 -3.73963639e-02 -4.80614677e-02 +3.97253335e-02 +2.88491637e-01 +1.80861413e-01 -4.97805625e-02 +3.84346545e-01 +5.01731813e-01 +3.11811268e-01 -2.37504110e-01 -4.90694046e-01 +1.35924250e-01 -9.89791527e-02 +8.26612338e-02 -6.05140105e-02 +1.19642064e-01 -5.81220090e-02 -1.19178198e-01 -1.63745403e-01 -3.98648113e-01 -3.25433724e-02 -1.20561108e-01 -1.33573160e-01 -2.60279894e-01 +3.66914928e-01 +2.82124251e-01 +3.96683991e-01 +9.55436751e-02 -1.81879044e-01 -8.96185935e-02 +1.64932370e-01 -3.20648476e-02 -4.54647653e-02 -3.12356255e-03 +1.57078996e-01 -1.73507646e-01 +4.14078802e-01 +6.77698851e-03 -1.50830477e-01 -1.04509667e-01 +2.06982598e-01 -8.66300799e-03 +5.28986335e-01 +3.30015630e-01 +5.01667798e-01 +2.09931493e-01 +6.50014917e-05 +3.18164498e-01 +1.22870371e-01 +1.91663206e-01 +1.45401955e-02 +2.34020516e-01 +2.72721350e-01 +3.14693630e-01 -1.18270732e-01 -1.27348140e-01 +1.22972533e-01 +3.19759756e-01 -1.46208137e-01 +3.85132402e-01 -1.16965622e-01 -3.83877724e-01 +3.47931594e-01 -4.87083882e-01 -8.35507512e-02 +3.67733210e-01 +2.43453439e-02 +3.57315421e-01 +4.06361014e-01 +2.24332958e-01 +3.26616585e-01 +4.12607342e-02 -2.30922550e-01 -1.62460044e-01 -5.56989789e-01 +2.94601709e-01 -1.42201483e-01 -2.39633601e-02 +2.72999853e-01 -3.19308415e-02 -2.12670460e-01 +5.86301267e-01 -1.47699803e-01 -3.60179394e-01 +6.94305301e-02 -2.30003953e-01 -1.92782283e-01 +8.45693648e-02 -2.23519020e-02 -2.07756206e-01 +1.85728565e-01 +2.90651768e-01 +4.07443702e-01 -1.22424975e-01 -3.46025936e-02 +7.95454010e-02 -5.45447290e-01 +1.13248527e-01 -1.99668780e-02 -1.56507984e-01 -5.31473041e-01 -1.80920005e-01 +4.06207554e-02 -4.27965701e-01 +1.40481479e-02 +1.43408597e-01 -8.01007003e-02 +8.29325095e-02 +3.12790275e-01 -5.05221605e-01 -1.62107736e-01 +1.55318365e-01 -2.35216811e-01 +1.48075506e-01 +5.49856611e-02 -2.00688979e-03 -4.90210727e-02 +4.98239435e-02 -3.41818333e-01 -3.32730800e-01 +5.87174296e-01 -2.75585473e-01 -3.16499710e-01 -3.89732659e-01 -1.65336758e-01 +5.91142289e-02 +1.70695782e-01 +4.47787046e-01 +3.29300277e-02 -2.66560733e-01 -2.08337247e-01 +2.76033401e-01 +2.12153971e-01 +3.29773307e-01 -2.07781047e-01 -2.94174347e-02 -1.25879496e-01 +1.36934835e-02 +3.29052564e-04 +2.84399927e-01 -2.73946762e-01 -2.61064380e-01 +5.34138232e-02 +1.83969080e-01 +2.70261049e-01 -3.04342717e-01 -1.64881438e-01 +3.82458478e-01 -1.13989897e-01 +2.94843674e-01 -1.59477055e-01 -5.94329275e-02 -4.29301083e-01 -3.06214020e-02 -3.97590637e-01 -1.00053353e-02 +2.37630844e-01 -2.16399416e-01 -1.34709487e-02 -3.29801232e-01 -8.15053657e-02 +2.53396362e-01 -4.70046028e-02 +2.02661440e-01 +1.25906721e-01 -8.28883890e-03 +5.91023639e-02 -1.59526572e-01 -1.57289654e-01 +8.44977945e-02 -4.41268325e-01 +7.28443488e-02 -1.13576770e-01 +2.04937071e-01 -2.39338487e-01 +4.52765934e-02 +3.99179980e-02 -1.66406170e-01 +2.62360573e-01 -3.81659828e-02 +1.41536668e-01 -1.38009101e-01 -6.56834915e-02 +5.03355004e-02 -3.01700562e-01 +1.61957741e-01 -4.69211072e-01 -1.88887090e-04 -2.78752476e-01 +8.67961869e-02 -1.43028423e-01 -1.73700348e-01 +1.07173659e-01 +5.49046397e-02 +1.50333211e-01 -5.37308753e-01 -6.61914468e-01 +1.11548141e-01 -1.93374641e-02 +6.88415840e-02 -1.35251015e-01 -6.92442432e-02 -9.35132876e-02 +6.02105744e-02 -4.21184748e-01 -4.26444337e-02 +3.08940232e-01 +3.92417490e-01 +6.05393052e-01 +1.16941445e-01 -1.50814384e-01 +3.01573928e-02 +4.18523788e-01 +3.13187808e-01 +1.55972615e-01 +3.16939712e-01 -7.23252147e-02 -1.16722137e-01 -1.08156376e-01 +3.57207835e-01 -1.23596797e-02 -1.78919420e-01 +2.96501517e-01 +1.87179774e-01 +1.83407530e-01 +5.83708107e-01 +4.13188562e-02 -1.75980285e-01 +2.60267675e-01 +1.66266277e-01 -4.93545920e-01 -3.12703907e-01 +1.09997034e-01 +2.57712215e-01 +2.68462628e-01 +5.06363928e-01 +3.54526311e-01 +2.96002090e-01 +3.22289854e-01 -1.56341285e-01 +6.40960157e-01 +1.94165081e-01 +7.53845200e-02 +2.21517250e-01 +2.32679784e-01 +5.23163974e-01 +2.59977728e-01 -3.12417746e-01 -9.89376754e-02 -1.24606878e-01 -1.43112049e-01 -8.99052545e-02 -2.37916008e-01 -5.05806565e-01 -2.53606319e-01 +2.04533517e-01 -3.86669517e-01 +6.05212808e-01 -4.23422545e-01 -1.87754437e-01 -3.04503858e-01 +2.50084400e-01 -1.40648708e-01 -1.96571216e-01 -7.83180892e-02 -2.39801481e-02 -1.54962614e-01 +1.95433840e-01 -3.68727088e-01 -3.70624691e-01 +2.45206699e-01 +1.61328018e-01 -1.13315769e-01 +4.43274044e-02 -5.60030229e-02 -1.39951676e-01 +2.01910064e-01 +1.62955716e-01 -2.95342922e-01 -5.09957314e-01 +6.69195363e-03 -3.31278384e-01 +1.34676741e-02 -6.40914738e-02 -3.51817608e-02 -1.92822784e-01 -2.25329503e-01 -4.36692685e-02 +6.81955218e-02 -3.74603629e-01 -4.47559468e-02 -3.94012243e-01 -3.69197190e-01 -1.13825142e-01 +6.59128875e-02 +7.15581179e-02 -1.34879686e-02 +2.82748938e-01 -8.12761486e-02 +2.34781712e-01 -1.66607723e-01 -2.12834671e-01 -2.57419705e-01 +2.46931016e-01 -1.04749478e-01 -1.65734425e-01 -6.16564192e-02 -2.13577598e-01 -4.21476394e-01 +1.53763026e-01 -4.26237494e-01 -5.66253103e-02 +1.48842737e-01 +1.93656441e-02 +3.14922035e-01 +5.03487550e-02 -2.15929598e-01 -2.65866697e-01 -4.43102717e-01 -1.36080399e-01 +4.91300941e-01 -2.40542710e-01 +1.56945020e-01 +1.83104739e-01 -2.16223225e-02 +2.36103117e-01 -3.51737082e-01 +3.66158523e-02 +1.98351115e-01 +5.48209429e-01 +4.38402712e-01 +1.28606588e-01 +2.94287562e-01 +1.46892831e-01 -9.86950099e-02 +3.86380292e-02 -4.36199814e-01 +1.65777668e-01 -1.60126537e-01 +2.34624267e-01 +4.00936574e-01 +1.89254463e-01 +1.24456838e-01 +8.71074572e-03 +3.65065597e-02 +2.87616968e-01 -2.25079656e-02 -7.56027326e-02 -1.96148217e-01 +8.54999423e-02 -4.31871742e-01 -1.21224876e-02 -3.20224911e-01 -1.14117861e-01 -2.03595236e-02 -3.90034094e-02 +5.23991883e-01 +3.39165181e-01 +2.40175009e-01 +5.95220439e-02 -2.48942122e-01 +2.62155324e-01 +1.25172302e-01 -1.17442623e-01 -4.82791215e-02 +2.50847638e-01 +1.19746871e-01 -5.18280864e-02 +3.32868099e-01 +5.21987319e-01 -3.13272357e-01 -7.70709524e-03 +1.63416937e-02 -8.08909461e-02 +6.37048066e-01 +1.78632662e-02 -2.09521353e-01 +3.07165205e-01 -3.74006987e-01 +1.27734154e-01 +1.31856266e-03 +5.91394454e-02 +5.02758384e-01 -5.61555326e-01 +2.94277370e-01 +1.67206787e-02 +5.98028824e-02 -1.96526930e-01 -4.18076158e-01 -4.99020934e-01 +8.80875811e-02 +9.21280012e-02 -2.59496778e-01 -1.22512951e-01 +1.89488120e-02 +2.23643556e-01 -9.78135783e-03 -2.03267615e-02 -1.39845103e-01 +4.34975326e-02 +4.54136506e-02 -2.01915950e-01 +3.87450933e-01 -3.43526185e-01 -3.76378179e-01 +1.17507443e-01 +1.93182111e-01 +2.21532598e-01 +2.86032170e-01 +6.69379113e-03 +2.28584349e-01 -3.21322054e-01 +2.47508772e-02 +3.53734903e-02 -8.38792771e-02 +3.19784015e-01 +4.98542070e-01 +1.58207312e-01 -1.80760533e-01 -1.72695637e-01 -3.76205266e-01 +2.56461322e-01 +3.15268070e-01 -1.72555342e-01 +3.74377787e-01 -2.23557562e-01 +1.62439361e-01 +2.49720424e-01 +1.34009704e-01 +1.12563200e-01 -4.33369339e-01 -2.57252544e-01 -2.96413600e-01 -2.65128631e-02 -3.86160433e-01 -3.25337529e-01 -2.75012165e-01 -8.34219381e-02 -3.13596576e-01 +8.97479728e-02 +6.34296954e-01 +3.41896832e-01 -1.97046116e-01 -5.08497536e-01 -1.94786623e-01 +1.57949239e-01 +5.30275762e-01 -2.88996488e-01 -2.61328191e-01 -1.35860965e-01 -4.10495251e-01 +3.03965986e-01 +4.85445112e-01 +2.90112287e-01 +6.18417282e-03 -2.78945059e-01 +3.06550562e-01 -2.94088181e-02 -5.80273390e-01 -1.78245738e-01 -3.31547260e-01 +3.62523496e-01 +3.14076036e-01 -1.00706153e-01 -6.93642050e-02 -3.51000041e-01 -2.09639385e-01 +2.32684523e-01 -7.25280568e-02 -2.84015775e-01 +4.80014741e-01 +2.40185373e-02 +3.66271921e-02 +1.17672220e-01 -5.48685610e-01 -2.52544314e-01 +2.55754530e-01 +5.06772511e-02 +1.65043697e-01 -1.87680438e-01 +1.38488322e-01 -6.81500286e-02 +2.88587540e-01 +2.67065376e-01 +6.73412308e-02 +4.16164219e-01 +1.23178534e-01 +9.27908346e-02 -7.20314682e-02 -1.24209844e-01 -7.23514799e-03 +1.26164556e-01 -3.66465449e-01 -2.33181402e-01 +7.58621749e-03 +2.79776067e-01 -6.15969419e-01 +7.73928985e-02 -4.26641619e-03 +3.01461428e-01 -1.42318830e-01 -3.27252030e-01 +5.58692887e-02 +2.63625413e-01 -3.30937356e-01 -1.10068426e-01 -4.63465810e-01 -1.90349706e-02 +2.57334381e-01 +1.34037659e-01 +3.33462000e-01 +6.65642694e-02 +5.10477662e-01 -1.97312519e-01 +3.85020763e-01 -8.38791877e-02 -3.74862440e-02 -5.01569510e-01 -2.08553702e-01 -3.07446212e-01 +3.45747411e-01 +3.37405533e-01 -3.92539442e-01 -2.66350806e-01 +3.41531754e-01 -1.97885826e-01 -2.49590531e-01 +2.55334556e-01 -2.82876976e-02 +1.88080177e-01 +3.59600842e-01 +5.13331145e-02 +2.52499998e-01 +4.23769176e-01 -2.25532688e-02 -1.33810252e-01 +2.86399703e-02 +2.37289056e-01 +3.66928577e-01 +8.46913233e-02 -6.01455234e-02 -4.38254848e-02 -2.00673118e-01 +2.46683866e-01 +2.56968677e-01 +5.16528964e-01 +1.86424583e-01 -1.29521996e-01 +2.84035385e-01 -7.00373724e-02 +4.18760598e-01 -1.41562194e-01 -1.18813060e-01 -2.41670042e-01 +6.98370576e-01 +2.02431127e-01 -4.58461791e-01 +4.52325612e-01 +2.30702788e-01 +4.14888822e-02 +4.26854908e-01 +2.79900078e-02 -5.82230687e-02 -2.89575756e-01 +2.19971120e-01 +1.31517428e-03 +4.55169529e-01 +1.42438233e-01 +7.25748092e-02 +2.84558892e-01 +1.90608203e-01 +2.70058841e-01 -1.57895714e-01 -5.71035802e-01 +1.12093665e-01 +2.62535959e-01 -5.46920896e-01 +3.35638791e-01 +6.25218228e-02 -2.49776110e-01 -1.05302259e-01 +5.01612484e-01 +3.22284758e-01 -8.45555812e-02 -4.37804312e-01 -5.61273172e-02 -3.55100244e-01 +4.86695528e-01 +1.10373050e-01 -8.75045955e-02 +3.18371415e-01 -4.44565386e-01 +1.85412005e-01 +9.21129286e-02 +1.62861317e-01 -6.12717196e-02 -3.70072633e-01 +1.55091107e-01 -1.36175960e-01 -1.25145853e-01 +4.77179676e-01 +7.62468437e-04 -1.40575588e-01 -1.36982143e-01 +4.30226047e-03 +1.89666077e-01 +1.48230344e-01 -5.10915741e-02 -3.97754908e-01 -1.14868589e-01 -6.86517581e-02 -5.36251426e-01 -2.50176281e-01 -6.17422462e-01 -1.08613610e-01 -1.83425561e-01 -3.24627101e-01 -2.32640848e-01 -1.16683938e-01 +2.64182061e-01 +5.65557182e-03 +1.45121261e-01 -6.06806129e-02 +2.22701058e-01 -2.08675697e-01 +1.28806448e-02 +1.57032665e-02 -3.25592458e-01 -3.38416249e-01 +1.47016525e-01 -4.62178171e-01 -2.27772832e-01 -1.94580287e-01 -9.06903110e-03 -2.92669296e-01 -3.36469442e-01 -3.13123763e-01 +5.46129830e-02 +8.73933583e-02 -5.06608263e-02 +1.35443257e-02 -3.83523643e-01 -7.74520412e-02 -1.75817937e-01 +3.80225122e-01 -8.28954950e-02 +2.27881223e-01 +2.71972895e-01 -2.69636251e-02 +1.98556364e-01 +1.57121450e-01 -1.81734964e-01 -1.27647351e-03 +1.33358818e-02 +1.11792490e-01 -5.21012545e-01 +3.85372728e-01 -1.63259283e-01 +8.25731605e-02 +2.78821379e-01 +1.73339024e-01 +4.26287353e-01 +2.39804357e-01 +1.51630655e-01 -4.45348144e-01 -3.59432101e-01 -4.75400895e-01 +2.74194777e-01 +6.35675192e-02 +5.55767238e-01 +2.35669076e-01 +2.54362822e-01 -2.11675569e-01 +2.87577156e-02 +2.02953339e-01 -4.42549765e-01 -7.81588480e-02 +5.06285653e-02 -2.03323066e-01 +2.25653812e-01 +1.99995190e-01 +3.06095332e-01 -2.19105676e-01 +4.60489303e-01 -3.34303975e-01 +3.28291982e-01 +2.48709872e-01 -2.68537968e-01 +1.99653506e-01 -9.16017219e-02 +2.28984393e-02 -3.57439458e-01 -2.64613092e-01 -9.27156508e-02 +1.28195107e-01 -4.72102612e-02 -2.84831941e-01 +7.57986903e-02 -2.98770871e-02 -7.18577132e-02 +2.17290983e-01 +1.85358599e-01 -1.37080595e-01 +4.65897061e-02 -3.38654965e-02 -2.85047352e-01 +3.25822234e-01 -3.07957768e-01 -1.85325742e-01 +3.35853025e-02 +3.49275500e-01 +5.38092315e-01 +1.24953389e-01 +5.80476224e-01 +2.13908285e-01 +3.79346371e-01 -4.09953177e-01 +2.56638378e-01 +7.11051524e-02 +1.25736535e-01 +7.52452090e-02 +2.10567325e-01 -2.80398838e-02 -1.86637476e-01 +2.07035333e-01 +7.46523440e-02 +5.38216054e-01 +2.25485098e-02 +5.18108428e-01 -1.34745631e-02 +9.56421867e-02 -2.24705100e-01 -3.57032865e-01 -3.62312496e-02 -1.86690956e-01 -3.08536232e-01 -1.56926811e-01 +5.71917817e-02 +2.99614929e-02 +2.76679486e-01 -2.02934086e-01 +3.54767859e-01 -1.40139088e-01 -9.65419412e-02 +4.09445375e-01 +6.87927678e-02 +2.42370497e-02 -3.33447486e-01 -1.80772126e-01 +1.37689024e-01 +1.28843650e-01 +3.84901315e-01 -3.96121889e-02 +3.45030040e-01 -4.23296124e-01 +5.37582710e-02 +1.38613746e-01 -3.84731382e-01 +2.66097486e-01 -2.59571105e-01 +5.07364511e-01 -2.00715289e-02 +5.16603738e-02 -1.34055959e-02 +2.62209982e-01 +8.05847123e-02 -8.82044807e-02 -2.78448630e-02 +4.85295236e-01 +5.33960044e-01 +1.03666767e-01 +7.73646235e-02 +4.61043194e-02 -4.73769717e-02 +2.77360022e-01 -2.80469060e-01 +3.14497650e-01 -3.52373123e-01 -5.01086451e-02 -3.58269294e-03 -1.28107667e-01 -2.91296393e-02 +1.97239414e-01 -1.35451987e-01 -1.70898408e-01 +4.43799853e-01 +2.27173254e-01 -3.30723017e-01 -2.87761819e-02 -6.06530011e-02 -6.19830675e-02 -4.32793677e-01 -6.41688555e-02 -1.58187822e-01 -3.26904953e-01 +1.61877900e-01 +1.56339586e-01 -2.15878889e-01 +3.49826753e-01 +5.67270853e-02 +4.66729216e-02 +3.95178646e-01 +3.28573510e-02 +4.94146645e-01 +9.85895544e-02 -3.98926251e-02 -2.45392710e-01 -2.43040487e-01 +3.95223081e-01 -4.22565520e-01 -1.30309686e-01 -2.37536892e-01 +2.94098109e-01 -1.94632635e-01 +1.45645112e-01 +2.33653724e-01 +1.16490737e-01 +2.03013346e-02 +8.02156329e-02 +9.62338448e-02 +2.67269194e-01 +2.67877225e-02 -3.56341064e-01 -2.74280936e-01 -1.15122817e-01 -5.70186853e-01 -1.08393386e-01 +9.45985690e-02 -1.76911801e-01 -4.24573839e-01 -3.22370380e-01 +2.47187674e-01 +3.71703207e-01 -1.84854176e-02 -1.62977889e-01 -8.11121240e-03 -2.59533107e-01 +1.58669688e-02 -4.90050763e-01 -5.72763324e-01 -2.24108711e-01 -3.69383365e-01 +7.50809733e-04 +1.00925066e-01 +1.52687520e-01 +2.39640459e-01 -3.72976005e-01 -3.46542895e-02 +1.98275000e-01 -4.56135988e-01 -3.37859392e-01 -2.21582532e-01 -4.24212456e-01 +1.03003383e-01 -8.75699446e-02 -2.66074121e-01 -1.59054950e-01 -2.12090403e-01 +2.18664855e-02 +9.44448337e-02 +1.48750961e-01 -1.94371670e-01 -4.47621644e-01 -1.19265094e-01 +5.22534400e-02 +2.66719401e-01 -3.80551398e-01 +1.52619198e-01 -3.26728642e-01 +2.14655772e-02 -3.11022162e-01 -4.65296172e-02 +1.05671823e-01 +2.64096618e-01 +9.49816331e-02 +2.90824205e-01 -1.35965079e-01 -2.74479449e-01 -3.93942922e-01 -8.26923270e-03 +1.28603522e-02 +2.64149129e-01 +1.78258002e-01 +1.13386095e-01 +7.80541226e-02 -1.54211894e-01 +7.53912851e-02 +4.16715801e-01 +1.87357530e-01 +8.71207193e-02 -4.28181849e-02 +4.01837751e-02 +5.07874906e-01 +3.87976766e-01 -3.33494358e-02 -4.84775640e-02 +1.07920647e-03 -2.82058775e-01 +4.93400693e-01 +4.16338056e-01 +1.98093429e-01 +3.51073056e-01 -1.82861954e-01 -1.10256700e-02 -4.25373971e-01 -4.12531137e-01 +2.19884254e-02 -1.22990742e-01 -3.93137664e-01 +1.23672634e-01 -2.17938468e-01 +4.47102457e-01 -9.51263905e-02 +2.16392562e-01 +1.86006173e-01 -1.85927060e-02 -1.61871687e-01 -2.18013853e-01 +5.87717414e-01 +6.09784305e-01 +4.27780122e-01 -1.81275338e-01 -2.67544687e-01 +1.89599738e-01 +3.43565881e-01 +2.40135670e-01 +2.10873753e-01 +2.89482206e-01 -1.06018446e-01 +1.23630976e-03 +1.79499969e-01 -1.85178697e-01 -1.35763556e-01 +1.26395941e-01 -2.68436000e-02 +9.21343453e-03 +1.69835448e-01 -4.52648103e-02 +2.09106654e-01 +1.95172459e-01 +3.24834108e-01 +2.80125946e-01 -3.06741744e-01 +1.63757339e-01 +3.99940699e-01 +5.50446957e-02 -7.04636797e-02 -1.01176798e-01 -1.57349095e-01 +3.04503798e-01 -9.22656502e-04 +3.75198752e-01 -2.00445771e-01 +1.53128326e-01 -1.21917799e-01 -7.33318999e-02 +8.00979808e-02 -1.48664057e-01 +3.40554118e-01 -5.97682893e-01 -1.51936606e-01 -3.75385791e-01 -3.74243021e-01 +3.84008735e-01 +3.24701905e-01 +8.13024566e-02 +4.98116642e-01 +6.56284541e-02 -3.25442523e-01 -1.29040420e-01 -3.20198983e-01 +1.67490125e-01 +2.85099208e-01 +4.00792807e-02 -2.62608767e-01 -2.01246664e-01 -2.67214805e-01 +3.83736752e-02 -8.74250606e-02 +4.87918407e-01 -3.05347353e-01 -5.83977960e-02 +3.87701422e-01 +5.05147934e-01 +9.65946838e-02 -2.03122944e-01 +3.25799912e-01 +3.85090232e-01 -9.69246328e-02 +5.99934220e-01 -8.05738270e-02 -1.93521585e-02 -1.01287857e-01 -3.47600907e-01 +1.15305528e-01 +5.34841835e-01 +3.29807431e-01 -8.76418799e-02 +6.00555092e-02 +5.05131483e-01 +3.10634673e-01 +2.42994756e-01 -1.48723483e-01 +1.84282780e-01 -1.14616156e-01 +6.96007133e-01 -7.07697868e-02 +4.60992157e-02 -6.35162145e-02 -1.16597161e-01 -1.61434129e-01 +1.55500948e-01 +4.39428419e-01 +2.35134542e-01 +2.87973080e-02 +2.44379044e-01 -2.16879517e-01 +2.24406734e-01 +4.61683393e-01 +4.02310759e-01 +1.39920041e-01 -2.44246081e-01 -1.26195684e-01 +1.22682184e-01 -2.22870186e-01 +2.11094785e-02 +4.55809951e-01 -3.47269654e-01 +3.02893758e-01 -3.24201465e-01 +3.24057877e-01 +1.42000526e-01 +1.86349273e-01 +8.63785446e-02 +1.00248188e-01 +1.15718544e-01 +4.09655005e-01 +3.20517004e-01 +1.45620570e-01 -2.17092291e-01 +2.69976616e-01 -5.61245263e-01 +1.20127089e-01 +4.63631272e-01 +3.36462975e-01 +9.43747759e-02 +4.61157739e-01 -5.63430376e-02 -1.51349247e-01 -1.52490959e-01 -3.04948926e-01 +2.95490235e-01 +1.22418422e-02 +9.62663889e-02 -3.28275174e-01 +1.44640341e-01 +1.15493119e-01 +3.28880101e-02 -3.32132369e-01 +1.32373245e-02 -1.12588026e-01 +1.35824993e-01 +2.90568713e-02 +1.38016209e-01 -1.95360020e-01 +2.11733386e-01 -2.27634683e-01 +2.40966633e-01 -4.54502791e-01 +6.33823395e-01 +4.76465821e-01 +4.95131463e-01 +5.42999089e-01 +1.73840284e-01 -1.60269782e-01 +3.76748562e-01 -1.85610838e-02 -1.26341075e-01 +2.40188539e-01 +7.12531805e-02 -2.00954095e-01 +5.79100549e-01 +1.23824790e-01 +4.53432292e-01 -3.87429930e-02 +4.85798210e-01 -3.72488946e-01 +2.05778509e-01 -2.14594901e-01 -1.13722816e-01 +6.74057305e-01 +3.09109122e-01 -1.65290117e-01 -1.77629456e-01 +1.62608206e-01 -5.43419905e-02 +1.81649208e-01 +3.44786733e-01 +2.44249970e-01 +1.66430250e-01 -3.87635119e-02 -1.67026222e-01 -2.52900302e-01 -1.27905712e-01 -7.78970271e-02 -1.34278163e-01 +1.87704414e-01 -2.96828300e-01 -4.42152202e-01 -4.54091311e-01 -2.86886841e-01 +1.90404907e-01 +3.48573595e-01 +4.21102583e-01 -1.18504852e-01 +3.05053443e-01 +5.59686199e-02 -2.32606277e-01 -1.36366766e-02 -1.91399772e-02 -1.15673274e-01 +2.83332527e-01 -2.26078585e-01 -4.90784317e-01 -2.67118126e-01 -4.97805290e-02 +4.32686806e-02 +1.39152957e-02 -3.70794505e-01 -9.50077325e-02 -3.10947865e-01 +2.98071325e-01 -3.96795511e-01 +9.26488414e-02 +1.45723104e-01 -8.88059735e-02 +1.44908607e-01 +9.44077596e-02 +3.73522222e-01 -5.48699737e-01 -7.30764389e-01 -3.67773861e-01 -6.23336695e-02 +1.25818759e-01 -3.96820039e-01 +4.40749258e-01 -2.89466292e-01 +2.60789338e-02 +1.54659048e-01 +3.78854156e-01 +2.15070873e-01 +3.45289230e-01 -3.58172625e-01 -3.42274964e-01 +2.02060908e-01 -5.02505973e-02 +8.59699473e-02 -6.83427602e-02 +1.16896117e-02 +1.20096147e-01 +2.84118503e-01 +3.15259308e-01 +3.71271402e-01 +5.76765165e-02 +1.26665961e-02 
#Parameter# /UniLSTMSeqTransducer.710411d0/_1 {64,16} 16385 ZERO_GRAD
+2.44009942e-01 -2.27653801e-01 -3.77683602e-02 +3.71277839e-01 -3.57718021e-02 +6.70633325e-03 +1.61257148e-01 -1.21956252e-01 -1.43567577e-01 +2.58204430e-01 -3.26175719e-01 -3.68726403e-01 +5.22202849e-02 +1.65825441e-01 +2.28749603e-01 -3.24551255e-01 -1.07372388e-01 +6.11756071e-02 +5.02777219e-01 -7.36020086e-03 +3.76791097e-02 +2.05770254e-01 +3.99744242e-01 +1.62153363e-01 +1.31787732e-01 +3.54259521e-01 +3.58953923e-02 +2.31145680e-01 +1.97556794e-01 -3.97111684e-01 -3.23976070e-01 +2.36212537e-01 +2.79134542e-01 -8.76837224e-02 +2.33016238e-01 +1.98510468e-01 -3.40882778e-01 +4.36909944e-01 +4.90547955e-01 -7.24034011e-01 +1.95104495e-01 -6.52605668e-02 +3.92864048e-01 -3.57470885e-02 -1.17578410e-01 -6.87966198e-02 -3.96155715e-01 +1.16126329e-01 +2.03460231e-01 +4.63742673e-01 +2.58251816e-01 +3.15211639e-02 +3.11320633e-01 +6.72956035e-02 +2.75057554e-01 -8.13143402e-02 +8.40652213e-02 +1.69755057e-01 -1.58132330e-01 +2.09989041e-01 +2.58002102e-01 +3.15925144e-02 +2.08703488e-01 +1.24948613e-01 +1.35424182e-01 -2.63863534e-01 +2.20903102e-02 +4.36454872e-03 -4.25956428e-01 -5.43723255e-03 -1.41374007e-01 -1.50211707e-01 +3.02223653e-01 -7.36473426e-02 +2.55821180e-02 +2.43118137e-01 +4.21270937e-01 -1.75117180e-01 +3.70788598e-03 -4.31448042e-01 +2.52349108e-01 -2.97338277e-01 +3.36390287e-01 -4.33570817e-02 +2.22721621e-01 +1.22517787e-01 +9.92535949e-02 +2.80287325e-01 +3.00180495e-01 +3.32047522e-01 +3.39803368e-01 -2.41630301e-02 -2.45092928e-01 +1.20562926e-01 +5.88376299e-02 -1.94624647e-01 -1.96970642e-01 +3.27406883e-01 +3.78527522e-01 -3.45123000e-02 -5.74398339e-02 +1.22285463e-01 +2.82319784e-01 -4.72476006e-01 +4.81413603e-01 +3.64897877e-01 +3.58610094e-01 +4.22031403e-01 +5.93483970e-02 +9.30289030e-02 -1.67118177e-01 +6.14149012e-02 +3.71241271e-01 +1.05505280e-01 -3.02477598e-01 -1.13725983e-01 -1.75798148e-01 -2.15242401e-01 -9.37629342e-02 +6.55775964e-02 -1.57901779e-01 +1.10947192e-02 +2.25135013e-02 -2.86397696e-01 +1.29779354e-02 -4.39429671e-01 +4.11603935e-02 -1.31067455e-01 +3.55292648e-01 +2.23727778e-01 -1.10087834e-01 +1.15395799e-01 -2.15328962e-01 -3.20009679e-01 +3.17061573e-01 -1.60457149e-01 +2.50638396e-01 -1.77760229e-01 +1.85576290e-01 -2.21611038e-01 +2.04997525e-01 -2.88457036e-01 -3.90262425e-01 +4.30792809e-01 -3.17675948e-01 -3.02095979e-01 +3.02799821e-01 -2.49073923e-01 -5.57316728e-02 -2.61422098e-01 -3.34921956e-01 -1.79978743e-01 -6.92795366e-02 -2.38926306e-01 -4.31768477e-01 +2.74393726e-02 -4.09549713e-01 +2.34811097e-01 +2.79844910e-01 +3.70413139e-02 -3.68422568e-01 +1.32462401e-02 +1.75586894e-01 -3.36020589e-01 +2.05013022e-01 +1.39034778e-01 -4.76607114e-01 +1.63665533e-01 -3.68730336e-01 -7.92952552e-02 -1.94886670e-01 +9.55548137e-02 +9.49660689e-02 +3.57572794e-01 +1.09298602e-01 -3.28927487e-01 -1.87761888e-01 -3.68798780e-03 +3.67697209e-01 -7.97466282e-03 -2.48281304e-02 -1.26767278e-01 +1.27640367e-01 -2.75645286e-01 +9.75727588e-02 +1.43313944e-01 -3.47204655e-02 -9.74667538e-03 +9.92272645e-02 +2.57859617e-01 -3.92064787e-02 -2.66988039e-01 +1.88842878e-01 +7.65599385e-02 -1.74689308e-01 +2.31389496e-02 +3.74571211e-03 -6.45036399e-02 -1.27347484e-01 +1.26961723e-01 -1.41796678e-01 +1.60415187e-01 +8.17281753e-02 +3.98887172e-02 -4.20248419e-01 -1.07988440e-01 +2.70460844e-01 +3.43867183e-01 -4.46616173e-01 -2.67747879e-01 -4.12609279e-01 -2.99014091e-01 -2.30913326e-01 +2.93469876e-01 -2.93730069e-02 -4.17666614e-01 -2.62349337e-01 +2.80424893e-01 +8.57939050e-02 +3.50196451e-01 +1.87919021e-01 -3.43369097e-01 +1.56251878e-01 +1.99928484e-03 +1.34308085e-01 -2.65400350e-01 +2.45005205e-01 +2.54840493e-01 +7.17533231e-02 -1.33819476e-01 -1.47743121e-01 -2.66154855e-01 -1.43474951e-01 +2.64483899e-01 -3.26140612e-01 -3.64073902e-01 +2.54941434e-01 -2.69573964e-02 -4.83168699e-02 +4.56006199e-01 -3.53796617e-03 -2.05422714e-01 -7.36111924e-02 +5.50065115e-02 +5.88815324e-02 -3.13161165e-01 +1.15602193e-02 +1.19699210e-01 -2.49242127e-01 -2.27753997e-01 -2.07744196e-01 +1.91642404e-01 -1.37041286e-01 +2.52683401e-01 -7.42838308e-02 +2.67073870e-01 -1.60144120e-02 +1.30167976e-01 +1.21819720e-01 -1.00985639e-01 +3.29875201e-01 +4.55772988e-02 -1.18836544e-01 +3.43032956e-01 -1.06943667e-01 +6.22020252e-02 +2.34571636e-01 +3.00865591e-01 -3.19789588e-01 -1.86358437e-01 -9.84640047e-02 +3.08430344e-01 -2.09672228e-01 -1.09667733e-01 +1.98181137e-01 +1.39301986e-01 -5.77748641e-02 -3.95545751e-01 -1.39962018e-01 +4.20167863e-01 +7.68181905e-02 -1.25353947e-01 -2.58364901e-03 +3.50200325e-01 +8.66770893e-02 -2.45990187e-01 -4.66398507e-01 +2.73036748e-01 +9.47561301e-03 +1.51766598e-01 +2.18694255e-01 +2.31580734e-01 +7.20181838e-02 -3.22536021e-01 -1.64758876e-01 +2.68149734e-01 +2.63555199e-01 -9.15479511e-02 -2.51579642e-01 +4.34591979e-01 -8.31080228e-02 -2.10501745e-01 +1.92492411e-01 +6.66761696e-02 -2.10994005e-01 +2.05272779e-01 -2.04652339e-01 +1.09284408e-01 +1.19556174e-01 -1.31483190e-02 -1.00591742e-01 -3.19409907e-01 +7.29285460e-03 +7.37459511e-02 -1.57616496e-01 -2.03972459e-01 -3.37678432e-01 -9.54218060e-02 +1.98413163e-01 +3.57328862e-01 +9.45452079e-02 -2.76398718e-01 +6.23466894e-02 -2.48115554e-01 +2.64631093e-01 +3.73589128e-01 +3.71476978e-01 +2.48993158e-01 -3.77690524e-01 +6.44210167e-03 -8.60841125e-02 -1.62675500e-01 +5.87731421e-01 -4.01566565e-01 +2.60312170e-01 -7.87687004e-02 +3.21090639e-01 +2.40403280e-01 -4.38093960e-01 -7.45864436e-02 +1.49734050e-01 +1.11238159e-01 +4.27888572e-01 +4.45901066e-01 -1.80632457e-01 -1.52789980e-01 +2.57230252e-01 -2.36536697e-01 +1.88899472e-01 +1.86162427e-01 -2.37728313e-01 +2.08187431e-01 +3.76157224e-01 +1.63161661e-02 +9.79734659e-02 +2.43617341e-01 -3.14958304e-01 +1.93865523e-01 +5.32094181e-01 +7.32259601e-02 -4.90912385e-02 -2.18674824e-01 +3.74208391e-01 -2.44637579e-02 +4.70540971e-01 +3.10439199e-01 -1.65759213e-03 +2.04997599e-01 +3.16679776e-01 +1.18446097e-01 +1.51080284e-02 +1.30818889e-01 -2.51568705e-01 +1.11365579e-01 -1.88276634e-01 -3.67874391e-02 +2.25113884e-01 -1.85090378e-01 +4.60010730e-02 +1.61629364e-01 +1.29114866e-01 -1.88385263e-01 +5.24546914e-02 +1.67514101e-01 -3.77865881e-01 +4.13959101e-02 -5.28719509e-03 -2.26283789e-01 +1.24923885e-01 +7.10695833e-02 -3.53490233e-01 +1.17554866e-01 +1.61946356e-01 -1.95399985e-01 +1.31642655e-01 +1.90281883e-01 -2.29220361e-01 +3.15015197e-01 +3.14307094e-01 +8.75629187e-02 -2.40584053e-02 +5.79193756e-02 +3.76655191e-01 +1.24225050e-01 -2.67310232e-01 -3.15292567e-01 -4.64744180e-01 -1.03602670e-01 -7.39047155e-02 -3.00375640e-01 -3.04484576e-01 -3.11179459e-02 +3.18515778e-01 +2.42711052e-01 -1.73910141e-01 -8.25934932e-02 -2.50131339e-02 +2.20467374e-01 -4.27940875e-01 -2.97052592e-01 -5.63467368e-02 -2.92778879e-01 -2.22417831e-01 +1.36614190e-02 +2.19926640e-01 -1.02492617e-02 +4.56241239e-03 +1.31423637e-01 -5.89675084e-02 +1.48612931e-01 +5.67674041e-02 -3.24492246e-01 -7.87417293e-02 -6.60111606e-02 -2.29444951e-02 +2.44563833e-01 +7.90577754e-02 +3.29133868e-01 -2.27917135e-01 +2.58242011e-01 +4.28406149e-01 -3.81518640e-02 +1.30023152e-01 -3.81346703e-01 +2.44668067e-01 -2.98189074e-01 -7.22874403e-02 -3.28842491e-01 +1.77767023e-01 -3.89556497e-01 -1.46909684e-01 +1.10890992e-01 -1.66379213e-01 -4.29435730e-01 -1.44762024e-01 -5.37862256e-02 -1.72787040e-01 -1.17535956e-01 -4.69074041e-01 +9.75476727e-02 -1.21110275e-01 -8.93718228e-02 +3.37571114e-01 -2.08242163e-01 -3.96064073e-01 -4.77500588e-01 +3.38756680e-01 -3.48582566e-02 -2.66451184e-02 +3.19257408e-01 -2.60703892e-01 -1.29141659e-01 -1.80537790e-01 +4.69184458e-01 +1.68159097e-01 +3.57851803e-01 +2.77717113e-01 -1.05102740e-01 +2.00208277e-01 -4.81327623e-01 -4.53556553e-02 +3.04290563e-01 +2.85468966e-01 +1.07597008e-01 -2.70300746e-01 +4.43293512e-01 +4.56682622e-01 -4.27424073e-01 -1.67916734e-02 +2.61262059e-01 -2.65432447e-01 +3.58947933e-01 -5.51346391e-02 +2.47473821e-01 -1.81792185e-01 -4.84088920e-02 -1.41273318e-02 +2.74997383e-01 +2.40078587e-02 -5.75800911e-02 -2.27230519e-01 +3.95420849e-01 +4.23651040e-01 +9.43856314e-02 -4.38821130e-03 -2.26043940e-01 +6.31871447e-03 -3.37719142e-01 -1.02468833e-01 -2.71456152e-01 -2.58374144e-03 -1.70000523e-01 -1.74875960e-01 -2.16298223e-01 -1.04453370e-01 +3.30064893e-01 +4.59441505e-02 +2.91974843e-01 -1.43042073e-01 +3.06409061e-01 -2.55749047e-01 +2.13905483e-01 +3.58884871e-01 +9.88096893e-02 +1.38379693e-01 +1.03733391e-01 +1.04300320e-01 -3.01271677e-01 -1.98567450e-01 -1.10416070e-01 -9.21453610e-02 +8.37353989e-02 +2.46238578e-02 +2.02991992e-01 -4.62950580e-02 +1.57512262e-01 -7.14806886e-03 +5.75365014e-02 -5.36812060e-02 +1.13985673e-01 -2.05163077e-01 +3.18568200e-01 +2.00083882e-01 -9.27572995e-02 -1.59468278e-01 -2.86682606e-01 +3.05514093e-02 +2.61428326e-01 -9.22844186e-02 +3.62090245e-02 +5.87115735e-02 -1.81130320e-01 -1.27953023e-01 +2.92559087e-01 -2.19034761e-01 +2.30986163e-01 +2.76309431e-01 -2.12141037e-01 -1.02592550e-01 -1.74831167e-01 -1.33041903e-01 +1.46762570e-02 -1.17131934e-01 -7.30680451e-02 +2.86434412e-01 -3.83485645e-01 +2.41079658e-01 +2.32243612e-02 +3.49045455e-01 +2.34521240e-01 -1.96329132e-02 +1.41124889e-01 -1.54771611e-01 -2.56620586e-01 -2.79811006e-02 -4.03387807e-02 +1.95112154e-01 -1.03965707e-01 +2.85508007e-01 -1.86866876e-02 -3.10443789e-01 +1.55704036e-01 -3.82285118e-01 -4.73399721e-02 +4.31689084e-01 -6.45291209e-02 +1.08208194e-01 +3.74451131e-02 -6.71209991e-02 -6.12431914e-02 -1.41130060e-01 -2.17122152e-01 +3.85563344e-01 +1.12302929e-01 +1.33098572e-01 -3.64961140e-02 -2.09551275e-01 +5.97781651e-02 +3.39770406e-01 +3.45611572e-01 -1.50236532e-01 +1.32476270e-01 +1.12566091e-01 +1.13251321e-01 +2.08958805e-01 +3.71032566e-01 -4.23587441e-01 +6.75980300e-02 +2.26592109e-01 +2.40494892e-01 +2.12314174e-01 -2.62982458e-01 +2.07123980e-01 +1.79291680e-01 -2.74839494e-02 +4.36031103e-01 +4.60184395e-01 -3.34791601e-01 +4.88956034e-01 -4.38737243e-01 +1.11839943e-01 -3.90819728e-01 +2.14221656e-01 -1.38528556e-01 -9.00933668e-02 +3.54335606e-01 -3.96329552e-01 -3.93518090e-01 -2.55126804e-01 +2.40894437e-01 -1.39434129e-01 +1.08949028e-01 +1.12373881e-01 +5.79454824e-02 +9.52622890e-02 -2.02401504e-01 +2.19514161e-01 -1.57201648e-01 +1.61686808e-01 +1.55085564e-01 +4.63465661e-01 -2.30149940e-01 -1.49083242e-01 +3.25314283e-01 +2.70462066e-01 -1.54627472e-01 +2.56654710e-01 +8.39343444e-02 +1.99134648e-02 +1.29390523e-01 -6.27837256e-02 -4.57669735e-01 +3.35811049e-01 +2.84052156e-02 +2.68958122e-01 -3.33928317e-01 +4.19535756e-01 +2.46753082e-01 +5.14038885e-03 +1.39293566e-01 +2.44947791e-01 +1.11304373e-01 +8.12503397e-02 +3.80552709e-01 +1.04451247e-01 -3.99936214e-02 +1.31604820e-01 +1.57066911e-01 +4.41997260e-01 -2.38612011e-01 +2.25369439e-01 +2.90611863e-01 +2.20012039e-01 +1.56476185e-01 -1.18822902e-01 -5.67034669e-02 -2.38553494e-01 +2.51659136e-02 +3.18593591e-01 +9.18659940e-02 +7.57927224e-02 -2.96085268e-01 +2.91220754e-01 +4.46871556e-02 +2.88191527e-01 -2.79214606e-03 +2.97698855e-01 -2.22874567e-01 -3.60240042e-02 +2.80322075e-01 -3.47575247e-02 -3.33109945e-01 +9.56571326e-02 +2.19484568e-01 -4.93965484e-02 -5.31868543e-03 -7.83883855e-02 +3.66022229e-01 -1.79839414e-02 +3.19716305e-01 -3.31052005e-01 +1.23401091e-01 +2.07322255e-01 -3.29544246e-02 -1.76356465e-01 +2.29163215e-01 +9.72577631e-02 -1.59686103e-01 +1.99059397e-01 +3.91097784e-01 +9.75262821e-02 +1.79050043e-01 -3.95829588e-01 -3.38025421e-01 -2.92056888e-01 +3.22223395e-01 +3.49498242e-01 -1.43287778e-01 -2.76445299e-01 -1.74611524e-01 +3.61942910e-02 +3.52221578e-01 -7.94469491e-02 -1.85550600e-01 -7.04077780e-02 -8.16756114e-02 -6.00251835e-03 -2.24252939e-01 -1.73438251e-01 -1.36821836e-01 +1.61063105e-01 -3.22363257e-01 -5.10731399e-01 +1.15504265e-01 -2.46573202e-02 +2.69361436e-01 -8.57423097e-02 +3.04262787e-01 -1.71740949e-01 +9.73787904e-02 +3.12848628e-01 -3.45580786e-01 -3.83850336e-01 -1.57859609e-01 +2.15160757e-01 +7.86134079e-02 -7.14660808e-02 +3.43625993e-01 +4.41502064e-01 +3.02868068e-01 +1.73985898e-01 -1.48513258e-01 +2.64371514e-01 -4.69176829e-01 -1.08968191e-01 -1.92518964e-01 +9.23172906e-02 -1.41577050e-01 -2.31185585e-01 -1.90092221e-01 -2.94216305e-01 +1.63748205e-01 -1.69162199e-01 -1.57857016e-01 +5.30160010e-01 -8.90679285e-02 -1.41228452e-01 -4.97087417e-03 -3.36064994e-02 +3.30716550e-01 -2.60901209e-02 -4.52812076e-01 +2.86670476e-01 +3.83432001e-01 +3.66851479e-01 -1.08757867e-02 -1.88653886e-01 -5.10397553e-01 +3.42526644e-01 -2.45966509e-01 +3.19621176e-01 +9.36246514e-02 -6.73413500e-02 +4.79289234e-01 +2.81416625e-01 +2.21344054e-01 -1.04317509e-01 -1.35537609e-01 +3.49917337e-02 +2.54565418e-01 -1.88002989e-01 -3.32971007e-01 -3.30164552e-01 +3.84576589e-01 +2.99725562e-01 +3.76305014e-01 -3.97816688e-01 -1.49512246e-01 +3.31730723e-01 -1.93034917e-01 +2.83806801e-01 +1.45310625e-01 -1.79575741e-01 +1.62160769e-01 +1.31523564e-01 +3.54903996e-01 -4.42948818e-01 -1.59411281e-01 -1.86191708e-01 +1.72909155e-01 -2.78832018e-01 -2.47411445e-01 -2.45960042e-01 -1.19168358e-03 -5.15825897e-02 +2.96403199e-01 -2.59181172e-01 +1.86395482e-03 -1.83482856e-01 -4.89926860e-02 +1.55129761e-01 +3.92752677e-01 -8.93554986e-02 +1.16895378e-01 -1.61932006e-01 -8.33970979e-02 -1.27430782e-01 +1.09632850e-01 +6.05756305e-02 +3.62631321e-01 +1.31577477e-01 -1.11718439e-01 +7.31542334e-02 -2.13521123e-01 -3.73623043e-01 -3.69194061e-01 +8.97193924e-02 -1.28535166e-01 +2.89640967e-02 -1.11218542e-01 -2.71635026e-01 +2.83472002e-01 -1.38508677e-01 -4.52306628e-01 +3.18548650e-01 -3.25373620e-01 +4.58545923e-01 +2.64358222e-01 +2.85831422e-01 -1.45671114e-01 -1.26032904e-01 -1.29366085e-01 -1.59508899e-01 +4.10500109e-01 +8.22269246e-02 -1.09795406e-01 +2.25918233e-01 +1.83792591e-01 -1.51282787e-01 +1.81713730e-01 -2.49433741e-01 +1.09728687e-01 -3.94339174e-01 -4.06333059e-02 -3.24980110e-01 -3.15958977e-01 -2.73815721e-01 -2.46196032e-01 +1.30295068e-01 +6.97966143e-02 -3.08299363e-01 +3.34945545e-02 -2.44081587e-01 -3.44495833e-01 -1.15528457e-01 -6.33624375e-01 +3.93528193e-01 +5.90267852e-02 +4.43935424e-01 +3.28852862e-01 +1.92081407e-02 -1.76734537e-01 -4.96643148e-02 -2.22379833e-01 -2.14095697e-01 -1.79991141e-01 -1.36362500e-02 -3.40734869e-02 -5.82018867e-02 -5.08633209e-03 -1.70914128e-01 +1.44083798e-01 +3.38241458e-01 -1.63534299e-01 +1.86243400e-01 -1.71648234e-01 +2.20338419e-01 -1.22657105e-01 -1.71464950e-01 -1.90740436e-01 -2.27210268e-01 +9.68895927e-02 +4.23726797e-01 +2.90986478e-01 -1.19034164e-01 +2.81296432e-01 +1.39225096e-01 +3.90237384e-02 +7.47625669e-03 +8.52225944e-02 -2.33846292e-01 -6.83892518e-02 +2.00070173e-01 +3.94122541e-01 -1.25404567e-01 +2.54880548e-01 +1.39731124e-01 -3.23636651e-01 -3.71152431e-01 -2.33758956e-01 +4.93271440e-01 +1.35013342e-01 -3.03368807e-01 -1.99894294e-01 -2.97853440e-01 +4.16969620e-02 +3.16491306e-01 -1.93343878e-01 -2.10422724e-01 +1.32877424e-01 -8.95891488e-02 -1.94592208e-01 +2.33373538e-01 +1.08605467e-01 +3.59008610e-02 -1.12516016e-01 +8.05691332e-02 +2.52562553e-01 +3.05343151e-01 +3.69915068e-01 +2.70255387e-01 +1.53991638e-03 -4.09743972e-02 +8.29332620e-02 -3.02429259e-01 -1.07237667e-01 +1.95465252e-01 -3.91119301e-01 +3.48641247e-01 +3.02752942e-01 -3.43841791e-01 -3.96249108e-02 +2.71769851e-01 +2.30173364e-01 +1.93065897e-01 -1.61986262e-01 +3.32921118e-01 +6.44173026e-02 +2.24984914e-01 -2.54890233e-01 -4.39107478e-01 +3.39362957e-02 +4.15330440e-01 -4.47140098e-01 +3.29318553e-01 +9.07656327e-02 +3.41126949e-01 -1.15210786e-01 +1.60002872e-01 -1.04651533e-01 +1.07285492e-01 +5.02449311e-02 +1.89966545e-01 +1.74602047e-01 +1.95428744e-01 -3.36383820e-01 -1.29764322e-02 +6.34727185e-04 +9.01722312e-02 -2.16571838e-01 +1.22580051e-01 -1.83184564e-01 +3.76368523e-01 -7.46460259e-02 +9.64222252e-02 -3.56018990e-02 -2.85913110e-01 -4.79917139e-01 +1.91822927e-02 -2.40799300e-02 -2.25044236e-01 +4.35237110e-01 -6.51698560e-02 -1.99731499e-01 +3.21871907e-01 -5.07563770e-01 -1.46044180e-01 -7.64807686e-02 -1.40899569e-01 -3.01111966e-01 -4.71023262e-01 -1.37532562e-01 -7.14127868e-02 +1.32005706e-01 -2.11937740e-01 -4.91781354e-01 -4.02318925e-01 -3.44199747e-01 +2.31044397e-01 -1.18821017e-01 -1.10801391e-01 +4.05472785e-01 -2.96307951e-01 -5.30842803e-02 -2.04456583e-01 -5.40508132e-04 -1.97084740e-01 -3.23020220e-01 +2.96558797e-01 -1.35105997e-01 +2.77976394e-01 +1.41586304e-01 +2.48820428e-02 -2.21437454e-01 
#Parameter# /UniLSTMSeqTransducer.710411d0/_2 {64} 1025 ZERO_GRAD
+1.85796618e-01 +1.80723414e-01 +4.30210792e-02 +3.14623028e-01 +4.42494713e-02 +1.63142368e-01 -2.80294102e-02 +1.31826326e-01 +1.29716203e-01 +9.81971100e-02 +2.03030497e-01 +4.19623218e-02 +1.74902305e-01 +1.99287012e-01 +6.47367956e-03 +2.72755530e-02 +3.03368896e-01 +2.72007793e-01 +5.06403185e-02 +2.82870203e-01 +5.71692735e-02 +9.24370289e-02 +5.33638485e-02 +6.95532560e-02 +2.09082991e-01 +1.44244909e-01 +1.88394889e-01 +2.34020874e-04 +1.67665899e-01 +1.78382307e-01 +7.58491755e-02 +1.27100244e-01 +2.06451520e-01 +1.49239674e-01 -4.51066867e-02 +1.06648929e-01 +7.29584321e-02 +8.83896053e-02 +3.90249230e-02 +9.80084985e-02 +1.28834784e-01 +6.50735423e-02 +1.98013246e-01 -5.99810481e-02 +1.07308246e-01 +9.35200304e-02 +3.50874779e-03 +4.65992698e-03 -8.47977102e-02 +3.21557857e-02 -1.06132731e-01 -1.13488957e-01 +4.32998464e-02 -1.22611552e-01 +3.49669494e-02 +9.17373598e-03 +1.09521151e-01 +1.34347349e-01 +8.69639963e-02 +4.12414409e-03 +2.09002588e-02 +7.00493008e-02 +9.21369493e-02 +2.88321674e-02 
